435 500
plane 1.75E-4 0.162064 -0.059806 -0.397478 0.452224 0.070071 0.136267 0.197057 0.14038 0.039309 -0.169632 0.071397 0.098445 0.449695 -0.007698 0.158401 0.134333 0.080139 0.316172 -0.119911 -0.232316 0.169028 0.034515 0.274711 0.246084 -0.082204 -0.012609 0.097901 -0.056857 0.168217 -0.082092 0.09276 0.178177 -0.10422 -0.066512 0.092283 -0.013568 0.052628 0.411463 0.153059 0.294077 -0.012299 -0.168567 0.333194 -0.104163 -0.314533 0.021365 0.087522 -0.017596 0.251002 0.085981 0.201944 -0.122009 -0.104068 0.159659 0.010285 -0.319679 -0.017874 0.291829 -0.0628 0.076498 0.119632 -0.177335 0.041145 -0.094703 0.238088 -0.169143 0.0444 0.041982 -0.445186 -0.068077 0.104114 -0.198244 0.13522 0.033126 0.037119 0.199819 0.334555 0.135164 0.226064 -0.046422 -0.29615 -0.001105 -0.162117 -0.107593 -0.048934 0.018825 0.174221 -0.1215 0.073501 0.196799 -0.276851 0.350269 -0.033581 -0.281414 -0.174594 0.241741 -0.169745 -0.194703 -0.043623 -0.016585 0.017349 -0.082947 -0.042479 -0.119612 -0.247315 -0.009978 0.037003 -0.259657 -0.129496 -0.32632 0.226597 0.014598 0.332026 0.031226 -0.117984 0.257657 0.234217 -0.071885 -0.082933 -0.085191 0.099491 0.030081 -0.04918 0.242364 -0.294594 -0.085836 -0.024576 -0.144911 -0.116607 0.139467 -0.02381 0.222321 -0.63666 0.011457 -0.237274 0.087218 -0.236772 -0.25674 0.144572 0.039639 0.024184 0.250195 0.10601 0.184147 0.301033 0.006691 0.13369 0.189615 -0.044732 0.182511 -0.203277 0.125885 0.259629 -0.071725 -0.109746 -0.099392 -0.39268 -0.307914 -0.085883 -0.155918 -0.025451 -0.13865 -0.145439 0.001956 -0.117875 -0.090558 0.055391 -0.015385 -0.163559 0.026623 0.206787 0.170551 -0.039826 0.031645 -0.018999 -0.036972 0.268708 0.015515 0.079097 -0.202987 -0.382932 6.7E-4 -0.160447 -0.067018 0.521832 0.471195 0.055254 -0.180697 0.097074 0.275636 -0.25387 0.195143 0.346639 0.104507 0.285821 0.003175 -0.110424 0.396675 -0.025066 0.109105 -0.210766 0.288117 -0.096132 0.002944 0.065325 -0.070217 -0.348068 0.025348 0.133972 0.240138 -0.018493 -0.242911 -0.085756 -0.085405 0.123412 -0.080291 0.175992 -0.059743 0.069518 0.264829 -0.304936 0.267035 -0.207569 0.21378 0.269738 0.188826 -0.00457 0.090694 -0.083227 -0.194268 0.060709 0.083032 -0.032176 -0.143238 -0.149214 0.263557 -0.142308 0.008004 0.115738 -0.105423 0.157048 0.237539 0.126111 -0.093229 -0.474961 0.273942 0.036902 -0.442186 -0.062334 -0.079609 -0.030117 0.055951 0.091237 0.056286 -0.125692 -0.005975 -0.070902 -0.211909 -0.307969 0.102027 -0.217912 -0.113181 -0.131457 -0.255884 0.077402 0.200961 -0.117771 0.134862 -0.484792 0.042142 0.070646 0.204209 0.031573 0.443905 -0.006898 0.072716 -0.068803 0.120471 0.070482 -0.095487 -0.103545 0.260316 0.092451 0.128051 0.260264 -0.021695 0.307115 -0.455671 0.331566 -0.219521 -0.189733 0.179784 0.2805 0.322719 -0.167037 0.103982 0.12952 -0.362535 0.036172 0.140768 -0.020721 0.398325 0.0087 0.246369 -0.244516 0.113208 -0.439327 0.182859 0.322242 0.151676 0.326755 -0.285456 0.304869 -0.054005 -0.337723 0.092787 -0.21927 -0.200064 0.062608 -0.079146 0.335531 -0.090078 -0.246412 0.270738 0.046413 0.103382 0.099939 -0.020625 0.063076 -0.173538 -0.005719 -0.185143 -0.259072 -0.132925 0.317632 -0.059949 -0.225322 0.153661 0.083696 0.168995 -0.326936 0.026565 -0.214555 0.186154 -0.27712 -0.038126 0.126858 -0.300593 -0.007529 0.120089 -0.501583 0.046396 0.066497 -0.077564 -0.210696 0.263518 0.044543 0.041386 -0.029526 -0.149521 0.281565 -0.206245 0.063795 0.131564 0.430287 0.021852 0.099099 0.097866 -0.016658 -0.258237 -0.364751 0.31347 -0.071515 -0.083739 -0.21758 0.062807 -0.143271 0.128398 0.286828 -0.244022 -0.40196 -0.097109 -0.040434 0.102919 0.048075 -0.073513 0.406699 -0.235593 -0.005395 -0.044227 -0.156363 -0.120829 0.155497 0.001812 0.040304 0.322092 0.286142 0.068305 -0.290536 -0.086477 0.048389 0.149305 0.069278 0.16556 -0.018727 -0.093965 0.035815 0.122153 -0.23201 -0.119895 0.054011 0.015134 0.189769 -0.041899 -0.033761 0.22391 -0.219865 -0.124656 0.271466 0.147017 0.132562 -0.067945 0.023435 -0.061813 0.331256 0.154407 -0.065865 -0.196089 -0.050258 0.134334 -0.018305 -0.493489 0.124575 -0.224886 -0.011396 0.103831 0.161653 -0.025932 -0.116303 0.035194 -0.165181 0.296368 0.33689 0.091668 -0.027313 0.217794 -0.075936 -0.177378 -0.34088 -0.379975 0.065834 -0.360214 -0.176084 0.253384 0.045337 -0.161329 0.283214 -0.047206 0.010536 -0.113381 0.119093 0.108376 -9.63E-4 -0.090871 0.096294 0.153807 0.191951 0.026491 -0.117447 0.1821 -0.05607 -0.067257 0.429739 -0.001958 0.167726 -0.073774 0.084693 0.03692 -0.050163 0.141109 -0.174034 -0.110595 0.247873 0.307516 -0.170632 0.009369 0.037734 -0.226337 0.078578 -0.186637 -0.125747 0.162089 -0.212553 -0.172472 0.152071 0.126421 -0.10605 0.067295 -0.049628
stupid -0.19053 0.496316 -0.21176 -0.393649 0.203936 -0.554786 -0.006134 0.250642 -0.288562 -0.296169 0.003247 0.106496 0.143225 -0.230802 -0.464092 0.016159 -0.157595 0.15722 -0.174591 -0.505663 -0.467547 -0.265793 -0.250639 -0.220084 0.208354 0.076132 0.383344 0.388772 -0.207328 0.265325 0.095228 0.010301 -0.026074 0.274283 -0.255571 0.035419 0.430821 -0.512486 0.302751 -0.586134 -0.1116 0.050302 0.326351 0.371722 0.422366 -0.127113 0.325796 -0.083599 -0.10683 -0.569648 -0.277799 -0.101503 -0.06314 0.208001 0.37855 0.337749 -0.187593 -0.603812 0.044305 0.219305 -0.259796 0.264879 -0.323778 0.170945 -0.350498 -0.058951 -0.253907 -0.090218 0.018135 0.165811 -0.178359 0.084641 -0.057345 -0.508839 0.208411 0.161006 -0.262836 -0.002466 -0.199116 0.250701 -0.090423 0.411879 -0.156299 0.283079 0.194896 -0.501655 -0.593751 0.074532 0.060036 0.316347 0.402546 -0.182016 0.221977 -0.412952 -0.23178 0.085656 0.026428 0.068976 0.276496 -0.012919 -0.006116 0.090856 0.056266 0.025991 0.141307 -0.486298 -0.05414 -0.063565 0.081243 0.49636 -0.118403 -0.042473 0.015459 0.032641 0.05424 0.273805 0.20176 -0.17944 0.119288 0.32856 0.279258 -0.16395 -0.261104 -0.099636 -0.184534 0.189837 -0.389558 -0.225804 -0.230133 -0.193163 -0.36161 -0.38338 -0.397006 -0.198143 -0.01383 -0.165806 -0.354999 0.085299 0.316104 0.029347 0.035634 0.193415 -0.612313 0.277098 0.090559 0.564651 -0.19695 -0.069501 0.353502 0.069301 -0.117056 -0.316132 0.096305 -0.421762 0.102752 -0.407953 -0.259142 0.082102 0.095384 0.409204 0.363873 -0.332827 0.263637 -0.047054 -0.11545 0.030231 -0.040734 -0.042244 -0.389118 0.166763 0.410827 -0.039948 -0.592888 -0.19693 -0.046879 0.359832 -0.093895 0.065827 -0.32105 -0.291009 -0.120155 -0.428916 0.436808 0.108926 0.246255 -0.381982 0.240587 0.054218 0.309335 -0.063123 -0.036579 0.310257 0.242778 0.356395 -0.098102 -0.045726 0.2868 0.049738 0.20723 -0.002819 -0.141854 -0.491017 -0.276858 -0.240126 -0.118989 -0.058033 -0.443109 -0.03672 0.03962 -0.46787 0.005192 0.072757 0.221689 0.099751 0.1879 0.337188 -0.144088 0.330005 -0.349762 0.066056 -0.054281 -0.001102 0.100074 -0.076394 -0.263094 -0.18249 -0.127817 0.057586 0.037183 -0.173688 0.477162 0.288582 0.199744 0.662167 0.207121 -0.361016 0.003474 -0.330217 0.154228 -0.191067 -0.040851 0.369172 -0.223831 -0.164524 -0.396456 0.104233 0.066656 0.339006 -0.433022 -0.089975 -0.373131 -0.274163 0.353936 -0.216952 0.114598 -0.475196 -0.333696 -0.231506 0.099729 -0.109444 0.300935 -0.118219 -0.260831 0.019303 0.404196 -0.282579 0.367126 0.469737 -0.003094 0.29038 -0.565578 -0.076146 0.031893 0.1191 0.04414 -0.057764 -0.384725 0.185479 0.016611 -0.102132 -0.14283 0.290611 -0.031849 -0.103022 0.404646 0.105287 -0.263363 0.299695 -0.03228 0.203577 -0.090484 0.077896 0.237305 0.392631 0.243322 -0.461901 0.395004 -0.132168 -0.061759 0.359425 0.316423 0.21255 -0.23657 0.437211 -0.031222 0.330111 0.10475 -0.256985 -0.261961 0.647947 -0.029023 0.173394 -0.269253 0.1792 -0.290553 -0.130818 -0.327177 -0.330706 0.311544 0.174778 0.579405 0.162724 0.202265 0.146147 0.274974 0.029663 -0.024979 -0.009531 -0.075797 0.062651 0.112973 0.192129 0.233118 0.278848 -0.192072 0.409081 0.062892 0.024685 0.489614 0.537968 0.096135 -0.157965 0.190849 -0.457461 -0.284897 0.023854 0.083697 -0.042836 0.102782 -0.141424 -0.220894 0.111538 -0.235715 0.066551 -0.048894 0.056582 0.028159 0.366892 0.278897 -0.046953 -0.054648 0.121193 -0.231193 -0.142845 -0.173984 -0.119694 -0.170564 0.558056 0.264347 -0.255934 -0.50744 -0.435332 -0.038056 -0.311701 0.125894 -0.049252 -0.378987 0.128039 -0.239367 0.200084 -0.022913 -0.060376 -0.447989 0.270435 0.120676 0.512501 0.47548 0.16868 -0.300963 0.171685 0.294579 -0.281604 -0.139953 0.109749 0.489744 0.157679 0.410526 0.174226 0.198653 0.090139 0.178958 0.140858 -0.014258 0.107384 0.456225 0.159853 0.005889 -0.276652 0.007894 -0.150182 0.137865 -0.214386 -0.243279 -0.532135 0.194604 0.480227 -0.004569 0.183829 -0.141606 -0.534961 -0.204751 -0.143713 0.04826 0.535036 0.272511 -0.453171 -0.119707 -0.177813 0.19082 -0.264051 -0.664425 -0.347484 -0.263173 0.378182 0.120741 0.56278 0.159348 0.042054 0.51874 -0.416363 0.254867 -0.122831 0.17644 0.046612 -0.054861 -0.108437 -0.200615 -0.053659 0.116262 -0.192464 0.054836 0.008142 -0.204481 0.078929 0.241457 -0.425685 -0.382412 -0.274083 0.057078 0.433605 0.003692 0.336328 0.014076 0.255758 0.04764 -0.212629 -0.506288 0.060159 0.180998 0.159133 -0.056332 0.10927 -0.133536 -0.314125 -5.94E-4 0.27747 0.234089 -0.438141 0.044593 0.116092 -0.431903 0.122348 0.37508 0.313218 -0.137612 -0.198248 -0.059975 -0.223708 0.016022 -0.219414 -0.098815 -0.049895 0.197996 -0.377893 -0.326396 -0.039359 -0.005022 0.275075 0.015884 0.147674
egg -0.110168 0.191619 0.349263 -0.654548 0.367918 0.121632 -0.412168 0.037234 -0.002621 0.162966 -0.067784 0.466675 0.31435 0.280897 0.175896 -0.176462 -0.333488 -0.145502 0.179024 -0.031331 -0.194307 -0.261777 0.460537 0.629535 -0.388611 0.099046 0.163294 0.076863 0.094063 0.427634 -0.508848 -0.540553 0.12521 0.268335 -0.035213 0.02489 0.124654 0.122037 0.45259 -0.327141 0.23557 0.262979 -0.35974 0.757392 -0.16689 -0.095752 0.351912 -0.039516 0.593957 -0.193612 0.019977 -0.072533 -0.118725 -0.16753 -0.237841 -0.223617 -0.311425 0.283545 -0.041769 0.132946 -0.623205 -0.085474 0.23812 0.301055 -0.291111 -0.130926 -0.47344 0.351895 -0.10372 -0.263786 0.279355 0.211843 -0.059169 0.314931 -0.200642 -0.231553 -0.257813 -0.188119 0.161953 -0.0034 0.22972 0.211155 -0.325283 -0.563281 -0.212767 0.115066 0.190507 0.040039 0.410447 0.126086 -0.183496 0.150304 0.166707 -0.125317 -0.421321 -0.025731 -0.483098 0.16852 0.201583 -0.243041 -0.426526 0.023685 -0.142888 -0.149468 -0.014864 -0.423681 0.293635 0.234487 0.068043 0.078648 -0.05754 0.260886 -0.641938 -0.063129 0.232143 0.539953 0.776606 -0.036637 -0.393017 0.233078 -0.132203 0.419168 -0.48492 -0.625414 -0.048041 -0.057125 -0.451194 0.693817 -0.361099 -0.55131 -0.068618 0.104169 0.074848 0.104562 -0.454052 0.254266 -0.335791 0.036752 0.01213 -0.923118 0.161857 0.329415 0.047842 0.102327 -0.10107 -0.18466 -0.321312 -0.108759 -0.223291 -0.042979 -0.302203 0.144513 0.121152 0.016375 -0.161792 0.299332 0.362248 -0.028852 0.025816 0.236142 0.424656 0.679816 0.011864 0.163692 -0.390799 -0.131761 0.154676 0.405471 -0.374836 -0.520022 0.484661 0.664087 0.153201 0.033847 -0.22176 0.013618 -0.026663 0.424973 -0.341445 -0.511644 0.155917 0.219446 -0.162839 0.199462 0.399304 0.225639 0.44475 0.35247 -0.088614 0.155868 0.226137 0.080367 -0.334572 0.462741 0.507617 0.169007 -0.192667 0.22102 0.272503 -0.260491 0.043014 -0.101731 -0.223406 0.353795 0.44851 0.193113 -0.323616 0.384152 -0.009982 -0.098835 0.066408 -0.23639 -0.399606 0.325107 0.181052 0.201335 -0.194743 -0.678856 0.06314 -0.006346 -0.181382 0.243353 -0.024182 -0.393323 0.193647 0.327713 0.126683 0.624381 0.052028 -0.07294 -0.183228 -0.219639 0.049496 -0.252784 -0.106989 -0.123026 -0.148843 0.072985 0.405566 0.561197 0.053388 0.470933 -0.270684 -0.047102 -0.128281 -0.690442 0.336183 0.027112 0.008711 0.076503 0.512253 -0.349326 0.270617 -0.174126 0.096972 -0.126553 0.134085 -0.139464 -0.313699 -0.239113 -0.333509 0.152877 0.066691 -0.580319 0.336956 -0.134993 0.761544 -0.146932 -0.007809 0.047723 -0.317969 -0.064449 -0.069275 -0.410788 0.400169 -0.169296 -0.570013 -0.204833 0.198073 -0.158157 0.234026 0.00298 0.371078 -0.154265 0.155394 0.585099 -0.096685 -0.102841 0.056346 0.107925 0.028176 0.216018 0.348006 0.449912 -0.033035 -0.097532 0.103612 0.217062 0.483645 0.353999 -0.052522 0.009014 -0.17738 -0.449492 -0.079681 -0.063659 0.151291 0.274062 0.088177 -0.072689 0.309381 -0.540959 -0.276172 0.115507 0.488223 -0.273683 -0.096903 -0.078804 0.194042 0.165171 -0.167272 0.326913 0.331181 -0.215342 0.120853 0.262462 -0.132692 -0.156212 0.193344 -0.149712 -0.089274 -0.395995 0.100814 0.291859 0.26433 0.114766 -0.269238 -0.647548 -0.333059 0.229408 -0.584777 -0.22467 0.073107 -0.085572 -0.463369 -0.128801 0.208977 -0.399125 -0.254916 0.17174 0.347719 -0.028165 0.016392 -0.090325 -0.420599 0.024486 -0.602409 0.052406 -0.111463 -0.227062 -0.220985 -0.412516 0.260119 -0.49258 -0.062305 -0.516034 -0.081011 -0.353723 -0.148123 -0.109145 -0.315142 -0.10646 0.308072 0.296067 0.431567 -0.758476 0.145125 -0.402076 0.157596 -0.564871 -0.274207 0.312678 -0.224798 0.456924 -0.437938 -0.022114 0.027009 -0.122832 0.116655 0.057301 0.283857 0.166346 -0.035344 -0.393147 -0.259664 -0.33971 -0.044801 -0.161067 0.234671 -0.391934 0.130988 -0.045095 0.277864 0.195082 -0.336025 0.046352 0.148778 0.118421 0.792385 -0.234222 0.302915 0.655814 -0.223714 -0.734498 -0.157188 -0.063246 0.558846 0.044687 0.21933 -0.020121 -0.167183 -0.040284 0.257329 0.312262 0.235871 -0.446663 -0.203162 -0.412737 0.128575 0.20555 -0.133864 0.449884 -0.038959 0.937544 0.316619 -0.643154 0.764972 0.10309 0.219443 0.033889 -0.292815 0.023726 0.414595 -0.662768 0.096618 0.217696 0.025409 -0.226999 0.348254 -0.242515 -0.286865 0.527601 -0.566837 0.672483 0.45673 0.658579 0.591719 0.065852 0.31031 0.309251 0.536771 -0.107222 0.009117 -0.371592 0.09197 0.229027 0.508847 -0.096707 -0.306474 0.034453 -0.791787 -0.097505 0.542298 0.03305 -0.258764 -0.487821 0.259846 -0.449617 0.255376 0.031643 0.377143 -0.102667 0.494226 0.571705 -0.104404 0.197488 -0.317495 0.070523 0.24886 0.44773 -0.06635 -0.303116 -0.144405 -0.109321 0.026214 0.266384 0.062175 0.367631 -0.735762 -0.831282
year -0.017999 -0.040503 0.048782 -0.083823 0.06093 -0.153381 0.088631 0.020305 0.214876 0.157137 0.078095 0.259254 0.079528 0.095143 0.055753 0.017016 -0.135181 0.025528 -0.015723 -0.184608 -0.104059 0.043147 -0.028303 -0.035609 -0.050021 -0.007553 0.020703 0.126516 0.166797 -0.068618 -0.164373 -0.078056 0.007504 0.103967 0.097 -0.130341 -0.010973 0.181245 -0.043301 0.005807 -0.005481 0.021547 -0.10488 0.105624 0.208875 -0.070635 0.339055 0.10015 -0.148311 -0.043392 -0.027767 -0.141614 0.063788 0.06414 0.033782 -0.071455 0.077092 -0.178994 -0.003576 0.034577 -0.062008 -0.135895 -0.004102 0.139054 -0.030558 0.017746 0.031239 -0.244296 0.124554 0.122596 0.107466 -0.008698 0.0826 0.141175 0.090841 0.093495 -0.00835 0.097445 0.074203 -0.018556 -0.009609 0.078695 -0.138859 0.056311 0.021466 0.081903 0.117653 0.081205 0.002559 -0.06012 -0.055138 -0.072579 0.043125 0.144431 -0.092477 0.004198 0.092846 0.020496 0.094678 0.069167 0.027167 0.097841 0.027808 0.010474 -0.100332 0.094883 0.082307 0.169832 0.033485 0.038805 -0.033383 -0.027737 -0.002604 0.21774 0.158337 -0.042969 0.116359 0.17802 -0.105229 0.088101 0.101627 0.002179 -0.025271 -0.163127 0.028567 -0.098513 -0.045699 0.005291 -0.256396 -0.08984 0.089661 -0.009197 0.027544 0.140509 0.045933 0.140124 0.077892 0.044561 -0.062578 0.049138 -0.097824 -0.025268 0.122624 0.095664 -0.127656 0.143652 -0.024353 -0.047845 -0.12549 -0.043301 0.096952 0.110955 -0.107739 0.052281 -0.134748 0.004811 -0.037597 0.051079 -0.023728 -0.032385 0.018778 0.015242 -0.081534 -0.042334 -7.1E-4 -0.023722 0.1308 0.077217 0.021925 0.063027 -0.024132 -0.063259 -0.191397 0.24908 -0.119611 -0.021089 -0.133346 0.014603 0.033758 0.071959 -0.086473 -0.117537 -0.064544 0.099961 -0.062757 -0.02906 0.028979 -0.197772 -0.011322 0.158165 0.082355 -0.042363 -0.038697 -0.045394 0.006882 -0.103083 0.070989 0.070548 0.116213 -0.062978 -0.007752 0.032741 -0.059105 0.048392 -0.135058 0.016153 -0.129928 -0.106175 0.084939 -0.034983 -0.077904 0.299591 0.039258 -0.076357 0.043267 0.033102 0.018075 0.08965 0.009861 -0.184166 0.178979 -0.054375 0.084816 -0.100571 0.157688 -0.070835 -0.016041 -0.059849 0.141752 0.022004 0.080935 0.049192 0.099555 -0.146481 0.026806 0.106953 0.120417 0.090969 -0.142821 -0.057047 -0.106755 0.36359 -0.019809 -0.086678 0.026572 -0.051994 0.059459 -0.023993 -0.306087 -0.049146 0.097086 -4.27E-4 -0.085965 0.10243 -0.213902 -0.109704 -0.00307 -0.180283 -0.042387 -0.048476 0.016674 -0.253988 -0.006959 0.03263 -0.068374 0.038155 -0.059551 -0.118536 0.044491 0.048894 -0.110772 0.028306 0.109047 0.008395 0.067707 -0.068691 -0.050967 0.182212 -0.128443 -0.078227 0.198094 0.105634 -0.012467 0.050687 -0.06998 0.01509 0.023647 -0.061522 0.079552 -0.015794 0.076078 -0.048775 0.307182 -0.04987 0.141349 -0.157114 0.042136 -0.047105 0.255659 0.026907 0.096587 0.072455 -0.006674 -0.101455 0.078168 -0.009425 0.04059 -0.035299 -0.159133 0.112424 0.001964 -0.03636 -0.196094 -0.095468 -0.133882 0.141738 0.126572 -0.025084 -0.17279 -0.017974 0.118761 -0.152031 0.124635 -0.19237 -0.017058 0.031648 0.002396 0.014249 -0.071661 0.101159 -0.061887 -0.065453 -0.099288 0.078809 0.187792 -0.18266 -0.032904 -0.133478 -0.028176 0.210395 0.006579 -0.138838 0.005807 -0.015722 0.118385 0.124782 -0.008732 0.054502 -0.070989 -0.079092 0.04058 0.015785 -0.005611 -0.073246 -0.022231 0.095899 0.105061 -0.105741 -0.067017 -0.130917 0.255912 -0.079018 0.024073 -0.005185 0.0456 0.049812 -0.172044 -0.013522 0.135908 0.157996 -0.083426 -0.074293 0.205056 -0.215598 -0.010957 -0.16807 -0.002886 -0.123483 0.205366 -0.055954 0.04493 -0.081394 -0.077447 0.085757 -0.130198 0.162258 0.116565 0.230512 -0.030823 0.00598 0.197747 -0.0598 0.070296 0.014588 0.10292 0.01216 0.207639 0.056924 0.08813 -0.07961 -0.014746 0.036577 -0.017079 -0.106721 -0.086532 -0.118038 0.038213 -0.066261 0.058299 0.010428 -0.002694 -0.03053 -0.188984 -0.055801 0.241944 -0.05788 0.046114 0.075426 0.131735 0.096222 -0.04974 0.230372 0.038641 0.096703 -0.027458 -0.056802 -0.068945 -0.063357 0.193025 0.025788 0.186038 0.069202 -0.171374 0.017614 -0.120988 0.035591 -0.003787 0.141783 -0.068334 -0.021644 -0.089115 -0.063457 0.05278 -0.106707 0.100631 -0.070718 -0.076046 0.047274 0.013174 0.046884 0.215103 0.005514 -0.199197 -0.01573 0.199613 -0.012989 -0.186291 -0.04121 0.080294 0.082594 0.130684 -0.013841 -0.091347 0.074965 0.17656 0.108885 0.154752 0.05814 0.119404 -0.139556 -0.116843 -0.060955 -0.150528 -0.01305 0.066777 0.215379 0.006883 -0.129435 0.057864 0.111117 -0.068029 -0.11919 -0.060072 -0.159139 0.032956 0.179805 -0.163587 0.120641 -0.038448 -0.019095 -0.034222 -0.082867 -0.015991 -0.034912 0.153909 -0.026194 0.162325 -0.015515 -0.048653 -0.107998
psychiatry -0.401838 -0.586765 0.060864 -0.095543 0.554226 0.324369 0.165704 -0.013963 0.464465 0.291942 -0.235956 0.405629 -0.222775 -0.043292 0.031144 -0.060316 0.266954 0.54252 -0.070879 -0.213386 -0.624015 -0.012834 -0.315777 0.133062 -0.254171 -0.057241 -0.048802 0.425163 -0.333355 0.260852 0.118917 -0.285365 -0.108531 0.072581 -0.422233 0.370458 0.37041 0.547215 0.399528 -0.08211 0.129554 -3.66E-4 -0.171249 0.15471 0.018237 -0.175511 0.041706 0.163001 -0.156697 -0.209357 -0.022369 0.402739 0.014158 0.143603 0.084622 0.514611 0.006144 -0.081196 0.043808 0.53945 0.357823 0.323184 -0.294866 -0.24703 -0.255041 -0.065388 0.231368 0.424077 0.498266 0.138993 -0.029437 0.060932 -0.183032 -0.21375 0.424571 -0.153973 -0.200709 0.330109 0.177842 -0.211408 -0.449142 -0.349846 0.166929 0.089302 -0.198726 -0.525869 -1.88E-4 0.207668 -0.388004 -0.464343 0.170957 0.035023 0.039156 -0.117607 -0.070054 -0.379849 -0.122866 -0.262774 -0.103656 -0.320049 0.128119 -0.789813 0.065118 -0.176887 0.052415 -0.445763 -0.184774 0.063443 -0.154185 -0.1059 -0.091492 -0.020643 0.140178 -0.131834 -0.320414 -0.350702 0.468751 -0.110871 0.121725 -0.236607 0.207718 0.221344 -0.217624 0.393211 -0.181495 -0.225335 0.190013 -0.213568 -0.040687 0.028498 0.303531 0.068342 -0.526714 -0.18499 -0.163732 0.197134 -0.316362 -0.061682 0.043787 -0.019692 0.075508 0.004108 -0.628584 -0.002312 0.14174 0.019967 -0.049285 0.363346 1.006811 0.283477 -0.099496 0.320814 0.55654 -0.233987 0.164818 0.15412 -0.047569 -0.398586 0.258181 -0.247947 0.264242 0.164825 0.046438 0.399639 0.118498 -0.216089 -0.468106 -0.540679 -0.051945 -0.115684 0.284977 -0.318718 -0.269705 -0.358505 -0.200902 0.121648 -0.072872 0.169636 -0.432107 0.433666 -0.151571 0.216005 0.179223 0.329254 -0.405652 -0.382695 0.053788 -0.05692 0.204649 -0.282899 0.016128 -0.152401 0.015771 -0.28313 -0.04939 -0.144756 0.462632 0.209759 -0.507214 0.1756 -0.126783 -0.267245 -0.342268 -0.085831 -0.311606 -0.073019 -0.031012 -0.283119 -0.123295 -0.165534 0.233661 0.320728 0.147622 -0.011321 0.010178 0.020133 -0.162781 0.024322 -0.08556 -0.041634 -0.051605 0.424188 -0.303487 -0.185006 0.017748 2.88E-4 0.155548 0.008766 0.237089 0.169965 0.091558 0.255638 -0.164433 0.288733 -0.198975 0.133635 0.028799 -0.083773 0.449709 0.223133 0.117406 0.11656 0.0176 -0.133546 -0.544214 -0.130359 0.416443 -0.21781 0.06807 0.392619 -0.344455 -0.045271 0.247668 0.435304 0.334478 -0.115686 0.314644 -0.175527 -0.030157 0.15793 0.177935 -0.06494 -0.195132 -0.035448 0.249867 -0.07709 0.044251 -0.206676 0.109978 -0.18851 0.667949 0.300474 0.191987 0.169482 -0.091695 0.369475 -0.725699 0.373064 -0.032899 0.124563 0.26509 0.154788 -0.10508 -0.058788 0.006352 0.197615 0.461011 0.395656 0.08986 -0.07551 -0.386686 -0.061881 -0.509637 0.080119 -0.394457 0.147109 0.03489 -0.231665 -0.28826 0.067277 0.076503 0.090692 -0.462793 -0.1357 -0.114621 -0.156539 0.019393 -0.286161 0.132664 -0.503174 -0.395061 0.580625 -0.298192 0.244797 -0.376068 -0.095537 -0.251717 -0.112607 -0.209993 0.100031 -0.414272 -0.141499 -0.092625 0.286954 -0.286949 0.106677 -0.09459 -0.504848 0.245707 0.227231 -0.560373 -0.248876 0.038545 -0.346135 0.076718 -0.367183 -0.284076 0.009666 0.257451 -0.523367 -0.179284 -0.108265 0.301371 -0.040848 -0.203878 -0.562152 0.335839 -0.00585 -0.193659 -0.238814 0.233915 -0.142693 0.155029 0.298851 0.498454 -0.100812 0.034371 0.442813 0.223634 0.359122 -0.144191 0.007844 0.020697 -0.166425 -0.605681 0.736794 0.1154 0.274163 0.427373 -0.396868 0.133208 -0.507782 0.342935 -0.317981 0.502351 0.084548 0.364301 -0.243603 0.098542 0.135572 -0.022691 -0.186445 -0.154845 0.362512 -0.422496 0.126873 -0.106133 0.454671 0.207201 0.006184 0.011291 0.353771 -0.530651 0.326876 0.461475 0.235092 -0.172646 -0.093341 0.148886 0.042962 -0.001689 -0.018742 -0.202934 0.072891 0.566456 -0.464949 0.063982 0.294252 -0.256507 0.123213 -0.088934 -0.061705 -0.526923 -0.363029 0.444932 -0.153896 0.043539 -0.578182 0.196494 0.205464 -0.235196 -0.046104 0.088466 -0.153598 0.027707 -0.02042 -0.280926 0.177185 0.070966 0.15924 -0.1051 0.15844 -0.540528 0.056013 -0.021877 -0.040024 -0.504316 0.410689 0.493545 0.092856 -0.176539 -0.065295 0.074008 0.09244 0.116624 -0.182152 -0.185219 0.075225 -0.310522 -0.322608 -0.242686 -0.347064 -0.0706 0.12303 0.392046 0.09404 0.461997 0.066141 -0.217309 0.45626 0.252952 -0.033204 -0.174337 0.635666 0.227846 -0.238309 -0.100373 0.165621 -0.058605 0.077717 -1.4E-5 0.042822 0.320182 -0.408543 -0.650594 0.639665 0.131557 -0.522683 0.083969 0.270503 0.485497 -0.272604 -0.084576 -0.192015 -0.28817 -0.27904 -0.409382 -0.006176 0.380365 -0.076858 0.096056 -0.267284 -0.100769 0.06605 0.257209 0.118009 -0.237432 0.305252 0.080551 -0.371403
asylum 0.199082 -0.409305 0.025716 -0.182554 0.258671 -0.373123 0.441504 -0.496814 0.43567 0.03478 0.171886 0.454688 0.070322 -0.142156 -0.231268 0.003346 0.763605 -0.23583 -0.013704 0.217278 -2.79E-4 -0.333524 -0.318163 -0.039497 -0.13598 0.391865 -0.295877 0.117914 -0.220136 0.193459 0.079789 0.304154 -0.30162 -0.010354 -0.335372 0.394095 -0.131111 -0.038585 0.736669 -0.7765 0.060781 0.003458 0.390879 0.171178 -0.533375 0.018091 0.578944 0.284466 0.291087 0.382077 -0.1462 -0.063319 0.157193 -0.299102 0.017223 0.585735 0.169537 -0.114738 -0.295869 0.423286 0.020902 -0.059918 -0.258148 0.242328 -0.302309 0.047133 0.28777 0.210329 0.009691 0.115487 0.302597 -0.166883 -0.065234 -0.136001 -0.009925 0.438989 0.190874 -0.298503 -0.213159 0.060938 -0.02809 0.64444 0.101931 0.086732 -0.011593 0.092858 -0.014714 0.15611 -0.23774 -0.517768 0.250901 0.222978 -0.362901 0.47737 -0.010445 -0.049271 0.171319 0.120185 0.036562 -0.117278 -0.036742 -0.223935 0.327278 -0.302982 0.043715 -0.168746 -0.090845 -0.104417 0.303801 -0.435288 -0.312628 0.08742 0.311364 -0.134275 -0.040578 0.686751 0.383094 -0.059581 -0.219188 -0.032554 -0.25242 -0.012602 -0.049853 0.247063 0.187179 0.074027 0.108373 0.44763 0.067541 0.299728 -0.272019 -0.049008 -0.776128 -0.308816 0.163365 -0.507122 0.295197 0.019492 -0.049704 0.31974 -0.452742 0.179012 0.022211 0.207941 0.25956 0.148864 -0.194908 -0.155384 -0.236272 0.065847 0.234018 0.049732 0.260608 0.378659 0.331106 0.16549 -0.130362 -0.318742 0.400497 -0.293524 0.1075 -0.100723 0.24416 -0.645731 -0.100392 -0.41798 0.410569 0.424575 0.325531 -0.393331 -0.02911 -0.148258 -0.093274 -0.034505 -0.269494 -0.020732 0.019321 0.031572 0.401878 -0.371413 0.219358 -0.005249 0.476842 -0.101791 -0.146782 -0.50539 0.419114 -0.391762 0.002237 0.444338 -0.020954 -0.32159 -0.254888 -0.048984 -0.247723 -0.01 -0.024551 -0.368732 -0.199543 0.611375 0.320844 -0.520814 -0.128556 0.135751 -0.253126 -0.666526 -0.828607 -0.34212 0.274932 0.101662 0.032721 0.3963 -0.140519 0.283585 0.1696 0.400397 -0.018548 0.429626 -0.168549 0.318867 -0.239854 -0.375827 -0.22019 -0.099227 -0.234625 0.226196 -0.139513 -0.168278 0.791216 -0.360337 0.350121 -0.328038 -0.211499 0.165769 0.081361 0.045487 -0.020526 0.207582 0.148712 -0.410486 -0.766241 0.013786 -0.04462 0.223789 0.136057 -0.101961 -0.001827 0.493019 -0.993982 -0.168527 -0.007428 -0.57781 0.115 -0.09123 -0.1336 0.442064 0.250814 0.090698 -0.09751 0.00618 0.205299 -0.635423 -0.097754 -0.055925 0.039836 -0.600097 -0.169551 -0.33336 0.526497 -0.637165 0.097205 -0.307794 0.059979 0.129645 -0.054796 0.170633 0.430778 -0.129433 0.034464 0.297284 -0.18051 -0.201073 0.471491 -0.098552 -0.090496 -0.178219 -0.218326 0.146801 -0.348813 0.028229 0.45167 -0.277767 -0.162537 -0.20315 -0.021674 -0.040474 0.451766 -0.217407 0.02538 -0.336783 -0.342994 0.580044 0.327116 -0.291415 0.55592 -0.090485 0.032888 -0.25139 0.203243 -0.270708 0.021303 -0.170172 -0.23035 -0.260675 0.247781 -0.244903 0.048916 0.184741 -0.120826 0.057135 -0.260579 0.296719 -0.212789 -0.280795 0.302524 0.137753 -0.173839 -0.004843 -0.118101 0.323625 0.06121 -0.060181 0.087505 -0.350072 -0.314993 0.164282 0.037587 -0.03676 0.749863 -0.211671 -0.287468 -0.298506 0.143746 -0.03908 0.317366 -0.663722 -0.299018 0.560995 -0.27576 0.243488 0.204224 0.149376 -0.378905 -0.074295 -0.334045 -0.093819 0.333485 0.2302 -0.153747 0.121635 0.086922 0.629353 -0.151442 -0.240893 -0.004376 -0.306202 -0.601639 0.088099 0.367401 -0.243634 0.071318 0.156752 0.106816 -0.349584 -0.070213 -0.308337 -0.12702 -0.27109 0.274034 -0.549757 0.199403 -0.07881 0.193743 0.728684 0.067168 0.126565 0.010411 0.083116 0.098416 0.370014 0.666396 0.234561 -0.041874 -0.279599 -0.080607 0.66342 0.029828 0.022394 0.008829 -0.51567 -0.033408 -0.186115 0.366165 0.295956 -0.089684 -0.383678 -0.305633 -0.208542 0.21452 -0.134544 0.081787 -0.054059 -0.225597 0.096344 0.245096 -0.293581 0.375077 0.138777 -0.288755 0.28813 0.235703 0.167514 0.043186 0.36847 -0.008847 -0.031186 -0.236263 0.096851 -0.101249 0.44463 0.405873 0.001281 -1.036946 0.533586 -0.341416 0.449877 0.099846 0.388465 -0.380799 -0.293484 0.276626 0.048858 0.032836 0.415581 -0.200859 0.410119 0.097044 0.53812 0.419701 -0.286685 -0.731943 0.224701 -0.340146 0.388077 0.161072 -0.015132 0.280045 0.380016 -0.083077 0.289214 0.213512 -0.270966 -0.030187 -0.221606 0.303259 -0.016618 -0.332646 0.169838 0.01827 0.003727 -0.326495 -0.011153 0.138773 0.056097 0.063692 0.487987 0.117217 -0.211938 -0.131863 -0.308857 0.39751 -0.134086 -0.401797 -0.631407 -0.093659 -0.425322 -0.010461 -0.300249 0.432153 0.034008 0.267379 -0.242992 0.437703 -0.3543 0.590072 0.446871 -0.460471 -0.523841 -0.148049 -0.146783
manslaughter -0.451879 -0.666874 -0.183031 -0.302728 0.175167 0.396218 0.052949 0.764185 0.047341 0.53911 -0.606586 0.167585 -0.024514 -0.118519 -0.14921 -0.079843 0.321404 0.467395 0.091473 0.388175 -0.848905 -0.127957 -0.267791 0.152919 -0.411577 -0.402736 0.195401 0.080837 0.303567 0.165014 0.347786 -0.376845 -0.150243 -0.05025 0.143931 0.508324 0.763495 0.581517 -0.062615 0.171291 0.175638 0.100675 0.494264 0.544976 -0.155677 0.077531 -0.159988 -0.45724 0.449667 0.34836 -0.011985 0.640231 0.32024 -0.061069 -0.049226 0.219227 0.3196 -0.415896 0.017296 0.444384 0.017272 -0.418269 0.434837 -0.003256 -0.214533 0.176056 0.300434 -0.158724 -0.179725 0.059249 0.33764 0.110468 -0.283603 -0.175305 -0.058049 -0.477407 -0.016187 0.076644 -0.381784 0.146771 0.267669 0.071985 -0.240007 -0.226531 0.256872 0.095527 0.055875 -0.211279 0.053547 -0.629408 0.440223 -0.271373 -0.313801 0.260164 -0.482349 0.004072 -0.040133 -0.199255 0.553679 -0.20849 0.131657 -0.095673 0.150592 -0.307946 -0.082742 0.244905 -0.201326 0.24143 0.568587 -0.493629 -0.353908 -0.416462 0.027141 -0.088779 -0.345351 -0.188356 -0.037047 0.351513 0.025861 0.159913 0.233855 -0.247662 -0.336046 -0.247936 0.012349 0.077035 -0.200516 0.189474 -0.341913 0.06368 0.154903 -0.166188 -0.043172 -0.259573 -0.328927 0.135607 -0.165826 -0.304113 0.229867 -0.32839 -0.342022 0.386095 -0.639618 0.33345 -0.190646 0.605298 0.280292 -0.495101 -0.259866 -0.195312 0.07158 -0.576545 0.564925 0.196102 0.759974 0.449799 0.144796 -0.740437 0.496336 0.096494 -0.315041 -0.192685 -0.272881 -0.193859 -0.043186 -0.264254 0.132286 -0.2501 0.413493 -0.130762 -0.489058 0.067651 -0.209281 -0.216752 -0.062555 0.018201 -0.159687 0.39742 0.653819 -0.31772 0.183902 -0.049406 0.387001 0.205836 0.113541 0.114105 -0.362883 0.184872 -0.525105 0.412286 -0.263973 0.371455 0.390169 -0.242972 0.364473 0.040515 0.665998 -0.089503 0.169746 0.236415 -0.255619 -0.471829 -0.020786 -0.022709 -0.402604 -0.24095 0.193077 0.075926 -0.581382 -0.249961 -0.242351 -0.362281 -0.123872 0.303549 -0.118511 0.063629 -0.042447 0.720619 0.195027 0.137183 -0.090979 0.445471 0.135972 -0.379764 -0.187697 -0.261146 0.397263 -0.344838 -0.18789 0.047868 -0.036123 -0.188055 0.110277 -0.126797 -0.069188 0.378483 0.260683 0.073307 0.044474 -0.008336 0.151179 0.039297 -0.100645 0.028029 -0.784443 0.298952 0.795371 0.48013 -0.326812 -0.311516 0.071436 -0.144667 0.672798 -0.352349 -0.137259 -0.454436 -0.710316 0.216362 0.137535 0.095381 0.287096 -0.05713 -0.308904 -0.131421 0.515561 -0.254899 0.294577 0.007674 -0.553269 -0.295307 0.128976 0.655039 -0.224005 -0.104472 0.291083 0.165818 -0.085597 0.350181 -0.856844 0.137491 -0.347526 -0.01852 0.550575 -0.290073 -0.017867 -0.026877 -0.393722 -0.023373 0.225735 -0.046544 -0.798415 -0.022638 0.375549 0.291184 0.644096 -0.112782 0.33166 -0.434274 -0.059435 -0.078937 0.139742 0.080495 -0.102257 -0.241628 0.184003 -0.344332 0.043895 -0.213151 -0.435628 0.020061 0.329292 0.044925 -0.008177 -0.072702 -0.194146 0.369856 -0.907689 -0.209481 -0.104 -0.335963 -0.339521 -0.472707 -0.289085 -0.124454 0.276827 -0.124229 -0.047302 -0.438291 0.067318 0.271327 0.232188 -0.512216 -0.033843 0.077233 0.060558 0.112192 0.186678 -0.716779 -0.466632 -0.601641 0.200573 -0.337535 -0.513388 0.034479 -0.077795 -0.329646 -0.138998 0.061274 -0.34059 0.281894 -0.06446 0.047449 -0.76773 0.668393 -0.133298 0.074126 0.208028 0.472446 0.411964 0.214299 0.155825 -0.443901 0.093825 0.237545 0.270723 -0.349441 -0.395572 0.48959 0.685412 0.061602 -0.339985 0.106098 -0.445443 0.028964 -0.33808 -0.367277 -0.313224 -0.172176 0.475747 -0.453458 -0.377943 -0.458311 0.170487 -0.183638 -0.331686 0.280885 0.28017 -0.463736 0.163487 -0.177252 0.348561 0.19335 -0.242417 -0.045538 -0.018039 0.14419 -0.157537 0.202548 -0.458856 -0.241588 -0.186247 0.30413 -0.563523 0.257709 0.159852 -0.743712 0.049499 0.390709 -0.732805 0.099272 0.26508 -0.148296 0.487038 -0.58722 -0.485002 -0.08024 -0.412594 0.791936 -0.025734 -0.410833 -0.251988 0.531175 0.555388 0.378999 -0.420713 0.315427 -0.351675 -0.334904 -0.644741 -0.080902 0.397261 -0.323215 -0.393753 0.130027 0.353046 0.041339 -0.046043 -0.256858 -0.220091 -0.360238 0.111098 0.001225 0.397795 0.667076 -0.093948 0.714488 0.080132 0.365002 0.13252 -0.583278 -0.113477 -0.865684 -0.31958 0.174291 -0.026926 0.096394 0.466777 0.144271 0.156232 0.586397 0.238184 -0.550311 -0.002358 0.373782 0.028459 0.257007 -0.258708 0.237527 0.016042 -0.401163 -0.216281 -0.469734 0.35368 -0.087964 -0.816615 0.345713 -0.232663 -0.041062 0.169455 0.456596 0.61124 -0.53917 -0.070657 -0.126354 0.246838 0.062765 0.096384 0.244528 -0.12431 -0.286393 0.352625 -0.919749 -0.02073 0.36573 0.118935 -0.12562 0.025847 -0.146327 -0.583544 -0.204317
music -0.268615 0.083558 0.098601 -0.261036 -0.034715 -0.249624 0.075064 0.403416 0.218208 -0.200399 -0.108884 -0.020048 0.04547 0.428936 -0.094211 -0.05058 0.167044 0.323709 -0.116173 -0.162796 0.184991 0.073408 -0.058655 0.379145 0.019766 -0.121819 0.242514 5.39E-4 0.105092 -0.109325 0.050383 0.130444 -0.177841 0.11044 -0.076521 0.11605 -0.182603 0.164629 -0.127587 -0.120525 0.237735 -0.042199 0.211667 -0.113181 -0.00461 -0.219706 -0.065995 0.143515 -0.04065 -0.003584 -0.418103 -0.200892 -0.088553 -0.095828 -0.058347 0.072437 -0.220225 -0.019726 0.117976 0.037228 0.119459 -0.113998 0.270595 -0.003999 -0.262999 0.082665 0.202088 -0.09274 0.162237 0.088271 -0.005713 -0.157184 0.017209 -0.00597 0.221569 -0.074997 -0.238673 -0.327856 -0.072181 0.159054 0.118623 -0.032667 -0.178864 0.228716 0.08178 -0.09431 0.12336 -0.184874 0.212312 0.145386 -0.039152 0.055997 -0.04368 -0.251993 0.166994 0.004795 0.013397 0.020885 0.124917 0.035623 -0.018334 -0.094049 0.360903 -0.053484 -0.110061 -0.048494 -0.232295 -0.018088 -0.21792 -0.083282 -0.177679 0.046583 0.059314 -0.00328 0.198925 -0.075325 -0.147818 0.191197 0.028977 -0.03554 0.208826 -0.354223 -0.255133 0.148797 0.123976 -0.205599 -0.209304 -0.316647 0.10927 0.174118 -0.260094 0.010499 0.019024 0.153628 0.167538 0.112322 0.049126 -0.312563 -0.008863 -0.022865 0.01454 -0.011475 0.027033 0.0063 -0.19788 -0.054418 -0.182105 0.052932 -0.142312 0.266258 0.207687 0.203747 0.144058 -0.138138 0.012603 0.116106 0.082493 -0.084638 0.110882 0.020918 -0.04282 0.123577 0.312173 0.001852 0.047125 0.138049 -0.04434 0.015829 0.208897 -0.136902 0.054729 0.250927 0.107429 -0.055977 -0.149768 0.071361 -0.278817 -0.158166 0.027109 -0.132893 -0.191259 0.020997 -0.348334 0.110522 -0.161881 0.200107 0.024152 -0.205455 0.133804 0.107108 -0.169248 0.00101 0.065133 0.198011 0.097925 0.159416 0.058707 0.033528 0.083141 0.046413 0.079871 -0.037577 -0.109291 0.18724 0.233669 0.110915 -0.089139 0.049561 0.018764 -0.260088 0.056097 0.076652 0.025479 -0.019747 0.225795 0.117266 0.176699 -0.009477 -0.120567 0.106003 0.092458 -0.111744 -0.077484 0.126637 0.162075 -0.335525 0.035855 0.203725 0.449584 -0.123985 0.114882 0.061959 -0.174085 -0.162893 -0.133502 0.071623 -0.301702 0.114757 -0.246638 0.052354 -0.067096 0.031683 0.139567 -0.220379 -0.037131 -0.131828 0.168524 0.139764 -0.082804 0.215121 0.028546 -0.257189 0.015261 0.063729 0.009741 -0.172138 -0.132227 -0.256485 0.100264 -0.385125 -0.173374 -0.175519 0.005379 -0.04068 0.111208 -0.314117 -0.062662 -0.316888 -0.084633 0.098582 0.264837 0.200014 -0.040037 -0.054137 0.201152 0.03694 -0.005366 0.235237 0.025728 -0.134417 0.248877 -0.231614 0.138238 -0.115657 0.010533 0.065739 -0.018477 0.017226 0.281762 0.233601 0.125361 -0.00451 0.27605 0.088517 0.215367 -0.085107 -0.09244 -0.329812 0.088055 -0.026795 -0.153662 -0.039742 -0.138735 -0.246708 -0.128474 -0.332637 -0.402501 -0.002477 -0.339575 0.036501 -0.030958 0.074987 -0.030819 0.260302 -0.019769 -0.205973 0.004732 0.082726 -0.130127 -0.194726 -0.316885 -0.220021 0.247861 -0.323195 -0.150823 0.267726 -0.14038 0.035387 -0.18986 -0.098974 -0.082129 0.050895 -0.124643 0.077788 0.036434 -0.199934 -0.191228 0.05008 -0.018291 -0.22219 -0.294452 -0.184923 -0.06754 0.131432 -0.26906 -0.012266 0.097203 -0.064775 -0.259582 0.124669 0.059028 -0.210167 0.072026 0.138341 -0.090019 -0.042795 0.066737 0.316834 0.256457 0.108877 0.149783 0.33936 0.241285 0.070768 -0.17264 0.228625 0.008357 0.092405 0.050894 -0.02661 -0.015625 -0.200767 0.049015 -0.146535 0.072509 -0.188311 0.031665 -0.078386 -0.216482 0.146521 -0.063805 -0.262635 -0.020565 -0.023163 -0.218359 0.171329 0.033532 -0.07646 -0.004355 0.01718 0.378452 0.212508 -0.251361 0.277123 0.100512 0.078096 -0.088937 0.196943 0.134417 -0.090447 -0.122351 0.151167 0.153505 -0.214777 0.008841 0.03488 0.108258 -0.049577 0.008002 -0.198184 -0.059512 -0.085893 -0.318866 0.069617 -0.112067 -0.138663 0.411818 -0.060444 0.146429 0.048863 -0.102804 0.180537 0.11985 0.391976 -0.10512 -0.062398 0.071222 0.113296 -0.243502 -0.117895 -0.150949 -0.10039 -0.373261 0.011557 -0.145748 -0.076175 -0.015972 -0.051728 0.101267 0.048294 0.074418 0.094812 0.013096 0.025519 -0.055858 0.089431 -0.100679 0.104583 -0.081464 -0.022379 -0.098745 0.021914 -0.162493 0.028065 -0.067278 -0.179873 0.109414 -0.142274 -0.276714 0.116704 0.130324 0.093422 -0.11389 0.163461 -0.065742 0.144644 0.10877 0.018216 0.066386 0.177148 0.095769 0.114118 -0.033661 0.020607 -0.085013 0.115266 0.044494 -0.137058 0.188476 -0.185665 0.027944 -0.27197 -0.210781 -0.085791 -0.00922 0.073172 -0.090546 0.237691 -0.101511 0.180705 -0.364083 -0.219123 -0.16744 0.126573 -0.031941 0.180399 -0.139164 0.234666 0.124972 -0.122028
record -0.053689 -0.088183 -0.155819 -0.167515 -0.321394 -0.082215 -0.016643 0.078892 0.179666 0.092158 0.016888 0.185641 0.052787 0.074675 0.07938 0.014341 -0.033117 0.017355 0.04622 -0.001704 -0.094424 -0.03811 -0.007904 0.011519 -0.00567 0.129362 0.066587 -0.065245 -0.028662 -0.091408 -0.056278 -0.016031 0.076855 0.174475 0.091537 -0.429596 -0.169495 0.132836 -0.083071 0.177482 0.036028 0.126147 -0.013244 -0.129988 0.101424 -0.105848 0.408444 0.169287 -0.100699 -0.025 -0.0225 0.200018 0.044041 0.150814 -0.051548 0.036166 0.04377 -0.017551 -0.075596 -0.194592 -0.16135 0.012912 0.106156 0.008235 -0.20552 0.217458 0.028874 -0.263617 0.195666 -8.3E-5 0.244396 0.106438 -0.017905 0.050385 0.086025 0.193014 0.019948 -0.007455 0.132355 -0.057391 -0.002606 0.126915 -0.211214 -0.039708 -0.04219 -0.041162 0.095551 -0.200487 0.020347 -0.14232 0.056903 0.121521 0.140153 -0.080911 0.217983 0.053087 0.041938 0.130557 0.104075 -0.141541 0.009581 -0.086779 0.156304 -0.128751 -0.199984 -0.028024 0.063391 -5.19E-4 0.021791 -0.070671 -0.27717 -0.189402 -0.10404 0.100956 0.198261 -0.04269 -0.041725 0.003741 0.011196 0.176003 0.187345 -0.015944 0.059056 0.208975 -0.026123 -0.150251 0.080404 -0.122487 -0.216001 0.054706 0.137887 -0.076041 0.146949 0.209363 0.153294 0.046805 -0.053687 -0.042443 -0.151858 0.00509 -0.094934 0.088052 0.096468 -0.078503 0.011121 -0.111749 -0.193731 -0.073199 0.04936 0.067472 -0.118918 0.308025 -0.240257 0.092258 -0.212268 -0.165203 -0.051011 0.249206 0.126865 -0.168253 0.08772 -0.033854 -0.050545 0.130234 -0.028261 -0.071306 0.114851 0.265836 0.257009 0.131139 0.010962 0.286151 -0.068154 0.311589 0.051828 -0.147778 0.003567 0.079155 0.093472 0.055692 -0.128913 -0.072024 0.069864 0.064055 -0.092482 0.244025 0.051796 -0.274156 0.175336 0.089503 -0.103711 0.031958 -0.102408 -0.16005 0.013026 0.055415 0.353758 0.111932 0.07881 -5.33E-4 -0.078572 -0.248474 -0.135861 0.033788 -0.105949 0.116233 -0.028637 -0.227106 0.013998 -0.021394 -0.119611 0.138893 0.04834 -0.106549 0.093507 0.090604 0.078964 -0.012841 0.15413 0.150026 -0.058025 -0.106667 -0.029086 -0.194771 0.126196 -0.087567 -0.127721 -0.112581 0.018869 -0.054994 -0.034466 -0.039463 0.115518 0.006349 -0.087067 0.282926 0.252336 0.078845 -0.068778 0.085091 -0.300267 0.316644 0.095283 0.155598 -0.10308 -0.02257 -0.19161 0.245511 -0.412669 0.157573 -0.073776 -0.091067 0.036206 0.271866 -0.033383 -0.049837 0.104454 -0.305034 0.146111 0.101512 0.068896 -0.148967 0.089657 -0.015919 -0.158165 -0.042248 -0.314152 -0.091365 -0.028463 -0.04506 0.220314 0.178687 -0.064884 -0.057968 -0.076988 -0.155643 -0.299297 0.080447 -0.171579 -0.112663 0.112744 0.329765 0.127777 -0.180481 -0.059277 -0.015257 0.104899 -0.009407 -0.14511 -0.01236 -0.0843 -0.105085 0.305379 0.043797 0.156309 -0.293513 0.185461 -0.235686 0.053833 0.379883 0.128204 -0.077961 -0.083872 -0.210706 0.078102 -0.023503 0.122396 -0.128476 -0.227979 0.19022 0.169911 -0.118051 -0.107294 0.246634 0.062098 -0.065733 0.029885 -0.010664 -0.177722 -0.035365 -0.123844 0.207773 0.259643 -0.10702 0.226562 -0.050694 -0.08781 -0.022415 0.123172 0.079456 -0.06867 0.089746 -0.338006 0.193751 0.044575 0.091376 0.238639 -0.413783 -0.077496 0.027736 0.233817 -0.200911 0.035961 -0.095337 0.19613 0.312353 0.126288 0.14614 -0.236396 0.303064 -0.190804 0.001513 -0.01808 -0.113172 -0.198004 0.115876 -0.242679 -0.049032 -0.054164 -0.21394 0.143625 0.118676 -0.042708 -0.048507 -0.12373 0.065291 -0.036418 0.02823 0.17619 -0.053967 0.092488 0.047946 0.190217 -0.101569 0.149892 -0.354078 -0.033211 -0.248438 -0.101988 -0.007297 -0.079051 -0.10821 -0.096118 -0.121741 0.030212 0.255908 0.175603 0.349886 0.14046 0.051287 0.142606 0.014718 -0.149592 -0.024988 0.223972 -0.012359 0.194008 0.226134 -0.119279 0.053937 0.049064 -0.14916 -0.116834 0.052157 -0.001368 0.006503 0.052795 0.209421 0.144996 -0.116475 -0.200572 -0.160404 -0.2357 -0.339148 0.241416 -0.042208 0.045471 0.068742 0.142527 -0.07526 -0.033763 -0.068949 0.120107 0.157314 0.270309 -0.112623 0.064242 -0.060713 0.257093 -0.001347 0.043158 0.166745 0.005297 0.169343 -0.132664 0.002751 -0.042326 0.125337 -0.105736 -0.033855 -0.003879 0.171819 0.056938 -0.287391 -0.095201 0.226766 0.001289 0.021245 -0.187584 0.003765 0.004723 0.251133 -0.081142 0.025467 0.159584 -0.086599 -0.191942 0.123365 0.044624 -0.033465 0.0417 0.049118 -0.218086 -0.012898 0.116951 0.042238 0.134989 0.148657 0.017801 -0.165079 0.216134 -0.065983 -0.268443 -0.271259 -0.065338 0.237246 0.038215 0.018112 0.043527 0.05215 0.211663 -0.053691 -0.082215 -0.157699 0.127768 0.320573 -0.175084 0.007597 -0.003591 -0.007258 0.02731 -0.062846 -0.276646 0.126701 -0.061953 -0.114007 -0.100908 0.170625 -0.142396 0.069864
energy -0.197195 -0.029122 0.004247 -0.0063 -0.197844 -0.219975 -0.006953 0.081892 -4.75E-4 0.284116 0.078399 -0.060413 -0.236858 0.202301 -0.065069 0.348662 0.195516 0.065787 -0.146817 0.038508 0.023982 0.016132 -0.024036 -0.24336 -0.039653 0.082526 -0.046163 0.245797 0.014159 -0.121655 -0.026416 0.200084 0.102339 -0.142307 -0.113202 -0.232685 0.228616 -0.140792 0.170038 -0.024712 0.288838 0.051039 -0.230457 -0.1223 0.061897 -0.024299 -0.008481 0.086083 -0.105447 0.04671 -0.06676 0.071057 0.069787 -0.145467 0.086138 -0.277545 -0.099511 0.058885 -0.158029 0.08818 0.131571 -0.155323 0.042307 0.067818 0.032481 0.024655 -0.056671 -0.011194 0.153167 -0.459326 -0.004655 0.145045 0.240535 0.001919 -0.074349 0.034138 -0.126676 -0.12707 0.15966 -0.054727 0.137486 -0.092393 -0.008444 -0.008217 -0.201556 -0.029277 -0.173172 -0.07827 0.125005 -0.092466 0.307397 0.161915 0.102389 -0.026129 0.206323 -6.3E-5 0.027451 0.130672 0.193958 0.200877 0.117486 0.323674 0.071403 0.025934 0.096908 -0.208481 -0.08146 0.189983 -0.164454 -0.100962 0.115887 -0.074613 0.084816 0.214016 0.024041 -0.041319 0.012269 0.20274 0.047921 0.14717 -0.128503 -0.096474 0.010442 -0.097811 -0.108747 -0.044976 -0.099455 -0.197289 0.103122 -0.028882 0.185589 -0.20569 -0.075276 0.273875 -0.005482 -0.137021 0.222342 -0.001374 0.111624 -0.132621 -0.174378 -0.131719 0.087966 0.122094 -0.368258 0.070098 -0.097397 0.242031 0.168681 0.150364 0.039482 0.238233 0.171516 -0.230378 -0.026064 0.093144 0.050915 -0.171664 -0.051326 0.162486 0.1804 0.005153 0.292947 -0.086919 -0.184955 0.072857 0.008299 -0.132071 -0.005359 0.134457 0.193154 0.002812 0.031609 0.049614 -0.23788 -0.033043 -0.05784 0.035618 -0.045228 0.009632 -0.060236 -0.102047 -0.329615 -0.188183 -0.17743 -2.09E-4 0.210906 -0.221843 -0.086121 0.394506 -0.208438 0.018864 -0.086739 -0.173448 0.071122 0.04271 -0.134744 0.272638 -0.171943 0.091064 0.306963 -0.219823 -0.257247 0.058947 0.079456 0.188146 0.036155 -0.140662 -0.263236 0.071954 -0.038381 0.18115 -0.186023 0.166149 0.109992 -0.051467 -0.184284 0.049696 0.197164 -0.076336 0.253097 0.0118 -0.145336 -0.130455 0.276919 -0.174381 0.084819 0.098168 -0.149595 0.196725 0.11357 0.049307 -0.081991 0.151642 0.101912 -0.06805 -0.145867 -0.05849 -0.02498 0.03175 -0.202338 0.2477 0.101635 -0.187551 -0.069014 -0.092523 0.262354 0.19767 -0.253661 -0.164486 -0.21051 -0.001706 -0.071747 -0.185121 -0.125562 3.19E-4 -0.22041 -0.011434 0.212911 0.038714 0.120611 0.094624 0.054942 -0.0935 -0.007085 -0.049065 -0.182192 -0.20064 0.046547 -0.128004 0.140529 -0.05669 -0.133428 -0.119428 -0.159364 -0.001894 0.232017 -0.036856 0.253481 -0.227782 0.230996 0.078749 0.409554 -0.044173 0.014541 0.251874 -0.01279 0.257946 0.026403 0.167236 -0.061736 0.034801 -0.251512 0.207921 0.043199 0.078301 0.17455 -0.03938 -0.038555 0.272097 0.146094 -0.060236 0.027695 -0.051408 0.018601 0.030302 -0.054151 -0.241206 -0.077263 0.101334 0.076619 0.136151 -0.09875 0.065568 -0.101457 0.046378 0.146262 -0.116621 -0.16346 0.042692 0.125629 -0.017293 0.197892 -0.364665 -0.336076 0.020683 0.105983 -0.159323 -0.130404 0.293083 -0.173168 -0.162978 -0.118263 0.030679 -0.085544 0.062392 0.087873 -0.296815 0.10886 -0.015311 -0.049117 0.138651 0.196621 -0.012765 -0.232137 -0.093176 0.049475 -0.100875 -0.09098 0.093191 0.062828 0.063503 0.066474 -0.290225 -0.308748 0.218721 -0.0603 -0.31006 -8.21E-4 0.201529 -0.02319 0.240709 -0.239387 0.036638 -0.209601 -0.066805 -0.042168 0.058609 0.248185 -0.220579 0.118246 -0.331764 0.185017 -0.100489 0.079325 0.01614 -0.025037 -0.058707 0.169 -0.12969 -0.063469 -0.028302 -0.066586 0.005939 -0.227495 0.489785 0.021939 0.224204 -0.192485 -0.224615 0.384768 0.004267 -0.151507 0.223278 0.051908 0.42624 -0.021634 0.002342 0.046951 -0.159306 -5.1E-5 -0.170639 0.129532 -0.251434 0.063039 -0.005747 4.15E-4 0.168853 -0.193281 -0.332296 0.260423 -0.03273 -0.151049 -0.152445 0.323043 -0.098453 0.087959 0.354477 0.277518 0.218542 -0.279044 0.139181 0.295764 -0.072023 0.009653 -0.134503 -0.138512 -0.127082 0.271435 -0.145622 -0.076202 0.072352 -0.183762 -0.007967 -0.121834 0.349364 -0.190936 0.212356 0.07589 -0.217622 -0.295382 0.061154 -0.030606 0.054755 -0.099102 -0.329804 0.160366 -0.149278 -0.040718 -0.077787 0.127313 0.207752 -0.310262 0.112955 0.088039 0.300445 -0.016143 0.021809 -0.078362 -0.086906 0.163885 0.144922 0.012348 -0.368289 0.152031 -0.134653 -0.170892 -0.098547 0.087956 0.067179 0.07062 0.108787 -0.143248 0.145171 0.139754 0.042322 -0.367741 -0.097405 0.154229 -0.118578 0.087118 -0.267876 0.049339 -0.13241 -0.162688 0.039337 -0.056667 0.315241 0.118795 -0.021434 0.069741 -0.182347 0.155367 0.079736 0.292558 -0.005402 0.083195 0.052478 -0.191617 -0.239797
announcement 0.124116 -0.183649 -0.01821 0.037342 0.295168 -0.078581 0.159284 0.082794 -0.018887 0.075207 0.005096 0.274616 -0.001817 0.110975 -0.272925 0.021821 -0.0936 0.189061 -0.113678 -0.433271 -0.122677 0.248749 -0.020101 0.145707 0.045654 0.075374 -0.090697 -0.186121 -0.173965 0.255098 -0.119116 -0.216242 -0.013499 0.009227 0.299619 0.082284 -0.339194 -0.026999 -0.133296 0.36793 -0.14818 -0.12115 0.102661 0.057213 0.168456 -0.15168 0.335378 0.129572 0.096433 -0.012027 -0.187799 0.045302 0.186474 -0.155639 -0.004593 -0.171881 0.084693 0.008246 0.125085 0.122925 0.117346 -0.174176 -0.309072 0.291319 -0.090527 0.329399 -0.246638 0.025849 0.198014 0.125103 -0.040328 -0.012737 0.06692 -0.025091 0.269476 -0.017901 -0.161319 0.291097 0.146963 0.029447 0.358067 0.092411 -0.1499 -0.183924 -0.151295 0.063391 0.021674 0.002484 0.06706 0.105206 0.20362 0.134627 -0.084832 0.192708 0.106956 -0.241743 0.207226 0.121962 0.049966 0.111047 0.221352 0.15105 0.171088 0.296438 -0.143352 0.106868 -0.021231 -0.197897 0.103158 0.161811 -0.175175 0.126844 0.234398 0.119762 0.312353 -0.191018 0.144028 0.203938 0.11521 -0.109011 0.014094 0.081388 -0.164853 -0.11829 -0.150368 -0.152757 -0.424311 -0.154376 -0.079561 0.025294 0.37574 -0.025297 -0.136911 0.020606 -0.141548 0.135376 0.217599 0.072068 6.39E-4 -0.400916 -0.157576 0.15088 -0.083554 0.439729 0.17125 0.202429 0.235278 0.146786 -0.080923 -0.08935 0.054653 -0.253561 -0.198144 0.103318 -0.193627 -0.103757 -0.202956 -0.155111 0.026233 -0.283305 -0.230665 0.380415 -0.230574 -0.086812 -0.023634 -0.11187 0.065096 -0.212554 0.159274 0.134622 0.167693 0.102297 0.133992 0.18098 -0.215764 -0.176488 0.097703 0.197866 0.113478 0.235467 -0.336291 0.103569 -0.168214 -0.036993 -0.13415 0.245776 0.159045 -0.056477 -0.074897 0.302887 0.041915 -0.123367 -0.146842 -0.076717 0.25929 0.128937 -0.104745 -0.194414 0.003266 -0.021958 -0.206685 -0.343744 -0.124589 0.186086 -0.125025 0.065996 0.023056 -0.073854 -0.129279 -0.151489 0.033057 0.258531 0.35203 0.169603 -0.050849 -0.017901 0.083275 0.362531 0.035831 0.119664 0.119214 0.195677 -0.115422 0.018352 -0.038345 0.191126 0.10841 0.054441 0.053659 -0.134546 0.151466 0.041914 0.045896 -0.062579 0.290139 -0.215456 0.058582 0.074477 0.263531 -0.169388 -0.151761 0.276007 0.050173 -0.148452 0.320539 -0.07513 0.058346 -0.188703 -0.376891 -0.021536 0.133485 -0.063267 0.080239 -0.088497 -0.058068 -0.072924 -0.127038 -0.196548 -0.343725 -0.339318 0.070507 -0.122392 -0.135259 -0.198185 -0.191558 0.407935 -0.041774 -0.162972 -0.167486 0.187051 -0.297386 0.027632 -0.093381 0.028046 -0.019878 -0.239817 -0.141308 -0.096021 0.125711 -0.476046 0.086801 0.050979 -0.230599 -0.01749 0.016519 0.199141 0.176258 0.380938 -0.08835 0.016977 -0.007997 -0.16621 0.173274 -0.00717 -0.054497 -0.033793 -0.057519 -0.048462 0.217119 -0.04746 -0.054729 -0.018835 -0.127784 -0.009292 0.222133 -0.170734 0.24389 -0.244409 -0.049174 0.165033 0.201684 -0.10448 -0.367824 -0.105381 0.069824 0.192546 0.005519 0.020766 -0.087225 0.186684 -0.219791 0.131707 0.120399 -0.046851 0.049589 0.098578 0.051936 0.067859 -0.074931 -0.107298 -0.051716 -0.18844 0.038423 -0.296069 0.06977 0.220358 -0.280343 -0.296606 -0.033613 0.182222 -0.095728 -0.199372 0.084551 0.154361 -0.157554 -0.022748 0.184191 -0.024071 -0.091706 0.079565 0.007284 0.007049 -0.067722 -0.115959 -0.045724 0.055932 -0.114864 0.153419 0.021909 -0.006058 0.304029 0.02177 -0.122227 -0.185018 -0.236472 0.264473 -0.035162 -0.113081 0.024426 0.063961 -0.113244 0.072694 -0.149314 -0.265328 -0.057211 0.014427 -0.150097 -0.305395 -0.001765 -0.101169 -0.234702 -0.100114 -0.029326 0.157748 -0.111108 0.235991 0.102549 0.355982 -0.077753 -0.117299 0.141689 -0.011525 -0.08499 0.053889 0.018195 -0.318621 0.025967 0.155166 0.046957 -0.362342 0.250946 -0.059934 0.089783 -0.111476 0.040484 0.095506 0.023876 -0.268537 -0.381687 -0.175054 0.13294 -0.026746 -0.283705 0.096835 -0.108386 -0.107685 0.180416 0.167571 0.176971 -0.003721 -0.176097 -0.216012 -0.044171 -0.007872 -0.071702 0.154415 -0.181272 0.068165 -0.073745 0.13332 0.286679 0.068295 -0.184147 -0.02974 0.103107 -0.128751 0.097701 0.186511 -0.155347 -5.23E-4 -0.05285 -0.176952 0.135806 -0.14092 0.093239 -0.296585 0.038082 0.308448 -0.270737 -0.14396 0.227977 0.219819 -0.225812 0.208149 0.230898 0.024286 -0.293065 0.05153 0.158001 0.213314 0.086842 0.119369 -0.002203 -0.184661 0.063094 -0.19847 0.016583 -0.193829 0.117395 -0.022963 0.035759 0.191375 -0.10096 -0.042091 0.190969 0.284703 -0.150179 0.161732 0.240479 0.053774 -0.192918 0.078101 -0.128329 -0.124737 0.081167 0.057298 -0.194362 5.4E-5 -0.26842 -0.010899 -0.015998 -0.10308 -0.177806 -0.015889 -0.116936 0.151477 0.121551 -0.087547 0.121359 0.063177
mile 0.157423 -0.243106 -0.340499 0.104378 -0.341947 -0.204371 0.34766 0.050778 0.28704 -0.499441 0.147612 0.028329 0.181829 0.414823 -0.269085 0.093354 0.180571 -0.152917 -0.185884 0.274181 -0.124911 0.236625 0.142746 0.115291 -0.179354 -0.662002 -0.028452 0.334096 -0.14379 -0.038226 0.095656 -0.333658 0.327035 0.090853 0.095107 0.183561 -0.143627 0.094483 -0.01125 0.271844 0.550964 -0.032489 -0.231329 -0.294409 0.394044 -0.230558 0.313606 0.122693 0.026861 0.827203 0.039999 0.137974 0.123178 -0.207758 -0.435098 -0.15595 0.215223 -0.454671 -0.299626 -0.140149 -0.331899 0.17322 -0.479117 -0.051129 -0.441986 -0.017664 0.297736 0.315271 0.2156 0.469633 -0.072767 0.209388 0.269654 0.46991 -0.893939 -0.030155 -0.010017 0.207629 -0.022186 -0.003484 -0.406108 0.176667 -0.228294 -0.288182 0.537364 0.199571 0.183813 -0.483034 -0.140402 0.115986 0.350514 0.216869 -0.14894 0.186611 0.149197 -0.044963 -0.187042 -0.014928 -0.37173 0.234429 -0.205066 0.062868 0.16241 0.361042 0.057276 0.123764 -0.254246 0.171555 -0.211651 -0.287754 -0.141565 -0.363358 0.102512 0.279769 0.00867 0.022087 0.050485 -0.105502 -0.098527 0.195999 0.7442 -0.098388 -0.123048 -0.201305 0.096613 -0.153194 -0.106613 0.189959 0.040373 -0.072553 -0.24679 -0.152866 -0.479702 0.375837 0.06503 -0.105793 -0.144406 -0.177243 -0.229789 -0.272557 -0.054807 0.074204 0.222142 -0.215314 -0.52312 0.378079 0.016433 -0.055801 -0.204826 0.34337 0.324169 0.1117 0.224829 0.210812 -0.104491 -0.342729 -0.55181 -6.34E-4 0.006442 0.100693 -0.110726 -0.637187 -0.04825 0.183395 -3.28E-4 0.227414 -0.072919 0.266242 -0.133064 0.096537 0.043749 -0.583648 0.043688 -0.15609 -0.416405 0.098664 0.015672 0.577714 0.728618 0.553774 0.044884 -0.372694 -0.138504 0.360363 0.363308 0.104539 -0.192383 -0.326346 -0.019787 0.172524 0.583172 -0.395265 -0.123145 -0.122306 -0.145313 0.261646 0.188403 0.181675 -0.324598 -0.354181 0.313098 0.212329 0.0962 -0.015399 -0.430347 -0.155967 0.323744 -0.368799 0.084988 -0.272484 -0.283941 -0.016781 0.046513 -0.48882 0.035303 -0.018618 -0.134979 0.309728 0.369284 -0.02926 0.469951 -0.206347 -0.13942 -0.13018 -0.214053 -0.091122 -0.080493 -0.226651 -0.173882 -0.199644 -0.29074 -0.459909 0.33048 -0.167809 0.321431 0.204185 0.088453 0.267158 0.43596 -0.134125 0.249185 -0.144317 -0.246835 0.327212 0.09512 -0.184024 0.130621 -0.103639 -0.244864 -0.555509 -0.046099 -0.155986 -0.375604 0.189007 0.48288 -0.360989 0.05226 -0.401734 -0.257289 -0.144378 -0.174516 -0.329997 0.026286 -0.155584 -0.250364 0.102221 0.434872 -0.138914 0.268869 -0.003411 0.533133 -0.207174 -0.115183 -0.245421 -0.051728 0.082755 -0.192861 -0.455526 -0.306808 -0.194595 0.247555 0.222853 -0.258914 0.010708 -0.101172 -0.028905 -0.150784 0.121133 -0.378921 0.439372 0.103191 0.156364 0.153943 0.091737 0.355219 -0.446273 0.144285 -0.156225 0.396156 -0.016123 0.461545 0.030635 0.162689 -0.274136 0.421104 -0.067895 0.413322 -0.53441 0.204516 0.480027 0.430104 0.290821 0.174277 0.220034 -0.182814 0.200743 0.226541 -0.09052 -0.081295 -0.063158 -0.109061 0.176186 -0.37645 -0.017438 0.213325 -0.402743 -0.00113 -0.029636 0.154383 -0.194852 -0.464993 -0.14233 -0.456306 -0.06785 -0.035701 0.351605 -0.015239 0.014979 -0.079228 -0.059795 0.116743 -0.159318 -0.400379 -0.018573 -0.416778 -0.372988 -0.47932 0.57974 -0.137261 0.138094 -0.045285 -0.234897 -0.06233 -0.003181 -0.252425 0.657429 -0.168725 0.270791 0.47813 0.038315 -0.065185 0.31165 0.643408 -0.245119 0.35478 -0.114846 -0.532016 0.091442 0.076251 0.355186 -0.159833 -0.271248 -0.061115 -0.33916 0.010897 -0.302449 0.013858 0.004207 -0.035671 -0.1439 -0.063914 -0.201336 -0.210527 0.177869 0.15605 0.574587 0.012119 0.415263 0.39735 0.047617 0.569946 -0.121343 -0.593416 0.002692 -0.191674 0.21769 0.216689 -0.037337 0.078539 -0.225022 0.111511 0.26429 0.00242 -0.43399 0.043554 -0.560211 -0.460096 0.043757 0.057994 -0.355791 0.144468 0.013208 0.274571 0.367589 0.407397 0.489988 -0.322414 -0.284998 0.29204 0.321748 0.670674 -0.087505 -0.227577 0.181277 0.333784 -0.210468 0.100645 0.330219 -0.18175 0.206053 -0.044426 -0.447931 -0.226013 -0.197586 -0.207772 -0.25075 0.113903 0.00863 0.191162 0.110264 -0.132626 -0.217473 -0.47328 -0.711989 0.218942 -0.199213 -0.117777 -0.164946 -0.47969 -0.099585 -0.112328 0.052586 -0.184547 -0.238037 -0.039806 0.008001 -0.023449 0.420324 -0.144729 0.572932 -0.011954 -0.086112 0.228134 0.212365 -0.287795 -0.066615 -0.288754 -0.297622 -0.229191 -0.03137 -0.238055 -0.08168 0.234823 0.04561 -0.178879 -0.325316 0.17238 -0.1586 0.437191 0.046689 0.166675 -0.431924 -0.442372 0.035831 0.234437 0.052557 -0.427562 -0.326314 0.107757 -0.043963 0.088636 -0.444205 -0.408531 0.225955 0.009938 0.042087 -0.240222 0.04052 -0.056097 -0.078688
airport 0.108013 -0.167173 -0.057052 -0.079036 0.304611 0.026243 -0.145493 -0.044451 -0.01793 -0.148791 -0.167714 0.235208 0.093922 0.084323 -0.132111 0.200346 0.512437 0.03517 0.364375 0.003205 -0.011085 0.317966 -0.081545 -0.081785 0.079133 -0.143542 0.141281 0.30425 -0.008186 0.140705 -0.053721 0.2152 -0.090077 0.092241 -0.059196 0.130835 -0.093434 0.004251 0.382131 -0.191999 0.089845 0.119493 -0.163014 0.400114 -0.107818 -0.031465 -0.126816 -0.144669 -0.047222 0.321336 -0.143454 -0.07136 -0.133729 0.088854 0.110934 -0.105913 -0.105261 0.030295 0.179724 0.128001 -0.210674 -0.352096 -0.124075 0.122735 -0.06204 0.197818 -0.012372 -0.280113 0.171548 0.270243 -0.17766 0.051433 0.010208 -0.225111 0.186518 -0.060503 0.451719 0.18441 -0.052366 0.17221 -0.0367 -0.112472 0.364096 -0.168789 -0.438579 -0.224933 -0.062371 0.25146 0.175272 0.042007 0.021595 -0.149775 0.067553 -0.081481 -0.160967 -0.057242 0.167243 0.009505 -0.162623 -0.125717 0.011195 0.090185 -0.297732 -0.070667 -0.263598 -0.007944 -0.294651 0.061822 -0.092115 0.033189 -0.004704 0.280295 0.215267 0.174995 -0.099318 -0.159532 0.215561 0.384532 -0.063185 0.104373 0.145713 0.073524 0.166873 -0.229525 0.229735 -0.26369 -0.052244 0.070001 -0.093555 0.082149 0.199236 0.061398 0.022562 -0.485714 0.254244 -0.216642 -0.176482 0.048725 -0.159635 -0.101332 -0.038508 0.361328 -0.207215 -0.222802 -0.091593 0.200381 0.058703 -0.0678 -0.203743 -0.068389 0.034494 0.157588 -0.217628 0.293828 0.285621 -0.051197 -0.201097 -0.28583 -0.150985 -0.294591 -0.140673 -0.185333 -0.087431 0.052359 0.235075 -0.039869 -0.044328 0.142339 -0.064382 -0.280736 -0.184214 -0.008407 -0.022743 0.016664 -0.225168 0.105967 -0.056936 0.131355 0.342112 0.039257 -0.221984 -0.26933 -0.090641 -0.223826 0.349609 0.343986 0.633165 -0.163463 0.103088 0.11475 0.069059 0.032316 0.212184 0.383051 0.213895 0.154003 0.093726 -0.053138 0.095244 0.13684 0.130807 -0.103247 0.277002 -0.065175 -0.163375 0.242709 -0.132481 -0.054769 0.110215 0.387372 0.120483 -0.020305 0.133381 -0.26593 0.010057 0.054793 0.039771 0.196197 0.037849 0.160421 0.168896 0.133018 0.025015 0.028278 0.057308 0.262383 0.170106 -0.067349 0.089455 -0.363463 -0.096359 -0.15991 0.044726 0.065186 -0.027996 -0.196128 0.316862 -0.069197 0.071792 0.198088 -0.309581 0.331083 0.122541 0.003794 -0.089027 -0.432326 0.286456 0.019003 -0.279645 -0.196588 -0.025271 0.072918 -0.37038 0.064466 0.053811 0.245052 -0.007136 -0.231968 0.034099 -0.250001 -0.129973 -0.337929 -0.045903 -0.09548 -0.274363 -0.039602 0.167828 -0.144454 -0.116369 -0.306415 0.036447 0.122184 0.059316 -0.35386 0.062391 0.046443 0.068977 -0.056979 -0.026192 0.060176 0.093836 0.012494 0.360601 -0.21399 -0.17421 0.141589 -0.093334 0.298584 -0.167897 0.355783 0.014863 -0.054028 0.043218 0.190592 0.080616 0.210872 0.214389 -0.504407 -0.077928 -0.027736 0.084704 0.084937 0.098303 -0.065687 0.151044 -0.075478 0.155932 -0.157144 0.14702 0.33443 0.014402 0.337547 0.007859 0.124467 -0.142595 0.007364 0.227951 0.101222 0.135595 -0.261308 -0.101041 0.188391 -0.126046 -0.405097 -0.067815 0.073936 0.155532 0.173643 0.196249 0.306955 -0.360316 -0.068264 -0.415969 -0.103685 -0.237366 0.164119 0.203492 -0.119344 0.108365 -0.075915 0.186382 -0.189412 0.129241 0.146463 0.070862 -0.511484 -0.226011 0.068073 -0.231132 0.02135 0.386327 -0.163612 -0.172244 0.163168 -0.199477 -0.083526 0.136302 -0.080027 -0.065533 0.160517 -0.198817 0.569083 -0.226034 -0.077928 0.092765 0.277694 -0.128475 0.024984 0.131981 0.005922 0.024335 -0.066077 0.179225 -0.256508 0.024138 -0.074916 0.156034 -0.144427 0.176965 0.068943 -0.190039 -0.3738 -0.326914 0.037741 0.133746 0.162685 0.082182 0.288196 -0.239507 0.447834 0.314233 0.038992 -0.02533 0.3362 -0.032711 0.057654 0.129133 0.215566 0.073838 -0.070526 -0.215238 0.296317 -0.074861 -0.021039 -0.138899 -0.322406 0.13647 -0.057189 0.057423 -0.409136 -0.120306 0.03567 -0.139856 0.110319 -0.231559 0.255661 -0.075616 0.033221 0.117647 0.206615 0.109948 0.169729 -0.132625 0.039178 -0.144821 -0.243855 -0.030539 0.055023 -0.087978 -0.127832 -0.093626 -0.153544 -0.47018 0.160462 -0.017163 0.00284 0.097282 0.198479 -0.258856 0.19125 0.345521 -0.096259 0.361176 0.125239 -0.002546 -0.237963 0.491304 0.091573 -0.563441 -0.309932 -0.095602 0.145571 -0.10071 0.027602 0.26226 0.059533 -0.054706 0.024882 0.049972 0.051354 -0.118397 0.047575 -0.106366 0.144856 -0.102601 0.053522 -0.125683 -0.054105 0.131091 -0.176646 0.197477 0.181975 -0.10808 0.54078 0.028034 0.139647 -0.138568 -0.14687 -0.187041 -0.058497 -0.163455 -0.277134 0.174586 0.102759 -0.026701 -0.08907 -0.21991 -0.197891 -0.281974 -0.172015 -0.013057 -0.197231 0.349745 -0.290528 -0.098224 0.217405 -0.004479 0.011905 0.276825 -0.208857
population -0.064445 0.18744 0.010668 -0.375949 0.274161 -0.278006 0.013419 -0.096574 0.219935 0.014815 0.049666 0.182342 -0.032414 0.072444 -0.116108 0.364737 0.278236 0.137531 -0.100553 -0.042074 -0.029212 0.141573 -0.350392 0.10299 -0.230819 0.018992 -0.053563 0.237295 0.053691 0.08151 0.10069 0.096652 0.315095 0.120163 -0.224023 -0.117151 0.135794 0.459908 0.507507 0.048924 0.133355 -0.067815 -0.377355 0.095079 0.06465 0.14241 0.160065 -0.012699 0.102101 0.166561 0.014022 -0.032895 -0.145167 -0.063598 -0.21182 0.088354 -0.133656 -0.006816 -0.037488 0.064478 0.061881 0.035671 -0.325061 0.181221 -0.138119 0.222781 -0.096519 0.079144 0.260819 -0.030406 0.089518 -0.188146 0.233106 0.192189 -0.187721 0.059837 0.112022 -0.101717 -0.040701 -0.070289 -0.216472 0.153179 0.034393 0.042978 0.462629 -0.050528 -0.023047 0.084088 -0.121615 -0.312314 0.106833 0.20046 -0.018066 0.234478 0.095758 0.179263 0.097264 0.124151 0.177488 0.152165 0.040974 0.143685 -0.00994 0.203468 0.020581 0.040032 0.09415 0.047253 0.060286 -0.017481 0.13141 -0.010174 -0.035494 -0.157351 -0.11235 -0.064436 -0.102874 0.083041 0.0467 0.027219 0.079332 0.045406 -0.056389 -0.090599 0.046198 -0.078292 -0.013857 0.259174 -0.236014 7.26E-4 0.108857 0.187091 -0.075221 0.170128 0.142269 -0.041134 0.220797 -0.123207 0.127128 -0.168415 -0.134909 0.224151 -0.023195 0.133616 -0.335381 0.242702 -0.143622 -0.190522 -0.058787 -0.189191 -0.294757 0.115061 0.242473 -0.191886 0.145547 -0.141411 0.151891 0.188326 -0.04788 0.246478 0.079496 0.024478 0.238155 -0.120318 -0.171149 -0.201772 0.193209 -0.033143 -0.270631 0.073556 -0.145964 0.044282 0.259099 0.118969 -0.139623 0.082107 0.110505 -0.097678 -0.096918 -0.066518 0.010233 0.082454 -0.038426 -0.006688 -0.048958 0.181021 0.036329 -0.358466 -0.005122 -0.002967 0.314916 -0.203718 -0.202946 0.029459 -0.197807 0.093384 -0.073424 -0.174153 -0.300242 0.240237 0.027449 0.091465 0.01301 0.08995 -0.168773 -0.093235 0.018324 -0.010339 0.094739 -0.159182 -0.198992 0.110914 0.183088 -0.00265 0.285279 -0.071213 -0.15919 0.296668 0.095086 -0.106551 -0.059881 0.033655 0.094671 -0.202833 0.144673 -0.023251 -0.179654 -0.113911 0.028605 0.049154 0.004023 -0.10746 -0.078576 0.036952 -0.292662 0.169342 0.292774 -0.052551 0.242509 0.046155 -0.260894 -0.309567 0.034629 -0.339546 0.36057 0.012165 0.018845 -0.228739 -0.160558 -0.034349 0.144044 0.050213 -0.007518 -0.072571 -0.240514 0.269898 -0.146987 -0.179597 -0.030257 -0.306238 -0.226545 -0.376655 0.047179 -0.100424 0.367262 0.042026 -0.224822 -0.048382 -0.04201 -0.022191 -0.191361 -0.093526 -0.025901 -0.070157 0.058592 0.091775 -0.155219 0.216531 0.328051 -0.054495 0.007559 0.119067 0.260628 -0.07564 0.01633 -0.224354 -0.062643 0.080054 0.069254 0.031131 0.08806 -0.142378 0.308279 -0.080014 0.073386 0.003292 0.030728 -0.018089 0.233972 0.304681 0.258702 0.181551 0.035646 -0.140527 -0.140969 0.030828 -0.040409 -0.015906 -0.058362 0.286439 0.214063 -0.150476 -0.05832 0.027684 0.062324 -0.091377 0.257478 0.15924 -0.068801 -0.081673 0.284626 0.157204 0.118739 -0.195711 0.17345 0.141884 0.026392 -0.012294 -0.033006 -0.186553 -0.105538 -0.362277 0.112114 0.165306 -0.199526 -0.310304 0.056229 -0.145984 0.019769 -0.098075 0.059325 -0.299747 0.124738 0.007147 -0.317822 0.059178 0.059174 -0.029617 0.118766 0.065062 0.035193 0.156679 -0.239376 0.056301 -0.079313 0.098609 0.068078 -0.050634 0.147692 -0.108547 -0.106932 -0.175439 -0.170374 -0.007561 -0.031582 -0.044732 0.098844 -0.152801 0.013633 -0.09151 0.269853 -0.257934 0.131949 -0.10005 0.013467 -0.091548 0.150533 -0.005712 0.043508 -0.273148 0.221067 -0.002575 0.161894 0.235867 -0.310938 0.214841 0.252954 0.571766 -0.149725 0.110261 0.497382 0.155753 -0.269661 0.246381 0.086968 -0.113108 0.252999 0.202094 0.121239 -0.079801 0.152413 -0.033792 0.007994 -0.027985 -0.076586 -0.349909 -0.050223 0.148768 -0.078734 -0.157441 -0.255048 -0.050244 -0.394093 -0.095589 -0.102708 -0.062114 0.149963 -0.105543 0.292141 0.06037 -0.069242 -0.12775 -0.104782 0.305804 0.013773 0.182951 -0.005504 -0.155564 0.03355 -0.001267 -0.229848 -0.037541 -0.342257 0.250634 -0.017788 0.432558 0.05077 0.047982 0.206807 -0.124615 -0.091753 -0.291978 -0.05082 -0.053998 0.078615 0.050505 -0.248297 0.366187 -0.193397 -0.21335 0.090354 0.469278 -0.265785 0.118786 0.39273 0.077444 -0.141548 0.0721 -0.083261 0.113137 -0.006053 -0.054431 0.154651 -0.08598 -0.012403 0.446956 0.055952 0.10252 0.137978 -0.180731 0.11183 -0.172708 -0.12928 0.019608 0.007093 -0.089537 0.18519 -0.263569 0.184872 -0.092356 0.073763 -0.558392 -0.034976 -0.070224 -0.198646 -0.301075 -0.166109 0.0464 -0.063149 0.161626 0.004653 -0.102628 0.019071 -0.060453 0.291559 0.227086 0.22366 -0.175434 -0.123316 -0.097627
planning -0.064843 -0.202064 -0.127503 0.007209 -0.019244 -0.039308 0.162948 -0.09961 0.153299 0.086488 0.088946 -0.047732 -0.218768 -0.055644 0.125452 0.154991 -0.145309 -0.115104 0.014189 -0.256971 0.044938 0.068181 0.115052 0.014681 0.020645 -0.142292 -0.250785 -0.22161 0.036944 0.132372 -0.047824 0.114881 0.0355 0.19547 -0.055338 0.102347 0.039587 0.139864 0.119113 -0.104343 0.068018 0.21933 -0.145397 0.224636 -0.257924 -0.141102 0.191415 -0.157628 -0.07179 0.112989 0.042229 0.097407 0.022235 -0.098361 -0.163646 -0.330244 0.018941 -0.10887 -0.293247 0.164615 -0.23576 -0.181352 -0.089302 0.008072 -0.002946 -0.101993 -0.172235 -0.203162 0.064524 -0.078164 0.073607 0.011055 -0.14099 -0.073608 0.040719 0.182213 -0.052174 -0.032265 0.013932 0.117312 -0.0393 0.009861 -0.058679 -0.045111 -0.332733 -0.129114 -0.021461 0.254886 0.211712 0.038036 0.136549 0.294937 -0.022288 0.007114 0.118627 0.025074 0.1391 -0.092802 0.261625 -0.012369 -0.062902 0.070863 0.20228 -0.183335 -0.013274 0.107941 -0.194035 0.165746 -0.079201 0.331965 -0.064201 0.10199 -0.005055 0.155208 -0.004384 -0.139155 0.072557 0.150573 0.15597 0.156558 -0.003189 0.163043 0.022585 0.082635 -0.020322 -0.198584 -0.105825 0.130197 0.049834 -0.228349 0.18378 0.094024 -0.139325 -0.151439 0.051878 0.07178 0.274321 0.22103 0.007463 0.044882 -0.026668 0.190152 0.088527 0.171759 0.025329 0.217806 0.077644 0.021841 -0.042214 -0.028982 -0.00693 -0.051073 0.17302 -0.061402 0.222015 0.084061 0.16527 -0.012216 0.149326 0.005879 0.147241 0.06479 0.070793 0.083297 0.097598 0.132706 0.035735 0.066109 -0.263156 0.183422 -0.093209 -0.130621 -0.109503 0.163054 0.019534 -0.230753 -0.210295 0.00805 0.154209 0.007059 0.12253 -0.289644 -0.135388 9.53E-4 -0.337791 0.303099 0.143173 -0.144284 0.08015 -0.124713 0.062236 0.17299 0.115979 -0.195173 -0.011123 0.002363 0.056694 0.05593 -0.073497 0.112293 0.098672 -0.17959 -0.016383 -0.003806 -0.11158 0.107201 0.048001 -0.114681 0.176717 0.305063 -0.046849 0.147692 0.033493 -0.022486 0.15406 0.170472 0.0669 0.022984 -8.5E-5 0.09851 -0.014164 -0.056493 0.220997 -0.173261 -0.026133 -0.02894 0.061653 -0.091154 0.054763 -0.157038 0.1405 0.064549 0.183921 -0.13765 0.10204 -0.100196 0.126979 0.129818 0.102513 -0.01834 -0.162017 0.449002 -0.045132 -0.223882 0.10027 0.117318 0.215705 0.215736 -0.241857 0.073441 0.238376 0.142005 -0.228899 0.06655 -0.00804 0.10723 0.021478 -0.059104 -0.186554 0.060068 0.081193 -0.124779 -0.08539 0.140101 -0.022824 -0.07441 -0.069673 -0.020621 -0.068548 -0.071921 -0.256058 0.266853 0.086048 -0.048258 0.027736 0.191145 0.063222 -0.112193 0.138022 -0.118815 -0.163948 0.074795 0.120126 0.00845 0.145959 0.02491 0.159351 0.257215 -0.050484 0.035749 0.128702 0.096578 0.215523 0.126977 0.225609 -0.098735 0.020177 0.088822 -0.142151 0.083353 -0.130826 -0.001923 -0.105432 -0.254401 0.397537 -0.082234 -0.05208 -0.274512 -0.085421 0.071469 -0.030452 -0.115026 -0.281211 0.051957 -0.028501 0.072904 0.109343 0.003796 0.261197 0.034868 -0.020956 -0.031157 -0.112723 -0.277594 -0.096928 -0.226213 0.269971 0.046829 -0.003846 0.003761 -0.034008 -0.117385 -0.010444 0.182513 0.193842 -0.15115 -0.253805 0.034265 -0.118945 0.237446 -0.039934 -0.198788 0.03566 0.151386 -0.067996 -0.180993 -0.031006 0.057743 0.187412 0.05819 0.112901 -0.08059 0.133015 0.101019 -0.163478 0.123341 -0.249722 -0.060949 0.209938 0.275164 0.137947 -0.109155 0.02847 0.055407 -0.065661 0.100229 -0.184339 0.007183 0.009335 0.249801 -0.223639 -0.158247 -0.133129 -0.157334 0.131851 -0.150818 -0.087417 0.023681 0.196866 -0.027916 0.041883 -0.256153 0.062703 0.042314 -0.180172 0.182426 -0.059166 0.258397 0.074411 -0.090998 0.049486 -0.061192 -0.046305 0.183443 0.53423 0.122974 0.030213 -0.07053 0.2856 -0.268819 -0.078284 -0.055954 0.142592 -0.123993 -0.047234 -0.26141 0.00281 -0.146165 -0.204607 -0.085379 -0.010194 0.142517 -0.133126 -0.04285 0.249547 -0.033323 0.057362 0.071632 0.096824 -0.075998 -0.027125 0.263896 0.007602 -0.050725 0.005046 0.08628 0.014325 -0.050188 0.038927 -0.14821 0.087906 -0.224368 -0.448515 0.227321 -0.129756 0.004769 -0.139331 -0.120952 -0.033156 0.11186 -0.114904 0.053211 0.199968 0.096506 0.044092 -0.101288 -0.107358 -0.040493 -0.225843 -0.136426 -0.047273 -0.037221 -0.153233 0.211833 0.184437 -0.20613 -0.039527 0.153458 -0.091457 -0.009411 0.124664 -0.296329 -0.031501 0.113362 0.069848 -0.106615 0.17937 -0.072936 0.287929 0.053185 0.132319 -0.265928 0.006208 0.110293 0.036931 0.22 -0.214815 0.025754 0.329512 0.128773 -0.055122 -2.73E-4 -0.039152 -0.355464 0.115343 -0.050399 0.037006 -0.195931 0.18894 -0.062586 0.163511 -0.216342 0.065802 0.032708 0.188715 -0.007716 0.08595 0.079326 0.065747 -0.229352
canyon 0.111687 -0.057044 -0.274437 -0.16053 0.095253 -0.107352 -0.617428 -0.094487 0.212476 0.227647 0.034698 -0.048159 0.003586 -0.027296 -0.17805 0.177805 0.828896 0.389828 -0.413224 -0.060025 0.247943 0.166403 -0.311546 0.251558 0.108678 -0.349174 0.522219 0.067354 -0.248312 -0.168224 0.244725 0.308193 0.299817 -0.12038 -0.322775 0.124623 0.32113 0.213233 0.116044 -0.310805 0.589667 0.058054 0.435664 -0.143811 -0.093064 -0.052351 0.654902 0.197323 0.465781 0.429131 0.371954 0.240907 0.280523 0.014507 -0.221145 -0.374599 -0.030486 -0.339002 0.446572 0.09232 0.251964 0.139139 -0.32102 0.054314 -0.5924 -0.104824 0.678384 0.637135 0.380115 0.060829 0.029993 0.012008 -0.118406 0.306006 -0.101574 -0.015695 0.249324 0.102905 0.380392 0.23281 0.338866 0.053201 -0.243788 0.002458 -0.114977 0.024546 -0.475861 -0.378408 -0.105603 0.115924 0.418044 -0.294825 -0.069582 -0.651992 0.324961 -0.047228 0.074757 0.00334 0.07588 0.130631 -0.20398 -0.060721 0.156578 0.13004 -0.430641 0.187827 0.104826 -0.033997 -0.293855 -0.306157 -0.14256 -0.327667 -0.415867 -0.052128 -0.188373 0.029813 0.566223 -0.192223 -0.353166 -0.036809 0.099728 -0.04909 -0.33902 0.063135 -0.021447 -0.342709 -0.016825 0.122035 0.05052 -0.326453 -0.124362 0.038508 0.168262 0.313779 -0.107285 0.488849 0.164987 -0.280932 0.020379 -0.271917 -0.640842 0.461936 0.106567 -0.213739 -0.185049 0.592817 0.067313 -0.247937 -0.205521 0.251132 0.081588 0.102794 -0.086886 0.561303 -0.169343 0.050045 -0.288721 0.510602 -0.579648 -0.164813 -0.094098 0.282082 0.389559 0.012994 0.259294 -0.029062 -0.099547 1.49E-4 0.247878 -0.544538 0.31721 0.406454 -0.098162 0.027854 0.065179 0.204511 -0.084933 0.200669 0.39354 0.22146 -0.119722 -0.273973 -0.229537 -0.147239 0.170708 0.170716 -0.217726 -0.074008 -0.016708 -0.219281 0.282602 0.1554 0.283448 -0.03506 -0.27847 0.063078 0.399811 -0.561227 0.422491 -0.442636 0.009284 -0.497539 0.433862 -0.043096 0.246493 0.428232 0.036456 -0.015445 -0.091846 -0.290115 -0.170537 -0.369354 -0.022781 -0.231103 -0.283387 -0.270666 -0.424276 0.026497 0.562121 -0.416851 0.459403 -0.130098 0.306688 0.044228 -0.136072 -0.125687 -0.232108 -0.202843 -0.082249 0.138582 -0.10181 -0.182759 0.140721 -0.508034 0.2912 0.271418 -0.144299 -0.134079 0.339495 0.476927 -0.123974 0.073224 0.014408 0.314036 -0.020499 -0.371798 0.18238 -0.05927 -0.236693 -0.247836 -0.374906 -0.012469 0.398691 -0.290895 0.221954 -0.06628 0.062937 -0.136832 0.073839 -0.567648 0.16133 -0.227543 0.200945 0.043505 0.148627 0.088385 0.040685 -0.100662 0.02734 -0.577718 0.109702 0.285621 -0.47053 -0.016787 0.461665 0.090648 -0.098933 -0.103735 0.274868 0.133507 -0.023008 -0.11206 0.053646 -0.687049 0.172496 0.281992 0.346831 -0.174317 -0.041231 0.120226 0.26596 -0.48988 -0.134839 -0.186776 0.461487 -0.176833 0.108955 -0.042197 -0.67973 0.134451 0.132155 -0.107929 -0.125318 -0.103021 -0.065341 -0.180137 0.175073 -0.133337 -0.566332 -0.17304 0.57695 -0.0229 -0.123986 -0.136863 0.050089 0.192722 -0.046074 -0.088485 -0.043376 -0.268612 0.118161 0.569282 0.053278 0.578272 0.214617 -0.188457 -0.32111 0.28091 0.222415 -0.06768 -0.214931 -0.317691 -0.450243 -0.187012 0.034325 0.266024 0.215885 0.047682 0.081852 -0.481058 -0.002257 0.043459 -0.069803 -0.291411 0.183322 -0.796608 0.087443 0.310624 -0.59428 -0.059662 0.130301 -0.337124 -0.256286 0.526914 -0.335459 -0.181115 -0.235834 0.119905 -0.158383 -0.072415 -0.132091 -0.314947 0.508806 0.540168 0.096403 0.080437 0.276114 0.028405 -0.001892 0.106284 0.144558 -0.205844 0.244522 -0.161093 -0.239153 0.079191 0.131456 0.162332 0.083599 0.049296 -0.333341 -0.299253 0.345489 -0.21524 0.314312 0.343545 0.135002 0.469777 0.120265 -0.197786 0.295634 -0.322081 0.00427 0.063684 -0.119279 -0.161211 -0.240559 -0.508061 0.023922 -0.150997 0.702586 0.474711 0.069034 -0.094199 0.244829 0.158402 0.326277 -0.272179 -0.044986 -0.226128 0.00597 -0.264763 -0.161252 -0.500124 0.224604 0.493828 -0.119836 -0.110016 0.432769 0.539573 0.110113 -0.009287 -0.074665 0.043429 0.558153 0.213477 -0.059574 -0.127719 0.208911 0.942606 0.307496 0.227479 -0.021101 0.016444 -0.763802 -0.109454 0.095364 -0.13785 -0.042572 -0.351449 -0.132909 0.238782 -0.357274 -0.250723 0.247403 -0.031339 0.053166 -0.011214 -0.272461 -0.337085 -0.164637 0.118007 0.100086 0.011213 0.109891 0.081281 -0.524769 0.324983 -0.054136 0.442083 0.022873 0.015468 0.447918 0.5966 -0.489898 0.08917 0.148298 0.234115 0.199196 0.136286 0.095201 0.476263 -0.231572 -0.113635 0.386155 0.311307 0.020717 -0.165991 -0.223429 -0.495774 -0.228127 -0.392324 0.358183 -0.200627 0.010367 0.048066 -0.296293 0.071621 0.279672 0.058072 0.120831 -0.183841 -0.523823 -0.178369 0.06426 0.157538 0.371796 0.320854 0.458959 0.027786
delay -0.136063 0.181896 0.173415 -0.164139 -0.175427 -0.338531 -0.011581 -0.106831 -0.11419 0.142297 0.028218 -0.145013 0.177116 0.282126 0.041809 0.189953 -0.093705 0.063971 0.333574 -0.310339 -0.176688 0.151704 -0.251185 -0.166031 0.38334 -0.019576 -0.074189 -0.112079 -0.181865 0.31194 -0.26081 -0.009569 -0.104299 -0.007164 0.074833 -0.065519 0.18321 -0.206941 -0.062736 -0.267432 -0.048989 0.002596 -0.090614 -0.011216 0.059711 0.263057 -0.009887 0.016996 -0.057611 -0.255405 -0.001353 0.372876 0.087127 -0.126766 0.549775 -0.064396 -0.025516 0.151205 0.072518 0.127677 0.034733 -0.171261 -0.126563 0.105351 -0.078721 0.306973 -0.159598 -0.309681 -0.146145 -0.155868 -0.4881 0.282698 0.213474 -0.010884 0.002434 0.115008 -0.258366 0.440416 -0.027958 -0.017586 0.049164 0.041384 0.144206 -0.122354 -0.003521 -0.183222 0.1583 -0.028177 0.236611 -0.290589 -0.001252 0.065682 -0.131399 0.25537 -0.115807 -0.175637 -0.184244 0.204397 0.03757 -0.038927 0.157259 0.136529 0.166658 0.111862 -0.005091 0.172244 -0.076229 -0.184685 -0.156853 0.148356 -0.136935 0.034355 -0.183242 0.246382 0.135822 0.003319 0.071057 0.079702 -0.196242 0.199798 0.193006 0.023848 0.032308 -0.037393 -0.138858 -0.051482 -0.180063 0.110221 -0.178394 -0.06956 0.093167 -0.456114 -0.06135 -0.163387 0.03642 0.036645 0.106886 -0.055954 -0.075434 -0.401829 0.344454 0.147981 0.123506 0.35855 -0.194679 -0.102307 -0.084346 -0.189316 0.016493 -0.18587 -0.243725 -0.447833 -0.109423 0.029747 -0.253507 -0.124896 0.045892 0.088927 -0.059939 -0.169232 -0.126765 -0.147101 -0.125912 -0.151979 -0.013363 0.014046 0.142899 -0.112719 -0.20388 0.190516 0.031952 -0.045895 -0.461515 0.110674 -0.26471 -0.253478 -0.01807 -0.002132 -0.015161 0.112534 0.106026 -0.163471 -0.152843 -0.237622 -0.213548 0.166006 0.270951 0.079518 0.236921 0.102867 -0.198729 -0.030303 0.184462 -0.291695 -0.049864 0.129693 0.166555 -0.08224 0.311568 -0.047836 -0.488503 -0.335093 -0.198984 -0.167629 0.028881 0.334193 -0.23539 0.048168 0.169336 -0.220016 -0.087384 -0.119382 -0.006268 -0.084432 0.153941 -0.11738 -0.175983 0.037535 -0.181505 0.089122 0.091817 -0.110914 0.066949 0.213215 -0.005392 0.322202 -0.110718 0.260316 0.26218 0.083431 0.10053 0.224837 0.333745 -0.324808 -0.159825 0.023271 0.307276 -0.041172 0.297713 0.480459 0.148042 0.224649 -0.364953 -0.071282 0.239843 -0.11345 -0.131805 0.265197 -0.585747 -0.211843 0.092258 0.175343 0.110401 0.226566 -0.345015 0.068374 -0.341882 0.160316 0.225025 -0.144365 0.035639 -0.296656 0.018444 -0.177969 -0.209684 -0.142015 0.17406 -0.287516 -0.11579 -0.065809 -0.076892 -0.019655 0.231038 0.167175 0.025324 0.143805 -0.03585 0.073149 -0.124159 0.010742 0.04538 0.163483 0.187208 -0.086981 -0.15522 0.194895 0.281616 0.189386 -0.320493 -0.190193 -0.047127 -0.261703 0.13846 0.188978 0.20666 -0.262752 0.081195 -0.165043 0.020263 -0.03252 0.177393 0.074898 -0.160869 0.036059 0.378216 0.248685 -0.135133 -0.476991 -0.106211 0.140691 0.157175 -0.256656 -0.311337 0.07898 -0.03426 0.471617 0.163337 0.136538 0.309885 0.213761 -0.083115 -0.063458 -0.019286 -0.142099 0.107623 -0.26419 0.116452 -6.13E-4 -0.115412 0.073 -0.066157 -0.425417 -0.00265 -0.045345 -0.032192 0.075087 0.084759 -0.213439 0.242697 0.274165 -0.193276 -0.12943 0.008635 -0.046075 -0.121969 -0.272924 0.187019 0.1355 -0.109829 0.235163 0.0192 -0.234839 0.134624 0.161846 0.041617 -0.065206 0.175558 0.017439 0.053362 0.212742 0.137156 -0.28522 -0.160705 -0.034965 0.069817 0.261809 0.334932 -0.12302 -0.015541 0.247793 -0.294857 -0.315004 0.329233 0.407302 -0.239585 -0.181027 -0.005647 -0.138546 -0.082238 -0.248336 -0.179433 -0.169041 -0.138497 -0.005423 -0.028584 0.126469 0.015195 0.555868 0.29429 0.006316 0.107197 0.218948 -0.13819 0.151172 -0.131858 0.082659 -0.094268 0.025366 0.582721 -0.121113 0.245993 0.033021 -0.139354 -0.130958 -0.07076 -0.433739 0.220195 0.123115 0.120773 -0.090538 0.029151 0.189776 -0.173734 0.132023 0.333035 -0.231039 0.106143 -0.069904 0.019255 0.159202 0.153435 -0.056314 0.114807 0.16932 -0.158008 -0.034207 -0.002604 -0.208478 -0.058142 -0.099785 -0.039647 -0.201572 -0.118128 0.386149 -0.253241 0.12535 -0.306456 0.16058 -0.15476 0.109528 0.034281 0.282767 0.224 -0.11353 -0.136522 0.032998 0.276758 0.039049 0.085152 -0.270784 -0.145897 -0.073512 -0.566849 0.339218 0.093016 -0.192848 -0.086196 0.039962 0.094781 -0.178925 -0.003651 0.061455 0.133294 0.141222 0.067946 0.070739 -0.11667 -0.126 0.270431 -0.069811 0.257063 0.376322 0.159059 0.001728 -0.137509 0.39409 0.040785 -0.074292 -0.049497 0.373087 -0.009296 0.304068 0.005724 -0.113629 -0.053579 0.196369 0.090672 -0.068159 0.148213 -0.310744 0.102135 0.077852 -0.034166 0.343627 0.09831 -0.141569 -0.003156 -0.005832 0.305192 -0.027871
size -0.114959 0.24125 0.0486 -0.330696 0.1337 -0.102377 -0.063779 0.230486 -0.083529 -0.101311 0.048328 -0.024686 -0.18912 -0.154253 0.144969 2.83E-4 0.124103 0.030536 -0.049175 -0.137698 0.150047 -0.035666 -0.153554 -0.148324 -0.197283 0.101586 -0.106343 0.058488 0.129941 -0.0171 -0.194452 0.008371 -0.009238 0.22385 -0.231639 0.028579 0.170077 0.155668 0.095831 0.08963 0.200671 -0.007609 -0.073751 -0.223527 -0.158048 0.05161 0.025548 0.045628 0.067341 0.147512 0.066816 0.025905 0.219123 -0.047113 -0.153606 -0.324108 0.037213 -0.251395 -0.326865 -0.096353 -0.158013 0.128158 0.077846 -0.047158 -0.172479 0.213183 -0.065367 0.274865 0.219347 0.206288 0.020609 -0.027126 0.142755 -0.150149 -0.086843 0.030112 -0.135528 0.078047 0.123255 -0.146178 0.084562 -0.160222 -0.119824 -0.126704 0.107918 -0.160371 -0.004067 -0.108172 0.273469 -0.203347 0.156748 0.411323 0.155595 -0.155012 0.066738 0.148708 -0.104332 -0.092988 0.245596 0.235406 0.067317 0.272597 -0.056002 0.232509 -0.087981 0.235213 -0.184629 0.025867 0.265391 0.236971 0.049186 0.098927 -0.304528 0.505504 -0.097129 0.01014 0.169174 0.234262 -0.094902 -0.005854 -0.003417 -0.209845 0.060151 -0.063846 0.333491 0.031096 0.040837 0.101438 0.016796 -0.152921 0.177494 0.077605 0.071185 0.059838 -0.153047 0.118485 0.104434 -0.132679 -0.008319 -2.4E-4 0.108905 -0.098588 0.27375 -0.09206 -0.125129 0.045288 0.306202 -0.107447 0.022351 -0.169148 -0.070908 -0.24365 0.057446 -0.016891 -0.061051 0.141308 0.002976 0.052555 0.053287 0.170622 -0.173513 -0.229723 0.121619 -0.289976 -0.151947 0.041303 0.127453 -0.101766 -0.216447 -0.070443 -0.258451 -0.088734 0.186502 0.069695 0.080491 0.086549 -0.140673 0.141244 -0.112322 0.346601 -0.174067 0.181459 -0.086402 -0.1814 -0.111855 0.192019 -0.00112 -0.107055 -0.062641 -0.009253 0.183215 -0.090347 0.021593 0.006934 -0.296094 0.093237 -0.121281 -0.067165 -0.064878 0.086232 -0.161708 0.215149 0.038464 0.086543 0.024727 -0.163649 -0.223785 -0.213154 -0.085438 0.073133 -0.062562 0.420974 0.180609 0.049363 -0.05993 0.03979 -0.122257 0.096654 0.503698 0.032183 0.260318 0.090618 0.355408 -0.24033 -0.054974 -0.141701 0.139718 0.210565 0.189712 0.189651 0.318435 0.004393 0.034369 0.026883 -0.244696 -0.01782 0.209786 -0.021751 0.035385 0.084196 -0.141015 -0.053919 -0.154098 -0.039257 0.087064 -0.006179 0.050221 -0.021573 0.113439 0.01847 -0.028284 -0.285046 -0.01024 -0.099445 -0.044308 -0.215823 0.334401 -0.293775 -0.18792 0.235117 -0.267964 -0.501313 0.090038 -0.040349 -0.0454 0.143548 -0.016973 0.065422 -0.287592 0.216932 0.130808 0.099103 -0.070121 0.090158 0.144371 -0.044212 -0.221555 0.084127 0.264226 0.054379 0.171628 0.182565 0.15732 0.050263 0.212705 -0.102393 0.184932 -0.040662 0.150124 -0.082509 0.08062 0.017659 -0.133654 -0.128591 0.212024 0.061937 0.115105 -0.1827 -0.003684 -0.117252 0.358581 0.01658 -0.145001 -0.109547 -0.221834 -0.158368 -0.304225 0.056258 0.030898 0.198075 0.274043 0.03019 -0.250007 -0.058903 0.088713 -0.008881 0.079593 0.0143 0.036309 0.144226 0.183326 0.100584 -0.308763 -0.368576 0.173398 -0.254781 0.12504 -0.08804 0.361589 0.018152 -0.005108 -0.110156 0.17628 -0.238747 0.184107 0.052548 0.170953 -0.313175 -0.233127 -0.102397 0.163506 -0.392172 0.185832 0.057796 -0.139684 0.095986 0.144469 -0.2248 -0.111424 0.06225 -0.028028 -0.398297 0.038938 0.092528 -9.32E-4 -0.050934 -0.249942 -0.012286 -0.122856 -0.199714 0.341824 0.045011 -0.064071 -0.17257 -0.015583 0.199918 -0.011196 -0.052864 -0.230061 0.00236 -0.132454 -0.046482 0.192959 -0.206497 0.224244 -0.332547 -0.01245 -0.213167 0.160291 -0.01417 -0.019955 0.311771 0.190299 0.20948 -0.305465 0.082271 -0.176361 0.285817 -0.245883 0.072205 0.31813 -0.082444 -0.200209 -0.07049 0.225668 0.183732 0.006437 -0.065231 0.154334 0.02617 0.155891 -0.0413 0.239878 0.00188 0.049329 -0.245243 -9.98E-4 0.349645 0.158229 -0.295573 -0.378368 -0.258435 -0.081578 -0.099234 -0.021762 0.055772 0.103082 0.141873 0.027683 0.222885 0.235223 -0.055175 0.062015 0.263 -0.097584 -0.103082 0.089696 -0.226041 0.016934 -7.15E-4 0.230781 -0.231159 -0.013323 0.217321 0.007204 0.254801 -0.08137 0.150342 0.132527 -0.152606 -0.040643 0.046924 -0.010224 0.344999 0.154456 -0.130381 -0.172855 -0.390327 -0.132454 -0.293039 0.118762 0.431273 -0.303502 0.158019 0.385389 0.124111 -0.123515 0.167297 -0.207914 0.020918 0.003398 0.219904 -0.040453 0.286939 -0.051728 0.233881 0.182155 0.309502 0.071198 0.109643 0.14932 0.056751 0.006314 0.08372 0.093806 0.192114 0.101368 -0.001752 0.053042 -0.158363 0.00161 -0.172111 -0.098924 -0.224445 0.060771 -0.136854 -0.085613 0.118162 0.298808 -0.03372 0.002493 -0.135477 0.03157 0.090239 0.06092 0.166219 0.161622 0.096275 -0.194502 -0.058054
peace 0.357494 -0.011191 0.071963 -0.211047 0.146981 0.097242 0.014529 -0.088598 0.118579 0.099392 0.128393 -0.100573 0.065771 0.296844 -0.131766 0.249841 0.043692 0.173828 -0.084637 -0.143505 0.09843 0.28976 -0.125035 0.315382 -0.063864 0.194131 -0.268789 0.193258 0.049161 0.284419 0.02946 0.012041 -0.307032 -0.003044 0.034112 0.159836 0.169862 0.237144 0.029681 -0.18919 -0.048364 -0.173557 -0.254938 -0.036118 0.463174 0.26018 0.336551 0.047977 0.059289 0.531626 0.036276 0.211846 0.103848 -0.057625 -0.293949 0.177895 -0.147938 -0.237436 -0.379102 0.217799 0.16117 0.013504 -0.04079 -0.135909 0.00573 -0.189135 -0.040535 -0.181686 0.318299 -0.05549 -0.129775 -0.281419 0.066448 0.373706 0.03904 -0.060729 0.079292 0.10253 0.081685 0.327613 0.009251 -0.18526 -0.16363 -0.300015 -0.014387 -0.094495 -0.262716 -0.075634 0.202036 0.056895 -0.075329 -0.247621 -0.024348 -0.024202 0.008081 0.065288 0.009312 -0.198139 0.164129 0.332812 -0.144209 -0.134874 0.057763 -0.353716 -0.033791 -0.201564 -0.045248 0.262654 -0.011077 0.198656 0.022246 -0.015986 -0.371836 -0.079748 0.044523 -0.021372 -0.156929 -0.081081 0.022937 -0.058579 -0.132479 -0.187505 -0.154559 0.065145 0.044988 -0.406691 -0.133638 -0.035763 -0.267365 -0.098266 0.022839 0.295276 -0.1671 -0.204605 0.143239 0.13555 0.201457 0.324502 0.121286 6.82E-4 -0.094973 0.106641 0.068567 0.146974 -0.279952 0.119456 -0.332417 0.246887 -0.299021 -0.13779 0.242944 -0.122527 0.201666 0.032437 0.011973 0.058345 0.214813 -0.342299 -0.084213 -0.301562 0.151998 -0.030153 0.39356 -0.123528 -0.05755 -0.339787 0.137561 -0.205338 0.102099 0.111302 0.326697 0.060209 -0.058722 0.111666 0.154178 0.22667 -0.024011 -0.082244 0.334058 0.31029 -0.252158 0.343699 -0.178363 -0.042079 0.07037 0.09781 0.109674 -0.192527 0.001563 0.246718 0.011752 -0.014408 0.238212 -0.353709 0.033421 -0.194714 -0.177031 -0.160716 -0.192953 -0.219773 0.028987 -0.427617 -0.242383 -0.015441 -0.17119 -0.215394 0.075313 -0.08029 -0.10382 -0.305854 -0.143653 -0.183575 -0.044022 0.003604 0.184967 0.011108 -0.06739 -0.424176 -0.101295 0.162846 -0.014965 0.12738 -0.250264 0.175145 -0.182082 0.191557 -0.061255 -0.100615 0.019342 0.087882 0.104231 -0.03069 -0.360421 0.187333 0.047341 -0.080153 -0.212277 -0.008535 -0.268833 -0.033584 -0.206749 0.139686 -0.194967 0.002056 0.055317 -0.353822 0.101046 0.478771 -0.03751 -0.235408 0.274966 8.86E-4 0.213071 -0.028446 0.002329 0.171991 -0.354423 -0.150495 0.092135 -0.487601 0.226466 0.069815 -0.121104 -0.341559 -0.073857 -0.236464 -0.228847 -0.001786 0.060559 -0.397285 -0.132236 -0.087392 -0.120869 -0.152026 -0.072422 0.031969 0.041984 0.119781 -0.240816 -0.497353 -0.0549 -0.203204 0.184724 -0.251677 -0.173425 0.224931 -0.131778 -0.048062 -0.23689 0.253443 -0.13847 -0.126492 -0.151874 0.10852 0.295129 0.145402 0.285676 -0.051634 -0.076933 0.280736 -0.205668 -0.081725 0.349304 0.024382 0.054912 -0.108157 0.282902 -0.098264 -0.1201 -0.019503 0.087675 0.058406 0.21535 -0.00403 -0.140639 0.259682 0.318875 -0.001642 0.031753 0.052509 -0.130616 -0.024874 -0.035342 -0.331286 0.00587 0.148052 -0.061656 -0.149543 -0.082074 0.122197 0.214435 -0.034222 0.036449 -0.260828 -0.239574 -0.249229 -0.032924 -0.039049 -0.11328 -0.148187 0.163051 -0.25424 -0.110077 0.189767 0.111093 0.056826 0.011987 -0.130199 -0.118768 0.051649 -0.085941 -0.269898 0.106114 0.046047 0.189218 -0.329022 0.033608 -0.052773 0.028853 0.223237 0.064933 0.319815 -0.149639 -0.196706 -0.258079 0.025947 0.106293 -0.176328 0.147301 0.075287 -0.013618 -0.15271 -0.044324 0.058912 -0.021497 -0.120092 0.133294 -0.3072 0.151878 -0.018015 -0.017912 0.09205 0.279124 0.072179 0.197421 0.396683 0.156441 0.356179 0.107182 0.009365 0.651091 -0.068211 -0.080189 0.126997 0.047991 0.086966 0.183615 0.411458 0.150031 0.025265 -0.140787 0.109993 0.029822 -0.134186 -0.053713 0.003691 -0.270243 -0.196272 -0.104622 -0.167957 0.039963 0.179124 -0.174012 -0.100049 0.147527 0.530172 0.330669 -0.058523 0.069108 -0.298386 0.152797 0.15121 -0.078639 0.187563 0.058385 0.131695 -0.130309 0.430091 0.198478 0.222323 -0.245131 -0.141528 0.17948 0.201327 -0.55247 -0.16336 -0.084035 0.515799 0.008609 -0.336298 -0.099809 0.0828 0.172147 0.21892 0.057105 -0.323473 0.092244 0.382577 -0.139946 -0.506203 0.311474 0.322451 -0.210352 0.170471 0.451712 -0.29864 -0.182404 0.045177 -0.241567 0.222714 -0.237348 -0.284131 -0.304248 -0.239319 -0.162206 0.251469 -0.013373 0.015654 0.295427 -0.056795 0.099633 0.149444 0.175273 -0.134732 0.195896 0.028493 0.111321 -0.191551 -0.057345 -0.315438 0.243788 -0.066925 -0.094202 -0.209751 -0.149605 0.043329 -0.122269 0.165076 0.00782 0.043147 0.077481 -0.09965 -0.242525 0.186933 0.284161 0.071181 0.125028 0.103817 -0.133997 0.063903
science -0.064837 -0.026651 0.023485 -0.303373 -0.013956 -0.244902 -0.023322 0.534897 0.099274 0.028192 0.039383 0.306717 0.082424 0.211597 -0.062548 0.130097 -0.016794 -0.01285 -0.061123 -0.382561 0.107254 -0.360102 -0.073775 0.068711 -0.015299 -0.224255 -0.047845 0.220896 -0.042525 0.297529 0.02224 0.084975 0.290128 0.005656 -0.244109 -0.068421 0.079839 0.234916 0.046039 -0.075239 0.053136 -0.423716 0.045313 0.367697 0.136011 -0.105836 -0.077549 0.13427 -0.259218 -0.227404 0.118785 -0.037148 -0.06814 -0.308772 -0.031216 -0.001524 -0.288746 -0.056257 -0.284962 0.176779 -0.002595 -0.333087 -0.063622 0.163911 -0.300741 0.117132 -0.045782 0.231968 0.045686 -0.231414 -0.019979 -7.81E-4 -0.045341 0.290927 0.062671 -0.009916 -0.105854 0.026059 -0.025214 0.031505 0.226282 -0.222075 -0.228884 -0.077652 0.168807 -0.413424 -0.187233 -0.328713 0.06899 -0.095693 -0.113219 -0.269164 -0.026315 0.037167 0.146841 0.148046 -0.070008 -0.088984 0.099882 0.064886 -0.084765 -0.14064 -0.018693 -0.044545 0.016881 -0.192575 -0.060448 -0.122431 0.310186 -0.139577 -0.092896 0.166416 -0.065522 -0.33421 0.193157 -0.170461 0.603713 0.260085 -0.027739 0.259583 0.058735 0.017231 0.040757 0.124474 0.305116 -0.293734 -0.105299 -0.110597 0.047885 0.243011 0.070912 0.113232 -0.161923 -0.102569 0.185834 -0.159789 -0.207704 0.144327 0.097625 0.064373 -0.019585 0.162923 0.117928 0.121545 -0.06229 0.086589 0.08613 0.035769 0.242446 -0.040269 0.155622 0.183418 0.050186 -0.11428 0.200327 -0.03491 0.239931 -0.015887 0.197726 -0.073596 -0.006837 0.168407 -0.034205 0.1491 -0.139779 0.009863 -0.010478 -0.273863 -0.164178 -0.202403 0.072266 -0.178915 -0.00862 -0.176546 -0.322867 0.172252 -0.228388 0.053511 0.153997 0.395197 -0.494111 -0.214401 -0.413138 0.01156 -0.368227 -0.284402 -0.08436 0.14707 -0.356329 -0.001213 -0.068016 -0.245275 -0.211757 -0.379187 -0.045107 -0.026886 -0.073299 -0.123672 -0.246567 -0.088371 0.051533 -0.165167 -0.016216 0.125348 -0.074621 0.170263 0.125665 0.105662 -0.070968 -0.130187 -0.117903 -0.026505 0.07826 -0.015069 0.091829 0.108856 -0.537211 0.243893 -0.208409 -0.169434 0.008237 0.407509 -0.192831 0.024324 -0.008398 -0.408912 -0.01934 0.08823 0.114972 0.307082 0.015052 0.00151 -0.3779 -0.210678 0.201032 -0.142493 0.22192 -0.062159 0.151564 -0.259284 -0.006586 0.187404 -0.141546 -0.065409 -0.127126 -0.170606 0.162442 -0.042198 -0.340359 0.170825 0.049224 0.226365 -0.193552 0.158405 0.003035 0.004466 0.233461 0.068364 0.209712 -0.003445 0.232968 -0.085008 -0.379502 -0.25062 0.213987 -0.117203 0.008825 -0.021128 0.020643 -0.331991 0.129249 0.22008 0.223686 -0.149024 0.220655 0.053039 -0.058619 -0.161296 0.069192 -0.042084 0.055054 0.005513 0.128374 -0.347528 0.189772 0.298878 -0.072022 0.154163 0.342207 0.039017 0.155695 0.153455 0.024059 0.242725 -0.1624 0.007022 0.324806 -0.054882 0.097208 0.033199 0.064063 0.185367 -0.092561 0.011471 -0.258912 0.099731 -0.203401 -0.151692 0.032432 -0.309065 -0.104068 0.244702 -0.430124 0.198935 -0.186397 0.09744 0.075901 -0.194777 -0.018667 -0.22506 -0.170293 0.233548 0.337171 0.072325 -0.166587 0.097723 0.084294 -0.00981 0.094905 0.038805 -0.141705 -0.050196 -0.228714 -0.312092 -0.062225 0.011982 -0.240448 -0.502391 0.406505 -0.068171 -0.033525 0.284523 0.098829 -0.173798 -0.244857 -0.182032 0.144101 0.054291 0.216897 -0.019426 0.411742 -0.044744 0.207574 0.218399 -0.073995 -0.015216 -0.09723 0.055093 0.296014 -0.013362 0.410597 0.004872 0.068874 -0.322107 -0.074338 0.065888 -0.04084 0.118083 0.137511 0.018624 -0.126397 -0.400907 -0.070813 -0.123535 0.02689 0.200683 0.103842 -0.422309 0.256171 0.006078 0.320242 -0.101992 -0.061011 -0.009773 -0.192012 0.45503 0.012605 0.296365 -0.314692 -0.095238 0.210895 0.274555 -0.431516 0.237766 0.153585 0.320969 0.14817 0.104781 0.021893 -0.229511 -0.105787 -0.112357 0.022671 -0.30505 -0.363055 -0.086092 -0.197966 0.198789 0.041306 0.155032 -0.024513 0.083466 -0.191986 -0.120127 -0.004222 0.022371 -0.034557 -0.230509 -0.158253 0.128086 -0.258589 0.123392 -0.059921 -0.180873 0.012622 -0.136249 -0.135012 -0.03621 0.194307 -0.326362 -0.160096 0.352094 -0.347009 0.319011 -0.221457 0.218094 -0.247689 0.155885 -0.112995 -0.142013 -0.163461 0.106892 -0.087986 -0.030498 0.120615 -0.194721 0.089522 -0.249798 0.019679 -0.003217 -0.205827 -0.024902 -0.12079 0.009525 0.021335 0.083748 0.259788 -0.239179 0.003712 -0.23731 -0.137774 -0.048203 -0.139852 0.184864 -0.075011 -0.214225 -0.118734 0.287699 -0.164529 -0.100546 -0.005087 -0.071864 0.098394 -0.283597 -0.178174 0.101045 0.222903 -0.125836 0.177316 -0.250062 0.05151 -0.354597 -0.002969 0.104985 -0.23227 0.038183 -0.296668 -0.026925 0.111883 0.380146 -0.093926 0.124439 -0.054726 0.14347 0.391777 -0.020799 -0.032217 0.097258 -0.148767 0.157363
dawn 0.421324 -0.153974 0.221353 -0.212645 0.079612 0.317858 0.290521 0.37139 0.09488 0.114429 0.170314 0.127772 -0.217841 0.354937 -0.249328 0.413222 -0.899935 0.096427 0.130312 0.071465 -0.227043 0.090597 0.05896 0.135455 -0.43987 -0.316345 -0.29166 0.104964 -0.148063 0.228077 0.082989 -0.248986 -0.132641 0.415366 -0.210762 0.384965 0.022304 -0.279827 0.419641 -0.238285 0.624603 0.216958 -0.102583 0.199014 0.291474 0.278814 0.520316 0.200155 -0.132181 -0.02495 0.211212 -0.077123 0.237403 -0.084837 -0.043363 -0.479192 0.215995 -0.248396 -0.069507 0.587016 0.22691 -0.330701 0.063769 0.033246 -0.55431 -0.172715 0.003593 0.06559 0.472458 0.185908 0.262948 -0.185559 0.229785 0.159218 -0.031936 -0.306757 0.320608 -0.292486 -0.006681 0.16345 -0.016742 0.018017 -0.072604 0.061099 -0.037003 0.471101 -0.671011 -0.290702 0.10725 -0.145464 0.036944 0.276902 -0.339664 -0.15724 -0.585077 0.373 -0.126603 0.204363 -0.43913 -0.002448 -0.542252 -0.341298 -0.204691 0.231204 0.087857 0.110101 0.04697 0.798441 0.298134 -0.515571 0.021501 -0.383021 0.285256 0.225264 0.293382 0.16605 -0.016183 -0.1176 -0.595151 0.237109 0.349021 0.043369 -0.117969 -0.029725 0.182581 -0.271078 -0.268936 0.247849 -0.09322 -0.389077 0.283985 0.174724 0.004116 -0.115057 0.414663 -0.352834 -0.304271 -0.273838 -0.709493 -0.154551 0.160941 -0.240918 -0.486132 -0.204554 -0.005875 0.168728 0.270974 -0.333172 0.334715 -0.308496 0.402627 -0.283702 0.409826 0.433063 0.294427 -0.43926 -0.126928 0.538625 -0.210255 -0.033874 0.105659 -0.453767 0.396614 0.140938 -0.295608 0.10238 -0.566098 -0.217278 0.362658 0.730105 -0.163503 -0.070783 -0.392114 -0.199339 -0.001752 0.071178 0.148465 0.177731 0.523539 0.247109 -0.338098 0.053191 -0.38126 0.147225 -0.150652 0.223873 0.338462 -0.156668 -0.169012 0.344233 -0.297505 -0.171635 0.024915 -0.050028 0.303885 0.419129 -0.267975 -0.194328 0.050659 0.07068 0.075471 -0.510432 -0.341305 0.334886 0.24931 -0.097489 -0.262572 -0.126544 0.062829 -0.002958 0.213106 0.066181 -0.351865 0.423691 0.134211 -0.283932 0.055361 0.638097 -0.112736 -0.247966 -0.006411 0.080688 -0.291108 0.105844 0.065475 0.256764 0.223922 -0.13279 0.149102 -0.158484 0.318665 0.224579 0.137549 0.554653 -0.235126 0.845869 -0.047713 0.009292 -0.156937 0.189471 0.33254 0.400036 -0.018098 0.073851 -0.142733 -0.579542 -0.042675 0.23743 0.093696 -0.461141 -0.147086 0.481511 -0.276287 -0.075309 0.143418 0.085535 0.277159 0.264576 0.051211 -0.012824 -0.103917 -0.431458 -0.207598 0.271654 -0.128816 -0.149889 0.141435 -0.130304 -0.094291 -0.004313 0.262464 0.060538 0.00233 0.188304 0.140776 -0.244685 0.144741 -0.008492 -0.291147 -0.02774 0.209084 0.056922 0.111732 -0.029427 0.141056 0.190642 0.077618 0.141146 -0.189012 0.813836 -0.055228 -0.077247 0.175729 0.077187 0.19799 -0.536004 0.150417 0.125842 0.101317 0.05446 -0.017579 0.070129 -0.127861 0.317851 0.41099 -0.337689 -0.190346 -0.276134 -0.001104 3.0E-5 0.501675 0.401509 -0.359911 0.107915 0.060757 -0.204337 0.184273 0.408954 0.419003 -0.245903 -0.037755 0.152895 -0.224544 -0.182351 0.094248 -0.147176 -0.075022 0.356394 -0.281426 0.329743 -0.246902 -0.340967 0.05494 -0.026431 0.004623 0.156315 -0.307314 0.049057 0.55186 0.286155 -0.034192 0.267327 -0.256292 0.098549 0.211569 -0.144866 0.363791 -0.185629 -0.265087 -0.180051 0.090645 -0.197085 -0.08504 0.330727 0.2181 0.48851 0.069748 0.21415 -0.260167 -0.148263 0.488806 -0.134065 0.074099 0.245852 -0.177741 -0.295898 0.086487 0.10431 0.018544 0.502944 0.618509 -0.317402 -0.059983 0.005974 -0.146809 -0.041925 0.135209 -0.14731 0.4236 -0.156228 -0.558123 0.077889 0.246017 -0.229771 -0.046283 0.233269 0.061611 1.15E-4 -0.537324 0.191337 0.487556 -0.19067 -0.072328 0.331109 0.031738 -0.116847 0.228238 0.155457 -0.163819 0.110493 -0.151783 -0.22002 0.412759 -0.496402 0.098926 0.323728 -0.24766 0.372828 -0.045823 -0.080441 -0.419491 -0.081624 -0.460808 0.31027 -0.20168 0.090818 -0.572884 -0.357312 0.438925 0.07453 0.024823 0.012784 -0.480317 0.071398 -0.080415 -0.182835 0.336872 0.174172 -0.176144 0.174028 0.155446 -0.494415 -0.118612 -0.647993 -0.457945 0.019002 -0.098342 0.156474 -0.135256 -0.286642 -0.047953 0.421986 -0.074288 0.005855 -0.293082 -0.433385 0.442907 -0.153648 -0.086792 -0.650331 -0.343817 0.257739 -0.15661 -0.061154 0.484228 0.020664 -0.207668 0.605304 -0.009513 0.490044 0.469738 -0.39586 -0.180952 0.249918 -0.13739 -0.115396 0.42042 -0.071093 0.148473 0.6134 0.106429 0.369898 -0.206487 0.13324 -0.146612 -0.046584 0.308642 0.068439 -0.073078 0.438604 -0.255278 -0.013581 -0.096583 -0.039428 0.280476 -0.026353 0.104042 -0.011328 -0.364316 0.217707 0.091275 -0.437808 -0.48932 -0.399038 -0.241325 0.013009 0.370359 -0.274267 0.246823 -0.279825
