432 500
plane -0.155807 -0.31296 0.020398 -0.049851 0.175689 0.084087 0.069656 0.012482 0.145615 0.06397 -0.063092 -0.058639 0.221732 -0.019725 0.151237 -0.096377 -0.163961 -0.201831 0.075476 0.383412 -0.126812 -0.098459 0.12803 -0.129747 -0.083401 -0.082629 0.197536 -0.109044 0.049468 0.138376 0.318913 0.558548 -0.324991 -0.208358 -0.062634 0.104776 -0.179546 -0.039503 -0.04574 0.471942 0.053348 -0.165464 0.033241 -0.297142 -0.063253 0.216822 -0.127574 -0.040743 0.395066 0.00335 0.218031 0.226937 -0.203301 0.161616 0.234808 0.352073 -0.112154 -0.513029 0.373633 0.11769 0.16003 -0.022065 0.119366 0.117171 0.267035 -0.3681 0.142537 -0.148701 -0.212312 0.011317 0.198464 -0.008054 -0.048584 0.295164 0.01354 -0.167642 -0.331218 -0.105514 -0.197424 -0.169919 0.125818 0.019457 0.248662 -0.213489 -0.057432 0.051553 0.005617 -0.592459 -0.115648 -0.287814 -0.25057 -0.135333 0.328264 0.032318 -0.127334 0.234177 0.09094 0.345226 -0.054501 -0.42544 -0.170038 -0.169289 -0.027579 0.20005 0.06556 -0.258997 -0.277646 -0.029535 0.112424 0.426223 -0.257784 0.389592 -0.229572 0.242352 0.158229 0.042353 0.034304 -0.254537 -0.11821 0.149065 0.025325 -0.253228 0.00191 -0.198822 -0.104855 0.040126 -0.024879 0.003356 -0.169232 -0.333413 0.064012 0.012839 0.075964 -0.188826 0.02299 -0.28645 0.082313 0.124601 -0.022119 -0.098313 -0.357395 0.140287 -0.084022 -0.254819 -0.246841 0.192406 0.213709 0.295624 -0.204416 0.189293 0.404892 0.17165 0.00689 -0.006214 0.239043 0.070522 0.24055 0.054534 0.054533 -0.033174 -0.30876 0.237405 0.023624 -0.218726 -0.141816 0.321433 0.097471 -0.113478 0.182034 0.376173 -0.331956 0.23568 0.168888 -0.049051 -0.196125 -0.081899 0.146412 0.298789 -0.326905 0.126171 -0.139223 -0.170544 -0.03304 -0.352235 -0.012708 0.028449 0.057526 -0.161635 0.185206 -0.003262 -0.117626 0.073314 0.336337 -0.031396 0.2529 -0.198245 -0.044879 -0.11583 0.059406 -0.230067 -0.130709 -0.26572 0.04096 0.060263 -0.121785 -0.034065 0.149478 -0.181149 0.279083 -0.140792 0.098538 0.175503 0.100745 -0.255685 0.233916 0.318169 0.045186 0.104654 0.058243 -0.185116 0.025531 -0.121133 -0.147474 -0.149898 0.378657 0.085745 0.255265 -0.189211 0.38984 -0.13803 -0.035545 0.128606 0.121912 -0.373562 0.13864 -0.241799 -0.08474 -0.145278 -0.115602 -0.297119 0.178441 -0.324138 0.37325 -0.067175 0.147008 0.068187 0.276278 0.206679 -0.013428 0.007349 -0.12094 0.127407 0.107238 -0.060421 0.13219 -0.212707 -0.10417 -0.126664 -0.177246 -0.189078 0.175655 -0.048375 0.009979 -0.121815 -0.13922 0.032688 -0.06567 -0.361312 -0.155827 -0.042386 -0.087241 -0.049803 -0.207623 -0.135444 -0.115901 -0.17889 -0.106371 0.345235 -0.018748 0.435769 -0.116831 0.236913 0.04432 -0.166345 0.208102 0.187269 0.426853 -0.084697 0.063378 0.025277 -0.208519 -0.134402 0.209962 0.3282 0.206474 0.011792 -0.362852 -0.093081 0.086905 0.302521 -0.237658 0.062703 0.218867 -0.138655 0.082298 -0.181289 -0.177332 -0.165692 0.017879 -0.113578 0.598256 0.256082 -0.125458 0.020955 -0.236606 0.085479 -0.275942 0.296598 0.145491 0.258802 -0.207175 -0.150246 -0.165008 0.193 -0.138112 0.328429 0.128055 0.201586 0.126327 0.36736 -0.214522 -0.005639 -0.197234 0.253469 0.049082 -0.018218 0.131267 -0.007735 0.358596 0.170115 0.118872 0.15259 0.288153 0.211082 0.127258 -0.30334 -0.10472 -0.064885 -0.306658 0.005504 -0.047895 -0.157424 0.115124 -0.055168 0.058624 -0.093405 -0.106567 0.141897 -0.206636 0.117786 0.113627 -0.127687 0.05221 -0.199603 -0.205541 0.355361 -0.083197 0.085225 0.234116 0.015442 0.082228 -0.103974 0.09882 -0.129734 0.002859 0.080112 -0.058669 -0.460498 0.317797 -0.22293 0.234683 0.160471 0.220052 0.270113 -0.158154 0.243049 -0.11462 -0.236045 0.183747 -0.09357 0.061901 0.062447 0.187773 0.030968 0.136627 0.108902 0.01444 0.407067 -0.313439 -0.178642 0.044971 -0.140637 0.622349 0.174304 0.170227 -0.036771 -0.167087 -0.220733 0.318148 0.35113 0.378056 -0.075351 -0.045383 0.065542 -0.043556 0.095699 -0.092965 -0.251609 0.137718 -0.313082 0.096471 -0.056606 -0.402592 0.347207 0.259172 0.026616 -0.339775 -0.012469 -0.068525 -0.079043 -0.184293 0.41263 0.003987 0.232995 -0.134553 0.062856 0.127413 -0.022929 0.267549 -0.073901 -0.180797 -0.001073 0.209443 0.225133 -0.019639 -0.148286 0.01293 0.284915 0.003791 -0.031455 -0.065646 0.002005 -0.112544 -0.233799 0.252115 -0.002372 0.096254 -0.171213 0.149425 -0.165298 -0.112649 0.268666 -0.107851 0.183044 -0.035654 -0.02785 -0.10996 -0.167496 -0.070565 -0.088205 -0.092764 -0.218191 0.253647 -0.152458 0.057232 0.106607 -0.034222 0.164098 -0.160814 -0.054234 -0.166758 -0.273797 0.043391 -0.018478 0.026552 0.15749 -0.036185 0.133281 0.133012 0.004924 -0.227376 4.13E-4 -0.231216 0.052302 -0.075196 -0.129954 -0.348805 -0.225626 -0.075858 0.053917
stupid -0.35638 0.397814 0.128985 0.14769 0.078235 -0.05777 -0.202624 -0.087661 0.292844 -0.530297 0.078403 -0.103906 0.04306 -0.212251 0.381051 0.018346 0.16499 -0.367673 -0.360731 0.106542 0.04246 -0.480168 -0.044551 -0.538926 0.258921 -0.156151 0.531737 -0.004524 -0.143391 -0.300153 0.434594 0.311751 0.121528 0.007773 -0.138957 0.211362 0.403249 0.055004 -0.143708 -0.390064 -0.309865 0.02098 -0.241942 0.206186 -0.151979 0.008334 -0.167447 -0.100107 -0.238195 -0.337393 0.350399 0.028619 0.215861 0.2075 -0.084406 -0.097005 0.064049 -0.341927 0.060321 -0.034533 -0.3112 0.022277 0.038206 -0.053796 -0.019813 0.001031 0.286563 0.086274 0.188032 0.245456 0.075082 0.118788 0.027861 -0.102089 0.217411 0.071627 -0.171476 -0.192644 -0.264611 0.051297 -0.328743 0.021702 0.217979 -0.334015 0.015445 0.142202 -0.595835 0.079897 -0.008469 -0.567773 0.545819 -0.105384 0.064401 -0.065359 -0.136088 -0.604515 0.071616 0.115665 0.188509 -0.182093 -0.094229 0.219917 0.179443 -0.282025 -0.148011 -0.294071 0.312815 -0.124217 -0.027739 -0.484736 0.075195 -0.179188 0.092722 -0.176552 -0.31136 -0.135099 0.124372 0.0752 -0.3186 0.201819 0.187231 0.07367 -0.101272 -0.06924 -0.014268 -0.301905 0.028654 -0.14191 0.13874 0.101682 0.272214 0.365962 0.159817 0.173674 0.128757 -0.056871 -0.497544 -0.119904 0.053268 -0.173081 0.175577 0.362281 -0.073269 0.171387 0.306873 0.220254 -0.093946 0.126102 0.041646 -0.240596 0.311424 -6.47E-4 -0.160589 -0.134804 -0.070225 0.245205 0.10988 0.230962 -0.135704 -0.279986 -0.495694 -0.346481 -0.179368 0.073221 0.02616 -0.088766 -0.190186 0.075189 0.554047 0.289599 -0.321782 0.213854 0.125203 -0.015285 -0.337818 0.08781 0.096378 -0.163738 -0.019407 0.176942 -0.101503 -0.098023 0.025489 -0.190448 -0.230636 -0.307402 0.226272 -0.219917 -0.066465 -0.282132 0.61872 0.376866 0.093957 -0.039144 0.198372 -0.091925 0.245057 0.071712 -0.001662 -0.220051 0.310513 -0.278293 -0.159851 0.247597 -0.038971 0.258842 -0.069753 -0.136715 0.508954 0.373123 -0.292696 0.527361 -0.141388 0.194927 -0.052629 -0.023695 0.266103 0.385981 0.174894 -0.257546 0.098994 0.12177 0.507243 -0.589956 0.13493 0.196034 0.139187 -0.333654 0.351881 -0.221759 -0.583127 -0.032002 -0.070954 0.174794 0.166953 0.04669 0.157952 0.39782 0.050532 0.135141 -0.420078 0.17739 -0.058707 -0.425618 0.006057 0.046819 0.268067 0.189859 -0.278239 -0.0341 -0.102071 -0.018416 0.191794 0.496974 0.063408 -0.229269 0.2809 0.23293 -0.107717 -0.205893 -0.193994 -0.440442 0.218267 0.186027 0.077958 0.012291 0.074588 -0.470766 0.125435 -0.252337 0.156845 0.147153 0.042415 0.163393 0.378874 0.311763 -0.189514 -0.554437 0.040944 -0.521981 0.057587 0.321481 0.063648 0.011242 -0.060065 0.104945 -0.053143 0.228777 -0.106125 -0.094883 -0.119729 -0.236444 -0.051452 0.149778 0.001305 -0.11278 -0.098428 0.062981 -0.021742 -0.090264 -0.188238 -0.32897 0.427677 0.034295 -0.177968 0.044293 0.324595 -0.360628 -0.033334 0.481751 0.001597 -0.107263 -0.185721 0.095369 -0.269209 0.567486 -0.023198 0.251398 0.06578 -0.218494 -0.053764 0.16566 -0.316038 -0.017909 -0.156386 -0.034527 -0.121785 0.083172 0.059415 -0.204394 -0.431221 0.072227 -0.13352 0.13713 0.43582 0.038478 -0.148308 -0.270944 -0.265278 -0.241516 0.249877 0.097726 -0.286555 -0.193171 0.231402 -0.224661 -0.202113 0.091792 0.293329 0.27289 0.028919 0.017029 -0.541535 0.053657 -0.100162 0.378719 0.160555 -0.081733 -0.015265 -0.461352 0.019025 -0.094641 0.057307 -0.194078 0.354257 -0.415278 -0.055626 0.182293 0.194091 -0.108695 -0.147701 0.397943 0.064746 -0.109228 0.175128 0.116241 -0.129513 -0.326545 -0.224332 -0.181139 0.379692 0.346989 0.149911 -0.264089 -0.03786 -0.062975 -0.083099 -0.449191 -0.145551 -0.123439 0.121839 -0.263723 0.321192 0.134966 -0.12849 0.033284 -0.16436 -0.220345 -0.357181 0.050084 0.037943 -0.109555 -0.418318 0.298478 0.23617 -0.350427 0.042194 -0.195612 -0.422785 -0.13593 -0.121013 -0.185534 -0.078229 -0.105385 -0.127988 0.207781 -0.136552 0.201558 0.216774 -0.205598 -0.075409 -0.156154 0.15404 0.271312 0.072635 0.163815 -0.42361 -0.18387 0.150551 0.106662 -0.350753 -0.097814 0.148176 0.244661 0.08052 -0.004436 -0.08479 0.099738 0.164873 -0.293944 -0.011271 -0.148526 0.328997 0.033777 -0.097296 -0.018484 -0.039966 0.465924 0.297697 -0.249151 -0.019876 0.055186 -0.214636 -0.066551 0.010363 -0.274797 0.003418 0.089364 -0.09759 0.323861 0.045274 0.198068 0.440305 -0.334363 0.313778 0.032812 0.314062 -0.371805 -0.288613 0.026936 -0.040377 0.010759 0.135013 -0.046528 -0.084564 0.397417 -0.090927 -0.058073 0.04577 -0.122622 -0.257822 -0.154342 -0.155348 0.064272 0.344077 -0.410926 0.06157 0.042997 0.435316 -0.019451 0.139142 -0.178193 -0.297737 6.22E-4 0.08468 -0.014067 -0.183626 0.319494 -0.030467 0.130005
egg -0.42498 0.489792 -0.093967 0.085486 -0.099065 0.200294 0.156756 0.203818 0.402222 -0.108136 0.449316 -0.285045 -0.041325 0.503204 -0.185962 -0.108503 -0.224339 -0.29062 -0.243476 0.287279 0.078252 0.20166 -0.04983 0.110583 0.046302 -0.361391 -0.178726 -0.103268 0.131796 0.019736 -0.097672 0.2063 -0.407645 -0.060976 0.096981 -0.026378 -0.10007 -0.00938 0.355217 0.24513 -0.280025 -0.095399 -0.164896 0.288321 0.098574 0.216052 0.046499 -0.103375 0.18964 -0.535299 0.004507 0.190352 0.427447 0.091591 -0.192405 -0.438122 0.101656 -0.388619 0.160362 0.036142 -0.161339 -0.053146 -0.017204 0.376771 -0.223469 0.076463 0.200674 0.949734 0.431725 -0.166322 -0.297449 0.276571 0.242553 0.369529 0.124814 -0.084235 -0.407245 0.175547 -0.338368 -0.338266 0.138183 0.178634 0.353538 -0.424132 0.130052 0.180986 -0.752267 -0.395187 0.017479 0.146002 -0.367862 0.002636 0.217066 -0.299962 -0.256442 -0.209681 -0.160017 0.23965 -0.078925 0.131793 -0.142952 -0.095871 0.013081 0.045681 0.12798 -0.130132 0.209742 0.069286 -0.214141 0.013282 -0.234591 0.209453 0.023678 -0.346356 -0.047089 0.208681 0.064467 0.197613 0.264403 -0.096602 -0.102321 0.014109 0.163957 -0.065476 0.145366 0.079823 -0.580764 -0.177114 -0.232819 0.269387 0.153893 -0.183451 0.179007 0.105325 -0.092528 -0.036903 -0.002965 0.035375 -0.398932 -0.442491 0.051902 -0.012259 -0.232801 -0.053401 -0.015789 0.17601 0.025894 -0.059393 0.164581 -0.009569 0.504178 -0.101954 -0.007744 0.036171 -0.779565 -0.209156 -0.416829 -0.043284 -0.036898 0.236886 0.15053 -0.124069 0.045615 -0.455742 -0.021926 -0.399814 0.011663 -0.117911 0.538955 0.081527 -0.074763 0.620075 0.370836 -0.150857 -0.196738 0.574643 -0.111731 0.331083 0.252414 -0.167686 0.176129 -0.321784 -0.052419 -0.054356 0.129551 -0.023172 -0.021468 -0.39444 0.236752 -0.190004 0.134518 0.255183 0.231118 0.01767 0.129146 0.186051 -0.3817 -0.068094 -0.03443 0.161377 -0.274993 0.268904 -0.184539 0.487926 -0.137706 -0.112531 -0.223124 -0.179503 -0.001816 0.24164 -0.085588 0.032678 0.009567 0.464084 -0.093474 0.335142 -0.066241 0.078225 0.078429 -0.15866 0.015797 -0.036799 -0.140296 0.103815 0.143852 0.061618 0.075826 0.376601 0.222617 0.115853 -0.498017 -0.104971 0.064861 0.100354 0.003637 0.263315 -0.460166 0.080102 -0.234465 0.382483 -0.01954 0.166131 -0.049722 -0.319242 0.098968 -0.278761 0.386134 -0.33896 0.049798 -0.56404 -0.07831 -0.120718 0.54163 0.11617 0.04875 0.139871 0.019323 -0.596786 0.213336 0.010638 0.006274 -0.187161 0.037511 -0.440838 0.154387 0.220846 -0.152076 0.655615 0.165241 -0.240277 -0.110259 0.423805 -0.617727 0.031397 -0.221175 -0.473579 -0.027372 -0.159051 -0.263468 -0.003403 -0.355462 -0.029425 -0.091639 -0.298648 -0.080252 0.479933 -0.068983 -0.198918 -0.019248 0.287041 -0.441178 0.181598 0.358611 0.019344 0.111876 0.300889 -0.536125 -0.338334 -0.211333 0.334781 -0.201278 -0.081253 0.297795 -0.243413 -0.100974 0.195542 0.094951 -0.046825 -0.055307 0.033659 -0.210586 0.176737 -0.138844 -0.199295 -0.083122 -0.026693 -0.088476 0.174743 0.333698 -0.189985 -0.033768 -0.08388 0.291796 -0.371971 -0.601202 -0.015894 0.193478 0.105803 -0.245077 0.190129 -0.422391 -0.061586 0.30094 0.066671 0.263514 0.038206 -0.202735 -0.281884 0.492027 0.177743 -0.362288 -0.100067 0.065287 -0.144969 0.382054 -0.390156 0.467017 -0.16845 0.407321 -0.324958 0.546749 -0.159603 0.152997 0.077487 0.479061 0.514738 0.273862 0.017183 -0.027835 0.124572 0.21504 0.158135 -0.213652 0.019222 -0.332531 0.235158 0.044303 -0.18459 0.095507 0.18414 0.126181 -0.020466 0.24934 -0.021533 -0.314423 0.389073 0.325443 -0.347695 -0.13357 -0.243537 -0.005704 0.170378 0.144737 -0.117058 0.260476 0.26666 0.078889 0.48807 -0.265634 0.211916 -0.262245 -0.300813 0.342496 0.002625 0.071367 0.116868 0.024422 -0.122755 0.139132 -0.066111 0.456063 -0.287557 -0.185636 0.00171 -0.202023 0.108557 0.440566 -0.076916 0.420569 -0.175215 -0.485483 -0.179572 -0.252257 -0.212751 -0.182158 0.128105 0.243375 -0.754753 0.183049 -0.079117 0.045547 -0.278001 -0.028945 0.140989 0.15899 -0.218211 0.371238 0.106864 -0.088436 0.326923 0.111387 -0.192915 -0.714511 -0.38237 -0.080056 0.249581 0.033191 -0.116815 0.214316 -0.176382 0.068828 0.086326 -0.3966 0.114588 0.148448 -0.508381 -0.079216 -0.371392 -0.128327 -0.555793 0.302215 0.247702 0.357337 0.192053 0.15553 0.145659 -0.012416 -0.34569 -0.085621 0.177504 -0.056699 -0.097358 -0.28659 -0.198958 -0.41363 -0.177211 -0.381691 -0.193384 -0.060897 0.332229 -0.303202 0.071501 -0.032993 -0.311861 0.116885 0.243758 0.177504 -0.305902 0.118389 0.104435 -0.014638 -0.279228 0.007168 -0.172046 0.154753 0.02125 -0.492398 0.335753 0.186558 0.197298 -0.023783 -0.303308 0.049721 -0.013227 0.354008 -0.283967 0.207107 0.017341 -0.405823 0.338379
year -0.042193 -0.139011 0.019121 -0.123432 -0.041448 0.135529 -0.108573 -0.024778 -0.025492 0.105595 0.036707 0.128985 -0.091513 -0.031371 0.007383 0.102541 -0.112688 0.064308 0.049407 0.019098 -0.217957 -0.134683 5.41E-4 -0.058726 -0.01398 0.065629 -0.234809 0.001964 0.079112 -0.063593 -0.105568 0.227906 0.003055 -0.073505 -0.112056 0.00811 -0.191453 0.014174 0.144837 0.110841 -0.150269 0.029026 -0.11863 0.152775 -0.150087 -0.073542 -0.068795 0.013716 0.055343 -0.237463 0.146431 0.006577 0.066468 -0.15579 0.050611 -0.049518 -0.020689 -0.05571 0.13006 0.007225 -0.00987 0.127128 -0.097783 -0.092781 -0.005106 0.030749 -0.06834 -0.084867 0.108665 0.116081 0.115283 -0.054673 0.281574 0.231715 -0.103614 -0.162296 0.152294 -0.304834 0.1058 -0.080641 0.049939 -0.032802 0.056916 -0.117238 -0.13509 0.143662 -0.073286 0.196617 0.076619 0.132583 0.172597 -0.164984 0.259945 -0.003185 0.143536 0.001408 -0.039165 -0.065061 -0.117708 -0.002209 -0.127256 -0.028529 -0.008433 0.059876 0.057914 0.113106 -0.039472 0.006741 0.025021 0.127658 -0.155219 0.0881 -0.108564 0.080802 -0.269031 0.063058 0.201975 -0.057767 -0.048678 0.143764 0.024031 -0.098965 0.088927 0.018861 -0.045796 0.076783 0.139908 -0.163717 -0.342422 -0.043116 0.035609 0.162783 0.151811 -0.071569 -0.089748 0.020503 0.003325 -0.111781 -0.275776 0.319852 0.005133 0.029871 -0.103393 -0.050443 0.0057 0.0184 -0.068904 0.086046 -0.052934 0.09701 -0.078804 -0.065332 -0.127441 0.093818 -0.069493 -0.00909 0.199727 -0.072988 -0.192862 -0.125358 0.163894 -0.019925 0.069853 -0.162719 0.10875 -0.145223 0.042144 -0.108053 -0.148914 -0.19389 -0.096662 -0.012296 0.147662 0.132772 -0.217897 0.037236 0.048239 0.36439 0.04278 0.038991 -0.143466 0.273595 0.090613 -0.222749 -0.069061 -0.013125 -0.012951 -0.189184 0.132842 0.085908 0.108727 0.015555 -0.017232 0.04694 0.077978 -0.058105 0.006875 -0.082106 0.118988 0.1025 0.197412 0.041123 0.160429 -0.011101 -0.01338 0.184763 -0.068085 -0.054735 0.188556 -0.003498 -0.02238 -0.015649 -0.040801 0.138677 0.185496 -0.085537 -0.019239 0.06859 0.135294 -0.144366 -0.010302 -0.044837 0.053042 0.067536 0.291491 0.017476 0.114049 0.047485 0.163786 0.016831 -0.076846 -0.095756 -0.036978 -0.012879 0.03127 0.172761 0.070332 -0.036493 -0.038649 0.122526 0.013953 -0.160143 0.077192 -0.09183 -0.005622 -0.035557 -0.004935 -0.160383 0.118072 -0.032936 0.079309 -0.045221 0.129481 -0.085546 -0.214317 -0.170793 0.033204 0.015825 -0.104307 0.17216 -0.004925 -0.004804 0.094805 0.101432 0.236981 0.009712 -0.135118 0.093153 -0.021134 -0.045028 0.063331 0.079228 -0.195815 0.067616 -0.067005 -0.058337 -0.265333 0.172187 -0.250319 0.227644 -0.223826 -0.07465 -0.009367 0.009493 0.195882 0.024582 -0.008139 0.002535 -0.004548 -0.085147 0.085772 0.098705 -0.084455 0.046597 0.03885 0.075036 -0.108862 -0.046367 0.188155 0.052462 0.15299 -0.322696 -0.14396 -0.066598 -0.137817 -0.09849 -0.03952 -0.044107 -0.036972 0.0849 0.048936 0.105703 -0.167364 -0.101557 0.046668 0.019432 0.040012 -0.123491 0.108641 0.205016 0.248779 -0.133714 -0.119539 0.107972 -0.093502 0.039769 -0.06535 -0.175672 0.030646 0.193955 0.005384 -0.112763 -0.218734 0.056133 0.142749 -0.096034 0.14384 -0.024853 -0.044839 0.02312 -0.150116 -0.158985 0.037852 -0.057085 -0.148388 -0.065209 -0.035062 -0.076208 -0.162487 -0.187482 -0.104001 0.026168 0.03945 0.196157 -0.131645 0.256349 0.098571 0.044576 -0.012886 -0.093543 -0.079718 -0.059453 -0.069488 -0.030652 0.283222 0.011072 -0.238149 -0.029816 0.08314 0.161306 0.16502 -0.194483 -0.066018 -0.16808 9.21E-4 0.050222 0.123678 0.079929 -0.023393 0.015044 -0.011638 -0.005852 0.102153 -0.034644 -0.103636 -0.062185 0.089602 -0.026896 0.131908 -0.221956 -0.015629 -0.071158 0.100685 0.236589 7.0E-6 -0.07277 -0.07035 0.243342 0.048851 0.025181 0.019071 0.245852 0.071304 0.127902 0.055525 -0.130362 0.012634 0.06273 -0.315123 -0.170606 0.019413 -0.060816 0.056586 -0.04548 0.049806 0.083487 -0.096677 0.125268 0.064493 -0.153409 0.009154 0.080015 0.020023 -0.131651 0.15663 0.103682 -0.016703 -0.106807 -0.047823 -0.064614 0.027896 -0.011325 0.103139 0.002667 0.002319 0.033341 0.098658 -0.023533 -0.189729 -0.119025 0.083606 -0.002183 0.123796 -0.073006 0.036342 0.096114 -0.136945 0.049177 -0.128829 -0.05746 0.096533 0.055801 0.08923 0.101335 0.076239 0.355271 -0.151389 0.02943 -0.063897 0.207554 -0.133309 -0.18805 0.145471 -0.04116 -0.043266 0.062531 0.108314 -0.101641 0.097426 -0.049067 0.113267 -0.002473 0.003735 -0.085677 0.03689 0.06475 0.084303 0.016753 0.023356 0.090451 0.070133 -0.027002 -0.050678 -0.065005 0.026846 0.057216 0.003428 0.017614 0.12622 0.130213 0.105416 -0.013606 0.06923 0.157173 -0.041985 0.009687 -0.189568 -0.069311 -0.084869 0.216518
psychiatry -0.302563 0.052189 -0.284021 -0.020328 0.109902 -0.005202 0.025748 0.186462 0.450476 -0.171655 -0.124013 0.348946 -0.118704 0.111911 0.250934 0.07685 0.187086 -0.538193 -0.163191 0.392617 -0.026116 -0.126237 -0.038622 -0.362864 -0.133262 0.228153 0.444719 0.481718 -0.214063 0.113428 0.078772 0.330231 -0.165475 0.108019 0.305296 -0.018701 0.090902 0.230312 -0.121966 -0.089889 -0.263583 0.171008 0.308613 -0.249612 -0.220687 0.120187 0.142119 -0.064194 0.168487 0.188468 0.12227 0.10473 -0.06507 0.09685 0.050367 -0.021534 -0.015924 -0.044634 0.155973 -0.356615 0.230233 -0.200911 0.052899 0.373337 -0.405228 -0.017446 0.251668 0.36063 0.194322 -0.269172 -0.160131 0.154438 0.284 0.22972 -0.122041 -0.264986 -0.12424 -0.176761 -0.007377 -0.417004 -0.052303 -0.125088 0.175223 -0.05544 -0.136831 0.20104 -0.035795 -0.00269 0.206807 -0.766305 0.070007 0.110459 -0.0644 -0.115504 -0.215878 -0.036109 0.048148 -0.201985 0.316294 -0.006947 -0.104736 -0.509018 -0.011021 0.327489 -0.066858 -0.035404 0.122708 0.26782 -0.076868 -0.233878 -0.008967 -0.075206 0.157188 0.19058 -0.138689 -0.390424 0.001992 0.006647 -0.141243 0.320697 -0.07739 -0.10096 0.056024 -0.07855 0.151673 0.0185 -0.345699 -0.224073 -0.138639 0.23797 -0.106429 0.041443 0.007928 -0.28242 -0.116383 0.017622 -0.21356 0.139209 -0.228923 -0.123193 -0.316149 0.218667 -0.307203 -0.220696 -0.15887 0.136553 -0.197504 0.171699 -0.330749 0.08128 -0.128163 -0.391491 0.132444 -0.324758 -0.34317 0.305377 -0.215774 -0.002392 0.018773 -0.097897 0.064632 0.140415 0.253308 -0.127013 -0.131766 -0.013579 0.038391 -0.123406 -0.121559 0.089888 0.378896 0.03486 0.273302 -0.176659 0.339297 0.147922 -0.098985 0.264487 -0.366401 0.186076 0.206487 0.086455 -0.036235 -0.135627 -0.234595 0.251376 0.101416 0.3364 0.118172 0.230494 0.174235 0.010796 -0.122953 -0.284503 -0.217731 -0.040888 0.269512 -0.261614 -0.382414 0.057213 0.32482 0.017733 -0.066715 0.015462 0.046219 -0.032733 0.114686 -0.26752 -0.222427 -0.230742 -0.157591 0.052896 -0.368753 0.113825 0.053724 -0.038164 0.00517 0.214284 -0.055174 -0.276833 -0.152166 0.124855 0.077177 -0.073766 0.149682 0.175926 0.056626 0.404789 -0.11364 -0.099172 0.004246 -0.118993 -0.010881 -0.421558 0.027826 0.01653 -0.022037 -0.044036 0.121157 0.224282 -0.045784 0.330718 0.067148 -0.020931 0.131868 0.188543 0.12239 0.726959 -0.217265 0.04132 -0.062611 -0.309074 0.226509 0.480505 -0.414427 -0.025397 0.232689 -0.033648 0.141224 -0.011714 0.20389 0.397943 -0.165836 -0.321124 0.269917 -0.145687 -0.011848 0.069717 0.366293 -0.008151 -0.129573 -0.067671 0.061548 0.012404 -0.018397 -0.095378 0.032936 -0.328729 -0.173146 -0.091545 -0.054975 0.120874 0.170767 0.206228 0.138439 0.121301 0.079207 -0.014983 -0.109726 -0.097028 -0.144811 0.194269 0.153486 0.053724 0.067741 -0.18978 -0.127457 0.08791 -0.229245 0.138163 0.020662 -0.059479 -0.082589 -0.135707 -0.074278 0.153965 0.167675 -0.070022 -0.371508 0.213541 -0.105389 -0.004877 -0.267888 -0.096541 0.010557 0.135099 -0.125146 -0.037446 -0.078567 0.190798 0.296255 0.082238 0.131891 0.025779 0.155377 0.278763 -0.119598 -0.138292 0.117406 -0.030585 0.078622 0.022527 -0.338002 0.192177 -0.340457 0.139168 0.06661 -0.190713 0.216963 -0.007627 -0.084456 0.06327 0.342314 0.156938 0.164136 -0.373656 0.03103 0.034261 -0.109806 -0.308729 0.198464 -0.077706 -0.256415 0.149311 0.072372 0.008696 0.203021 0.180784 0.261165 -0.038013 0.288739 -0.195386 -0.214402 0.165607 -0.313608 -0.087663 0.094936 0.055038 0.046837 0.072938 -0.286441 0.111916 0.099189 0.174173 -0.112047 -0.007311 -0.259799 -0.254394 -0.359271 0.028945 0.201849 -0.187609 0.368958 -0.265391 -0.293674 0.107593 0.187551 0.130392 -0.252118 0.28196 -0.115783 -0.354819 0.131243 0.124371 0.078564 0.100186 -0.071458 -0.067686 0.246687 0.447049 0.002835 0.118304 -0.032894 -0.096679 0.009854 0.240445 0.256345 0.041082 -0.135316 0.175925 -0.222701 -0.098016 -0.244493 0.002347 -0.323795 0.004619 -0.102336 -0.092159 -0.105319 -0.092254 0.094688 -0.090889 -0.307836 0.304785 -0.060669 -0.294044 -0.121197 0.037712 0.240161 0.54517 0.101853 -0.191199 0.031563 -0.040441 0.283949 -0.037281 -0.062577 -0.135641 -0.158688 -0.195588 -0.019315 -0.047075 0.150369 0.354989 -0.134184 0.042608 0.063996 -0.003321 0.143178 -0.435834 0.251209 0.043603 0.306652 0.090635 -0.013037 -0.015898 0.001135 0.138606 -0.154803 0.141666 0.032832 0.102008 0.197072 -0.21572 -0.092718 -0.130665 -0.011671 0.04036 0.086937 -0.478648 0.062389 0.13044 -0.362782 -0.066333 -0.023641 0.037768 0.183862 0.22114 -0.161595 0.08252 0.031528 -0.056634 -0.125641 -0.154509 0.233921 0.044394 0.153598 -0.024588 0.120285 0.138273 0.159226 -0.162709 -0.085872 -0.054075 -0.237904 0.10362 0.022762 0.13605 -0.087554 -0.167016
asylum 0.108039 0.351414 0.220236 0.164626 0.075528 0.002713 0.190993 -0.332301 0.160808 -0.342004 -0.326044 0.28216 0.215723 -0.053126 0.403579 -0.26145 0.224068 -0.101119 -0.164367 -0.212104 -0.057532 0.128778 -0.047973 0.054792 0.056807 0.002661 0.311627 0.094624 -0.03544 -0.060576 -0.18636 0.525649 -0.288877 0.094765 0.00434 0.218853 -0.243564 0.369694 -0.234636 0.112246 0.429645 0.086484 0.328674 -0.325595 -0.051318 0.215701 -0.310577 -0.115386 0.274998 0.085706 0.024075 0.230235 -0.218283 0.059188 -0.199338 0.098556 0.179676 -0.406229 0.597853 0.194125 0.276536 -0.277337 -0.065594 -0.225673 0.208581 0.387629 0.077141 0.517508 0.144507 -0.042135 0.297264 0.186867 -0.024703 0.614307 -0.323602 0.050305 -0.303961 -0.201263 -0.139133 -0.203712 0.143025 -0.126426 0.159896 -0.129834 -0.148908 -0.215943 0.05331 -0.165288 0.230444 -0.544882 -0.065046 0.341375 -0.179147 -0.085502 0.095956 -0.023788 -0.210594 0.396705 -0.043127 0.132424 0.246909 -0.628089 0.148115 0.218478 0.130335 -0.48835 0.404363 -0.247866 -0.233962 0.117993 0.332805 0.031254 -0.080971 0.368368 -0.002708 0.064709 0.516689 0.147033 -0.46671 -0.062236 0.093839 -0.349457 -0.111148 -0.076085 0.420648 0.1138 0.093568 0.092601 -0.423566 0.061096 0.192814 0.080251 0.11787 0.101565 0.198191 -0.174064 0.189447 -0.216846 -0.066999 0.578907 0.014062 0.01484 0.173835 -0.410632 -0.176653 -0.107922 0.174389 0.268547 -0.097691 -0.744407 0.296869 0.15759 0.154234 0.120345 -0.03473 -0.377971 -0.191861 0.125025 -0.105849 -0.238893 -0.17641 0.05886 -0.287747 -0.141212 -0.123114 0.225288 0.544665 -0.450747 0.242943 0.132482 0.418668 0.050425 -0.11857 -0.03022 -0.415365 -0.445796 -0.112181 -0.101976 0.094484 0.58078 -0.256264 0.2935 -0.064674 0.204326 -0.135274 0.085991 0.140643 0.243423 -0.401723 -0.298504 -0.014254 -0.221042 -0.238549 -0.079848 -0.293935 -0.269454 0.024658 0.216545 0.138973 -0.311794 0.099321 -0.009696 -0.189089 -0.486297 -0.156734 0.21517 0.32881 -0.296649 -0.103682 0.128802 0.005837 -0.004918 -0.318016 0.291089 0.073898 0.428887 0.405075 0.143694 -0.017679 -0.558105 0.653409 -0.216727 0.236069 0.01145 -0.080761 -0.080315 0.147902 0.321626 0.407095 -0.402206 -0.362877 -0.17813 0.102581 -0.115856 -0.360645 0.119869 0.253137 0.012571 -0.337641 -0.14586 -0.064086 -0.25002 0.240983 -0.103686 0.268601 -0.008534 -0.019631 0.127592 -0.102782 0.237864 0.193749 0.189923 0.301584 0.101158 0.165746 0.116346 -0.017428 0.218602 -0.208718 0.408535 -0.069628 -0.072681 -0.158347 -0.132053 0.21454 -0.273828 -0.046872 0.06488 0.102512 0.196992 -0.07271 0.253376 -0.167804 0.284221 -0.164668 -0.539826 -0.523568 0.247428 -0.002099 0.031854 0.266438 0.089375 0.426488 -0.230101 -0.051337 0.289076 0.209394 0.268386 0.147806 -0.284625 0.199074 -0.022939 -0.286488 -0.043328 -0.059418 0.193541 0.48703 0.563717 0.326339 0.089198 0.29463 -0.318586 0.097316 -0.644547 -0.048849 -0.570919 0.048086 -0.471493 0.351799 -0.031063 0.668504 0.226261 0.319557 0.035968 -0.099971 0.528769 -0.010936 -0.241121 -0.166215 0.378177 -0.171034 -0.057275 -0.076108 0.303874 -0.144811 0.207059 -0.030974 0.106976 0.12967 -0.077165 -0.353035 -0.080373 0.010969 0.022123 0.010049 0.219197 0.167013 -0.203303 0.548051 -0.132336 0.061385 -0.099104 0.149003 0.020482 -0.353358 0.210951 0.243055 -0.395173 -0.20634 0.011262 -0.329814 0.011551 -0.295147 0.377942 0.181945 0.219008 0.11006 0.220007 -0.489444 -0.091093 0.20057 -0.271726 0.036766 0.247876 0.02147 0.325611 -0.626355 0.221509 0.578543 -0.090845 0.351229 0.214306 -0.145545 0.025689 0.104732 -0.205078 0.112993 0.090687 0.165803 -0.070977 0.351005 -0.030762 0.567546 -0.115297 0.440316 0.00637 -0.301462 0.23894 0.171658 0.172717 -0.040473 -0.075093 -0.02929 0.039927 0.089427 0.232576 -0.436403 0.026437 -0.296361 0.214243 0.427431 -0.082205 0.427837 0.012417 0.203825 0.118267 0.119967 0.041451 -0.456947 -0.029695 0.425219 0.197781 -0.105717 -0.317939 -0.102143 0.275664 0.335123 0.420931 -0.220923 -0.174782 0.138464 -0.177364 -0.493285 -0.090501 -0.214694 0.004531 -0.100588 -0.077265 0.036199 0.110597 0.067 0.30561 -0.247586 -0.557813 0.011729 -0.058969 -0.170541 -0.00216 -0.4783 0.341647 -0.026563 -0.138434 0.063267 -0.257692 -0.098179 0.016467 0.26882 0.182523 0.366458 -0.005054 0.408035 0.236682 0.706316 -0.564063 0.257742 -0.113421 -0.041138 0.378786 -0.03358 0.4348 0.012024 0.109337 0.582821 0.013879 -5.82E-4 0.690482 -0.181618 -0.561904 -0.249461 -0.153998 0.057725 -0.150239 0.274027 -0.096922 0.132131 -0.001619 -0.163053 0.037467 0.172027 0.375006 -0.223683 0.002239 -0.296949 -0.161462 0.552133 -0.331121 -0.368032 -0.052196 -0.431371 0.302993 -0.266041 0.027548 -0.156233 -0.079753 0.169372 0.123969 -0.195981 -0.141373 0.055547 -0.121045
manslaughter 0.456868 0.021287 0.180221 -0.238033 -0.42392 0.174143 0.124286 0.003528 0.411017 0.303737 0.153154 0.1029 -0.128519 0.284225 0.14367 0.132183 -0.131638 -0.238929 0.064633 0.261753 0.086769 -0.333936 -0.193244 0.004705 -0.23167 0.1159 0.363625 0.352785 -0.365413 0.0943 0.092631 0.226008 -0.187309 -0.369663 -0.307162 -0.032891 0.02932 0.190358 0.250893 0.037717 -0.467513 0.163255 0.139 0.236871 -0.338021 0.32612 -0.087863 0.553632 0.345828 -0.136637 -0.373791 -0.108343 0.199873 0.050745 0.436373 0.415689 0.152937 -0.118195 0.33166 -0.262103 0.198442 -0.320684 0.235083 0.035198 -0.326779 -0.164613 -0.160888 -0.098796 0.400752 -0.544286 0.312151 0.291477 0.56136 0.284017 0.080376 -0.192014 -0.570092 -0.022431 -0.1584 -0.444908 -0.052646 0.319305 -0.150661 0.156488 0.135807 -0.212931 8.87E-4 -0.151246 0.20831 0.030989 -0.092558 -0.148898 -0.030939 -0.520336 -0.912046 -0.395719 0.172999 -0.374791 0.478485 -0.099399 0.120113 0.454699 0.402289 0.393165 0.234984 -0.414105 -0.081576 0.120777 0.647733 0.790245 -0.001473 0.189301 -0.265428 -0.160835 0.04741 -0.423766 -0.210955 0.050835 -0.01805 -0.020975 -0.231804 -0.150985 0.606994 0.141758 0.383958 -0.297134 -0.320363 -0.427183 -0.148257 0.176381 0.317652 0.013498 0.142706 0.160052 0.112563 0.022838 -0.137171 -0.04965 -0.099559 0.212041 -0.351099 0.719383 0.225584 -0.211786 0.16323 -0.155995 -0.044912 -0.057575 -0.488745 0.173151 0.058318 0.27975 0.233509 0.632582 -0.316309 -0.242195 -0.269632 -0.18663 -0.293722 0.391712 0.181997 -0.086985 0.170783 0.143302 -0.029693 -0.387767 -0.153231 -0.418891 0.230547 0.073882 -0.118738 0.161489 -0.002602 0.432858 -0.035507 -0.202557 0.646612 0.644399 -0.181064 0.394633 -0.052147 0.381497 0.356694 -0.033105 -0.175507 0.019549 -0.182566 -0.463666 -0.654206 0.022595 0.411725 -0.339857 0.305213 -0.209117 -0.097364 0.065777 0.301421 0.01316 -0.5988 0.14887 0.285152 -0.533442 0.13645 -0.009429 0.019736 0.175936 0.163407 0.091573 -0.067979 -0.032091 0.363293 -0.203155 -0.191227 -0.1097 0.428988 0.358224 0.205365 0.037409 0.385735 -0.245057 -0.204375 -0.285684 0.711099 -0.116395 -0.623478 0.418617 0.31655 0.05022 0.077233 -0.002746 0.239976 0.105983 0.293468 -0.119709 -0.267772 -0.137802 -0.075629 0.226426 0.284389 0.43659 0.608478 0.066439 0.696705 -0.166311 0.03071 -0.287649 -0.300288 0.070421 -0.240968 -0.352312 0.059407 0.142367 -0.038561 0.658861 -0.291843 0.113672 0.119493 0.21916 0.184664 0.109666 -0.335804 0.193298 0.165473 -0.349517 -0.32868 -0.330706 -0.011999 -0.107259 0.18597 -0.128892 -0.195975 -0.006683 0.183271 -0.072976 -0.288381 -0.142269 -0.158718 0.051218 0.504688 -0.139775 0.469799 0.075134 0.335886 -0.018351 0.211122 -0.135715 0.254423 0.046923 0.031668 -0.135746 0.053795 -0.037061 0.269378 0.246206 0.062532 0.01303 -0.084511 -0.057221 -0.235035 0.17951 0.429415 -0.151485 -0.325277 -0.569741 -0.405076 -0.094662 0.24569 0.078775 -0.17846 0.142688 0.122976 0.310412 0.25621 0.025506 0.05461 -0.436698 -0.36143 -0.46139 -0.117732 0.519939 -0.288874 0.267173 0.048353 0.13437 -0.06266 0.119167 0.112528 0.049905 -0.050197 0.142195 0.298322 -0.48494 -0.018403 0.081259 -0.264482 -0.055956 -0.050156 0.066947 -0.005677 -0.026186 -0.004889 0.199098 -0.393643 0.033763 -0.157177 -0.044224 0.067264 -0.380284 0.171512 -0.168849 -0.123665 0.01962 -0.470429 -0.051001 0.084688 0.165489 0.091642 -0.001673 0.009764 0.380016 0.053515 -0.37167 -0.282236 0.200405 -0.277597 0.58007 -0.599716 0.113861 0.070144 0.002319 0.265421 0.764304 0.20066 -0.184665 0.019124 -0.681252 0.238783 -0.252473 -0.039927 -0.0811 0.271679 -0.007769 0.643801 -0.112224 -0.707746 -0.07123 -0.368564 0.043127 -0.185055 -0.326893 0.086263 -0.297698 -0.482719 0.058205 -0.338027 0.24946 -0.482693 -0.003635 0.090823 0.095481 0.193223 0.21633 -0.086642 -0.333402 -0.051338 0.027851 0.181306 0.083258 -0.398395 0.191633 0.098886 -8.88E-4 -0.058981 0.17432 0.12297 0.038445 0.432326 -0.270247 0.058892 -0.124369 -0.104448 -0.111166 -0.273303 0.023504 -0.378628 0.065501 -0.512192 0.382286 -0.269007 0.505239 -0.318218 -0.012927 0.283134 0.520764 0.410759 -0.331546 0.37885 0.573928 -0.382142 -0.342948 -0.278387 -0.086078 -0.1258 -0.053758 0.176439 -0.090437 -0.090178 0.040035 -0.108421 -0.049652 0.09592 0.516282 0.148003 0.080285 0.262093 0.088877 -0.094544 0.306679 -0.16302 0.104494 -0.172274 0.074567 -0.248049 -0.264482 -0.03445 -0.360257 0.035122 0.009685 0.390564 -0.25427 0.158498 0.461847 0.07549 0.05075 -0.018887 0.27213 0.143312 -0.500351 -0.306564 0.16969 -0.421787 -0.345536 -0.063499 -0.159539 0.365886 -0.185237 -0.223112 -0.181416 -0.234448 -0.060875 -0.094769 -0.129332 -0.099254 -0.140917 -0.011959 0.164675 0.352104 -0.063914 0.181337 -0.174149
music -0.281906 0.121167 -0.176713 -0.193936 -0.101513 0.068383 -0.155326 0.544475 0.029748 -0.311538 -0.106047 -0.232641 0.084717 -0.0262 0.159021 -0.018347 -0.006252 -0.15239 -0.193195 -0.079183 0.151244 -0.357384 -0.20974 0.167323 0.148251 0.019364 -0.156542 0.130751 0.012024 -0.110109 0.013556 0.289003 0.161752 0.313668 -0.033338 0.203016 -0.002705 0.242467 -0.21098 -0.022332 -0.331542 -0.144894 -0.054409 -0.089691 0.081523 0.283514 0.14425 0.02024 -0.152721 0.193981 0.338403 -0.166107 -0.145923 -0.118006 -0.150709 0.03344 0.270629 -0.427792 -0.162436 -0.076709 -0.012572 -0.061786 -0.030049 0.126375 0.039536 -0.076753 0.155391 -0.028688 -0.044363 -0.031434 -0.151262 0.229076 0.055549 -0.033946 0.221907 -0.149483 -0.151802 -0.056976 0.256143 0.124312 -0.0935 -0.180857 -0.149946 -0.052883 0.061993 0.070238 -0.171791 0.208273 0.115218 -0.117439 0.066417 0.179895 -0.122919 0.024547 0.028372 -0.206334 -0.028944 0.114535 0.322086 -0.078435 -0.260067 -0.179044 0.27753 0.013881 0.162582 -0.170278 0.184368 0.1416 -0.130339 -0.319798 0.14619 -0.137168 -0.2087 -0.052644 0.034546 0.376291 -0.145108 0.197475 0.093547 -0.201118 0.125025 -0.08878 -0.284937 -0.076228 -0.100539 0.05016 0.11261 -0.136026 0.002748 -0.029858 -0.346127 -0.180427 -0.074823 0.133398 0.088335 0.264719 -0.015511 0.268754 0.011592 0.255736 -0.050601 0.342671 -0.078011 -0.287062 -0.031451 0.145865 -0.086605 0.128785 0.104627 0.062575 0.298147 -0.00936 0.014421 0.246772 -0.153565 0.080226 -0.215852 -0.10127 -0.2399 -0.197963 -0.054166 -0.129945 0.124482 0.038183 0.172291 0.112563 0.059624 0.054958 -0.194164 -0.212444 -0.186669 0.210013 0.090682 -0.028702 0.062345 0.155199 0.114984 -0.066565 0.120746 -0.316002 0.14628 -0.08687 -0.391701 0.102773 -0.318209 0.079886 -0.346077 0.018759 -0.004613 -0.01493 -0.06865 0.131044 -0.055528 -0.270747 -0.007854 -0.018439 0.145287 0.01388 0.139414 0.126671 -0.060947 -0.106147 0.049003 0.146803 0.153937 -0.190617 0.14861 -0.225218 0.048524 -0.072421 0.237547 -0.033559 -0.022418 -0.004507 0.08621 -0.041117 0.139321 0.172913 -0.037589 -0.087633 -0.257163 -0.011764 -0.130324 -0.0582 -0.18416 0.094765 0.29447 0.027027 0.010958 0.173072 -0.289741 0.045714 -0.117447 -0.051941 -0.062245 -0.221253 7.8E-4 0.228364 0.060259 0.010928 0.170133 0.273347 -0.371945 0.017469 -0.169862 -0.022868 0.16333 0.01184 0.071772 -0.141048 -0.051482 -0.242416 -0.116037 -0.022464 -0.360174 -0.041071 0.233732 0.214563 0.081097 -0.109623 0.379075 0.118345 0.039148 0.326225 -0.100042 -0.294976 0.021601 0.037069 -0.005918 0.054649 -0.156882 0.438521 -0.263077 -0.113487 0.115239 0.063388 -0.119353 -0.001185 -0.111271 0.308379 -0.057514 -0.191818 0.141424 0.244254 0.176415 0.121649 -0.103815 -0.022753 -0.464492 0.145009 0.273227 -0.27406 -0.081626 0.072718 0.075064 -0.203074 0.001857 0.002329 0.057053 0.093464 0.139995 -0.310165 0.06465 -0.002033 -0.095408 -0.191882 -0.103784 0.158071 0.04985 8.73E-4 0.103419 -0.016444 -0.152441 -0.113483 -0.182426 -0.448769 0.234409 -0.173523 0.008284 0.222572 -0.018858 0.286287 -0.027029 0.046784 -0.239077 0.168622 -0.169159 0.211139 0.197018 0.177085 -0.099018 -0.339133 -0.598616 0.04892 -0.133007 0.053745 0.04645 0.296148 0.323635 -0.126539 0.110262 -0.199064 0.09515 0.166921 -0.09136 -0.201889 -0.086211 0.058792 -0.098264 -0.288376 0.030187 0.215028 -0.033964 0.133132 -0.194335 0.219185 -0.061207 0.09857 0.05218 0.171755 -0.02453 0.018217 -0.040073 -0.020336 -0.065561 -0.461445 -0.086212 -0.119266 -0.025564 0.015989 0.380215 -0.125327 0.270145 -0.070753 0.205288 -0.007155 -0.311122 -0.305865 -0.060068 -0.200156 0.005097 -0.148287 0.384597 0.160097 -0.222551 -0.291308 0.01806 0.079509 0.089051 -0.239435 -0.127753 0.056623 -5.22E-4 0.104963 -0.131744 0.420912 0.183882 0.008511 -0.070748 -0.028998 0.18062 -0.269522 -0.012803 0.223636 -0.02689 0.132225 -0.200293 -0.149467 -0.219092 -0.058417 -0.028524 0.178753 -0.121509 -0.060438 -0.046289 0.299733 0.374811 -0.128705 0.015794 -0.170839 -0.112496 0.024968 0.045687 0.087558 0.130214 0.006935 0.237569 0.134041 0.052055 0.184182 -0.11303 -0.01394 -0.19831 -0.107461 -0.183183 0.022607 -0.102374 0.317522 0.24615 0.04585 0.01688 -0.396177 0.367349 -0.047118 0.105596 0.057317 -0.09076 -0.205243 -0.033014 -0.190631 0.238373 0.197779 0.038491 -0.288215 -0.098438 -0.029437 -0.234432 0.07398 -0.310153 -0.05353 -0.189521 -0.131065 -0.214454 -0.061547 0.129106 -0.185511 -0.017951 0.311469 -0.058441 0.291867 -0.068745 -0.03188 0.325352 0.111434 0.142114 0.112546 0.171631 0.081239 0.182542 0.218389 0.129695 -0.126152 0.092855 -0.220764 -0.056346 -0.125126 -0.105808 0.25602 0.084296 -0.118608 -0.081599 -0.033935 -0.00644 -0.202014 -0.148693 -0.060799 -0.19748 0.029594 -0.295872 0.035169
record -0.157192 -0.021195 0.011186 0.01518 -1.17E-4 0.173757 -0.156286 0.388459 0.188338 -0.065611 0.108007 0.017111 0.119439 -0.128553 -0.049206 0.024597 0.144685 -0.029501 -0.10136 -0.060948 0.013818 -0.363814 0.042949 -0.101322 0.030097 0.040362 -0.090471 0.182403 0.127302 0.278988 -0.01693 -1.2E-4 0.138845 0.020778 0.0162 -0.03625 -0.035055 -0.180047 0.112301 -0.14488 0.007977 -0.096054 0.011467 -0.09345 0.024008 0.070187 -0.06327 0.037727 0.291372 -0.131884 -0.055598 0.252147 -0.014054 0.106987 0.064504 -0.146823 0.072293 0.030196 -0.031424 0.073863 0.018523 0.13403 -0.04067 -0.195324 0.001424 0.135672 0.089867 0.089767 0.238654 -0.128522 -0.154594 0.17395 0.002179 0.094473 0.118118 -0.160509 0.06483 -0.00801 -0.062358 0.029183 0.168816 -0.33339 -0.134579 0.070828 -0.22456 -0.0352 0.0853 0.297453 0.156587 0.03327 -0.078453 -0.128783 -0.110908 -0.095617 -0.07627 0.031647 -0.160341 -0.244968 -0.179425 0.146063 -0.088942 -0.157307 0.073644 -0.025497 0.121224 0.028121 0.044717 0.020706 0.102546 0.097086 -0.264832 -0.130305 -0.165345 0.003745 0.087117 0.12741 0.289176 -0.250489 -0.204454 0.118106 -0.013605 0.253116 0.048344 -0.01701 -0.001517 -0.338411 0.227644 -0.067305 -0.238594 -0.249261 -0.170114 -0.082355 0.115486 -0.09105 -0.484595 -0.052145 0.24228 -0.100409 -0.153965 0.262437 0.025894 0.096718 -0.162541 0.034151 0.215125 -0.162419 0.01033 0.219717 -0.003534 -0.12818 -0.116989 -0.063578 -0.018869 -0.128325 0.086341 -0.101294 0.089106 0.083964 -0.172178 0.185366 -0.209459 -0.17374 0.017974 -0.154163 0.004827 -0.147217 -0.012901 -0.247034 0.033727 -0.001679 0.145116 0.048364 -0.041676 0.152719 -0.367251 0.207932 -0.134784 -0.016291 -0.013553 -0.066069 -0.052583 0.207223 -0.10711 -0.105222 -0.224871 -0.00928 0.096348 -0.255255 -0.048008 0.10934 0.041014 -0.108622 0.104798 -0.115701 0.109008 -0.135114 -0.09937 0.12626 0.070219 -0.088581 0.107665 -0.064579 0.091583 0.057416 -0.277948 0.124292 -0.150678 -0.297789 0.081074 0.051429 0.090491 -0.026586 -0.002799 -0.029127 0.212692 -0.160985 0.118825 0.080291 0.015189 -0.207297 -0.01123 0.217642 -0.221454 0.282643 -0.230101 0.09474 0.024515 0.186215 -0.107109 -0.175079 0.076004 -0.17327 -0.165293 0.148443 0.289603 -0.039012 -0.155459 -0.119556 -0.044266 0.047677 -0.098932 0.085121 0.146007 -0.17867 0.046323 -0.118194 0.121481 -0.065218 0.008611 0.338982 0.017944 -0.136825 0.093094 -0.059292 -0.165763 -0.261075 -0.009076 0.194047 0.141846 -0.179526 0.224771 -0.255408 0.146798 0.287662 0.121092 0.004101 -0.192953 0.030651 -0.023427 -0.051137 -0.048539 -5.16E-4 -0.143743 0.090534 -0.110422 -0.055601 -0.27111 -0.054342 -0.241229 0.053914 0.133843 0.05493 -0.116066 0.165349 0.109313 0.116895 0.036316 -0.049046 -0.087342 0.223454 0.250332 0.357821 -0.303978 -0.095239 0.126182 0.235134 -0.330087 -0.224026 0.031285 0.094715 -0.047163 -0.120883 -0.290526 -0.13504 -0.222195 -0.129338 -0.056762 0.127745 0.031448 -0.192448 0.081656 -0.182648 -0.289924 0.03027 -0.106987 -0.083051 0.213913 -0.112324 0.173745 0.127735 0.076386 0.265121 -0.119116 0.036739 -0.179825 -0.215946 -0.211998 0.041129 0.25416 0.254341 -0.199252 -0.121679 -0.499223 0.190127 -0.008963 -0.217071 0.053642 0.035415 0.197759 -0.027323 0.044023 0.060901 -0.162093 0.011784 -0.20012 -0.079308 -0.095024 0.037934 0.080094 0.338384 0.074571 -0.197015 0.177671 -0.009018 -0.455042 0.249361 0.021175 0.03404 0.019462 -0.28493 -0.092523 0.114216 -0.397652 -0.018567 0.095099 0.254872 -0.112353 -0.0771 -0.007754 0.014527 0.068467 -0.282667 0.058765 -0.287205 -0.023542 -0.074165 -0.139489 -0.024484 -0.149994 -0.183976 -0.137746 -0.449642 0.319089 0.116998 -0.216659 -0.214756 0.028476 0.278249 0.343153 -0.260832 -0.017148 0.148144 -0.145375 0.264805 -0.260043 0.074748 -0.311404 0.153943 0.100979 0.165074 0.073251 0.207977 0.162432 -0.187887 0.037055 -0.145984 0.072225 0.049464 -0.119874 0.107288 0.024772 -0.045955 0.078749 0.053307 -0.253747 0.051997 0.073331 0.279277 -0.090549 -0.041142 -0.025876 0.225688 -0.088141 -0.154848 -0.127343 0.143044 -0.020665 -0.101905 -0.018599 -0.062634 -0.170732 -0.073398 -0.099064 0.092107 0.113566 -0.008805 0.006637 0.023352 -0.044635 0.008224 0.054349 -0.156209 -0.261152 -0.054957 -8.68E-4 0.062019 -0.263293 -0.093868 -0.117575 -0.262816 -0.003574 0.030447 -0.244472 -0.175937 0.337289 0.105082 -0.245886 -0.179515 -0.028569 -0.168642 -0.273791 0.021878 0.055974 -0.222369 -0.218123 0.248085 0.033644 -0.039901 -0.204843 -0.087536 0.021715 0.028952 0.151225 -0.168462 0.010751 0.069953 -0.069512 9.7E-4 -0.024144 0.039534 -0.254793 -0.143099 -0.016671 0.041583 0.062023 0.078521 0.190044 -0.218667 0.225039 0.004927 0.180253 2.71E-4 0.305436 0.133773 0.08984 -0.001941 0.03408 -0.03342 -0.140059 0.27781
energy -0.036648 -0.08825 -0.215757 0.07819 0.160552 0.037406 -0.070003 -0.070595 0.328172 0.204948 -0.110301 -0.021206 0.112202 -0.120017 0.289265 -0.245998 -0.091565 0.142439 0.222949 0.061621 0.300742 -0.012017 0.010403 0.005287 0.110417 0.07143 -0.01993 0.057058 0.188332 0.073444 -0.184597 0.033121 0.299549 0.148844 0.042865 0.194618 0.042326 0.008219 -0.267077 0.217055 -0.006703 0.153451 0.054775 0.198759 0.19294 0.215013 0.029539 -0.089086 -0.06189 -0.149354 0.005044 0.008944 -0.100616 -0.04022 0.251704 -0.307372 0.181646 -0.01286 -0.053265 0.186361 0.072165 0.286313 0.199035 0.071673 -0.421279 0.10826 0.415573 0.175537 -0.041778 0.137791 0.093236 0.213888 0.008932 0.170858 -0.173155 -0.089636 -0.028206 -0.110854 0.055771 -0.145986 -0.201177 0.146729 0.030317 0.080204 -0.022386 0.251643 0.010696 0.304496 0.072646 0.103583 0.002379 -0.097262 0.031674 0.113591 -0.050129 -0.012549 0.167063 -0.226666 0.11205 -0.087934 -0.282692 -0.07551 -0.014656 -0.020196 -0.29442 -0.03007 0.20834 0.268085 -0.066314 0.331274 -0.035163 -0.219305 0.048531 -0.053152 -0.076117 -0.133212 -0.080179 -0.135106 -0.151536 0.252698 0.177619 -0.257012 0.002552 0.02385 -0.090522 -0.166583 0.192483 -0.018623 -0.437879 -0.078003 -0.024414 0.166854 -0.159567 0.2418 -0.202072 0.117643 0.208312 0.073755 -0.140183 -0.165027 -0.070673 0.408549 -0.210866 -0.042718 -0.027265 0.147621 -0.109616 0.234484 -0.278004 0.27211 0.089534 0.079516 -0.277948 0.067399 0.309569 0.100119 0.097277 -0.11593 -0.324724 -0.409638 0.066777 0.048566 0.032124 0.06485 0.017183 0.419079 -0.451797 -0.135298 0.057288 0.127452 0.187992 0.103071 0.102194 0.031646 -0.134933 -0.055518 0.119887 0.076725 -0.032297 0.211353 -0.031375 -0.078582 0.028553 -0.118433 -0.273947 -0.001193 -0.088145 -0.059512 -0.009191 0.015481 -0.011464 0.015017 0.313402 -0.135454 0.04996 0.079626 -0.030254 -0.148471 0.266252 0.070673 -0.216995 -0.100512 0.154534 -0.054173 0.049331 0.166521 -0.133746 -0.248938 0.043247 0.032612 -0.035191 0.089677 0.230549 0.006531 -0.02038 0.023184 0.251373 -0.078086 -0.286846 -0.255994 0.398688 -0.11706 -0.159436 -0.053397 0.224749 -0.014617 0.036778 -0.16927 -0.031956 -0.121017 -0.200038 -0.225103 -0.120078 -0.223084 0.137625 -0.14511 0.227038 0.368069 0.091005 0.090656 -0.030471 0.357137 0.035132 0.03609 0.167583 0.004673 -0.14912 -0.154827 -0.166763 -0.21854 -0.098888 0.159841 0.086371 0.241285 -0.246773 0.240526 -0.073289 -0.290401 0.437143 0.076243 -0.003432 -0.040282 0.035785 0.014057 -0.255068 -0.05519 -0.014301 -0.029394 0.01456 0.041929 0.030845 0.304093 -0.026983 0.16404 0.148867 0.075506 -0.145583 0.082066 -0.260702 -0.087453 -0.303024 0.199987 -0.017709 -0.249121 -0.015675 0.096158 -0.089502 -0.236893 -0.246433 0.247102 0.10316 -0.062551 -0.429075 0.022683 0.02622 0.025503 -0.127366 0.160397 -0.050943 -0.220077 0.084811 0.155534 0.374684 -0.17642 -0.096505 -0.150854 -0.159298 -0.38241 -0.187016 0.227657 -0.060244 -0.211692 -0.130424 -0.073125 -0.215556 0.27337 0.091424 -0.009662 -0.211279 0.060767 -0.02289 -0.019722 0.072782 -0.062614 -0.130309 0.140596 -0.18881 -0.128027 0.062204 0.122402 -0.400955 -0.404512 -0.153011 -0.066526 -0.136704 0.254588 0.14165 -0.027911 -0.194742 -0.310841 0.105405 0.091875 0.15297 0.231775 -0.361162 -0.102971 0.192271 0.086004 0.190389 -0.271566 0.168874 0.033701 -0.019101 0.069134 -0.059874 0.22164 -0.034156 0.062703 -0.256411 0.072323 -0.172776 0.235548 -0.034512 0.071419 0.10169 -0.028443 -0.088764 -0.445788 -0.043977 -0.341681 -0.011629 0.0629 0.23711 0.081692 -0.13533 0.111866 0.15616 -0.207109 -0.069297 0.150649 -0.015088 -0.237532 0.267533 -0.106646 -0.411828 0.079105 0.119458 0.053787 0.043599 -0.050132 0.052278 0.059441 -0.196719 0.005673 0.086791 0.155705 0.001439 0.358549 0.105598 -0.111416 0.039509 0.190307 0.15838 0.107691 0.180829 -0.024912 0.093257 0.086978 0.034074 0.061782 0.100807 -0.132017 -0.021814 0.007374 -0.145005 0.161081 0.210091 0.011757 0.284335 0.199327 -0.076088 -0.117006 -0.140925 0.12959 0.135702 0.067019 0.135259 -0.355079 0.014041 -0.057088 -0.060388 -0.043963 -0.217224 0.214277 -0.201431 0.211628 0.109478 0.2691 0.004494 -0.14777 0.310566 -0.25806 0.138491 -0.216008 -0.097993 -0.120677 -0.177034 -0.087658 -0.182102 -0.252765 0.20272 -0.24227 0.195786 -0.021412 0.058888 -0.006725 0.324972 0.34875 0.050327 -0.089405 -0.164353 -0.067419 0.1964 -0.174402 -0.082097 0.109976 0.150746 0.013904 -0.036273 0.092638 0.094681 -0.07278 0.28005 -0.168464 -0.160171 -0.100003 -0.293406 0.121142 0.238079 0.004519 -0.041093 -0.105386 -0.188018 -0.030604 0.15682 -0.182731 -0.102872 0.250521 -0.096712 0.2757 0.052036 -0.05249 -0.018946 0.123825 -0.056592 -0.072172 -0.259097 -0.009878 -0.067081 0.019392
announcement -0.239983 -0.051641 -0.003775 0.109257 -0.00744 -0.166109 -0.03429 -0.29555 0.054815 0.014646 -0.197972 0.567892 0.026839 -0.07688 0.140209 -0.061455 -0.153703 -0.012355 0.140574 6.8E-5 0.309338 -0.175955 -0.055577 -0.016263 0.116599 -0.118867 -0.301111 0.337267 -0.018945 -0.017458 -0.066541 -0.153495 -0.191802 0.150864 -0.221639 -0.157464 0.009546 0.269103 -0.273909 -0.050568 -0.126851 0.071195 0.315433 0.096287 -0.126773 0.249218 0.284411 0.007333 0.236671 -0.040128 0.172104 0.208359 -0.025356 -0.152461 -0.07735 0.250756 0.159047 -0.30675 0.14814 -0.154151 0.057411 -0.059602 0.009288 0.133066 0.170589 0.136913 0.125894 -0.151015 0.220563 -0.008606 0.07267 -0.10536 0.224814 -0.111535 0.103562 0.1372 0.227241 -0.088154 -0.051441 -0.089201 0.082881 -0.156352 0.057087 0.054951 -0.12908 0.161812 -0.011164 0.189958 -0.016243 -0.236815 -0.154607 -0.142884 -0.057186 -0.303398 -0.136143 -0.24528 0.090159 0.166123 -0.104045 0.212492 -0.066875 -0.034704 0.247711 0.057746 -0.138553 0.407532 -0.163386 -0.132209 -0.173715 0.033604 0.056849 0.180024 -0.139106 -0.276494 -0.200184 -0.031346 0.352407 -0.187738 -0.116852 -0.018692 -0.058563 -0.412324 0.270818 0.157941 -0.094005 -0.231426 -0.193003 0.185792 -0.039361 -0.199198 -0.14952 0.072716 -0.163025 -0.079124 0.034994 -0.020554 -0.149571 0.446413 0.141628 -0.042698 0.065244 0.077815 0.248188 0.037988 -0.191165 0.143142 0.064341 -0.10147 -0.01977 0.045707 -0.156504 -0.066006 -0.376708 0.118644 -0.172246 -0.175363 0.04157 -0.068328 0.064175 -0.02379 -0.243655 -0.287818 -0.202873 0.204157 -0.028148 0.189282 -0.061552 0.007932 -0.24639 0.256583 -0.104902 -0.140199 0.152307 0.174629 -0.068905 -0.11295 -0.130294 0.122905 -0.124572 -0.03117 -0.036489 0.055165 0.051086 -0.140222 -0.375729 0.171841 -0.235455 -0.273046 -0.377054 0.003259 -0.15879 -0.041287 0.009579 -0.106086 0.234023 -0.002757 0.001178 -0.40723 0.102568 0.045556 -0.037756 -0.287849 0.191267 -0.197679 -0.017207 0.406446 -0.003239 -0.36761 0.380192 0.048873 0.159945 -0.232204 0.027989 0.129624 -0.040916 0.076365 0.115546 0.047271 -0.332109 -0.253189 0.204923 -0.244361 0.007304 0.21 0.118305 0.172838 0.252596 0.001391 -0.06505 -0.117711 -0.085419 -0.03654 -0.071474 -0.160237 0.186133 0.280518 0.222045 -0.154865 0.128821 0.055852 -0.019993 -0.069423 0.228622 0.039543 -0.187512 0.092089 0.178825 -0.219591 0.18167 -0.20481 -0.133852 -0.048691 0.176955 0.257368 -0.109734 -0.051524 0.054923 0.189199 -0.187035 0.03054 -0.100616 0.056608 0.101263 0.131596 0.115248 0.024802 -0.06858 0.209756 -0.064499 -0.082221 0.075134 -0.096103 -0.191696 -0.269516 0.008192 0.055645 -0.058915 0.383544 -0.190854 0.196986 -0.034164 0.042559 -0.032286 -0.16746 0.068068 0.468267 -0.212153 -0.198651 -0.144661 0.288922 0.065136 0.017939 0.097581 0.151224 -0.200675 0.252853 0.137113 -0.123811 0.108619 0.198288 0.082464 -0.287965 0.030616 -0.368379 -0.137695 0.213734 -0.051884 -0.029502 0.121738 0.025264 0.552045 0.1766 -0.013648 0.038775 -0.179281 0.189335 -0.211852 0.155543 0.040908 0.16041 -0.017604 0.070054 -0.316554 0.155001 -0.115048 0.065287 -0.102711 0.121359 -0.19877 0.342333 -0.096012 -0.131116 -0.195514 -0.198961 0.241292 0.18863 0.05899 0.033411 0.433722 0.190375 -0.254194 0.048023 0.233256 0.040989 0.098726 -0.18242 -0.113617 -0.223826 -0.077514 -0.015805 0.009 0.230369 -0.087128 0.179518 -0.290669 0.035713 0.233548 -0.14665 -0.149238 0.093052 0.011773 -0.182908 -0.417438 -0.304122 0.163554 0.121305 -0.159013 -0.313175 0.034483 -0.055428 0.024866 -0.180792 0.100157 -0.051541 0.14899 0.104741 0.3296 -0.055337 0.174862 0.038081 0.125017 -0.256508 0.118263 0.093434 -0.059989 0.282959 -0.115369 -0.096684 0.123564 0.006479 0.3276 0.012709 -0.063543 0.18363 0.075532 0.187001 0.051896 0.273809 -0.151329 0.120139 0.018015 0.08079 0.207025 -0.142133 -0.229752 -0.318275 -0.116461 0.174597 0.018704 0.156984 0.028222 -0.315864 -0.456861 -0.032154 -0.034118 -0.081757 -0.093993 0.087583 0.281782 -0.050749 -0.135893 0.197991 0.257869 -0.038058 0.037189 -0.093191 0.147407 -0.17556 0.078559 -0.109518 0.079807 0.33295 -0.061044 0.088261 -0.100574 0.136372 0.086032 4.41E-4 0.048533 -0.094528 -0.024066 0.036297 -0.271219 -0.030024 -0.036148 0.01591 -0.357276 0.077861 -0.252707 -0.110291 -0.100605 -0.116783 0.139329 0.057518 -0.080709 0.140869 -0.142121 0.161183 0.095846 0.087099 0.032469 -0.152552 0.064918 0.310885 0.021686 -0.177522 -0.156917 -0.139472 0.193613 -0.035695 0.010806 -0.007961 -0.131132 0.072013 0.184764 0.139153 -0.096089 0.023093 -0.209746 0.156627 0.15224 -0.221079 0.223717 -0.059627 -0.052445 -0.302681 -0.252965 0.041119 0.093455 -0.02908 0.423572 -0.03134 0.134048 0.026901 0.091022 -0.042955 -0.087371 0.130817 0.076743 0.225567
mile -0.152531 0.215975 0.177032 -0.276302 0.098822 0.100417 0.05234 0.323533 0.339686 0.379864 0.121002 0.242617 -0.080774 -0.141845 -0.10062 0.150676 -0.441447 0.048988 -0.322328 0.051829 -0.499064 0.112269 -0.258506 -0.290232 0.298006 0.120872 0.075807 -0.104816 0.297224 -0.211504 -0.132397 -0.221244 7.84E-4 0.413378 0.186849 0.276078 0.208132 -0.166391 -0.054841 -0.151438 -0.25374 0.209202 0.072741 -0.050615 0.288247 -0.263029 0.005445 -0.171725 0.264625 0.012137 -0.165955 -0.245522 0.319515 -0.183227 0.153736 0.374283 0.158433 0.024841 -0.016635 -0.075096 0.466506 -0.076703 -0.06709 0.125493 0.128594 0.414554 0.009244 0.47794 0.217319 -0.619819 -0.300428 0.093071 0.392647 0.04908 -0.105487 -0.126794 0.137366 0.148452 -0.234719 -0.277126 0.055447 -0.073818 -0.507504 -0.285472 5.5E-5 -0.207355 0.167854 -0.183941 0.150966 0.062357 0.041973 0.056699 0.172628 0.12417 0.482863 0.29218 -0.108732 -0.058172 0.499883 -0.097731 0.055184 0.16636 0.091977 -0.056211 -2.91E-4 -0.210444 -0.128992 -0.062181 -0.007822 0.593204 -0.411952 0.045433 -0.647492 -0.034515 0.275326 -0.321369 0.340486 -0.010497 -0.178435 -0.327368 0.304654 0.007147 0.067963 0.081133 0.242433 0.313305 0.084391 -0.073416 -0.006215 -0.132081 -0.357477 -0.035523 -0.185275 0.170133 -0.1527 0.290057 0.053436 0.527093 0.030436 -0.149377 0.073287 0.108174 0.181346 -0.244285 0.149758 -0.024989 -0.394221 0.469101 -0.051733 -0.275341 -0.128814 0.109977 -0.358947 -0.012702 -0.08995 0.549918 0.187419 0.087054 0.459152 -0.196216 -0.233189 -0.097494 0.400787 -0.120892 0.159106 0.541304 -0.14526 -0.032317 0.376184 -0.325474 -0.072854 0.550458 0.16901 0.335276 -0.234594 -0.289868 0.15387 -0.116702 0.32097 -0.195206 0.271844 -0.300482 -0.270076 0.212353 -0.059116 0.151224 -0.109372 0.271795 -0.195038 0.085336 -0.103682 -0.27648 0.077225 -0.055242 -0.118519 0.012268 0.192814 -0.113658 0.058384 -0.073536 0.134684 0.016984 0.220876 -0.415143 -0.162254 0.199422 -0.067549 0.025752 -0.42118 0.359764 0.117475 0.039258 -0.274674 -0.032685 0.047795 -0.109459 -0.08577 -0.34619 -0.380185 -0.305404 -0.137353 0.177045 0.146496 0.307603 0.138271 -0.151899 0.301726 -0.204488 -0.028002 0.09033 -0.056404 -0.137274 -0.202051 0.239752 0.061342 -0.11233 0.407558 0.093788 -0.178115 -0.357664 0.335772 -0.061372 -0.386595 -0.240831 0.269699 -0.168697 0.473842 -0.077406 -0.065649 0.111292 0.059344 -0.317032 0.374876 0.116674 -0.36484 -0.286695 -0.318334 0.283589 -0.011351 -0.078517 -0.154656 -0.317661 -0.093545 0.470438 0.250069 0.534462 -0.181834 -0.108572 -0.262671 0.220593 -0.167758 0.094412 -0.253205 0.075652 -0.347281 0.195324 -0.037497 0.445703 0.120406 -0.096502 0.52353 0.21712 0.014676 -0.15221 0.129754 0.707721 -0.046591 -0.057896 0.496735 0.158015 -0.330896 0.163086 0.191277 0.226473 0.494601 -0.45405 -0.053495 0.04155 0.300588 0.146156 0.308977 -0.076206 0.464283 -0.10734 0.213156 0.115032 -0.234624 -0.381253 0.28184 0.146309 0.209166 -0.400029 0.066189 0.033288 -0.407375 -0.151085 -0.10829 0.11853 -0.34587 0.342094 -0.026485 -0.027819 0.321844 0.177335 -0.395294 0.20609 -0.392767 -0.071791 -0.624247 0.102397 -0.00806 -0.39794 -0.096073 0.267368 0.242636 0.15383 0.20483 -0.320952 0.047695 -0.105858 0.135076 0.048367 -0.330622 0.135578 0.362558 0.13128 0.178166 -0.424432 0.157846 -0.240021 0.019788 -0.460507 0.359156 0.088843 -0.196759 -0.137554 0.450372 -0.131994 0.068179 0.19922 0.226334 -0.366284 0.196971 0.847882 0.469566 0.106878 -0.234204 -0.222346 0.089236 -0.181739 0.017959 -0.249754 0.0634 -0.712264 -0.42773 0.014684 -0.178354 -0.176194 0.298161 -0.076559 0.044453 0.003433 -0.053276 -0.063378 -0.126364 -0.154625 -0.356838 -0.073842 0.137071 -0.13757 0.132987 -0.433932 0.012492 0.368877 0.107548 0.247023 -0.074241 0.593481 -0.245157 0.461594 -0.260382 -0.124407 0.127142 0.023302 0.116672 -0.028441 0.055998 -0.36924 -0.257964 0.104126 -0.028128 0.081702 -0.044326 -0.071303 0.083294 0.145245 0.146692 0.060513 0.117709 0.005108 -0.093891 0.011928 0.348006 0.291027 -0.235573 0.342309 -0.482505 0.024158 -0.219643 0.625553 0.010541 0.175009 0.124598 0.186897 -0.252958 -0.11288 -0.57886 0.135493 -0.169442 -0.326685 0.201358 0.175266 0.014092 0.297246 -0.121975 -0.108308 -0.204513 -0.54861 0.064426 -0.422105 -0.03409 0.288142 0.219249 -0.017564 0.156307 0.292944 0.160922 0.044098 -0.123982 0.2287 -0.08162 -0.036139 -0.298996 -0.052444 -0.197568 -0.318251 0.025235 -0.315109 0.155073 0.239796 0.258238 -0.074156 -0.201594 0.560013 0.092395 0.06815 0.0317 0.438641 -0.177331 -0.253805 -0.26154 -0.223847 -0.087164 0.014101 0.218046 -0.535019 -0.392078 0.374621 9.88E-4 0.108824 -0.011945 -0.025937 -0.364346 0.225735 0.055295 -0.617357 -0.089428 -0.242344 -0.072874 -0.29264
airport -0.353393 -0.182521 0.012043 0.264096 0.012971 -0.186907 -0.32086 0.141286 -0.015964 0.196426 -0.075002 -0.14795 -0.112451 -0.030505 0.521857 0.08137 -0.182846 -0.039372 0.027963 0.066754 -0.09289 -0.228848 -0.019559 -0.144023 -0.069524 -0.067003 0.470007 -0.096122 -0.131546 0.25363 0.372965 0.340856 -0.25098 -0.157355 -0.047886 0.120605 -0.052451 0.090913 -0.062032 0.228228 0.080248 -0.085787 0.259102 -0.199539 0.002896 0.303482 -0.176344 0.15504 0.205762 0.103398 0.175123 -0.012821 -0.224406 0.065822 0.193457 0.347587 -0.271492 -0.604564 0.128283 0.088748 0.226083 0.161014 -0.078228 0.022289 0.001492 0.127152 0.225105 0.199352 -0.348271 -0.092715 0.084234 0.059222 0.085459 0.392074 0.058547 -0.037428 0.042683 -0.139667 -0.141307 -0.36687 0.019505 0.237676 0.076856 -4.67E-4 -0.219552 -0.070069 -0.010057 0.138601 -0.163814 0.104152 0.173014 0.121043 0.077274 -0.084976 0.064909 0.030292 0.14844 -0.134328 0.36093 -0.119106 -0.058056 -0.130435 0.137043 -0.155886 0.067291 -0.437269 0.010418 0.178049 0.170462 0.554784 -0.29797 0.258346 -0.138879 0.188548 0.421068 -0.081878 0.145525 -0.082757 -0.24124 -0.006397 0.07461 -0.167256 0.006786 -0.114429 0.120602 0.148095 -0.045729 0.081922 -0.34027 -0.054694 0.435989 0.080792 0.100148 0.209334 -0.120922 0.008674 -0.012418 0.06736 -0.149723 0.020987 -0.138529 0.447905 0.300376 -0.206241 -0.227018 0.00713 0.069196 0.182006 -0.232553 0.085314 0.043687 0.194204 0.191405 -0.184543 0.21399 -0.054097 0.060083 -4.71E-4 -0.165568 -0.245297 -0.599971 0.33132 0.066475 -0.031009 -0.026062 0.344468 0.255962 -0.100985 0.01212 0.189807 -0.329792 0.209039 0.391573 -0.333962 -0.01305 -0.320756 0.109647 0.026434 0.073395 -0.058506 0.218217 0.010195 0.191502 0.155308 -0.235972 -0.01174 -0.007454 0.098261 -0.155367 -0.147272 0.21105 -0.093312 0.493535 -0.034905 -0.025588 0.094516 0.145211 0.118804 0.173617 0.035348 -0.097439 -0.145709 0.322804 0.115022 -0.059616 0.088266 0.052639 -7.9E-4 0.379868 -0.078985 -0.03149 0.163979 -0.065361 0.06084 0.287746 0.045297 0.258889 0.238698 0.328722 0.085267 0.282656 0.083301 0.066009 0.221269 0.430306 -0.043086 0.336742 0.085855 0.326784 0.002974 0.061087 -0.221473 0.051976 -0.201498 -0.12357 -0.36117 0.070059 -0.305456 -0.101263 -0.281687 0.180669 -0.189379 0.177748 0.130118 0.028471 -0.038508 0.183973 0.030063 -0.173064 -0.185204 -0.108121 0.357237 0.121043 0.431971 -0.234265 -0.024934 -0.012325 0.276515 -0.121027 -0.203042 0.343147 -0.360251 -0.192622 -0.148416 -0.058321 6.07E-4 -0.268659 -0.346546 -0.233499 0.236233 -0.141606 -0.147246 0.104166 0.075248 -0.310602 0.033317 0.326454 0.157834 -0.218079 -0.061279 0.043009 -0.135416 -0.116654 -0.188947 -0.370479 0.177744 0.180059 -0.172511 0.197549 0.26024 -0.069643 -0.035781 -0.081216 -0.029077 0.257719 -0.068686 -0.085413 -0.022008 0.327979 0.199414 0.199511 -0.126117 0.280137 -0.187526 0.103858 -0.325906 0.099433 -0.186985 0.167526 0.116172 0.312691 0.442348 -0.075506 0.079538 -0.467002 -0.330754 -0.39008 0.435508 0.284668 -0.173864 -0.343155 -0.351842 -0.100526 0.259025 0.165681 0.154315 -0.091926 0.028952 0.143926 0.222317 -0.013443 -0.281596 -0.064709 -0.180265 0.088856 0.060296 -0.104808 0.302311 0.426728 -0.00408 0.015043 -0.283372 -0.10605 0.117305 -0.03978 -0.025197 -0.348727 0.101748 -0.224364 0.126582 -0.085455 -0.126326 0.267209 0.022628 0.049321 0.022987 0.076152 0.485333 0.038292 0.006543 0.406579 -0.040682 -0.244505 -0.085509 0.008949 -0.023481 -0.215672 -0.165125 0.216008 0.092924 0.113397 -0.096239 0.339602 -0.038811 -0.044527 -0.11391 -0.087819 -0.126033 0.175496 -0.204475 0.159448 -0.002151 -0.040691 0.105657 -0.142254 0.417576 -0.399652 -0.080942 -0.201246 0.032862 0.234343 0.045547 0.180369 0.113957 0.215321 0.090779 -0.141811 0.282015 -0.553798 -0.172412 0.086473 0.021409 -0.377725 0.011582 0.310828 -0.001332 0.083492 -0.067074 0.122033 0.003286 0.203613 0.057306 0.081263 -0.012876 -0.167444 0.027388 0.169341 0.088776 -0.002743 0.068402 -0.112348 0.040876 0.034037 -0.019778 0.106879 0.279439 -0.091448 0.205636 0.028606 -0.116583 0.412321 0.378273 0.048952 -0.069264 0.089475 -0.150987 0.420132 0.156284 -0.026841 0.367534 -0.122126 0.059926 0.127623 0.110002 -0.366823 -0.183865 0.027488 -0.013847 0.178616 0.115454 0.184098 0.179615 -0.236969 -0.196196 -0.166852 0.019155 0.115195 -0.211328 0.032058 -0.018252 -0.230038 0.045783 -0.084239 0.178788 -0.113705 0.153494 0.064289 -0.179048 -0.129527 -0.355278 -0.071672 -0.21989 -0.112749 -0.21284 0.062345 0.037767 -0.479582 0.069618 0.024151 0.190975 -0.254355 -0.124922 0.113097 -0.223425 0.201505 -0.235449 -0.348836 -0.12145 -0.159451 -0.062352 -0.173761 -0.380165 -0.276543 -0.119226 -0.446038 -0.177684 -0.002139 -0.262819 -0.14774 0.128729
population -0.069344 0.070347 -0.179929 -0.106061 0.166062 0.039967 0.132082 -0.03474 0.258226 0.049685 0.413837 0.221418 -0.075385 0.187937 0.095703 0.083713 -0.11348 -0.051518 -0.237063 0.281963 -0.004988 0.014141 0.001745 -0.079754 0.035314 0.033553 0.16138 0.023067 -0.030531 -0.052211 -0.332529 -0.123535 0.105376 -0.107795 0.146685 -0.055783 0.094308 -0.028178 0.149743 0.277637 -0.03467 0.423202 0.015238 0.142756 0.057609 -0.109202 -0.402861 -0.030489 -0.236618 -0.190176 0.02126 0.150556 0.106569 -0.130457 -0.461388 0.007558 -0.006121 -0.051178 -0.223925 0.10962 0.159971 0.138492 -0.299939 0.221615 -0.08347 -0.119589 0.040989 0.097448 0.235339 -0.096447 0.027288 0.256441 0.123088 0.135546 -0.367972 0.182548 -0.136089 0.034964 -0.221748 0.139996 -0.196223 -0.050348 -0.106673 0.134853 -0.380302 0.084632 0.04095 -0.143475 -0.143379 0.106999 0.063392 0.112351 -0.040142 0.198013 0.13377 -0.104143 0.322321 -0.193497 -0.230787 -0.065409 0.354753 -0.162505 -0.035653 0.143197 -0.020915 0.092173 0.059736 -0.038259 -0.22666 -0.081417 -0.064149 0.250677 -0.256577 0.007388 -0.023358 -0.028498 0.462698 0.134911 0.139044 0.161858 0.075067 -0.274916 0.06404 -0.038416 0.162581 0.433216 0.167211 0.047381 -0.331908 -0.295678 0.095021 0.087714 -0.032005 0.082654 0.305838 -0.024304 0.253845 -0.214036 -0.367818 0.010756 0.023644 0.443099 -0.102018 -0.340646 -0.126679 -0.12983 0.171568 0.206777 0.174619 -0.151703 0.218947 -0.433198 0.083462 -0.104651 -0.094353 0.069635 0.253556 -0.096795 -0.186881 -0.200318 -0.011841 0.258492 0.015289 0.238158 -0.048484 0.151515 0.055027 0.058556 -0.210921 -0.014651 -0.181691 -0.103787 -0.021577 -0.05911 -0.037082 -0.313033 0.155418 0.225367 -0.062193 -0.116064 0.044654 0.079461 -0.089364 0.055251 -0.214341 0.381831 0.055728 -0.182645 -0.066525 0.187582 0.05856 -0.170201 -0.018388 -0.191436 -0.276146 0.233869 -0.159453 -0.317748 -0.026031 0.27956 0.040512 0.012897 0.050698 0.144859 -0.110736 0.350152 -0.093698 0.111917 -0.110907 0.127396 -0.144189 0.281909 -0.112435 0.192797 -0.025945 -0.02923 0.22205 0.195117 0.069839 -0.34913 0.140045 -0.147043 0.047788 0.145979 0.173419 -0.264623 0.137406 0.2588 0.085181 -0.078041 -0.119197 0.005601 -0.269617 -0.14375 -0.269072 -0.109305 0.313612 -0.124022 -0.349894 0.158369 -0.235168 0.114926 0.098149 -0.063175 0.045033 -0.475949 -0.072514 0.082252 0.102602 -0.091498 -0.227375 -0.20508 0.243853 0.117545 -0.270455 -0.092595 -0.111864 -0.184524 -0.096253 0.062944 0.115276 0.043103 -0.071173 -0.101499 -0.234393 -0.244782 0.046179 0.109357 -0.132508 0.18607 -0.203065 0.126729 -0.222199 0.173044 -0.283502 -0.018926 -0.258338 0.112986 -0.362922 0.224106 -0.180469 0.166499 0.233167 0.131288 -0.103383 0.04287 -0.308987 0.19323 -0.075674 0.095666 -0.237649 0.014659 -0.043785 0.331765 -0.032668 -0.224898 0.105909 0.157825 -0.133177 0.153463 0.247283 -0.135369 0.159686 -0.171148 0.160411 5.52E-4 -0.081325 -0.371363 -0.087173 0.259156 0.064418 -0.052905 -0.304187 -0.11003 0.056121 0.116148 0.208577 0.241192 -0.335547 0.230234 0.127011 -0.359962 0.117211 -0.095791 -0.216606 0.040403 0.193393 -0.249164 0.199427 0.560018 -0.230861 0.05385 -0.108206 0.080984 -0.191172 0.097152 0.323105 -0.084375 0.127898 -0.215334 0.160004 -0.206518 -0.203451 0.106241 0.142322 -0.163481 0.114789 -0.118633 0.19537 -0.12085 -0.267324 -0.013275 -0.263118 -0.372388 0.096274 0.093057 -0.140314 0.00287 -0.121248 -0.237938 0.328514 0.002273 0.065859 -0.105929 -0.007813 0.179345 -0.346254 0.107338 0.202355 0.142667 0.263997 -0.083971 0.298947 -0.183442 0.200418 -0.037096 0.010891 0.012997 -0.328224 0.104372 0.025347 0.011734 0.080225 -0.004926 -0.311424 -0.071559 0.255906 -0.14741 0.111812 -0.363974 -0.33044 0.094197 0.022697 0.254673 0.288995 0.133691 -0.142288 0.08204 0.266224 0.288859 0.539496 -0.073681 0.183175 -0.13709 0.349531 0.086199 -0.250842 -0.164728 -0.080121 -0.004865 0.095338 0.167721 -0.129552 -0.154929 0.356867 0.276222 -0.239982 0.150773 0.082485 -0.077078 0.064487 -0.138859 -0.027639 0.294687 -0.067378 0.209196 -0.147645 -0.243279 -0.032814 0.081854 0.030314 -0.084551 -0.063624 -0.183509 -0.068667 -0.06022 0.086742 0.147215 -0.299687 -0.049097 0.195962 -0.111855 0.054367 -0.002215 -0.172846 0.094395 0.072479 0.291865 0.303828 -0.067434 0.089073 -0.285334 -0.015934 0.0822 -0.431116 -0.05301 -0.015274 0.069562 -0.162291 0.157465 -0.18076 -0.220557 0.215497 0.134955 -0.243043 0.294026 0.074157 -0.363341 0.051441 -0.06782 -0.184341 0.142796 0.159186 -0.268504 -0.33174 -0.131988 0.076011 -0.230237 -0.10622 -0.400222 0.001518 -0.289087 0.059891 -0.14054 0.153504 -0.058044 -0.30898 0.227234 -0.166894 -0.093155 -0.218643 -0.359487 0.146241 -0.006946 -0.234536 -0.043811 -0.114607 -0.184781 -0.333981 0.187732
planning -0.05884 0.030532 0.139911 0.058327 0.122764 -0.010602 -0.040445 0.002082 0.232511 0.174215 0.130844 0.077303 -0.013355 -0.488508 0.278604 0.08638 -0.176561 -0.357492 0.118868 -0.019314 0.124066 -0.154871 -0.219528 0.170266 -0.034134 -0.230467 0.007257 0.09821 -0.051118 0.042151 0.014475 0.079701 -0.15326 -0.034087 0.078282 -0.257281 -0.072952 0.280513 0.078583 -0.0355 0.011905 -0.043591 0.281692 -0.011993 -0.315621 0.131333 0.041015 0.312451 0.074312 0.124817 0.159853 -0.099482 0.325385 0.092157 -0.290945 0.31694 0.048696 -0.090565 0.022997 -0.233472 0.076877 0.140466 0.062525 0.104117 -0.242433 0.154077 0.088344 -0.042146 -0.091867 0.088881 0.01363 -0.146806 0.042182 0.45712 0.10677 0.029269 -0.003265 0.01163 0.186345 -0.165105 -0.099756 -0.057574 0.136989 -0.044041 0.179378 0.007598 -0.100118 0.022213 0.161358 0.040608 0.019519 -0.015444 -0.18596 -0.013338 0.250998 0.266206 0.024996 0.187416 -0.157983 -0.101104 -0.024405 -0.39342 -0.148948 -0.160485 -0.038025 -0.213737 0.164813 -0.225209 0.053419 0.127362 -0.066796 0.072692 -0.061073 0.27078 -0.171339 0.076759 0.105926 -0.071441 0.04911 -4.92E-4 0.122037 -0.478382 -0.130903 -0.34221 -0.102529 -0.264675 0.161442 -0.114963 -0.206638 -0.154738 0.078066 0.110336 -0.138295 -0.021085 0.284404 -0.007352 0.10209 0.194647 -0.186056 0.087533 0.052732 -0.010171 -0.038065 -0.129438 -0.149402 -0.111856 0.075928 0.280526 -0.292933 -0.008052 -0.009965 0.12716 0.055517 -0.196022 -0.202867 -0.155418 0.166296 -0.003957 -0.081279 0.257069 -0.110142 -0.036374 -0.163447 -0.085398 0.120681 0.048735 -0.043945 -0.122349 0.097087 0.218335 0.039329 -0.229852 -0.077783 0.079343 -0.052026 0.057467 -0.156966 0.193174 -0.116805 0.09026 -0.036017 0.048913 0.064873 -0.028434 0.052615 0.170487 -0.031412 -0.26259 -0.070025 -0.045333 0.324541 0.207239 0.255774 0.025693 0.307668 0.114622 0.119457 -0.168288 -0.090148 0.060409 -0.123476 -0.139567 0.219839 0.05269 -0.037816 0.001048 0.406894 0.050655 0.057891 0.102257 0.039038 0.097667 0.216427 0.167205 0.022793 -0.150628 0.208833 0.139145 0.25231 -0.168705 -0.007195 0.289971 -0.043644 -0.135002 -0.061628 0.090033 0.127691 0.01404 -0.048409 -0.058703 -0.083736 0.01254 -0.019571 -0.1264 -5.12E-4 -0.115118 -0.05189 -0.254344 -0.073883 -0.26879 -0.124263 0.059144 0.144553 0.230135 -0.018966 -0.072738 -0.159337 -0.114183 0.101178 0.242989 -0.021331 0.232377 -0.004678 0.231278 -0.053739 0.031929 -0.167807 -0.140201 0.122545 0.072894 0.109808 0.146033 -0.021841 0.086497 0.141422 -0.082577 0.072887 -1.08E-4 0.034947 -0.241651 -0.353248 0.098285 -0.109031 -0.496826 0.103714 0.018777 -0.15084 0.306492 -0.12329 -0.096632 -0.176467 0.095459 0.006798 0.058467 0.136641 -0.026539 0.065578 -0.010726 0.301919 0.208844 -0.262569 -0.119692 -0.128325 -0.104248 0.051825 0.033937 0.191922 0.1341 0.20813 -0.004746 0.282826 -0.282739 0.024545 -0.104155 -0.134663 -0.096587 0.117664 -0.040809 -0.092336 0.208337 0.020491 0.112331 -0.031711 0.100882 -0.035677 -0.055679 0.101136 -0.128335 0.074936 -0.047665 0.079421 0.011203 0.02634 -0.075989 -0.355514 0.010508 -0.072276 -0.180286 0.151557 -0.056486 -0.075834 0.009965 -0.179283 -0.15714 0.066411 -0.252873 0.027044 0.058107 0.303858 0.215267 -0.00299 0.065937 0.136613 0.031189 0.076602 0.149993 -0.014529 0.131714 -0.23492 0.120444 0.219713 0.020869 0.089236 0.265829 0.210834 0.252888 -0.212424 -0.127538 0.153093 -0.228243 0.188773 -0.187317 0.235349 0.218685 -0.053917 0.083881 -0.318624 0.020416 0.294603 0.156196 0.14445 -0.291302 0.206826 -0.176042 -0.40195 0.035522 -0.064759 -0.182067 -0.034484 0.406494 -0.036005 -0.033573 0.175173 -0.253262 -0.291328 -0.159603 -0.144639 0.043462 -0.221748 0.108208 0.209781 -0.114257 -0.128264 0.028919 -0.054979 -0.034199 -0.099462 0.287653 0.028088 -0.096303 -0.009108 -0.064061 0.040172 0.130762 0.217472 -0.144754 0.100222 0.159362 -0.185585 -0.118836 0.048052 -0.070954 -0.11432 0.126634 0.148489 0.192265 0.170191 0.156276 0.043256 0.114299 -0.335128 -0.075399 -0.087984 0.028148 -0.092306 -0.161391 0.14305 -0.10504 -0.079674 0.286929 -0.208116 0.345415 -0.092896 -0.123645 0.176023 -0.050375 -0.028213 0.057784 -0.14282 0.011296 0.003021 0.28754 -0.051952 0.076361 0.180514 -0.087497 -0.233618 0.019275 -0.113976 -0.058649 -0.072562 0.276391 0.067758 0.107761 0.025874 0.10449 0.026957 -0.021368 -0.162791 -0.115689 -0.11156 -0.087961 0.343009 -0.144802 -0.166412 0.138255 -0.074683 -0.22648 -0.268772 0.046741 0.082998 -0.116735 -0.220412 -0.352001 0.230499 -0.058728 0.11932 -0.170758 -0.094462 0.028294 -0.019679 -0.105856 -0.031231 0.035159 -0.061566 -0.028009 -0.103508 0.152758 -0.029385 0.036719 0.292152 0.022708 0.145802 0.178097 0.096635 -0.004074 -0.053128 -0.067574 -0.294272 0.070473
canyon 0.026098 0.056424 -0.216374 -0.44625 -0.0433 0.227499 0.147261 0.129456 0.030763 -0.093705 0.135754 -0.143952 -0.128119 0.049693 0.005343 0.410796 0.093162 -0.028736 -0.167453 -0.02149 -0.167716 0.063187 -0.125174 -0.444377 0.11488 -0.120708 0.235706 -0.072478 0.106175 -0.020005 0.058889 0.091509 0.026465 0.029655 -0.0629 -0.089462 0.081254 -0.199432 0.053669 0.072635 0.089533 0.177545 0.11729 -0.026341 0.30695 -0.110892 0.05337 0.00469 0.127143 -0.18833 -0.147743 0.163849 0.180987 0.058879 0.056216 0.128848 -0.409617 0.085402 0.045196 0.096794 0.173232 0.036049 0.087905 -0.043409 -0.363377 0.29796 0.014163 -0.123069 0.090249 -0.04452 0.005575 -0.010298 -0.034422 0.138789 0.219444 0.009918 -0.146358 0.200216 -0.168003 -0.205742 0.018377 0.196546 0.074628 0.033867 -0.190166 0.019292 0.328908 -0.100813 -0.191288 0.025355 -0.201122 0.397092 -0.127842 -0.176593 0.134939 0.178015 0.058491 -0.072324 0.065708 -0.057207 0.002814 -0.059228 -0.037794 0.003583 -0.12054 -0.372545 -0.157227 -0.149923 0.335529 0.598851 -0.366943 0.134481 -0.228582 0.740738 0.199942 -0.032865 0.017465 -0.020294 -0.327045 -0.200661 0.184262 -0.331701 -0.063745 -0.032976 0.005102 0.333295 -0.005682 0.008028 -0.117767 -0.010102 -0.15514 -0.301754 0.230946 0.222783 0.077345 0.200244 0.135337 0.09375 -0.185319 -0.119791 -0.129073 0.157572 -0.009538 -0.254512 0.019211 0.111389 0.039304 0.117952 -0.07305 0.042865 -0.164789 0.140534 0.182672 -0.068983 0.225441 0.021657 0.140703 -0.21751 -0.017543 -0.033102 -0.141562 -0.101045 -0.022731 0.184563 0.16867 -0.010767 -0.086755 0.113487 -0.197054 0.196363 0.14995 0.176367 -0.219599 0.021543 -0.094821 0.047112 0.042081 0.057441 0.175016 -0.016602 0.038851 -0.162757 -8.47E-4 0.15345 -0.192706 -0.041121 0.173375 0.293995 -0.027954 0.155797 0.031384 -0.301986 -0.099778 -0.099121 0.080726 -0.059124 -0.09393 0.173202 0.375622 -0.20688 -0.145593 -0.230269 0.112425 -0.014068 -0.085467 0.077231 -0.20503 -0.417092 -0.264523 0.268163 0.113166 -0.04047 -0.203503 -0.01111 0.116875 -0.151147 0.020614 -0.07498 -0.082895 -0.004663 -0.006083 -0.108226 0.076298 -0.21403 0.02498 0.096736 0.069784 0.09843 -0.1293 0.00823 -0.070448 0.020637 -0.095771 0.194907 -0.213385 -0.050781 0.068789 0.1403 -0.087109 -0.0375 -0.037582 0.285042 -0.00214 0.001039 0.391149 -0.078068 0.085638 0.186182 0.091696 0.11349 -0.090183 -0.093537 0.309849 -0.074397 0.294537 7.7E-4 -0.078607 -0.314573 0.084422 -0.325146 0.154777 0.102794 0.100362 0.054569 0.109439 -0.015715 -0.027551 0.087315 -0.041944 0.249208 0.002417 -0.087051 -0.045929 -0.046043 -0.219312 0.058939 -0.27882 0.2152 0.009758 0.41372 -0.017924 -0.057162 0.221986 -0.148384 -0.084964 0.51311 0.182434 0.322913 0.19172 0.272201 -0.167042 0.122445 0.372598 0.208704 0.130691 -0.096283 -0.211999 -0.026459 0.182379 0.064661 -0.018118 -0.293961 0.315801 -0.136922 0.027837 -0.002825 0.128443 -0.037817 -0.041743 -0.39493 0.153017 -0.079537 -0.30103 -0.027973 -0.232288 0.23572 -0.118056 -0.041374 -0.15552 0.079406 -0.119883 0.21463 0.195519 0.337674 -0.251448 0.343903 0.081151 -0.066913 -0.148648 0.319673 0.270418 -0.042187 0.088874 0.299804 0.240078 0.068134 0.132138 -0.412672 0.310114 -0.256936 0.292822 -0.148572 0.172861 0.287169 0.057685 -0.109171 0.025148 -0.35136 0.067922 -0.05311 0.17039 -0.564607 0.032818 -0.211455 -0.251966 -0.20435 0.132842 -0.115501 -0.106951 0.222035 0.090952 0.148729 -0.010028 0.018497 0.199635 0.046562 -0.104637 0.13589 0.253934 -0.166443 0.408315 -0.028799 -0.195303 -0.045006 0.01592 -0.138916 -0.180029 -0.428872 -0.096128 -0.356369 0.216373 0.028847 0.272332 0.102766 0.110611 -0.120002 -0.045723 0.124499 0.178864 0.150099 0.026389 0.047282 0.192906 0.115627 0.200026 0.174849 0.07421 0.038037 0.047003 -0.213732 0.1217 0.254011 0.095737 -0.260047 0.113882 -0.103786 -0.207913 -0.237731 -0.071775 0.086099 -0.138033 0.191748 0.091343 0.171622 0.137025 0.170242 -0.165689 -0.037567 0.051407 -0.029568 0.068998 -0.087789 0.094642 0.114231 -0.085206 -0.083311 -0.07465 -0.162747 -0.014116 0.116174 0.113036 0.075429 0.032912 0.130753 0.217779 -0.081982 0.249363 0.203119 -0.230638 -0.24264 0.145932 0.135626 -0.102464 0.023597 0.066303 0.12518 0.083104 -0.173206 0.04556 -0.195592 -0.063762 0.125091 -0.119904 -0.02579 0.092991 0.343256 0.044966 -0.021346 -0.275316 -0.039707 -0.319366 0.245942 0.006118 -0.160151 -0.433025 0.245487 0.020044 0.342308 0.058051 0.302517 -0.339017 0.025922 0.355267 -0.045159 -0.397533 0.07956 -0.123383 -0.099858 0.182517 -0.071796 -0.166906 -0.37305 0.069085 -0.033592 -0.089464 -0.264051 -0.371491 0.090717 0.242491 -0.149139 -0.105485 -0.107529 -0.250878 -0.03224 0.069454 -0.125962 -0.296342 -0.068053 -0.012448 -0.321585
delay 0.014735 0.170415 0.246533 0.012678 -0.012246 0.111944 0.354929 -0.200283 -0.124101 -0.096568 0.021039 0.029375 0.140676 -0.350373 0.171141 -0.05433 0.018245 -0.088934 -0.01731 -0.176464 0.054903 0.050327 -0.23685 -0.185143 0.010409 6.22E-4 -0.134693 0.286002 -0.395361 0.144918 -0.107611 0.208507 -0.110037 -0.364537 -0.06093 -0.010895 0.249945 0.169323 0.326418 -0.055044 0.049434 0.14679 0.172958 0.180246 0.203552 0.095649 0.13009 0.375785 -0.170267 -0.229362 0.115899 -0.177891 0.077763 8.34E-4 -0.225073 -0.166407 -0.079749 0.008102 -0.025968 0.027568 0.187183 0.219767 -0.157673 0.151597 -0.181004 -0.167322 0.244408 -0.18801 -0.08638 0.526894 0.092246 0.055159 1.21E-4 0.14285 -0.163627 -0.100991 -0.121496 -0.197576 -0.256391 -0.328288 -0.07171 0.15397 0.491035 0.312615 -0.225865 0.019809 -0.49815 0.100379 0.274826 0.047246 0.189061 -0.139355 0.090156 0.012073 0.015907 0.026293 -0.312235 0.218494 0.463549 -0.030736 -0.128448 -0.304936 -0.178929 -0.155897 0.10047 0.043384 0.096878 -0.300358 -0.369861 0.433848 -0.31705 -0.053389 -0.170484 -0.141457 -0.257399 0.026936 0.231617 0.054746 -0.103045 0.403592 -0.208469 0.235505 0.036325 0.01729 -0.103105 -0.38622 0.071456 0.162242 -0.552908 -0.29136 -0.104159 0.306084 -0.157621 0.12198 0.031621 -0.109869 0.37874 -0.169632 0.165651 0.373772 0.012588 -0.052842 0.374753 -0.095732 0.021875 0.274185 0.14292 -0.078847 -0.010438 -0.154455 -0.012265 0.15235 -0.112331 0.402171 0.211251 0.013819 0.162467 -0.315212 -0.01822 0.00435 -0.018133 -0.148445 -0.191883 -0.36058 -0.373684 -0.127798 0.110261 -0.1356 -0.065151 -0.086444 0.185006 0.124942 0.349037 0.304689 -0.219228 -0.014237 0.143269 0.294218 -0.197666 -0.004273 -0.08789 -0.176556 -0.002474 0.197442 -0.200419 0.092018 -0.064619 -0.229427 0.18195 0.069104 0.176553 -0.220369 -0.039746 0.082153 0.021537 0.269222 0.013108 0.339674 -0.14432 0.162479 -0.018159 0.011388 0.279577 0.280851 -0.04962 0.309295 0.171429 -0.554403 0.314784 0.096425 -0.105051 0.495738 0.281585 -0.189977 0.106457 0.013012 -0.136806 0.120642 -0.003095 -0.215871 -0.094559 -0.011085 0.050384 -0.206112 0.216704 0.112325 0.437967 0.051631 -0.101642 0.067574 0.417897 0.435569 0.01711 0.127504 -0.210158 0.234217 -0.126333 -0.33875 0.20199 -0.197081 0.099758 0.518505 0.5682 -9.55E-4 -0.138183 -0.126604 -0.058722 0.107842 0.124785 -0.172716 0.051447 -0.014 0.27377 0.029733 0.371344 0.12734 0.203137 0.051386 -0.075635 0.185413 0.575497 -0.425873 0.107216 -0.239563 0.103173 0.046506 0.129288 -0.099676 0.07028 -0.097333 0.044986 -0.151645 -0.187212 0.124828 0.012916 -0.169024 0.051575 0.222692 -0.010074 0.079199 -0.205843 0.250302 -0.100566 -0.108718 -0.084327 -0.220224 -0.1533 -0.002598 0.067384 -0.025533 -0.189963 0.097461 -0.02109 -0.074076 -0.257353 0.176967 -0.087345 0.098293 0.249034 -0.018912 -0.085895 -0.075918 -0.134082 0.162279 -0.260683 -0.154749 0.228135 0.152252 0.061975 -0.059532 0.372869 0.105689 -0.139615 -0.150947 0.030935 0.089235 -0.042522 -0.095924 0.057535 0.27194 0.032134 0.034361 -0.322626 -0.172971 -0.005701 0.115231 -0.024242 0.096281 0.291508 -0.152475 -0.270014 0.217803 0.237006 -0.041327 -0.130753 0.33244 -0.061905 -0.069615 0.111589 0.00416 0.121129 0.266198 0.176132 -0.054907 0.166669 -0.095009 -0.160054 0.118225 -0.115984 0.059361 -0.22252 -0.115185 0.059963 -0.011778 -0.103743 0.216389 -0.428752 0.041804 0.115103 0.138283 -0.040477 -0.20307 -0.2598 -0.134749 0.301718 0.2551 0.152604 -0.042168 0.339755 -0.038946 0.5292 -0.048237 -0.014194 -0.431915 0.010779 -0.084265 0.137667 0.107455 -0.40076 -0.17894 -0.033152 0.004687 0.082575 0.337585 -0.104907 0.233527 0.246254 -0.190992 0.061068 -0.018546 0.416744 0.049358 -0.285228 0.267782 -0.014626 0.129527 -0.296821 0.172799 -0.022172 -0.010687 -0.297596 0.19812 0.134694 0.125609 0.302144 -0.166483 0.046901 0.034842 -0.280187 -0.234691 0.016258 -0.335232 -0.027219 0.007561 -0.121531 0.263354 -0.058449 -0.116277 -0.036991 -0.048738 0.057737 0.054095 -0.106181 -0.005571 -0.23364 -0.322026 0.085843 -0.136993 -0.057055 -0.043896 0.219966 0.095647 -0.01228 0.330043 0.066721 0.35382 0.277872 0.167957 -0.217129 -0.394831 -0.136774 0.002439 -0.032674 0.104294 0.068562 0.017365 -0.309943 -0.071417 0.132372 -0.337458 -0.104038 0.541464 0.177577 -0.056801 -0.044671 -0.272511 -0.195181 -0.178524 0.14266 -0.065149 -0.051196 -0.128126 0.158682 -0.108883 0.018264 0.261243 -0.137239 -0.081558 -0.04168 0.097817 0.121007 -0.050024 -0.248167 0.191107 -0.090081 -0.134182 -0.294517 -0.062557 0.110953 0.277415 -0.205056 -0.461484 0.02808 -0.273665 -0.115108 -0.169391 -0.159579 -0.080081 -0.040185 -0.075619 -0.359661 -0.08221 0.239833 0.178569 0.181638 -0.256361 0.094506 0.120476 -0.16696 -0.195199
size -0.016659 -0.111677 -0.270262 0.1021 0.065586 0.041356 -0.032616 0.188395 -0.012539 0.019884 0.168594 -0.024286 0.111322 -0.184295 0.265611 0.004205 0.006188 -0.169838 0.110495 0.127782 0.113023 -0.195188 0.007285 0.156435 0.10961 -0.142403 -0.084941 0.079786 0.277689 0.243867 0.004793 -0.108157 -0.081854 -0.099738 -0.250603 -0.061682 -0.088004 0.125411 0.130724 -0.003631 -0.199307 0.222976 -0.159644 -0.079489 0.044774 -0.058276 0.097725 0.089295 -0.178241 -0.144653 -0.147583 0.274715 0.107463 -0.175072 -0.19044 0.064329 0.101302 0.003151 0.033783 -0.048515 -0.006291 -0.192767 0.143172 0.218715 0.109589 0.04081 0.067907 0.14013 0.015688 -0.10173 0.06945 -0.108889 0.29187 0.177757 0.285919 -0.145338 -0.447992 -0.337003 0.233114 -0.250775 0.030314 -0.095757 -0.081772 0.01825 -0.138494 -0.049156 -0.201709 0.066614 -0.066676 0.071614 -0.03995 0.008611 0.027674 -0.008028 -0.092051 0.139471 -0.187882 0.11551 -0.159987 -0.070141 -0.178417 -0.147356 0.047309 0.032772 0.02952 -0.27251 0.112349 0.09453 -0.102347 0.286725 -0.158528 -0.132946 -0.115733 -0.051406 0.061227 0.068419 0.41427 -0.012507 0.112305 0.222729 -0.207978 -0.336884 -0.187071 -0.151658 -0.115902 0.194765 0.138781 0.406648 -0.167905 0.180191 0.169476 0.004705 0.094533 0.051696 0.240322 0.123127 -0.001651 0.191108 -0.314059 0.031152 -0.037246 -0.15938 0.117736 -0.191883 -0.099722 0.134342 -0.315966 -0.180573 -0.003828 0.216344 0.164248 -0.049302 -0.14349 -0.38506 0.190955 0.023563 -0.019965 0.363342 -0.066012 -0.01577 -0.100846 -0.020987 0.116232 0.051108 0.014509 -0.241794 -0.075209 -0.104108 0.148658 -0.149906 -0.296941 0.14976 0.377588 0.198993 -0.347959 0.017103 0.006634 -0.154766 0.294694 -0.063377 -0.067482 0.012438 -0.114178 0.19341 -0.502755 0.0562 0.083669 0.09485 0.032337 -0.216382 0.095148 -0.310159 -0.090881 0.063619 0.159526 -0.137025 0.236065 0.28388 0.011418 0.453916 -0.106857 0.036124 0.154526 0.272064 0.128471 0.352288 -0.158118 -0.196753 -0.04472 0.175671 -0.236429 0.301763 0.082867 -0.081407 0.071208 -0.234095 0.124188 0.154484 -0.115659 -0.30879 0.072651 0.135919 0.075925 -0.012318 0.224127 -0.256657 -0.029725 0.16264 -0.236163 -0.104349 0.060673 0.079743 -0.254943 0.185736 0.095145 -0.104811 0.054128 0.17197 -0.027911 -0.141036 0.191586 -0.017147 0.053618 -0.133302 0.040743 -9.94E-4 -0.133826 0.080199 0.144536 0.005818 -0.036096 -0.130037 0.201699 0.3438 -0.028263 -0.032222 -0.084806 -0.011207 -0.035335 0.266397 0.257603 0.127628 -0.004935 -0.041837 0.087735 -0.12767 0.257987 -0.018226 0.009302 0.078817 -0.047829 0.139697 -0.003537 0.111932 -0.067232 0.104461 -0.006793 0.393628 -0.153713 0.024453 -0.200421 -0.051224 0.019872 6.0E-4 0.186204 0.135209 -0.234 0.024648 0.311315 0.360776 -0.41604 0.061075 0.318223 0.217967 0.259251 -0.103904 -0.111886 -0.055921 0.170136 0.144615 0.205562 0.085434 0.223398 -0.20451 -0.18624 -0.090094 -0.168521 -0.221014 -0.109441 0.185059 0.051212 -0.090038 -0.116056 0.049059 -0.293425 -0.036783 -0.177964 -0.197303 -0.149307 0.144164 0.438717 -0.01697 -0.378919 -0.149645 -0.103436 0.018168 0.03299 -0.214923 -0.020391 -0.067207 -0.036156 -0.116969 -0.286808 0.447031 0.230599 0.109331 -0.016826 -0.181443 0.259169 -0.208168 0.035401 -0.062372 -0.07262 0.041119 -0.239796 -0.141112 0.276927 -0.076594 -0.238435 0.14136 0.324044 -0.210005 0.095344 0.020903 0.038788 -0.004408 -0.317268 -0.009137 0.140463 -0.177456 0.095207 0.332395 -0.009021 -0.019868 0.022718 0.246745 0.05751 0.031362 0.087541 0.120775 0.085008 -0.211891 0.109459 0.166253 -0.208312 0.293833 0.084108 -0.073598 -0.177658 -0.209616 0.057307 -0.034613 -0.077569 -7.5E-4 -0.175221 0.15947 -0.191379 0.099639 -0.030894 -0.156396 -0.102523 0.463147 0.175558 0.284719 0.219699 0.257949 -0.037014 0.292591 0.152426 0.297679 0.406714 0.111797 -0.155024 -0.061785 0.046687 0.00692 0.090866 0.187563 0.026359 0.066106 0.199322 -0.01969 -0.213234 0.19222 -0.042357 0.139898 0.032452 -0.229496 0.416463 0.108953 -0.001067 -0.115605 0.342105 0.050345 -0.118674 0.023492 0.030524 0.012084 0.056853 0.00716 -0.06508 0.078651 -0.028157 -0.113089 0.066666 -0.185275 -0.043807 -0.092918 0.020555 -0.0121 0.106126 -0.034907 -0.078004 -0.263044 -0.026918 0.013659 -0.049787 -0.109693 0.088029 0.115341 0.168282 -0.003196 0.038346 0.234438 -0.076948 0.311151 -0.028593 -0.268473 -0.132897 0.159496 -0.031966 -0.210494 0.243672 -0.166812 -0.063946 0.279807 0.274103 -0.17477 0.340209 0.178189 -0.245141 0.257042 -0.014628 -0.213327 -0.123504 -0.074603 0.02514 -0.384894 -0.105825 -0.078245 0.204508 0.329395 0.014064 0.091716 -0.063748 0.401882 -0.221589 0.256527 -0.124583 -0.134729 0.269178 0.064326 0.210021 0.097262 0.003274 -0.099112 -0.032581 -0.14064 -0.006 0.162236
peace -0.006167 0.484549 0.094213 -0.164687 0.49059 0.004686 0.3138 0.128872 0.109758 -0.125099 0.132975 0.019089 0.181262 0.255376 0.173175 0.156251 0.105201 0.268488 0.146812 -0.037809 0.077657 -0.187057 -0.147446 0.1477 0.009976 0.312781 -0.099406 -0.223501 -0.318962 0.235581 0.017865 0.198655 -0.088585 -0.104829 -0.488995 -0.189874 -0.132942 0.25531 0.167287 -0.100503 0.189637 -0.060988 -0.20089 -0.0898 0.035899 0.173318 0.478106 -0.023387 0.072349 -0.188111 0.153569 0.249007 0.159464 0.31259 -0.124544 0.108379 -0.148334 -0.233135 0.029927 -0.111558 -0.082597 -0.044744 -0.25926 -0.024454 -0.368727 -0.070974 0.419929 -0.064975 0.03954 0.017948 0.056407 0.020342 -0.03482 0.014961 -0.020768 -0.008352 0.233206 0.032297 -0.287965 0.025172 0.107258 -0.215361 -0.294851 -0.028709 0.099886 0.093405 0.249679 -0.046735 -0.100999 -0.284299 0.402156 0.282651 -0.136741 0.092681 0.196694 -0.116827 0.600419 0.102334 -0.045564 0.13808 -0.019853 0.108253 0.012035 -0.057928 -0.085405 -0.287093 -0.182806 0.088596 0.04057 -0.032782 -0.031067 0.014602 -0.14352 3.65E-4 0.019434 -0.072957 -0.15121 0.243008 -0.287966 0.008342 -0.028427 -0.231441 0.191565 0.437619 -0.146633 0.082387 0.116792 -0.272431 -0.325795 -0.04923 -0.146458 0.21548 0.052924 -0.205424 0.566489 -0.004435 -0.009668 -0.051241 -0.253369 0.060506 5.02E-4 0.21548 0.149221 0.040993 0.099575 0.130018 -0.025708 -0.326667 -0.329805 0.223074 -0.246633 0.06372 0.052906 -0.296918 0.312068 -0.195255 0.015332 -0.03468 0.081368 -0.210237 -0.093538 0.131678 -0.117621 0.119151 -0.209516 0.294089 -0.258754 -0.062126 -0.462408 0.286071 -0.050327 -0.016189 0.176672 -0.045792 0.050421 -0.025646 0.18644 -0.023364 0.016275 0.193844 0.213874 0.117652 -0.115969 -0.239165 0.072837 0.259505 -0.059948 0.006075 -0.074066 -0.030302 0.120725 -0.293627 0.007317 -0.343982 -0.264691 -0.334634 0.19824 0.106397 0.09298 -0.251953 -0.066361 -0.257966 -0.064816 -0.290854 0.06008 0.460991 0.226116 -0.244988 0.191264 0.025305 0.301296 -0.057615 0.092417 -0.038942 -0.080662 -0.295485 -0.087084 -0.064453 0.079802 -0.308819 -0.158064 -0.335749 0.110224 0.450175 0.09972 0.434951 -0.041969 -0.104324 0.070575 -0.062233 -0.026911 0.074201 -0.018257 0.142367 -0.207571 -0.078342 0.167926 -0.178031 -0.016601 0.126699 -0.06754 -0.13144 -0.014091 -0.143437 0.311359 0.128582 -0.102121 0.254366 0.09901 0.215433 -0.058622 0.450777 0.036156 0.306213 -0.409244 -0.169266 -0.180349 0.26838 -0.077629 -0.353462 -0.280612 0.136303 0.213766 -0.33186 -0.316984 0.013255 0.12735 0.113535 -0.037991 -0.095945 -0.088955 0.022904 0.070343 -0.00176 -0.191506 0.026736 -0.077282 0.227027 -0.254506 0.08811 0.0615 0.49568 0.252019 0.044588 0.043825 0.122899 -0.018561 0.144143 -0.068337 0.077096 0.028893 -0.238932 0.074088 0.154287 0.118093 0.11178 -0.020904 -0.039206 0.166215 0.168741 -0.035657 -0.219906 0.057305 -0.125842 -0.278629 0.159137 -0.026905 -0.187818 -0.291565 0.205494 0.277708 -0.051438 -0.056263 -0.181895 0.140276 -0.366685 -0.341204 -0.091508 0.023671 0.136696 0.155995 0.044668 0.106386 0.417164 -0.111901 0.09373 -0.11176 -0.06431 0.195862 0.071714 -0.262555 0.017947 -0.047867 -0.305297 0.150885 0.18507 0.121591 0.035483 0.316383 -0.157359 0.146972 0.360525 0.042006 0.096065 -0.107136 0.081321 0.03313 0.041265 0.428496 -0.153648 0.203554 -0.048175 -0.155031 0.259005 -0.336142 -0.08957 0.456582 0.088666 0.005543 0.188582 0.108486 -0.388673 -0.20145 -0.170214 0.212564 -0.067353 -0.246549 0.311086 0.076036 -0.095559 0.371667 -0.269779 0.001861 -0.122961 0.174763 -0.090507 -0.065171 -0.093076 -0.259938 -0.193292 0.493156 -0.230446 0.166552 -0.316928 -0.029429 0.096279 -0.293115 0.187446 0.193957 0.109495 -0.05517 0.170398 -0.294656 0.004068 0.220044 0.43633 0.529252 0.373503 0.030356 -0.034438 0.212893 0.032289 0.512017 0.392446 0.3311 0.074853 -0.034856 0.018176 -0.151493 -0.428162 -0.078255 0.064484 -0.008778 -0.126018 -0.266802 -0.060679 0.214723 -0.12464 -0.131527 -0.040828 0.053382 0.023134 -0.095922 0.021606 0.213067 0.150048 0.088888 0.037079 0.040101 -0.010664 -0.25808 2.1E-4 -0.118237 -0.151145 -0.30866 0.269497 -0.248806 0.25702 -0.083535 -0.106874 -0.182677 -0.136389 -0.131461 -0.1408 -0.135166 -0.061344 0.021282 0.188192 -0.018048 0.053713 0.433 0.253914 -0.27217 -0.062666 -0.216009 -0.092698 0.14828 0.248004 0.012548 0.063738 -0.335746 -0.225237 -0.2305 -0.263984 0.316176 0.125121 -0.079249 -0.161782 -0.307353 0.136247 -0.068317 0.186656 -0.042654 -0.027088 -0.292476 0.176288 -0.256006 -0.029848 0.374172 0.010957 -0.066654 -0.174762 -0.312246 -0.060718 0.02499 -0.073754 -0.607455 0.158088 -0.064319 -0.017606 0.321733 0.149659 0.227193 0.213294 -0.263181 -0.013484 0.26121 -0.338834 0.123565 -0.12419
science -0.422965 -0.196001 -0.206872 -0.070105 0.106451 0.097951 -0.018321 0.257929 0.258843 -0.003603 -0.245055 0.05287 0.022288 0.104513 0.05607 -0.016808 0.055862 -0.409958 0.06977 0.066324 0.281657 -0.252319 0.137826 -0.289751 0.074068 0.294663 0.13633 -0.112326 0.194011 -0.239336 -0.142005 0.527905 -0.044435 -0.104164 0.169306 -0.40701 0.071505 0.232435 -0.256089 -0.231575 -0.195641 -0.103705 -0.041336 -0.091686 -0.032785 -0.118891 0.20809 0.037039 0.043734 -0.076399 -0.244875 0.024814 0.101433 -0.083768 0.267262 0.085454 0.04153 0.107094 -0.077269 0.025758 -0.225343 -0.195212 0.192894 -0.287816 -0.192516 0.060786 0.136375 0.140066 0.195827 0.223978 0.055603 -0.037654 0.09253 0.119463 0.055676 -0.119695 -0.059013 -0.237302 0.116251 -0.363439 0.028822 -0.058206 -0.076988 0.242899 -0.060629 0.092469 0.034838 -0.108688 0.137495 -0.557387 -0.021549 0.490354 0.221797 -5.42E-4 -0.257586 -0.070612 0.354289 0.164955 -0.238268 0.080874 -0.401024 -0.305783 -0.269812 0.160602 0.076884 0.040178 -0.030489 0.083445 -0.145825 -0.213325 0.168294 -0.151657 -0.012341 -0.004816 -0.046806 0.105961 -0.269896 0.095585 -0.259662 0.102075 0.35161 0.131477 0.103119 0.143403 -0.142204 0.0884 -0.242725 -0.15611 -0.084424 -0.140692 -0.037888 0.233334 -0.183648 0.093613 0.327723 0.179791 0.010693 0.200506 -0.171863 -0.306655 0.012713 0.256277 -0.106316 -0.124808 -0.006971 -0.027257 -0.201079 0.226636 -0.050033 -0.094091 -0.032069 0.042673 0.10991 -0.498126 -0.215107 -0.091616 0.06112 0.059854 -0.114841 -0.104607 -0.026337 0.232107 0.114102 -0.109069 -0.223704 0.210145 0.06408 -0.073649 -0.265355 0.029144 0.181872 0.241108 -0.027352 -0.343842 0.27695 0.269866 0.09783 -0.109301 -0.194766 0.206883 0.054341 0.306656 0.048374 0.080686 -0.45043 0.260401 0.395117 -0.136801 0.003643 -0.107846 0.180271 0.091394 -0.134302 -0.093128 -0.001762 0.057142 0.335465 -0.142866 0.016289 0.337646 5.26E-4 0.067537 0.225531 0.046202 0.044075 0.035756 -0.052935 -0.666285 -0.167131 -0.064822 -0.226003 0.214646 -0.131691 0.283912 0.063244 -0.079428 0.091729 0.298997 -1.19E-4 -0.021036 -0.127883 -0.042987 0.04657 -0.140045 0.201858 -0.123997 -0.224177 0.158401 0.009229 -0.109663 0.125834 0.011657 -0.161478 -0.081902 -0.150734 -0.190679 -0.203082 -0.231742 0.158403 0.035867 0.277247 0.23456 -0.023419 -0.084419 0.294254 0.439459 -0.042237 -0.073745 0.317898 -0.207732 -0.23984 -0.231607 0.230207 0.403414 -0.488445 0.190453 0.151572 -0.254294 0.452349 -0.134149 0.097993 0.180844 0.113683 0.126821 0.038914 -0.090277 0.151836 -0.131915 0.213373 -0.052175 0.121894 -0.007603 0.216167 -0.208422 -0.228714 -0.173574 0.010224 0.035273 0.0206 -0.259883 -0.154818 0.071067 -0.028381 0.003436 0.122073 0.173527 -0.643236 0.054025 -0.332715 0.188951 -0.119445 -0.002889 -0.061535 -0.146269 0.113679 0.017201 -0.247295 0.034422 0.017862 0.36591 -0.142477 -0.106909 0.044902 -0.011345 -0.121088 0.362434 -0.185111 0.140316 0.060734 0.223238 0.07149 0.316508 0.030099 -0.010111 -0.190879 0.105644 0.231225 -0.254117 0.129862 0.027323 -0.091211 -0.001353 -0.012961 0.200306 -0.203716 0.146048 0.2351 0.014566 0.022514 0.441948 -0.402725 0.146227 0.196261 0.07589 -0.131499 0.013012 0.25666 0.010469 0.170855 -0.15863 -0.08522 -0.037696 0.552047 0.036373 -0.137455 -0.205363 -0.050521 0.019385 -0.060947 -0.249474 -0.238379 -0.090898 0.021464 0.165225 0.026513 -0.02737 0.126555 -0.049435 0.109473 -0.095932 0.128463 -0.125298 -0.037777 0.093232 -0.120402 -0.134116 0.043415 -0.196655 0.006193 -0.15588 0.085572 0.031233 0.17779 0.250913 -0.151197 -0.17515 0.03481 -0.157233 -0.301633 0.096942 -0.066911 -0.23778 0.27661 -0.110145 -0.091829 -0.104417 -0.069059 -0.009328 0.159548 0.264012 0.264189 -0.319669 0.131468 0.095045 0.232554 0.017894 -0.111962 0.081466 -0.016426 0.355346 0.335273 -0.00606 0.165888 0.263339 0.369016 -0.007454 0.118009 -0.050328 -0.23003 -0.232775 0.219301 -0.089627 0.069481 0.129799 -0.191749 0.184351 -0.275003 0.204167 -0.249291 -0.021235 -0.147094 -0.367504 0.347488 0.436783 -0.136083 -0.181968 0.54301 -0.064556 0.27161 0.171257 -0.204638 -0.110844 0.037894 -0.01249 0.109772 -0.10242 0.132333 0.052431 -0.129824 -0.023682 -0.094014 -0.015654 0.366053 0.126333 -0.004687 -0.070586 -0.238526 -0.285296 0.353854 0.018024 -0.25028 -0.022283 0.166276 0.151502 0.139083 -0.184285 0.154921 0.023141 -0.286341 -0.002465 -0.37764 0.183882 -0.086413 0.012591 0.072386 0.244879 0.110436 0.072726 0.172952 -0.29138 0.100346 -0.126996 -0.040562 0.109129 0.044375 -0.072822 -0.002308 0.136931 0.26534 -0.024155 -0.099931 -0.068784 -0.029925 -0.010492 0.008789 -0.108834 -0.079431 0.238357 -0.041615 0.316458 0.07427 0.009224 -0.080126 0.059399 -0.019479 0.073116 0.035641 0.017245 -0.278024 0.223526
dawn 0.062262 -0.163022 -0.097894 0.06747 0.20048 0.300735 -0.163275 0.128811 -0.34149 -0.224254 -0.136178 0.26929 -0.185216 -0.196321 -0.061784 -0.013174 -0.545545 -0.165767 -0.326742 -0.029159 -0.116679 0.148365 0.005421 -0.014271 -0.114079 -0.039512 -0.10261 -0.407674 -0.053354 0.028253 0.021647 0.060554 -0.20041 -0.021608 0.02259 -0.097425 0.536369 0.038649 0.597301 0.139045 -0.331782 -0.279353 -0.119406 -0.04148 0.407754 0.515489 -0.176545 0.057635 0.172976 -0.152719 -0.069457 0.258258 -0.154972 -0.130822 -0.331824 0.203012 0.229732 0.192859 -0.056738 0.188267 0.144609 -0.003458 0.040579 0.191135 0.213613 -0.058996 -0.08781 0.563656 -0.029142 0.302948 0.012654 0.091735 0.091718 0.019107 -0.110965 -0.384155 -0.029812 -0.281182 0.067288 0.014556 -0.325007 0.029839 0.087257 -0.44518 0.093315 -0.133704 -0.148933 -0.029271 -0.056972 -0.209476 0.342281 0.607769 0.363645 0.174607 -0.548121 -0.272786 -0.25458 -0.126751 -0.027274 -0.488558 -0.303594 0.205107 0.105872 0.003068 -0.394848 0.143486 -0.230821 0.706517 0.222584 0.180893 -0.324966 0.541673 -0.367169 0.309456 -0.331794 0.249905 0.20837 0.048349 -0.117153 -0.026183 0.128507 -0.043877 0.435676 -0.09441 -0.40101 0.465878 0.281519 0.084574 -0.031715 -0.153313 -0.130562 -0.116347 -0.128146 -0.031947 0.594599 -0.29142 0.167312 -0.188766 0.081132 -0.059186 0.266894 0.095061 0.138313 -0.389163 -0.11537 0.435394 0.020069 -0.041243 0.028379 -0.183307 -0.128906 -0.195696 -0.468641 -0.036008 -0.389761 0.006797 0.147102 -0.37195 0.154672 -0.154026 0.145449 -0.272287 -0.388725 0.306258 -0.237035 0.050013 0.109317 -0.218033 0.148856 -0.002085 0.00384 0.025013 0.019015 0.219588 0.24651 -0.15281 0.461672 0.280466 0.069396 -0.027455 0.068279 -0.047763 -0.085165 0.185286 0.065393 -0.097629 -0.101876 0.271821 0.008388 -0.016727 -0.009154 -0.257076 0.156102 -0.082784 0.285917 -0.169996 0.150289 -0.039034 0.493443 0.060923 0.089431 0.395938 -0.163679 0.366484 -0.181075 0.275145 0.443246 -0.258235 0.197785 0.01839 -0.114462 -0.256178 -0.200632 -0.368586 0.044517 -0.213318 -0.503729 -0.304531 -0.141742 -0.167108 0.387952 -0.394564 0.184631 0.363408 -0.069713 0.101469 0.109816 0.150681 0.194335 -0.108577 0.052388 -0.516818 0.140346 0.232771 -0.090234 -0.07714 0.511863 0.033016 -0.067568 -0.255985 -0.040441 0.295628 -0.00224 -0.665314 0.163642 -0.028793 0.026615 0.384361 0.113657 0.038317 0.241582 0.370283 -0.010833 0.101131 -0.090519 -0.273985 -0.136846 -0.191234 0.115085 0.057679 0.448839 -0.590289 0.035284 -0.105537 -0.093856 0.07141 -0.216262 0.293988 0.1148 0.176424 -0.069287 0.159995 -0.204556 -0.291972 -0.508766 0.46432 -0.127827 0.250741 0.13359 0.18988 -0.451429 0.184588 0.006917 -0.324773 -0.110171 0.37885 0.14931 -0.449505 0.061583 -0.106473 -0.0144 0.2506 0.503007 -0.11774 0.647095 0.089842 0.301952 -0.206025 0.28854 0.084329 0.0322 -0.183231 0.550446 -0.21516 0.114863 0.200214 0.242833 -0.153331 -0.007744 -0.102711 -0.28712 0.419709 -0.790232 0.222187 -0.32125 -0.235841 -0.204959 -0.264674 -0.109091 0.20582 0.080256 -0.238747 0.244668 0.106927 -0.333314 0.459879 -0.042863 0.016633 0.029826 0.056241 -0.136971 -0.391014 -0.060427 -0.09125 0.311381 0.214957 0.224032 0.059944 0.213788 0.023003 -0.078329 -0.086779 0.061532 0.202808 0.003754 -0.215873 -0.311506 0.090972 0.135736 -0.102773 0.117164 0.026021 0.041659 0.507219 -0.083777 0.052957 0.089803 0.181667 -0.266878 -0.150906 0.272229 0.166751 0.032699 -0.087791 0.090353 -0.278811 0.286674 -0.102828 0.192535 -0.235457 0.197633 -0.600896 -0.241566 -0.214839 0.114374 -0.392119 0.129657 0.037265 0.281823 0.059529 0.257472 -0.058173 0.130082 0.240543 0.051282 0.190229 -0.21277 0.018258 0.25287 0.020728 -0.017731 -0.003205 -0.121975 0.038461 0.308482 -0.175272 0.683912 -0.035231 0.284726 0.018645 -0.361082 -0.060401 0.087284 0.074335 0.82808 -0.289274 -0.059125 -0.194874 0.012104 -0.110403 -0.040746 0.141556 -0.049929 0.246701 -0.251377 0.271603 0.135609 0.218693 -0.45089 -0.041819 -0.391512 0.148162 0.11483 -0.067903 0.254995 -0.485167 0.340514 0.047514 0.004165 0.647623 -0.126293 0.199586 0.019706 -0.094396 -0.315219 -0.45713 0.416901 0.228522 0.214326 -0.028263 -0.598675 0.184858 -0.131283 -0.208422 0.075334 0.190854 -0.165137 -0.104072 -0.1606 0.147357 0.104201 0.116785 -0.001733 0.145388 0.619428 -0.005432 0.070397 -0.154814 0.07786 -0.304151 0.269227 -0.044422 -0.21491 0.12934 -0.193344 0.011729 -0.136791 -0.518789 -0.373539 -0.014049 0.010605 0.003924 0.133004 0.335506 0.047173 0.67623 -0.333967 0.128735 -0.203093 0.296083 0.19937 -0.256231 -0.026155 -0.200313 -0.193763 -0.160101 -0.433836 -0.037168 -0.175103 0.025062 0.141839 -0.214424 0.307653 -0.007349 0.040336 -0.067711 -0.170097 -0.171464 0.040432 0.044581
