435 500
plane -0.082649 0.08222 0.090302 -0.141256 0.25567 0.250654 0.011801 0.083132 -8.33E-4 -0.042801 -0.310377 0.079569 -0.146326 0.308863 -0.233777 0.131036 -0.104953 0.032922 0.252946 -0.273212 -0.203995 0.154225 -0.038385 -0.011779 0.096501 -0.321507 0.152238 0.125035 -0.153708 0.021727 -0.041496 0.220789 -0.034063 -0.090257 -0.188208 -0.006725 0.028442 -0.058742 0.226007 0.123989 0.192891 0.126608 -0.029154 0.167679 -0.127362 -0.100648 0.123984 -0.099338 0.141909 -0.113272 -0.116805 -0.038116 -0.130263 0.06824 -0.013874 -0.004129 -0.1355 0.251845 0.04886 -0.050415 -0.042288 -0.136765 0.055006 0.189832 -0.144411 0.067461 -0.132584 0.22895 0.240698 -0.052418 0.032536 0.005314 -0.004299 0.171021 -0.089964 -0.213211 0.06237 0.376593 -0.205439 0.215323 0.283554 -0.301454 0.171422 0.167569 0.113515 -0.226619 0.094824 0.102093 -0.054801 0.080589 -0.001074 -0.087316 0.039338 -0.172936 0.088022 -0.192362 -0.032471 0.037087 0.18198 -0.193469 -0.078489 0.145111 -0.210115 -0.006147 -0.230788 -0.192721 -0.174278 0.052264 -0.1492 0.09621 -0.412853 0.268886 -0.153704 0.024074 -0.025557 -0.228982 0.23649 0.139229 -0.1469 -0.044644 0.081887 -0.276763 -0.166902 -0.00293 -0.01239 -0.099201 -0.059339 -0.341537 -0.293036 -0.095406 -0.076775 -0.047259 0.003931 -0.006647 -0.202259 -0.017366 0.005469 -0.070731 -0.091297 0.094006 7.84E-4 0.102086 -0.169052 0.035964 -0.086922 0.238602 0.069645 0.124521 0.223914 0.260699 -0.254205 0.159325 0.159709 0.132241 0.239857 0.134797 -0.226068 -0.319167 -0.123491 -0.315538 -0.336003 -0.189091 0.136419 0.023688 0.122583 0.118045 -0.052507 0.343678 -0.134573 -0.050022 -0.221913 0.050258 0.067779 -0.449634 -0.231837 0.124827 -2.44E-4 0.2486 0.119569 -0.116463 -0.185716 -0.07745 0.193277 -0.169552 0.111829 -0.151387 0.321886 0.298511 -0.049351 0.173913 0.238557 -0.151247 0.01249 0.156993 0.015496 0.241762 -0.187542 -0.092709 0.155367 -0.151029 0.322447 0.019878 0.258804 -0.174878 0.012735 0.099224 -0.023026 -0.199657 0.20883 0.047671 0.217549 0.050723 -0.134837 -0.372194 4.7E-5 0.361133 -0.108015 0.184795 0.073566 0.271185 0.169069 -0.222826 0.101312 -0.036466 -0.041116 -0.032126 0.304729 0.048246 -0.035282 -0.087303 -0.336344 -0.040663 -0.196942 0.205543 -0.176321 0.126009 0.295029 -0.12742 0.047256 0.087238 0.249936 0.357936 0.110633 0.214896 -0.126387 -0.129985 0.053506 -0.138728 -0.122482 -0.153832 -0.292978 -0.046679 -0.058194 0.020016 0.006843 0.089658 -0.269229 0.082809 0.008025 -0.122784 -0.128804 -0.182869 0.010004 0.067757 -0.206411 0.060863 0.220059 -0.208152 0.005803 -0.359289 0.039449 0.039899 -0.047665 -0.01784 0.193595 0.143453 0.003155 0.063801 0.193481 0.074491 0.07421 -0.135708 0.238777 -0.140004 0.228616 -0.073536 -0.043333 0.196981 -0.133693 -0.21194 -0.3968 -0.041941 0.104924 0.106716 0.353823 -0.171105 0.072049 -0.028188 -0.345088 -0.13228 -0.064061 -0.108022 0.221221 -0.118458 0.246668 -0.33609 0.0234 -0.306445 0.045865 0.104943 0.372461 0.11627 -0.493072 -0.24262 -0.078795 -0.260304 0.23856 -0.247253 -0.108602 0.314875 -0.136076 -0.123884 -0.037834 0.053421 -0.229694 0.139275 -0.133351 0.085755 0.069988 0.380873 -0.091675 -0.05143 -0.090044 -0.010971 0.092258 0.171983 0.11219 -0.47849 0.187361 -0.056578 0.27026 -0.455115 -0.188886 -0.122219 0.145377 -0.432532 0.32909 -0.110676 -0.104332 -0.120942 0.04558 -0.202585 -0.144771 0.20283 0.032714 -0.211116 0.20231 -0.095418 0.025064 -0.159875 -0.11577 0.009204 -0.230683 -0.039004 -0.03897 0.376217 -0.027311 0.154758 0.177265 0.159632 -0.021902 -0.26294 0.048112 -0.052799 -0.074579 -0.016835 -0.091662 0.074793 0.155291 -0.161389 -0.155364 -0.159258 0.110001 0.061118 0.137724 -0.136832 -0.019822 0.147779 -0.078598 -0.136493 -0.082737 -0.028646 -0.035955 0.092594 -0.009226 0.123289 0.065943 0.274166 0.080023 -0.317986 0.139981 0.166467 -0.132871 0.007939 0.284285 0.062198 0.058817 0.157916 0.038384 -0.0534 -0.107704 0.040542 -0.00199 0.142073 -0.051592 -0.233546 0.159697 0.028126 0.102032 0.065404 0.067037 -0.02246 -0.072415 0.025031 -0.216708 0.032963 -0.002476 -0.290822 -0.007909 0.218908 -0.137438 -0.12464 -0.052123 0.114046 -0.227045 0.107225 0.387542 0.0097 0.015134 -0.061747 0.048746 -0.12802 0.248561 -0.150577 0.106535 -0.195826 0.070021 -0.224229 -0.104769 -0.010448 -0.251156 -0.035661 -0.071566 -0.078521 -0.199603 0.132342 -0.013805 0.399997 -0.059147 0.123488 -0.089766 0.261045 -0.285883 -0.346073 0.040038 -0.056521 0.032572 -0.206095 -0.047938 -0.137306 -0.24207 0.116636 -0.120133 0.03511 0.102115 0.09118 0.188309 0.125914 0.292546 0.423143 0.021251 0.188576 0.282809 0.303001 0.023763 -0.265988 0.050177 -0.229585 -0.062696 -0.170026 0.097881 0.017217 0.090386 -0.239251 -0.031099 0.196413 0.049 0.057725 0.35618 0.143036
stupid 0.052993 0.102873 0.019517 -0.259307 0.0854 -0.112546 -0.084729 0.173496 0.097313 -0.049762 -0.130323 0.140617 -0.081719 0.012129 -0.18866 -0.272062 -0.195194 0.168459 -0.10346 0.058441 -0.199308 -0.291574 -0.208388 -0.100163 0.058858 0.131396 0.298639 0.128864 -0.116358 0.209705 0.289511 0.063821 -0.092604 -0.056106 -0.061304 -0.249473 0.124969 0.139679 0.385899 -0.128407 0.154185 0.079498 -0.19428 0.419729 -0.014926 -0.113008 0.202118 0.206027 0.032987 -0.056759 0.023769 0.043424 0.233533 0.091138 0.058458 -0.154772 -0.071842 0.007339 0.09076 -0.052988 0.126375 0.068252 -0.063065 0.076608 -0.291448 0.063428 0.174926 0.20063 -0.175758 0.133864 -0.056849 0.369417 0.043526 -0.227621 0.16695 0.181212 -0.091447 0.208773 -0.319341 -0.241203 -0.188783 0.097986 0.021993 0.114345 -0.088062 -0.212792 -0.187796 -0.028636 0.129792 0.065812 0.090397 -0.027847 -0.022446 -0.306222 0.13233 0.324736 0.001902 0.090517 -0.071337 -0.151258 0.088713 -0.050353 -0.13965 -0.010569 0.019895 -0.192207 -0.129728 -0.0267 0.164198 0.166123 -0.197511 0.044304 -0.061226 0.313808 -0.016986 0.373116 0.073201 -0.024999 0.077218 -0.004983 -0.071076 -0.0211 0.014603 -0.208458 0.107291 0.115853 -0.195445 -0.12078 0.053347 -0.052606 -0.039495 -0.075144 -0.173 0.054527 -0.033243 -0.03083 0.096162 -0.028037 0.079224 -0.070506 0.035773 0.003446 0.096001 -0.136905 -0.10397 -0.08628 -0.052072 -0.006096 0.206022 -0.236683 -0.067032 0.058237 0.132972 -0.01666 0.036369 -0.068134 -0.203649 -0.265498 -0.033015 0.090646 -0.054853 -0.095588 0.065718 -0.092695 -0.003467 -0.015502 -0.169507 0.159703 -0.101008 -0.149331 -0.134417 0.165001 -0.071487 -0.067303 0.008123 0.23567 -0.179811 0.049589 0.069014 -0.091743 -0.034583 -0.211775 0.055002 0.238319 8.2E-4 -0.007027 0.132981 -0.083738 -0.094525 0.027035 0.143127 0.026702 -0.064121 0.042597 -0.145287 0.159247 0.135409 0.090595 0.014032 0.101719 -0.010502 -0.099165 0.151583 -0.356414 0.061406 -0.029819 -0.259288 -0.12237 0.04753 0.136532 0.143693 0.215453 -0.196699 -0.072198 0.11678 -0.014581 0.150134 0.103222 -0.027283 -0.082026 0.060656 0.111425 0.082782 -0.153392 0.033541 -0.092138 0.092145 -0.15868 0.105112 -0.117304 0.114807 -0.009855 0.151494 0.042398 0.126541 -0.065532 0.235541 -0.159421 0.030765 -0.10095 0.197051 0.277356 -0.201131 0.013586 0.039366 0.018522 0.098198 -0.02328 -0.095085 0.054746 -0.111143 -0.129884 0.018674 0.125037 -0.009311 -0.050443 0.020732 0.171355 0.168068 -0.021194 0.177736 -0.096022 -0.237768 0.058374 0.06212 -0.203724 0.076489 6.08E-4 -0.04802 0.158377 0.226812 0.116539 -0.128292 -0.283501 -0.153844 -0.089432 -0.483278 0.039269 -0.09117 -0.090519 -0.024243 0.176725 0.171516 -0.203172 0.031262 -0.043848 0.132034 0.194018 0.084031 0.100961 -0.035865 0.048775 0.1912 -0.068125 0.307062 -0.106282 0.339822 0.039704 -0.08728 -0.101518 0.148949 0.10442 -0.0333 0.067205 0.065672 0.183037 -0.259889 -0.123207 -0.177224 0.313368 0.018031 0.32708 -0.124132 0.259882 0.038385 -0.145414 0.085855 -0.132593 0.122265 0.03619 -0.098257 0.023148 0.194027 -0.015051 -0.071896 -0.046828 0.009412 -0.112911 0.104097 0.14442 -0.002386 -0.054189 -0.176641 -0.249379 -0.053589 0.17494 -0.189527 -0.329592 -0.010002 -0.054752 0.0633 0.021065 -0.082131 -0.037753 -0.209684 0.013913 0.313541 -0.024102 -0.182545 0.062625 -0.23115 -0.013389 0.172341 -0.088591 0.059643 0.152903 0.027719 0.128652 0.060752 0.132399 -0.025328 -0.07455 -0.161242 -0.107941 0.058096 -0.110562 0.216709 0.442361 -0.128693 -0.093517 0.136821 0.028176 -0.011683 -0.125417 -0.086723 -0.110229 -0.249907 0.002166 -0.22519 0.063271 -0.001839 0.121674 -0.002425 0.210374 -0.261599 0.167909 0.366684 0.127465 -0.032617 0.202153 0.082185 -0.189295 -0.162821 0.079286 0.23563 -0.181544 0.088325 0.07163 0.021105 0.147129 0.276201 0.042266 -0.179817 0.06438 0.124065 0.080237 0.004658 0.014014 -0.081932 -0.233262 0.133174 -0.031688 -0.148834 -0.306391 0.040502 0.163367 -0.065906 -0.104384 0.10436 -0.613949 -0.084406 0.121677 -0.09449 -0.090016 0.001314 0.082851 -0.09158 -0.043251 0.065672 0.310496 -0.179045 -0.136993 -0.006346 0.226397 -0.057117 0.04825 -0.016522 0.131983 -0.017432 0.09776 0.066584 -0.060224 0.190675 -0.134013 -0.166894 -0.029714 -0.310448 0.034819 -0.060673 -0.143032 0.087438 0.154123 0.038526 0.058587 0.107724 -0.149658 0.108735 0.014381 0.154977 0.206785 -0.030098 0.112462 0.070006 0.005689 -0.223416 0.125123 -0.188573 -0.063813 0.043057 -0.180151 -0.016556 0.031472 0.060495 -0.050291 -0.04356 -0.078107 -0.080961 -0.203303 0.063617 -0.132251 0.159036 -0.253709 -0.146566 -0.095698 0.177221 0.076623 -0.054396 0.102804 -0.079229 0.111375 -0.128053 0.028602 0.048099 0.042109 0.189152 0.389932 0.015046 0.325023 0.223684 0.142653
egg -0.069556 -0.025012 0.339003 -0.20312 0.238734 0.103866 0.15288 0.567673 -0.020428 0.039908 0.172381 -0.102542 -0.135114 -0.06819 0.087822 -0.167184 0.036706 0.20159 0.249299 0.120357 0.049844 -0.208487 0.05181 0.157557 -0.08093 -0.042091 0.030215 0.310005 0.285723 0.081089 -0.115391 -0.04822 0.06668 0.132411 -0.097148 0.057928 0.110673 0.096042 0.044278 -0.0251 -0.0124 0.256547 -0.174184 0.240436 0.378013 0.151272 0.084322 0.234702 0.415779 -0.129669 -0.208969 0.100102 0.195255 -0.26568 -0.040001 -0.231766 -0.121767 0.073957 -0.060392 -0.038398 0.002172 -0.020185 0.019092 -0.13547 -0.001646 0.127556 -0.091199 0.288727 -0.01372 -0.072982 -0.009772 0.104843 0.003767 -0.120057 0.065639 -0.073298 -0.119588 0.208814 0.04339 -0.118335 -0.050901 0.146873 -4.35E-4 -0.17979 -0.406062 0.011243 0.074801 0.092344 0.131654 0.020814 0.143724 0.141108 0.068572 -0.347739 -0.010078 0.33889 0.009319 0.23823 -0.144301 -0.09241 0.086163 0.028013 0.092558 0.103754 0.036618 -0.090087 -0.126855 0.065428 -0.047687 0.23471 0.043253 0.07741 -0.192007 0.162652 0.059073 0.104545 0.104678 0.120536 -0.063497 0.169353 -0.077753 -0.237475 0.039226 -0.271643 0.153532 0.152011 0.035486 0.145548 -0.022793 -0.074522 -0.180739 0.33772 0.019257 0.205441 -0.294226 0.252588 -0.195619 0.255617 -0.086037 -0.378876 0.173218 0.506673 0.181861 -0.263595 0.103248 0.136693 -0.118744 0.203589 -0.26689 -0.267885 -0.210314 0.003159 0.191625 0.060796 0.124203 -0.06971 -0.095591 -0.010857 -0.27381 0.104175 0.043093 0.052688 -0.243656 -0.019139 -0.237756 0.195797 0.025253 0.322697 0.059681 -0.123092 -0.030117 0.365377 0.075278 -0.093168 -0.314051 0.207064 -0.278276 0.129065 -0.051889 -0.204906 0.167033 0.013537 -0.300877 0.308521 -0.259774 0.090577 0.41313 0.076533 0.1687 0.128588 0.099474 -0.18649 -0.035234 -0.101288 0.281656 0.231818 -0.14921 0.114554 -0.053775 -0.237842 -0.013621 9.54E-4 0.045385 -0.176804 0.074674 -0.038473 0.066576 -0.104708 0.253191 0.082938 -0.028406 0.123464 0.025614 0.085184 0.109216 0.100953 -0.121541 -0.084636 -0.067675 -0.151803 -0.043353 0.054171 8.38E-4 -0.261252 -0.021608 -0.016016 0.059377 0.080383 -0.164175 0.043176 0.143339 0.130328 -0.058602 -0.054039 0.167988 0.173743 -0.109726 -0.388962 0.145085 0.237687 0.038122 0.595751 -0.191284 -0.175761 -0.400533 -0.150739 0.262233 0.16832 -0.208389 -0.112468 0.277498 -0.023332 -0.033783 0.182444 0.075647 -0.016715 -0.018297 0.110494 -0.247695 0.134739 -0.013186 0.133203 0.115681 -0.223991 0.397312 -0.255486 0.111757 -0.054919 0.186332 -0.202313 0.074352 -0.017776 0.283288 -0.181529 0.317816 0.171574 -0.37108 -0.091582 0.116028 -0.175045 -0.172702 0.063135 0.00732 -0.153685 0.333444 0.03826 0.233243 -0.096394 -0.165307 -0.134671 -0.013485 -0.047715 -0.021669 0.216829 0.221221 -0.027491 0.027809 0.074884 0.232389 -0.145774 0.047177 -0.449305 -0.12173 -0.264988 -0.336579 -0.183841 -0.174801 0.230521 0.084648 0.395212 -0.069849 -0.200696 -0.067605 -0.224075 0.437488 -0.023543 -0.174198 -0.010445 0.07275 -0.202938 -0.28293 0.045605 0.225169 -0.104384 0.042215 -0.08794 -0.098598 0.081875 0.275621 -0.029128 -0.11447 -0.019176 -0.32739 0.185626 0.208102 0.307018 0.076511 -0.15753 -0.117798 -0.083743 -0.14719 -0.031897 -0.163948 0.029174 0.030622 0.013151 0.17229 -0.027203 0.104767 -0.340591 -0.050131 -0.062702 0.228335 -0.092382 0.046353 0.177476 -0.055373 -0.144786 0.24403 -0.003996 0.024247 0.249959 -0.151643 -0.332847 0.013743 -0.371234 0.281121 0.241832 -0.094937 0.100657 0.087642 -0.077903 0.033393 -0.02684 0.279372 0.069513 0.1536 -0.270965 -0.003056 -0.04917 -0.008676 0.225957 0.13226 0.345751 0.0989 0.093191 0.272876 0.195702 -0.055267 -0.134801 0.33208 0.339424 -0.167793 -0.298465 -0.107727 0.063645 -0.025807 0.068166 0.314793 0.004538 -0.194829 -0.077695 -0.252518 -0.010303 -0.214881 0.228162 -0.317626 -0.350472 -0.024246 -0.194825 -0.141894 0.401764 -0.022457 -0.238965 -0.077631 0.232013 -0.149783 -0.150194 0.059382 -0.408042 -0.208456 0.126522 0.060164 0.057856 0.00947 0.244662 0.023899 -0.088684 0.240495 0.04681 -0.112141 0.005167 -0.117657 -0.007158 -0.46403 -0.157596 0.338426 -0.087106 0.327639 -0.005756 -0.138135 0.037546 0.211257 -0.200709 0.226075 -0.242664 -0.016825 -0.192277 0.300063 -0.273126 -0.195115 0.28212 -0.142838 0.281764 -0.032034 -0.051974 0.097701 0.040873 0.416231 0.157741 0.098683 -0.262909 -0.142193 -0.112002 -0.007151 0.048611 0.129843 0.018667 0.062925 0.00403 0.071182 0.055378 0.236044 0.164977 0.088188 -0.031853 0.100626 -0.090657 0.110776 -0.067379 0.010816 0.130292 0.163202 0.297057 0.017119 -0.207637 -0.202598 -0.082596 0.210639 0.198745 0.192936 0.263107 -0.13043 -0.111581 0.046706 0.331364 0.001407 0.13563 -0.240962 -0.307538
year 0.060858 -0.098509 0.273385 -0.211793 0.00276 0.096695 0.266183 -0.102288 0.166672 0.094195 -0.010329 0.085594 -0.006287 -0.048953 0.073722 0.118798 -0.125412 0.1033 -0.039686 0.211192 0.027279 0.170487 -0.151319 -0.314005 -0.013342 -0.179507 0.165516 0.115338 0.090848 0.052541 -0.041103 -0.133355 -0.025426 0.044453 0.028341 0.03253 -0.207783 0.304632 0.200095 -0.008645 -0.119054 0.180293 -0.162818 0.13665 -0.019887 0.0286 0.386726 0.143894 -0.08659 -0.065517 0.311801 -0.101095 -0.107565 0.277471 0.039467 0.07947 0.103526 0.137242 -0.043325 -0.190728 -0.200639 0.014115 0.096053 0.143911 -0.110209 -0.113803 0.070347 0.088723 0.108706 0.162721 0.222339 -0.107417 -0.003772 -0.094583 0.067439 -0.056231 -0.090577 0.075923 -0.083699 -0.078128 0.098291 0.136822 -0.25406 -0.04321 -0.183244 0.078791 -0.017382 0.224602 0.02519 0.072225 0.075066 0.054703 0.106669 -0.040365 0.116222 -0.101671 -0.021399 0.065754 0.191702 0.124089 -0.096338 0.282503 -0.036355 -0.064809 0.070681 0.013664 -0.017435 -0.038501 0.133765 -0.062201 -0.152189 -0.026939 0.09022 0.054298 -7.94E-4 -0.034523 0.225606 -0.102575 -0.01606 0.23062 0.046604 -0.040916 0.219619 -0.105227 -0.004025 -0.127648 0.063053 -0.234579 -0.269769 0.130143 0.0718 0.304406 0.037443 0.047331 0.14271 0.180396 0.058634 0.046673 -0.082144 -0.021424 0.160098 0.14356 0.038928 -0.02611 -0.12054 0.062685 0.008329 0.073773 -0.09197 0.102929 0.040016 0.180705 -0.16201 0.005174 0.097858 0.003988 0.104792 -0.033018 -0.017793 0.026306 0.115879 -0.071972 -0.156793 -0.21705 -0.155262 0.17462 0.164438 0.048814 0.051561 0.002769 0.073472 -0.161467 -0.045876 -0.047309 -0.169074 0.174139 -0.115489 -0.059806 -0.035388 -0.164151 0.286965 -0.033261 -0.068926 0.095987 -0.074836 0.137336 -0.068438 -0.149211 0.116262 0.198852 0.131412 0.025049 -0.081862 -0.003869 -0.173233 0.044701 0.037696 0.025921 0.120723 -0.085316 0.172788 0.217754 -0.125932 0.062126 -0.016439 -0.074698 -0.042771 -0.20001 -0.0168 0.05103 -0.027667 0.002288 -0.130154 -0.111681 0.189533 0.12727 0.023179 0.126861 0.217433 0.023288 0.005775 -0.143627 0.145527 -0.012381 0.123565 -0.206681 -0.236253 0.086422 0.147067 0.127563 -0.178384 -0.34385 0.068777 0.126716 -0.086993 0.179284 0.118825 -0.115471 -0.007371 -0.053923 -0.072599 0.145641 0.048264 -0.116236 0.051739 0.004678 -0.019079 0.084825 -0.229262 -0.012334 -0.035119 0.021121 -0.066571 0.120661 -0.221927 -0.044258 -0.125483 -0.106945 0.074068 -0.185797 0.055971 -0.379532 0.008832 0.098155 0.026381 -0.034082 -0.064617 -0.165802 -0.100475 -0.140794 -0.101716 0.059184 0.035396 0.049974 -0.034095 0.05333 -0.127483 0.156377 -0.218967 0.022599 0.188221 -0.090397 0.065751 -0.05914 -0.17094 -0.04425 0.054823 -0.004099 0.097844 0.076837 -0.0375 -0.247304 0.120048 0.182641 0.037355 -0.08228 -0.002984 0.073399 0.245586 0.127516 0.233966 0.034075 0.020798 -0.019177 -0.056037 -0.073588 -0.208203 -0.068281 0.017366 0.113108 -4.3E-4 0.033668 -0.077405 -0.08869 0.022863 -0.046909 0.020998 -0.015127 -0.064954 0.122653 4.07E-4 -0.104645 -0.07219 -0.127987 0.018333 0.019093 -0.227366 0.191309 0.096096 0.058129 -0.119843 0.058186 2.32E-4 0.11529 0.154812 -0.015785 0.132928 -0.164537 -0.041474 0.10041 0.001893 -0.076075 -0.175198 -0.148509 0.094045 0.171017 0.13464 -0.118539 -0.184799 -0.211326 0.048928 0.075993 -0.063407 0.06201 0.112765 0.074425 0.129529 0.055055 -0.053986 -0.127415 -0.004325 -0.046812 -0.1554 0.145359 -0.047262 0.107339 -0.011246 0.003629 0.121978 -0.006287 -0.068315 0.129563 -0.141617 -0.002167 -0.008573 0.002021 -0.089305 -0.100188 0.067863 0.12881 -0.058831 -0.060905 0.015513 0.164931 0.085071 0.08345 -0.105186 0.063282 -0.171589 0.021656 0.02013 -0.048429 0.311879 -0.365687 -0.093035 0.007579 0.068082 -0.009279 0.331626 -0.219149 0.1294 -0.189522 0.235082 -0.126566 0.227263 -0.028945 -0.118707 0.015558 0.115357 -0.090886 0.019305 -0.139313 -6.32E-4 -0.234702 0.080603 -0.043291 -0.036912 0.07998 0.202556 0.046473 -0.020247 0.031176 0.091631 0.003895 0.038906 -0.030619 0.084678 -0.316471 0.15368 -0.027235 -0.11939 0.248074 0.058795 0.055877 0.141647 -0.133414 0.01429 -0.12364 0.144608 0.018141 -0.188886 -0.027331 0.09686 -0.217404 0.054881 -0.124226 -0.072653 0.050829 0.051891 -0.061714 -0.12759 -0.122827 0.057221 0.192639 -0.053169 -0.177331 -0.050225 0.045086 -0.12356 0.288677 0.0269 0.050908 0.036289 0.081328 0.287188 0.069925 -0.001989 -0.063306 -0.10732 -0.165858 -0.02348 -0.019552 -0.185243 -0.139839 0.138631 -0.071276 0.087597 0.0052 0.053666 0.070585 -0.179653 -0.007802 -0.196701 -0.073532 -0.009826 0.00442 0.016107 2.09E-4 -0.274893 0.057004 0.009127 0.145346 -0.097909 -0.009125 -0.049126 0.232529 -0.00678 0.089755 -0.273479 -0.014277
psychiatry -0.123262 0.088419 0.176779 -0.360359 0.372461 -0.128799 0.008345 0.246575 0.04854 0.111066 -0.015046 0.151481 0.112639 -0.451427 -0.224701 -0.389359 0.137191 0.552132 -0.199736 -0.174445 -0.303173 -0.51602 -0.086381 0.07485 -0.194167 0.116946 0.180215 0.55615 -0.164143 0.143175 -0.190074 -0.058891 0.02357 -0.234737 0.022205 0.138134 0.030022 0.080854 0.226637 0.271882 -0.18308 -0.154664 -0.220894 -0.131737 0.178265 -0.077296 0.089224 0.008409 -0.186024 -0.19897 -0.056402 0.151119 0.271615 -0.250455 -0.14135 0.194321 0.027228 -0.228099 -0.10782 0.323373 0.184363 -0.087476 -0.101029 0.223457 -0.077565 0.00316 0.052765 0.030426 0.326794 0.08024 0.031068 0.135388 0.064187 0.088056 0.237374 0.085932 -0.131056 0.245982 0.005409 -0.39053 -0.092807 -0.167964 0.13857 -0.118343 -0.080028 -0.03804 -0.266627 0.097517 -0.218078 -0.568542 -0.194624 0.009754 0.075969 -0.165381 0.112785 0.28956 0.051333 0.067375 -0.050025 -0.300888 0.110833 -0.045939 -0.207113 -0.04615 0.410291 0.171484 0.098563 0.005016 0.089948 0.327146 0.174658 0.135244 -0.157489 0.08011 -0.200055 0.166155 0.197854 -0.043396 0.146128 0.130907 0.015403 -0.152748 0.013561 -0.141456 -0.009296 -0.342787 0.092242 -0.135308 -0.09346 0.015538 0.292547 0.198435 -0.416517 -0.3527 -0.032594 0.206344 0.138605 -0.150885 0.033265 0.283215 0.252651 0.192406 -0.406739 -0.021696 0.04577 0.027729 0.283484 0.102122 0.037053 -0.285664 -0.396224 0.184901 0.097885 -0.016756 0.085887 0.035469 -0.011154 -0.257009 -0.111158 -0.387662 0.174009 0.330477 -0.051713 0.295713 0.302746 0.221211 -0.141151 -0.015664 -0.160489 -0.201426 0.177564 0.065509 -0.186458 -0.103073 -0.128211 -0.088257 0.368754 -0.117627 -0.269747 -0.274094 -0.300712 0.022725 -0.052544 0.032243 -0.014759 -0.467655 0.277621 -0.509556 -0.019897 -0.215892 0.080413 -0.157731 -0.141985 -0.18802 -0.30865 0.244755 0.050694 -0.105173 -0.121553 -0.329157 0.167087 -0.116313 0.31457 -0.319672 -0.194942 0.811145 -0.02321 -0.407671 -0.060666 0.036825 0.283775 -0.103995 0.037074 0.017722 0.0149 0.145711 -0.461495 0.151326 0.14535 0.025952 -0.044166 -0.02685 -0.152553 -0.372647 -0.047016 -0.04684 -0.034257 0.055326 -0.11389 -0.297142 0.151913 0.242631 -0.144019 0.11995 0.019111 0.15433 0.264755 0.019422 0.175864 0.087012 0.359839 0.499031 -0.119533 -0.221357 -0.065203 -0.098124 0.24713 -0.103715 -0.09903 0.318502 -0.125473 -0.259072 -0.026259 0.309425 -0.41384 -0.207018 -0.032165 0.326669 -0.083706 -0.139902 -0.119023 -0.086834 -0.176357 -0.174519 0.184858 -0.101906 0.07992 -0.009356 0.019794 -0.21955 0.412252 -0.062044 0.132021 0.009144 -0.15065 0.070074 -0.326669 0.033127 -0.269258 -0.014024 -0.020992 0.131841 0.184145 0.063094 0.030751 0.031736 -0.008978 0.090112 -0.004004 -0.070838 -0.04589 0.119043 -0.064528 0.045213 0.123016 -0.11068 -0.159225 0.023899 -0.112459 -0.360248 0.199302 -0.025493 -0.35788 -0.008291 -0.139216 -0.029344 0.008553 -0.103949 -0.122729 -0.016163 -0.239902 0.293373 -0.182177 0.002856 -0.240172 -0.136528 -0.213773 -0.131099 -0.04043 0.373331 -0.19848 -0.323274 -0.044054 -0.295383 0.089272 -0.080659 0.124719 -0.535347 0.248429 0.150732 -0.341592 -0.194935 -0.247797 -0.138203 0.009669 -0.132266 -0.107898 -0.198021 0.390442 -0.219877 0.02591 0.022021 0.155838 -0.106684 -0.401756 -0.206819 0.025819 0.086391 0.185174 0.101727 0.072418 -0.106958 0.221675 0.120889 0.190444 -0.069367 -0.033445 0.100407 0.130588 0.177787 -0.048247 -0.153863 0.158874 -0.302402 -0.300736 0.116181 -0.01039 -0.043913 0.123528 -0.328235 -0.012968 -0.239537 0.07632 -0.465946 -0.163764 -0.052199 0.010006 -0.295815 -0.16137 0.297778 0.01249 0.017051 -0.158509 0.013139 -0.365384 0.100591 0.413229 0.143444 0.13759 0.133004 -0.11187 0.123697 -0.105697 -0.14097 0.10922 0.153698 -0.020169 0.054358 -0.049339 -0.205811 0.211554 0.204865 -0.181662 -0.106523 0.259549 -0.014076 -0.109776 0.202064 -0.20848 -0.122146 0.122601 -0.117254 -0.116892 -0.252721 -0.101846 -0.11544 -0.048272 -0.268667 0.004071 -0.20788 0.026635 0.055504 0.3392 0.04401 0.220798 -0.017505 -0.279514 0.154023 0.056553 -0.152385 0.0155 -0.081322 -0.232508 0.108333 -0.043217 0.156552 0.176212 0.482506 0.285669 0.180882 0.05434 -0.027078 -0.041341 0.086384 0.035486 0.085216 -0.015857 -0.015574 -0.038418 -0.098606 -0.385697 -0.370114 -0.228429 0.156438 0.335847 -0.164883 0.320547 -0.11788 0.012764 0.059271 0.048044 -0.006356 0.132626 0.211278 0.147503 -0.192405 0.135273 0.292705 0.101596 -0.478775 0.421421 0.187254 0.17927 -0.223517 -0.282602 0.250796 0.275261 -0.075939 0.039931 -0.31551 0.309713 0.266447 0.109295 0.138972 -0.024332 -0.282461 -0.287155 0.121053 0.182511 -0.073324 0.098936 -0.042231 -0.164525 0.175129 0.218003 0.073744 -0.081295 0.273698 0.117211 -0.41852
asylum 0.07269 -0.276235 0.177388 -0.097824 0.551249 -0.025105 0.027101 -0.034633 0.243135 0.034328 0.132902 0.066007 0.055459 0.215919 0.025148 0.282595 0.268201 0.118641 0.09849 0.034164 0.040394 -0.036889 -0.170067 -0.086714 -0.237548 0.212399 0.006623 0.092935 -0.312382 0.142074 0.120845 0.29872 0.135571 0.11504 -0.329005 -0.045642 -0.181893 0.062352 0.538654 -0.265758 0.049784 0.212149 -0.020511 0.084574 -0.183425 0.17653 -0.00745 0.117905 -0.124096 -0.293023 0.05262 0.220853 -0.084465 0.036676 -0.487085 0.067159 -0.188709 -0.080727 -4.17E-4 0.075669 -0.005517 -0.361932 -0.155752 0.256651 -0.146229 0.01136 0.282167 0.083012 0.01819 0.088089 0.339566 0.041982 0.406357 -0.105317 0.138338 0.014102 -0.244338 0.260207 -0.198034 -0.132736 0.211102 -0.326435 -0.159891 0.320195 0.100109 -0.489099 -0.012204 0.226043 0.167703 0.002901 0.00701 0.054428 -0.120439 0.04204 0.09399 0.172715 0.084302 -0.069281 -0.117442 -0.166457 -0.081358 -0.103321 0.035498 0.004307 -0.17138 -0.039695 -0.052955 0.021683 0.366032 -0.24047 -0.25753 0.145236 0.06286 -0.233351 0.086311 0.176034 0.286481 0.020511 -0.068589 0.400406 0.01924 -0.115287 -0.131694 0.092888 -0.073646 -0.229108 0.264669 0.375829 -0.252852 -0.083172 -0.138019 0.279566 -0.343292 -0.196733 0.317279 -0.337298 0.102273 0.071471 -0.127166 0.007725 -0.178536 0.009927 -0.01431 0.019609 -0.055039 0.460915 -0.042259 -0.109549 -0.34052 0.21998 0.005826 0.004823 0.194066 0.035795 0.008076 0.062315 -0.12783 -0.29481 -0.076848 -0.166109 -0.071341 -0.267838 0.308115 0.048421 0.024676 -0.016761 0.131238 0.085198 0.063765 0.09901 -0.019984 -0.035828 0.031848 -0.08311 0.098088 -0.018612 0.290658 -0.084336 0.082085 -0.006956 0.081604 -0.134832 0.1355 -0.22852 -0.043344 0.082328 0.007929 -0.473077 -0.089357 -0.010892 0.374886 -0.260345 0.201546 0.296171 0.031625 0.170616 0.238089 0.021086 0.043933 0.307134 0.351506 -0.128788 0.181146 0.025956 -0.081866 0.2319 -0.201664 0.050904 -0.232893 0.321512 0.187441 0.056812 0.004821 0.082315 0.332955 0.053663 -0.162081 0.400793 0.076916 -0.065207 0.049643 -0.119341 -0.150676 -0.225995 -0.089121 -0.025082 0.1546 0.284699 0.473756 -0.012334 0.195193 -0.30339 -0.028834 0.300548 -0.09413 0.129408 0.040212 0.006345 0.448912 -0.026329 -0.118056 -0.031456 -0.136623 -0.132433 -0.170216 0.05429 0.237307 0.263271 -0.147616 -0.355069 0.068369 -0.1509 -0.18178 -0.104543 -0.193012 0.215957 0.224379 0.152468 0.135887 0.051382 0.046374 -0.505619 0.008191 0.015496 0.009495 -0.204896 0.28853 -0.146394 0.151494 -0.272405 -0.252918 -0.007312 -0.048134 -0.201993 -0.282991 0.224094 0.070499 0.259526 0.241423 0.240336 -0.447679 0.112672 0.037373 -0.074204 0.069873 -0.115226 0.260396 -0.14564 -0.01473 0.197702 0.247502 -0.220825 -0.036704 -0.13037 -0.105281 0.020504 0.203983 0.316606 -0.001346 -0.248571 0.019029 -0.153691 0.060713 -0.016264 0.100977 -0.187667 0.061775 -0.145008 0.267132 0.115813 -0.038059 -0.141204 -0.347187 0.142648 0.123504 -0.11129 0.117562 -0.222807 -0.10731 0.229214 -0.317287 -0.198893 0.073871 0.096288 0.058006 -0.001119 -0.00813 0.018055 0.032866 0.316091 0.002908 -0.254129 -0.222174 -0.372579 0.193981 -0.071171 0.401339 -0.344234 0.519041 -0.276417 -0.086412 -0.411921 0.003334 -0.025181 0.224369 -0.595981 0.279992 0.050732 -0.059126 -0.200956 0.225764 -0.161975 -0.353014 0.075243 -0.011039 0.005371 0.071171 0.090421 -0.157925 0.277171 0.123652 -0.017923 -0.19418 0.223282 0.070095 0.050152 -0.216307 0.267254 0.054018 -0.379367 0.162403 -0.013341 0.151612 -0.313942 -0.593814 0.030714 0.221589 -0.190249 0.121987 -0.259376 -0.035322 -0.103819 0.319834 -0.038571 -0.151114 0.286024 -0.090025 0.085269 0.059547 -0.030465 0.19261 0.103 0.03897 0.151092 -0.0129 0.105194 0.059922 0.256223 -0.1295 -0.196545 0.163288 0.040909 0.155631 0.021063 0.346919 -0.165812 -0.069528 -0.010085 0.2384 0.01746 0.030315 -0.325595 -0.202973 -0.35632 0.059215 -0.083803 0.219727 -0.00151 0.241563 -0.129175 0.074872 0.407569 -0.027665 0.266663 -0.183393 0.382356 -0.146005 -0.052289 -0.052369 0.501311 0.043623 -0.133091 -0.247015 0.246654 -0.250635 0.160056 -0.055419 -0.074629 -0.189933 -0.103882 0.079869 -0.239969 0.219408 -0.245977 -0.063848 0.221615 -0.033419 0.247018 -0.039141 0.222932 -0.466412 -0.191589 0.144357 0.055353 0.265962 0.090718 0.149432 0.136981 -0.137758 -0.00327 0.051807 0.218324 0.048363 -0.166782 -0.015685 -0.187181 0.007888 0.00618 0.293209 -0.080251 -0.24391 -0.061574 0.049837 -0.059473 -0.008137 0.300115 0.081634 -0.207082 0.3604 0.120993 0.027112 -0.090669 0.187409 -0.115301 0.303068 -0.06936 0.13007 0.125968 -0.126519 0.026269 -0.126971 -0.26481 0.341594 -0.018311 0.102669 0.263361 -0.021505 -0.251883 0.058419 -0.2727
manslaughter 0.071598 -0.188753 -0.081283 -0.295885 0.194621 0.21377 0.048525 0.038959 0.523116 -0.061205 0.138085 0.164859 -0.256149 0.079237 0.110368 0.368071 -0.079925 0.336963 -0.021375 0.084492 -0.628477 -0.053109 -0.247789 0.178482 -0.216416 -0.015034 0.012986 0.196886 -0.312893 0.47511 0.167407 -0.094595 -0.082213 0.243451 0.499137 0.354067 0.108529 0.017501 0.041973 -0.200034 0.0513 0.071095 -0.09696 0.355218 -0.219812 0.297867 -0.206049 -0.227525 0.265895 -0.100475 0.036595 -0.044165 -0.223716 -0.02858 -0.157855 0.145508 0.044537 -0.272841 0.070176 0.045704 0.087353 -0.127052 0.192354 0.430185 -0.27924 -0.002354 0.223198 -6.53E-4 -0.170779 -0.035169 0.036504 0.251051 0.021864 0.033982 0.215135 -0.344897 0.002154 0.227213 -0.366584 0.162004 0.194121 0.127162 -0.17111 0.023855 -0.125717 0.170634 0.014503 -0.218728 -0.142917 -0.437156 0.090411 -0.055742 -0.145788 -0.062766 0.049173 -0.22801 -0.110479 0.226815 0.293081 -0.203437 0.086914 -0.169502 -0.25279 0.032352 -0.218278 0.363112 -0.080194 0.332729 0.474165 0.230798 -0.062915 0.218016 0.046645 0.124813 -0.40295 0.035817 -0.03163 0.21747 -0.154711 0.00414 0.006094 0.036466 0.130343 0.043775 -0.21569 -0.223314 -0.179042 0.40354 -0.334888 0.359234 0.110036 -0.163816 0.142918 -0.033118 0.251203 -0.108708 -0.157156 -0.167195 -0.34907 -0.092884 -0.068333 0.267684 -0.115531 -0.218698 0.234966 0.166767 0.009891 0.25417 -0.089244 0.141979 -0.223831 -0.057692 0.280672 0.124676 -0.140718 0.207106 -0.184691 -0.549789 -0.054798 -0.288498 -0.269563 -0.39025 -0.073174 0.12019 0.238626 0.248371 0.036523 -0.145357 0.046227 -0.116382 -0.078609 0.155208 0.082307 0.140178 -0.110236 0.033536 0.002823 0.188357 -0.22685 -0.178177 -0.091437 -0.134148 0.306579 -0.515338 0.185758 -0.106675 -0.223259 -0.206709 -0.104506 -0.234575 -0.046078 -0.191415 0.194066 -0.178458 0.063346 0.411797 0.20405 -0.182963 -0.021262 -0.131999 -0.104306 -0.465483 0.309813 0.020356 -0.009423 0.422664 0.08157 -0.232517 -0.265886 0.263888 0.288242 -0.080723 -0.010017 -0.07873 0.390122 0.196668 0.051258 0.18306 0.258506 -0.080349 -0.216738 0.237941 -0.026079 -0.007828 0.127428 -0.107204 0.042148 0.011321 -0.146999 -0.174306 -0.133361 -0.292883 -0.241892 -0.125404 -0.128389 -0.041464 -0.001117 -0.090332 -0.036382 -0.035537 0.606485 0.243562 -0.083911 0.046326 -0.345876 0.055978 0.228728 0.309512 -0.141574 0.012077 0.097781 -0.174418 0.107193 -0.203203 0.052243 -0.258604 -0.199967 0.056263 0.233363 -0.128861 0.188496 -0.345544 -0.334583 0.017265 0.268138 0.037861 0.2037 -0.218783 -0.219176 -0.265459 0.281994 0.08459 -0.150567 -0.197556 -0.130581 0.054676 -0.447431 0.020449 -0.356437 -0.051868 -0.082262 0.085687 0.359266 0.077906 0.061051 0.191539 0.373984 -0.041201 -0.104619 -7.13E-4 -0.138507 -0.013922 0.169246 -0.384087 0.165437 0.152234 -0.192336 0.316411 -0.042012 -0.031376 -0.052077 0.223958 0.10365 0.019596 0.32091 -0.255512 -0.046357 0.0235 0.369078 0.088164 -0.019575 0.062513 -0.048816 -0.411063 -0.010709 0.095865 -0.279868 -0.150873 -0.023138 0.400345 -0.252523 -0.354908 0.051644 -0.169803 0.199556 -0.060351 0.210937 -0.360225 0.096028 0.461838 0.121117 -0.331214 -0.573963 0.085178 0.061854 -0.181219 -0.232761 -0.382832 -0.162869 -0.314731 0.318143 -0.205688 -0.232638 0.327991 -0.274849 -0.04284 -0.073187 0.356805 0.131194 0.271249 -0.062862 -0.047909 -0.116265 0.490077 0.255629 0.013188 -0.08034 0.089895 -0.152885 0.173029 -0.165877 0.142491 -0.046362 -0.190973 0.044467 -0.29447 0.032155 0.143279 0.480906 -0.279906 -0.290893 -0.161423 0.0623 -0.00904 0.042257 -0.27154 -0.03265 -0.069862 0.264388 -0.195338 -0.16605 -0.113844 -0.038324 -0.503735 -0.341236 0.288268 -0.01725 0.196225 0.166263 -0.171819 -0.290775 0.112847 0.02005 -0.274047 -0.193448 0.172908 -0.159612 -0.268186 0.124298 -0.208368 0.410254 0.095722 -0.264874 -0.240858 0.119721 -0.140082 -0.230122 0.121614 -0.18953 -0.113074 0.271829 -0.469332 0.141615 -0.516609 -0.009637 0.14218 -0.178195 0.018471 -0.118262 -0.073245 0.226038 0.194042 0.240423 -0.018134 0.038933 -0.104362 -0.29148 -0.304629 -0.089214 -0.18862 0.197573 -0.003203 -0.280459 0.326603 -0.160829 -0.349018 0.159256 -0.087745 0.130454 -0.163331 0.219983 -0.0752 0.144134 -0.242085 0.314993 0.1211 -0.014249 0.226242 -0.002241 -0.183209 -0.138551 -0.109796 -0.032134 -0.159577 0.013856 -0.243789 0.315849 0.217591 -0.042709 -0.076385 0.109657 0.216064 0.050933 0.125402 -0.132068 0.17298 -0.133563 -0.036372 0.064922 -0.459267 0.078179 0.139938 0.273965 -0.257208 -0.229394 0.038568 0.047659 -0.088295 0.061603 0.034636 -0.063049 -0.190038 0.146728 0.243732 -0.194779 0.217176 0.117485 0.147173 -0.18177 0.184093 -0.106784 -0.152608 0.232206 -0.034961 -0.032147 0.036925 0.338983 -0.230279 -0.009999 -0.392398
music -0.011566 0.011563 0.007254 -0.132581 0.132348 -0.289262 -0.095764 0.16014 0.165307 -0.005584 -0.182553 -0.144783 0.07975 0.152172 0.101026 0.141791 0.021934 0.316306 -0.113033 -0.001071 0.13322 -0.182942 -0.051558 0.208332 0.035506 -0.306334 0.228674 -0.060274 -0.196893 -0.006748 -0.048731 0.134917 0.06748 0.174689 0.151248 0.267885 -0.211761 0.279529 0.084904 -0.116181 -0.002489 -0.055241 0.036194 -0.076455 -0.011255 -0.147689 -0.027348 0.09956 0.24431 -0.078597 -0.274664 -0.396407 -0.132965 -0.09142 -7.1E-5 0.053344 0.115192 -0.07202 -0.020668 0.104581 -0.017616 0.022658 0.449598 -0.104231 -0.275586 -0.107305 0.19151 -0.200196 0.036712 0.098565 -0.047148 -0.103845 -0.02914 -0.207794 0.072354 0.095438 -0.113887 -0.139193 0.059165 -0.091392 0.197459 0.00954 0.022297 0.110786 0.198126 -0.151268 -0.049358 0.060546 -0.095274 -0.040704 0.050484 -0.276802 0.120666 -0.369981 -0.114107 0.058349 -0.001992 0.059008 0.097245 -0.102277 -0.058134 -0.18149 0.072144 -0.031479 -0.054886 0.150523 -0.122973 -0.033176 -0.021264 0.241615 -0.049237 0.060243 0.081752 -0.065206 0.103342 -0.061241 -0.11767 0.275399 -0.112407 -0.109967 -0.091126 -0.229087 -0.202413 -0.127017 0.179359 -0.219377 -0.06031 -0.248066 -0.009703 0.227811 -0.077245 0.28467 0.029754 0.213964 0.112261 0.078333 -0.076834 -0.038626 -0.010773 0.085581 0.140593 0.127955 0.050852 -0.055561 -0.195839 -0.066075 0.12598 0.138421 -0.111677 0.100488 0.096572 0.039566 0.023838 -0.22215 -0.042598 0.154249 0.244009 -0.040033 -0.038345 -0.174254 -0.242595 -0.125884 0.229684 -0.101073 0.150528 0.128516 -0.216787 -0.160967 0.03813 -0.249938 0.064634 0.211572 0.151927 0.06579 -0.169908 0.140338 -0.012515 -0.180567 -0.017722 0.045939 -0.016171 0.108976 -0.129936 0.337408 -2.0E-5 -0.008938 0.032994 -0.097228 -0.036212 0.255003 -0.242073 0.095681 0.104637 -0.002267 -0.135114 0.119603 0.004849 -0.179506 -0.013425 -0.054993 0.269301 0.063087 0.125069 0.240712 0.223258 0.202908 -0.21271 -0.094018 0.08844 -0.16144 -0.016399 0.097308 0.071469 -0.290415 0.002353 0.23969 0.09553 0.165507 0.243775 -0.163336 0.096983 -0.07011 -0.161477 -0.045476 0.15391 -0.049345 0.056059 0.238393 0.084774 0.004763 0.047036 0.233382 -0.274414 -0.030256 0.175268 -0.109946 -0.130274 0.148333 -0.220924 0.038388 0.077074 -0.127458 -0.171293 -0.136342 -0.114527 -0.024435 -0.214272 -0.075041 -0.172307 0.011338 0.026623 -0.104451 -0.017839 0.163344 -0.016713 0.011593 -0.144688 0.04471 0.038325 -0.456557 -0.083597 -0.201239 0.141956 0.159432 0.096296 -0.061519 -0.050148 -0.092931 -0.11473 -0.004832 -0.189877 0.392646 -0.185816 -0.109742 0.182015 0.001792 0.028475 0.19993 0.072529 -0.220793 0.013181 0.048912 0.110038 -0.103863 0.165024 0.011944 0.001648 0.074197 0.101904 0.169022 -0.056551 -0.340128 0.161812 0.006848 0.295981 -0.019691 0.081205 -0.220052 0.033265 0.165738 0.053453 -0.123018 -0.150196 -0.029681 -0.13928 -0.096605 -0.291034 0.079045 -0.36416 0.006871 0.010652 -0.014897 0.05537 0.088565 -0.061358 -0.018997 0.231335 -0.002388 -0.184588 0.060151 -0.144241 -0.395513 0.230508 -0.253598 -0.339326 0.116844 -0.093968 -0.124942 0.149787 -0.048231 -0.15777 -0.209149 -0.200481 -0.135529 0.127058 -0.020774 -0.159155 -0.270586 -0.088804 -0.033496 0.062419 -0.103052 -0.008562 0.130487 -0.311662 -0.187643 0.11775 0.152564 -0.084531 0.256714 -0.012922 -0.091137 0.228935 -0.1332 -0.024942 -0.110127 0.114127 -0.064935 0.004121 -0.076324 -0.399097 0.289023 0.017088 0.113641 -0.074642 0.138611 0.117224 0.177327 0.032931 -0.064431 -0.134265 0.060534 -0.012981 -0.072234 0.037073 -0.107647 -0.018164 -0.138651 -0.236261 0.064869 -0.281519 0.039873 0.193289 0.024984 -0.195765 0.277234 0.147104 -0.099031 -0.116066 -0.06413 0.154607 0.125394 -0.171312 0.217403 0.130956 -0.004184 -0.185787 0.145202 -0.087596 -0.203643 -0.05862 -0.080617 -0.05624 -0.2621 -0.188329 0.2046 0.136718 -0.236273 0.146505 0.047828 -0.144043 -0.196484 -0.113713 -0.217029 -0.037333 -0.167069 -0.057954 -0.061723 0.212345 -0.031424 -0.174171 1.83E-4 0.191733 0.212666 0.094636 0.160966 0.034084 0.177483 -0.093804 0.201273 -0.339451 0.159992 -0.234595 0.034062 -0.43124 -0.096615 0.035564 0.424107 0.151819 0.08251 -0.101381 -0.004315 0.225868 0.098146 -0.06321 0.082127 -0.18001 0.11436 0.018027 -0.198135 -0.243243 0.039497 -0.291364 -0.242989 -0.141075 -0.142681 0.230811 -0.150034 -0.129351 0.005096 -0.019629 -0.152556 -0.020679 0.11491 -0.146407 -0.154398 -0.074319 0.050583 0.082874 -0.116801 0.172793 0.177015 -0.165027 0.06866 0.026219 0.098071 0.124653 -0.066294 0.106873 0.01678 0.100495 0.002271 0.057304 0.03134 0.237707 -0.244256 0.006271 0.10839 -0.033746 -0.022186 -0.006719 -0.06093 -0.203622 -0.018201 0.067808 0.421935 -0.055316 0.274524 -0.091257 -0.012435
record 0.121008 -0.063894 0.108523 0.097712 -0.248247 -0.023706 0.119873 0.089228 0.009997 -0.031257 0.092777 -0.108682 0.09699 0.166813 0.177962 -0.045604 -0.178981 0.024848 -0.16261 0.188778 0.116536 -0.010017 0.061582 -0.018645 0.013936 0.150605 0.142168 0.150917 -0.03447 -0.085717 -0.044427 0.148359 -0.0522 0.107733 0.036751 -0.06303 -0.098168 0.361535 0.146051 -0.139223 -0.100745 0.343208 -0.238076 0.09943 0.136983 -0.214584 0.191291 0.290613 0.073763 -0.098202 0.144569 -0.127488 -0.130075 0.160079 0.147052 0.034799 0.089441 0.10975 0.130815 0.06249 -0.144591 -0.059149 0.095604 0.1007 -0.159389 0.214954 0.241536 -0.340231 -0.066211 -0.093146 0.065983 0.237661 -0.294556 -0.115983 -0.031173 0.001863 -0.026624 0.227428 -0.133562 -0.055423 0.157741 0.161554 -0.092941 -0.070659 -0.269734 -0.113587 -0.189861 -0.303552 -0.174962 0.121092 0.041908 0.044183 -0.037106 -0.052169 0.23348 0.099034 -0.300238 0.566939 0.242323 -0.242094 -0.173274 -0.145235 0.082072 -0.108159 0.062678 0.090942 -0.163606 -0.035155 -0.050243 0.108326 -0.244477 0.076444 -0.105283 0.088554 -0.023064 -0.081675 0.101338 0.150888 0.108812 -0.016052 0.172172 -0.041168 0.265171 -0.087714 0.080643 -0.330156 -0.012304 0.010904 -0.173939 0.185722 0.061231 0.126312 0.091033 -0.122502 -0.156381 -0.086512 0.114855 0.065902 -0.283262 -0.141151 0.050751 0.101846 0.105598 -0.083228 -0.289199 -0.277238 0.022722 0.154349 0.224822 0.173483 0.114388 0.157045 -0.338293 0.089703 -0.050042 -0.073453 -0.339436 -0.096339 0.043876 0.008536 -0.014398 0.111952 -0.021367 -0.16968 -0.202591 -0.03865 0.127943 0.228722 0.018948 -0.031419 -0.019893 0.015212 0.016151 0.114429 -0.09563 -0.107425 0.148364 -0.090695 -0.103351 0.039879 0.017774 -0.045194 0.307819 0.149527 -0.025506 0.076753 -0.014837 -0.029219 0.201536 0.055504 0.004098 0.146626 -0.259354 -0.021442 0.058943 0.03163 0.103268 -0.081102 -0.111869 -0.121305 0.021214 0.131964 -0.264789 0.163396 -0.414974 -0.110667 0.014241 -0.210084 -0.100283 0.079213 0.029938 0.027074 -0.148312 -0.235567 0.092619 0.181675 0.251905 -0.05165 0.047455 0.045759 -0.023875 0.127881 -0.098306 -0.14438 0.147189 0.180835 -0.07412 -0.317627 0.176731 0.133134 -0.110441 0.169514 0.102244 0.319525 0.19692 0.092017 0.080457 -0.020605 -0.034621 -0.011327 -0.099183 0.032241 0.23708 0.271055 -0.264038 0.100569 -0.033405 0.243498 -0.259001 0.007054 0.160694 -0.137123 0.020389 -0.018817 -0.14419 -0.249148 -0.100068 -0.141278 -0.23279 -0.046411 0.083446 -0.413324 0.032005 0.072409 -0.172643 0.088148 -0.325523 0.070173 -0.132351 -0.203601 0.223485 0.034881 -0.041555 0.020623 -0.003717 -0.05229 -0.151456 -0.030528 0.042107 -0.171962 -0.171333 -0.024793 -9.83E-4 -0.059238 -0.178736 -0.086134 0.218216 -0.120945 0.072494 -0.25236 -0.102488 -0.222936 0.270735 0.013683 0.022368 0.100659 -0.157018 -0.296804 0.203127 0.199699 0.146486 -0.179121 -0.013627 -0.219503 0.128769 -0.123215 -0.091319 -0.092651 -0.051177 0.045309 -0.144864 -0.045691 -0.007529 0.168286 0.140924 -0.020586 0.038523 0.017366 -0.146871 -0.112668 -3.13E-4 -0.012487 0.206513 0.080384 -0.13093 0.078844 -0.212703 0.2689 -0.024871 0.157872 -0.174029 -0.176205 -0.03805 0.079469 0.065903 0.043297 0.181421 -0.382579 0.049603 0.118679 0.306863 -0.167374 -0.002669 0.05547 0.247445 -0.066595 0.265136 -0.036481 -0.266252 0.254562 -0.104594 0.036513 0.086725 -0.06712 0.065019 0.147919 -0.202854 0.104512 -0.047814 -0.097209 -0.055258 0.197387 -0.257676 0.057013 -0.028543 0.180945 0.03123 -0.175432 0.04307 -5.92E-4 0.067566 -0.003374 0.041825 -0.002724 0.228722 -0.051233 -0.112997 0.108412 -0.283763 0.107476 0.133512 0.006403 0.095642 -0.218944 0.085324 0.312527 0.007418 -0.006327 0.227295 -0.11333 0.107024 0.009279 0.114591 0.05943 -0.039072 0.130676 -0.00478 0.144599 0.018931 0.016382 0.045056 -0.15454 0.147681 -0.006534 0.071109 -0.016884 -0.085423 -0.05484 0.230783 0.147098 0.122184 0.13217 0.106487 -0.186338 0.058169 -0.051331 -0.108222 0.170486 0.109477 0.222801 -0.167006 0.091368 0.388237 -0.086942 -0.018437 -0.01288 0.158553 -0.065671 0.233077 0.140356 0.100279 0.283832 0.040054 -0.020477 -0.025877 -0.034207 0.146915 0.119279 0.134065 9.8E-4 -0.213591 0.001481 0.109329 -0.272818 -0.036699 0.098534 -0.135912 -0.011327 -0.31654 -0.224227 -0.216337 -0.036465 -0.023127 0.179863 -0.194964 -0.033262 -0.02184 0.136164 -0.121077 0.191645 -0.124531 0.034695 -0.147898 -0.188752 0.144542 0.048229 -0.080468 -0.06345 0.026034 -0.042882 0.263304 0.070714 -0.349821 -0.122769 -0.1026 0.123437 0.110427 0.096109 -0.148754 0.012148 -0.176413 -0.045758 -0.216175 -0.028012 0.048986 0.238338 -0.065816 0.248003 -0.021265 -0.004331 -0.073111 -0.064539 -0.195624 0.005135 -0.040827 0.136602 0.170559 0.018763 -0.024535 -0.050747
energy 0.130385 0.046348 -0.098281 -0.055766 0.0305 -0.092861 -0.019986 0.043576 0.16588 0.132718 0.127898 0.007528 0.008635 0.159571 -0.121827 -0.013392 -0.032594 -0.076753 -0.001998 0.167678 0.072465 0.180963 -0.245514 -0.036571 0.054698 -0.032522 -0.050328 -0.030089 0.068041 0.043877 -0.222813 0.198281 0.201822 0.054177 -0.162835 -0.249965 -0.01855 -0.192417 -0.060789 -0.125691 0.31506 0.050203 0.16089 0.134108 0.029259 -0.040406 0.012387 -0.041391 0.060432 -0.253133 0.209592 -0.289901 0.013178 0.041248 -0.054985 -0.169499 -0.052689 0.021769 -0.238058 0.059773 -0.146564 -0.276281 0.195802 -0.030457 0.185823 0.050362 0.250857 0.002856 0.229439 -0.021686 -0.062613 0.09179 0.11758 0.194933 0.084978 -0.084359 -0.170314 0.045425 0.030406 0.011743 0.316416 -0.117806 -0.02453 -0.082044 -0.109636 0.115861 -0.233708 -0.042671 0.058999 -0.07359 0.029886 0.298963 0.098577 -0.069111 -0.018988 0.095755 0.024802 0.365186 0.132807 0.153713 -0.001027 0.132539 -0.049137 0.083753 -0.03209 0.044692 -0.136853 -0.089122 -0.344825 0.090961 -0.077008 -0.051168 0.107271 0.177585 -0.080537 0.055402 0.060551 0.082476 -0.313197 -0.090993 0.075009 -0.067068 0.248765 -0.09647 0.126243 -0.034031 0.090302 -0.177085 0.028428 -0.001707 -0.011566 -0.005383 -0.051649 0.288558 -0.106101 -0.011829 0.143805 0.052971 0.100296 -0.017163 -0.275654 0.002246 0.018193 0.050484 -0.231504 -0.172888 -0.099833 -0.01407 0.080235 0.167759 -0.196562 0.352872 -0.064949 -0.130033 -0.15047 0.060512 0.243845 -0.307922 -0.016195 0.173967 -0.040266 0.164986 0.094915 0.031805 -0.106871 0.289297 0.108937 -0.266917 -0.067089 0.132341 0.106319 0.083267 0.190893 -0.078403 -0.363191 0.223889 -0.049965 -0.215445 -0.06709 -0.007533 -0.099035 -0.0704 -0.252151 -0.005116 -0.122238 -0.205532 0.209683 -0.22364 -0.002814 0.240374 -0.140525 -0.015671 -0.185469 -0.171841 -0.024656 0.057051 -0.014618 0.084722 -0.155444 -0.346086 -0.113652 -0.023565 -0.165055 0.125883 0.018752 0.183242 -0.045352 -0.171817 -0.229666 0.02654 0.003223 0.146458 -0.180689 0.012114 -0.105817 -0.04287 -0.104349 0.119062 0.220275 0.140338 0.047553 0.141344 -0.007281 -0.204254 0.193169 -0.051394 -0.276398 0.052799 0.044693 0.348391 -0.017694 0.015168 -0.076526 -9.68E-4 0.126962 -0.07171 -0.1223 0.043204 0.009449 0.124517 -0.207793 0.331866 0.02771 -0.119839 -0.008703 0.183573 -0.049199 0.290629 -0.112164 -0.09291 -0.036322 0.12912 0.030909 -0.289439 -0.138118 -0.032387 -0.061859 -0.023897 0.207325 0.123441 0.291376 -0.032576 -0.173288 -0.059943 -0.096085 -0.034733 0.026829 -0.135575 -0.285061 -0.207908 0.216875 0.175203 -0.161482 -0.187972 -0.121663 -0.1211 0.150756 0.050668 0.037768 -0.098528 -0.066369 0.015753 0.514522 -0.187365 -0.038786 0.196661 0.214628 0.144048 0.102282 0.002727 -0.180116 -0.025049 -0.222174 0.173989 0.322835 -0.181271 0.014342 -0.123465 -0.073894 0.179824 0.21624 -0.151129 -0.131333 -0.104069 -0.029137 -0.05396 0.017075 -0.21276 -0.219291 0.219979 0.075347 0.203222 -0.034035 -0.107088 -0.268135 0.048865 -0.128637 -0.076241 -0.02166 0.04497 -0.055673 -0.041367 0.208333 -0.200538 -0.127071 -0.077624 -0.213298 -0.15426 -0.106581 0.294731 -0.182726 -0.254689 -0.121757 -0.021561 -0.07566 0.381049 -0.121723 -0.246394 0.189462 0.059122 -0.135908 0.157785 0.137566 -0.261061 -0.025202 -0.231149 0.382102 -0.208567 0.067123 0.13623 0.239305 -0.113574 -0.018838 -3.29E-4 0.100892 -0.05006 -0.021082 -0.085557 0.016128 0.09873 -0.023232 0.297803 -0.101303 -0.016218 -0.027522 0.053911 0.025646 0.222748 0.096943 -0.122674 0.033427 -0.286496 0.028765 -0.138837 0.099455 0.184047 -0.071176 0.034972 0.044334 0.015533 -0.081959 -0.004899 0.133513 0.221081 -0.160825 0.352568 0.010987 -0.148448 -0.017919 -0.056854 -0.099895 -0.036253 -0.097406 -0.006487 0.090618 0.198614 -0.076494 0.14928 0.075577 -0.147383 0.195777 -0.054643 0.034351 -0.13486 0.327794 -0.029771 0.063975 0.130235 -0.036823 -0.319982 0.037279 -0.124262 -0.023214 -0.303449 0.187371 0.086695 0.163532 0.133904 0.119834 0.304754 -0.141682 -0.191461 0.259625 -0.123676 0.149711 0.189875 -0.081501 -0.110774 0.174209 0.155661 -0.161678 0.140857 0.067672 -0.218895 0.218454 0.343999 -0.046904 0.173377 -0.102128 0.24559 -0.056885 0.155323 -0.054708 -0.247295 -0.027532 -0.220402 -0.03031 -0.176906 0.020052 0.043484 -0.125668 6.0E-5 0.003742 -0.146415 -0.094513 -0.009542 0.111876 -0.029419 0.01558 0.100205 -0.140624 0.118524 0.061049 -0.036678 0.063424 -0.152793 -0.213548 -0.238017 0.238075 0.060393 0.052313 -0.075173 -0.090878 -0.262069 -0.092271 -0.254401 -0.155766 -0.145948 0.051559 -0.075649 -0.023555 -0.253307 0.192304 0.033227 0.168567 -0.104402 0.086713 0.339232 0.080283 0.129419 -0.115455 -0.084596 0.174847 0.19846 0.071659 0.214848 4.49E-4 0.356794 -0.119255 -0.248182
announcement -0.019719 -0.164481 0.029367 0.055154 0.223138 -0.098484 -0.032586 0.111563 0.308121 0.033963 -0.013522 0.034619 -0.061885 0.054081 -0.206416 0.214615 -0.191203 0.086702 0.20405 0.057678 -0.08896 0.186342 -0.216713 0.089228 0.091599 -0.259705 -0.036354 0.387197 -0.096192 0.296121 -0.007694 0.024209 0.053456 0.0214 0.038002 -0.059612 -0.007112 0.218295 0.374856 -0.07909 -0.087633 0.053083 0.030129 0.14005 0.062202 0.221064 0.252949 0.093445 0.268661 -0.146649 0.006459 0.032141 -0.118338 -0.028088 -0.093619 -0.021638 0.075557 0.103228 0.014948 0.109485 0.004657 0.061897 0.224807 0.087441 -0.191483 0.171211 -0.134382 0.201104 -0.094569 -0.072546 -0.112045 0.040366 0.026712 -0.165862 0.125811 0.097134 -0.070686 0.139255 0.047214 -0.256589 0.181155 -0.013279 0.097305 -0.173395 -0.397287 0.138424 -0.133709 -0.026324 -0.045519 0.045407 -0.070201 0.151097 0.106781 0.03803 0.00374 0.064074 -0.070196 0.116705 0.045533 0.113275 -0.135941 0.192755 -0.054842 -0.041073 0.149322 -0.065176 -0.037916 -0.117835 -0.007895 0.233713 -0.237828 0.127987 0.094567 -0.069699 0.203178 -0.012091 0.010907 0.029479 -0.288372 0.169027 -0.05943 -0.025067 -0.203066 -0.107516 0.032437 -0.212184 0.040353 0.065887 -0.243122 -0.059641 0.259107 0.129273 -0.069143 0.198265 -0.01971 0.182267 0.119988 0.108057 0.123616 -0.235611 -0.037106 -0.020157 -0.029181 0.040281 -0.1603 -0.046258 -0.043905 0.084804 -0.02743 0.218951 -0.126822 0.118857 0.015875 0.141748 -0.157958 0.069509 -0.276164 -0.248204 0.039262 -0.089112 -0.181811 -0.033849 -0.157451 -0.179205 0.165303 0.099333 0.035237 -0.12344 0.199615 0.046877 -0.176589 -0.249718 0.067612 0.053995 -0.222615 -0.057343 0.086379 0.067881 0.168832 -0.05414 -0.198757 0.091788 -0.002648 -0.137306 -0.23486 0.05602 0.032032 -0.179909 0.059395 0.103735 0.226137 0.044524 0.049824 -0.039196 0.052022 -0.044997 0.016247 -0.047254 -0.139631 -0.10309 -4.07E-4 -0.023948 -0.072381 0.020374 0.074535 -0.150847 0.067012 -0.007903 0.0227 0.013815 0.030775 -0.049053 0.161312 -0.053577 0.075697 0.107509 0.139216 -0.019885 0.201992 0.117214 0.057608 -0.177153 -0.095267 0.055533 -0.025147 0.092039 0.081728 0.027556 0.04139 0.055973 -0.072218 -0.025082 -0.092941 0.11757 -0.026559 0.122071 0.009243 -0.018015 -0.073531 -0.126218 0.088327 0.091199 0.262012 -0.106793 0.033637 -0.064871 -0.258926 0.029514 -0.08673 -0.110799 0.106059 -0.126327 -0.001999 -0.092598 0.07139 -0.11625 -0.035402 -0.231522 -0.178439 -0.224111 -0.102322 -0.253844 0.066091 0.158634 0.060085 0.172877 -0.13251 -0.257354 -0.145551 -0.018798 -0.08015 -0.002914 0.094576 0.008111 -0.171084 0.091616 0.019205 -0.172837 -0.046947 -0.274285 0.129867 -0.104822 0.160681 -0.072919 0.021523 -0.110086 0.130428 0.145551 0.051033 -0.099761 -0.137673 -0.249678 0.057541 0.123889 0.01254 -0.17599 -0.021999 -0.101635 0.033127 -0.127826 -0.092919 -0.027995 0.142417 0.139981 0.041381 -0.172291 0.080777 -0.360973 0.079465 -0.126675 0.05462 0.034474 -0.190553 -0.21772 -0.021202 -0.141509 -0.014554 -0.055643 -0.022207 0.019256 -0.223244 0.009808 0.037631 -0.119622 -0.207097 -0.189424 0.076875 0.00131 0.011521 0.035296 -0.168226 -0.160342 0.054138 -0.211256 -0.046163 0.237557 -0.156374 -0.072371 -0.095843 -0.084945 -0.168743 -0.106811 -0.053018 0.027527 -0.017837 -0.004871 0.36192 -0.311919 0.050859 0.006276 -0.075025 -0.045934 -0.146511 -0.079357 0.115364 -0.052382 -0.029783 0.121719 -0.085299 0.019746 -0.02785 -0.051474 0.017235 0.119986 -0.222141 0.402651 0.086421 0.126838 0.192282 -0.08197 -0.069721 0.183278 -0.047718 -0.159951 -0.057398 -0.146952 0.118251 -0.191951 0.019084 0.079669 -0.136804 -0.075573 0.023401 0.076225 -0.011041 -0.081737 -0.161536 -0.01845 -0.010292 -0.2379 -0.303902 0.043365 -0.056963 0.034913 0.216481 0.074619 0.007823 0.029865 0.238697 -0.508226 0.323405 -0.134636 0.162245 -0.084882 0.068625 -0.018034 0.001727 -0.165746 -0.079123 -0.385897 0.37231 -0.141091 -0.154811 -0.100329 0.188403 0.244425 0.096618 0.251974 0.260947 0.085326 -0.340675 -0.028818 -0.033736 0.133894 0.027732 0.039169 -0.033375 0.036759 -0.032511 0.212537 0.042241 0.035202 0.18814 -0.036209 0.004283 -0.031438 -0.180603 0.135771 -0.112653 0.0566 0.119876 -0.085618 0.286201 -0.115292 0.083229 -0.189777 0.088839 -0.262243 0.089844 -0.014518 0.113323 0.036413 -0.073592 0.131443 -0.105463 -0.036938 0.026579 -0.125048 -0.15504 0.007209 0.100794 0.157285 -0.264673 0.009411 0.228588 0.055764 0.17806 -0.23441 -0.010274 0.087323 -0.061638 0.112361 -0.126817 -0.223805 -0.001159 -0.036017 -0.127409 0.129959 -0.053556 0.121211 -0.246562 -0.044971 0.07524 -0.143864 -0.077867 -0.025094 -0.036818 0.029661 -0.27466 0.227326 0.202609 0.068041 -0.084682 -0.08465 -0.019961 0.085377 -0.039893 0.009685 -0.193583 0.154061
mile 3.87E-4 -0.224594 -0.391472 0.085822 0.024056 -0.052939 0.421104 -0.037475 0.18132 -0.10607 -0.092895 0.104419 0.120885 0.094924 0.238212 -0.042184 -0.114389 0.373302 -0.059204 0.315792 0.148159 0.152288 -0.173154 -0.015394 0.226176 -0.263295 0.342667 0.16876 -0.211786 -0.261193 -0.066057 -0.041 0.127742 0.054775 0.021547 0.04363 -0.058504 -0.268337 0.374199 0.061166 0.012608 0.314976 -0.029734 -0.037316 0.100309 0.125876 0.281135 0.129156 -0.059304 -0.132209 -0.048523 0.135352 -0.053239 0.070998 -0.158592 -0.315837 -0.095166 0.052149 -0.075496 0.118751 -0.036063 -0.206108 -0.021855 -0.009433 -0.113718 -2.62E-4 -0.031089 0.124492 -0.129797 0.13892 -0.028098 0.002657 0.089152 -0.168206 -0.332504 -0.056935 0.031135 0.324864 0.040455 -0.054505 0.016051 0.217128 0.129139 0.060822 0.133815 0.080862 -0.00126 -0.2452 0.298414 -0.013744 0.117987 0.065755 -0.006619 -0.029969 0.123203 -0.085422 -0.037835 0.006111 -0.084405 0.132925 -0.05666 0.012814 0.144455 -0.083524 0.133233 0.058674 -0.246489 0.010052 -0.326348 0.067983 -0.057511 -0.118251 0.151871 0.04341 -0.208736 -0.240624 0.168947 -0.166018 -0.056119 0.373757 0.385366 -0.13062 -0.146171 0.042727 -0.137401 -0.315311 -0.047336 0.084971 -0.284793 0.014642 -0.087089 0.188275 0.098112 -0.072967 0.177137 0.223263 -0.039941 -0.064965 -0.322109 4.6E-5 0.12399 0.28412 0.213036 -0.098176 -0.116233 0.196123 0.003248 0.231225 0.177648 0.146358 -0.100212 0.24375 -0.116684 0.041419 -0.154181 -0.207999 -0.368313 -0.057606 -0.110452 -0.016479 -0.360559 -0.173827 0.070305 -0.036696 -0.239539 0.167781 0.006277 -0.094247 -0.163771 -0.005905 -0.153393 -0.212658 -0.063096 -0.224094 -0.017827 0.106034 1.69E-4 0.301403 0.035845 0.1737 -0.07193 -0.031559 0.046111 0.295333 0.226914 0.03109 -0.165574 0.150302 -0.130606 -0.025701 0.268375 -0.193317 -0.066356 -0.411504 -0.004273 -0.022724 -0.08198 -0.361345 -0.031314 -0.209635 -0.088556 -0.104039 0.031527 0.033348 0.014443 0.249456 -0.008762 -0.095679 -0.090464 -0.087774 -0.100973 -0.129718 0.030617 -0.100943 0.298993 -0.070063 0.163005 0.103991 0.096625 -0.173604 0.016297 0.019551 0.057054 -0.078264 -0.142351 0.27873 -0.119305 0.004151 0.036334 0.024374 0.04518 -0.211415 0.009164 0.112181 -0.075796 -0.206123 0.039958 -0.180717 -0.06529 0.017335 0.143554 0.293055 -0.184099 -0.149018 -0.156478 0.019019 -0.087686 -0.121911 -0.072769 -0.179014 -0.04403 0.072738 1.41E-4 -0.196292 0.255714 -0.292944 0.04802 0.099378 0.108679 -0.109828 0.170555 -0.211684 -0.365663 0.097787 -0.042925 0.198091 -0.226329 0.091995 -0.054217 -0.21153 -0.116582 -0.062385 0.090682 -0.18758 0.402064 -0.057496 0.091872 -0.058192 0.116293 -0.036254 0.010424 0.045917 0.145164 0.069311 -0.015587 -0.029508 -0.015071 0.153708 -0.178576 0.097314 0.093245 0.011065 -0.042359 0.108968 0.149963 -0.021039 0.156926 0.005134 -0.156341 0.060085 0.152572 0.188643 -0.046608 0.042339 0.040984 -0.091128 0.029825 0.019658 -0.227917 0.173733 -0.011 0.269163 -0.215321 0.044076 -0.021119 -0.159495 0.202152 0.011932 -0.083939 0.118453 0.019887 0.083414 -0.464167 7.12E-4 -0.018005 -0.184154 -0.009966 0.096881 -0.121003 0.135307 -0.140975 -0.197795 -0.056789 0.115863 -0.12103 0.222365 0.432013 -0.04848 0.267354 -0.259034 0.232845 -0.203014 0.03636 -0.117338 0.008953 -0.200595 -0.229371 -0.051216 -0.034406 -0.030791 -4.22E-4 -0.149955 -0.039786 0.172562 0.031805 0.038794 -0.017311 -0.081694 -0.137464 -0.037648 0.133713 -0.057207 0.311781 0.366312 0.39705 -0.249699 -0.374757 -0.021204 -0.043555 0.163723 -0.119305 0.122662 0.221501 0.007188 0.074252 -0.07502 -0.0665 0.011453 0.24681 -0.036711 -0.001538 -0.175605 -0.236128 0.075823 0.13069 0.162139 -0.033767 0.129152 -0.072448 -0.100554 -0.025987 0.111165 0.009252 -0.048121 -0.168801 0.290285 0.045628 0.088828 0.422697 -0.114037 0.104884 -0.014134 0.009261 -0.21384 -0.025835 -0.065404 -0.215054 0.321043 0.034568 -0.127029 0.017186 -0.366279 -0.010808 0.098145 0.359101 0.092653 -0.129419 -0.268869 0.232644 0.127406 -0.030163 0.276579 -0.07985 0.052583 0.173488 -0.146296 -0.044045 -0.095234 0.311291 0.209086 0.10056 0.098711 -0.036528 -0.207974 -0.331874 0.034883 0.226391 0.166937 0.310855 0.063676 -0.19503 -0.08852 -0.00776 -0.073022 -0.012865 0.016548 -0.035028 -0.016207 -0.135232 0.175808 -0.219355 0.036514 -0.158766 0.22419 -0.049911 -0.109813 -0.00954 0.108314 -0.260756 0.352985 0.100411 -4.64E-4 0.019356 -0.048156 0.051859 -0.170696 -0.205741 -0.173664 -0.164495 0.15508 -0.311478 0.02397 -0.19329 -0.124574 0.086468 -0.068802 0.24954 -0.009628 0.094386 0.166655 -0.064436 -0.233619 0.028123 -0.08947 -0.050051 0.026719 -0.177282 -0.037513 0.04642 -0.211286 0.063736 -0.137936 0.178241 0.003212 -0.063461 0.126915 0.03063 0.173395 0.064607 -0.034015
airport 0.096901 -0.120856 -0.127347 -0.270325 0.299986 0.006245 -0.050245 -0.012194 0.045348 -0.162402 -0.312734 0.314547 -0.088577 0.10641 -0.150396 0.042098 0.158489 -0.043484 0.220158 0.009233 -0.158051 0.110857 -0.110409 -0.067504 -0.068145 -0.266297 0.150285 0.090908 -0.123936 0.121351 -0.14063 0.157832 0.125986 -0.081902 -0.337082 0.128383 -0.053822 -0.215312 0.204265 0.020561 -0.119236 0.298604 -0.164783 0.219149 -0.07793 0.237761 0.157627 -0.161519 0.144733 -0.122414 0.063574 -0.04559 -0.333809 0.113049 0.017418 0.138072 -0.014079 0.1048 -0.207973 0.00867 -0.217795 -0.249539 -0.094827 0.042732 -0.139296 0.046284 0.025407 0.017215 0.194146 0.03782 -0.207772 0.150894 0.095696 -0.256699 0.020656 -0.229895 0.17332 0.358722 -0.121344 -0.096001 0.237641 -0.143454 0.382973 -0.08023 -0.140196 -0.142451 -0.045782 0.374078 0.182747 0.109077 0.037843 -0.159464 -0.097926 -0.086584 0.14332 0.069986 0.1586 0.047224 0.041571 0.102359 -0.254741 0.203944 -0.167478 -0.244459 -0.226687 -0.077702 -0.262832 -0.067153 -0.043711 0.051653 -0.246672 0.286239 0.204822 -0.035406 -0.042906 -0.016307 0.194947 -0.092621 0.011104 0.007894 0.174093 -0.077061 -0.002222 -0.155521 0.068958 -0.235824 -0.125746 -0.048304 -0.202986 -0.208672 -0.003569 0.190477 -9.2E-4 -0.223733 0.097388 0.058874 -0.255974 -0.085752 -0.286028 -0.065028 -0.024682 0.099041 -0.143577 -0.260569 0.132581 0.178841 -0.088103 0.064383 0.088084 0.120126 -0.351916 -0.034172 0.10916 0.234172 0.219031 0.027117 -0.242527 -0.413036 -0.148843 -0.221878 -0.34517 -0.189246 0.314196 0.06743 0.102596 0.315078 -0.08057 0.139552 -0.203792 -0.127232 -0.205431 -0.061815 0.074613 -0.316328 0.00945 0.097937 -0.288065 0.242248 -0.06168 0.112945 0.185772 -0.315626 0.151817 -0.357137 0.259795 -0.163012 0.054543 0.029677 8.97E-4 0.014371 0.052252 -0.208377 0.185664 0.16273 0.109066 0.074795 -0.233398 -0.046494 0.03266 -0.117561 0.267636 0.06084 0.243034 0.02807 -0.051587 0.352501 0.051126 -0.145506 0.056892 0.418052 0.072672 -0.06892 0.112514 -0.278031 0.005036 -0.148892 -0.166465 0.215845 0.071107 0.099151 0.165125 -0.117937 0.04656 0.167029 -0.092213 0.232164 0.161407 -0.046562 0.092222 -0.179527 -0.063886 -0.031721 -0.298515 0.023471 0.084204 0.043187 0.18008 8.55E-4 0.017273 -0.096751 -0.078713 0.398116 0.071724 0.040547 -0.171924 -0.161621 -0.087133 0.182998 -0.113638 -0.090619 -0.018997 0.066585 -0.062626 0.030983 -0.159292 0.115477 -0.303385 -0.1924 0.150111 -0.018679 -0.196981 -0.403041 -0.181161 0.151279 -0.12376 0.081892 0.29174 -0.268594 0.013989 -0.345664 -0.068343 0.121402 -0.086388 0.038353 0.367525 0.329271 0.219621 0.220941 0.18179 0.0118 0.213655 -0.200513 0.284898 -0.159839 -0.124122 0.208041 -0.009846 0.180285 -0.07015 0.136153 -0.136339 -0.262026 -0.070171 0.221465 0.356732 0.075484 0.01243 -0.224472 0.034422 -0.139229 0.156495 -0.006454 -0.00925 -0.098909 0.247299 0.124807 0.069994 -0.124823 -0.113869 -0.043784 -0.030302 0.12802 -0.252716 -0.175453 -0.189822 -0.301546 0.009041 0.094851 0.174895 0.156165 -0.362292 0.031499 -0.088701 -0.09187 -0.058051 0.072661 0.00834 -0.18832 0.152748 0.125413 -0.139296 -0.080792 -0.224766 -0.047466 0.184723 0.219904 0.168008 -0.271622 0.114119 -0.10518 0.279943 -0.118591 -0.1899 0.210372 0.063945 -0.175125 0.147232 -0.104309 -0.067015 -0.133541 0.23233 -0.056499 -0.196275 0.117269 -0.020979 -0.203321 0.114935 0.091408 -0.248503 -0.006621 -0.158711 0.245453 0.028188 -0.047775 -0.070515 -0.046154 -0.142602 0.131306 0.087021 0.045023 0.072356 0.051181 -0.035648 0.038077 -0.045185 0.015998 0.185968 -0.307947 0.36153 0.013043 -0.154711 -0.125655 0.185189 0.094976 -0.14562 -0.021612 -0.142565 0.10112 -0.223349 -0.025134 0.143217 0.03257 -0.051774 0.129932 -0.044546 0.062983 0.064302 0.236591 0.259979 -0.180645 0.126626 0.1501 -0.150888 -0.149378 0.150139 -0.128191 0.161786 0.215974 0.142533 -0.288315 -0.135796 -0.239571 -0.030812 0.154706 -0.054032 0.032609 0.067498 -0.012763 0.192253 0.144852 -0.072887 0.09944 -0.069237 0.088235 -0.277353 -0.226928 0.256662 -0.161686 -0.183932 0.104842 0.045529 -0.243625 -0.104659 0.105019 -0.176763 -0.00305 0.330873 0.005382 -0.144036 0.077612 0.267579 -0.101987 0.00354 -0.23025 0.145841 -0.166423 0.15716 -0.224579 -0.105113 -0.053173 0.094854 -0.035531 0.004736 0.01231 0.00212 0.022146 0.069729 0.143328 -0.149566 -0.072439 -0.114749 0.207356 -0.075822 -0.108754 -0.183319 -0.02232 0.050597 -0.172026 -0.016797 -0.046213 -0.328323 0.17038 -0.230405 0.103637 0.176353 0.02353 -0.122207 -0.005955 0.124805 0.346664 -0.084537 -0.096605 0.061885 0.02569 0.020258 -0.201937 -0.013273 0.075524 -0.183934 -0.160171 -0.040162 -0.187321 0.163216 -0.147931 0.117608 0.197682 0.05722 0.170174 0.33597 0.074208
population 0.005284 0.129177 0.239589 -0.309194 0.318484 -0.155586 0.042234 0.249935 0.319223 -0.161097 0.092529 0.094655 -0.19249 0.005262 0.199456 -0.023622 0.002801 0.33368 -0.017473 0.31881 0.076256 0.088723 -0.310835 0.196861 0.158084 0.276645 0.129939 0.111899 -0.014195 0.021572 -0.122126 0.016251 0.09963 -0.02313 -0.155241 -0.212491 0.091671 0.150938 0.27545 0.039766 -0.106805 0.033895 -0.035705 0.271528 -0.058306 -0.0247 0.298417 0.157504 0.056207 -0.301593 0.22594 -0.028921 -0.086762 -0.113321 -0.339004 -0.318956 0.010899 0.164362 -0.216652 0.209473 0.0193 -0.039214 -0.116447 0.092248 -0.155748 0.064498 -0.038878 0.091918 0.303125 0.084189 0.063277 -0.131055 0.050035 -0.136858 -0.067653 -0.037888 -0.11159 0.061605 0.179418 -0.184887 -0.105644 -0.138216 0.298842 -0.010604 0.085758 -0.123196 0.119796 -0.007469 -0.054952 -0.01187 0.075307 0.1607 0.093615 -0.097882 -0.008954 0.262545 -0.116194 0.155304 -0.029744 0.087294 -0.048907 0.052763 -0.222943 -0.054497 0.226613 0.012291 0.015462 0.061094 -0.017894 0.08114 -0.177378 0.050584 0.372176 -0.112974 0.035272 -0.013284 -0.05592 -0.05141 0.001506 0.239438 0.109949 -0.044582 -0.0443 -0.220305 -0.283464 -0.017023 0.046588 0.059732 -0.360568 0.10181 -0.061131 0.162415 -0.200048 0.104283 0.015826 0.011626 0.40757 0.02702 -0.07924 -0.083065 0.009641 0.205132 0.173833 -0.145874 -0.256943 0.234002 -0.005178 0.197508 0.058323 0.097311 -0.320362 -0.215359 0.10439 -0.297083 0.198207 -0.065496 -0.027923 0.103929 0.00194 0.208378 0.003279 0.086995 0.031619 0.051263 -0.06739 0.211185 0.10655 -0.056051 -0.098264 -0.063531 -0.004478 0.162585 0.283643 -0.142145 -0.035228 -0.014735 0.015053 -0.188273 -0.02541 0.072148 0.096979 -0.227447 0.043647 -0.146189 -0.051978 0.24297 0.202738 -0.272083 0.091837 0.022846 0.223552 -0.204846 -0.092553 -0.146767 0.113643 0.187762 -0.017736 -0.116952 0.075341 -0.093563 0.063811 -0.25319 0.166636 0.062069 -0.208844 0.044067 -0.103269 -0.0348 -0.045139 0.225857 -0.043163 0.103384 -0.163885 -0.104447 0.178096 0.072992 0.129847 0.395046 0.204493 -0.110839 0.199418 0.087078 0.062064 -0.369155 0.197135 0.097943 -0.225934 0.022659 0.084259 0.127632 -0.075069 -0.375959 0.054144 0.012803 -0.176149 0.06687 0.065109 -0.190251 0.051317 -0.146005 -0.242823 0.061478 -0.122671 -0.395083 0.019722 0.118307 -0.146707 -0.057079 0.071494 0.055211 -0.047385 0.215566 0.050514 0.055086 -0.218507 0.116077 -0.067305 0.102455 0.228402 -0.172231 -0.096428 -0.182161 -0.062157 0.275125 0.24191 -0.092696 -0.202908 -0.002932 0.166915 -0.26566 0.016449 -0.094276 0.036784 -0.063962 0.058409 -0.039288 -0.229759 0.273292 0.179765 -0.024632 -0.027855 0.132146 0.267364 -0.030488 0.095444 -0.132485 0.058675 -0.007239 0.222454 0.28053 -0.090147 -0.279884 0.26221 8.34E-4 0.122774 -0.102001 0.049642 0.110816 0.287703 -0.126059 0.380323 -0.103395 -0.04065 -0.139294 -0.157423 0.081538 -0.354333 0.178512 -0.055207 0.028738 0.151886 -0.037077 0.041628 -0.151202 0.007337 -0.19797 0.246623 0.248848 0.143688 0.149778 -0.119011 -0.076622 -0.031956 -0.043016 -0.235895 0.069687 -0.045663 -0.052133 0.02435 0.025337 0.003367 -0.254007 -0.041189 0.090943 0.042381 -0.029713 0.396607 -0.19434 0.192526 -0.03584 0.017013 -0.440672 0.107025 -0.087619 -0.060535 -0.100408 0.297449 -0.228539 0.198127 -0.222011 0.033432 -0.291574 -0.417788 0.077568 0.014285 0.332851 0.053848 -0.232036 -0.11397 -0.026269 0.139094 -0.058301 -0.010854 -0.034484 -0.058209 -0.160063 0.123566 0.108637 0.077614 -0.090254 0.157921 -0.264166 0.459229 -0.005213 0.056792 -0.024254 0.126095 -0.037801 0.067567 0.061434 0.233615 -0.104148 0.212441 0.15184 -0.206282 0.108578 0.183598 0.150034 -0.266901 0.146574 -0.08613 0.053882 0.218797 0.074982 0.064133 -0.139445 0.140142 0.122021 0.178829 -0.107632 -0.028182 -0.00736 0.172171 0.197847 0.023061 -0.277864 -0.131409 0.170294 0.103821 -0.306842 -0.005668 -0.202038 -0.177285 -0.072076 0.041036 0.169583 0.123114 0.141857 0.340801 0.157482 -0.05311 -0.053207 5.01E-4 0.058921 0.013016 -0.249455 0.062164 0.071289 -0.029084 0.038089 -0.12137 0.22029 -0.043057 0.072351 0.011264 0.097164 0.076603 -0.301113 0.079703 0.18912 -0.02586 -0.244086 0.070573 -0.348937 -0.179984 0.051263 -0.125303 0.084124 -0.010026 -0.192794 -0.106082 0.063223 0.139738 0.315121 0.172713 -0.045571 -0.154012 0.253435 0.008377 0.219468 -0.085964 -0.006799 -0.012676 0.157683 0.046329 0.058395 0.091629 0.075701 0.171752 -0.227027 0.076517 0.073988 -0.032565 -0.007 -0.053595 -0.043232 0.018678 -0.05344 0.099504 0.11711 0.025451 -0.096505 0.07636 0.053115 -0.019179 -0.210424 0.0398 0.122426 -0.036215 0.177586 0.089962 0.209122 0.145646 -0.093339 -0.185021 0.003684 -0.074443 -0.057778 -0.134302 -0.578691
planning -0.117982 0.017263 0.016317 -0.280832 -0.05985 0.034548 -0.013791 0.046038 0.027165 -0.126864 -0.027053 -0.004324 -0.095815 -0.121965 -0.033795 0.315763 -0.052785 -0.089141 0.112652 -0.072996 -0.036178 0.017575 -0.170322 -0.161365 0.064742 0.037827 -0.231392 -0.106286 -0.127082 0.27834 0.082252 -9.56E-4 0.0756 -0.045551 0.018188 0.141767 -0.158049 0.1123 0.326787 -0.129532 0.112046 0.129465 -0.129445 0.156844 -0.07053 0.064715 0.110335 -0.022549 -0.037938 -0.253576 0.114954 -0.005898 -0.040736 -0.078162 -0.064023 -0.237906 0.170112 -0.050268 -0.239724 0.150841 -0.118889 -0.163091 -0.153697 -0.128365 -0.018254 -0.073702 -0.094128 -0.032449 0.130282 0.163406 -0.131538 0.094669 0.0104 -0.003145 0.101382 0.047735 -0.373086 0.252262 0.165538 -0.069967 0.055044 0.047386 0.050825 -0.07275 -0.089412 0.018952 -0.023352 0.362986 0.137488 -0.008743 0.105106 0.31827 -0.151955 -0.096632 -0.03033 0.092386 -0.041921 0.065227 0.078373 0.106506 0.086481 0.126247 0.205301 -0.080321 0.086563 -0.06754 -0.332274 -0.01706 0.131757 0.331125 -0.03353 0.178369 -0.004629 -0.081292 -0.134375 -0.08142 0.151527 -0.079261 0.008818 0.188189 0.189152 -0.087694 0.041585 0.008148 0.12237 -0.243394 -0.032498 -0.074202 -0.149266 -0.076973 0.120422 0.230474 -0.110618 -0.041235 -0.005089 -0.008873 0.185161 -0.115584 -0.185852 -0.130323 -0.04757 0.1057 -0.202587 -0.047138 0.00521 0.068197 0.037667 0.047457 0.047236 0.16323 -0.090156 0.180072 -0.004686 0.017948 0.065357 -0.002966 0.026404 -0.106046 0.203595 0.02977 -0.138572 0.115923 0.058394 -0.173497 0.181974 0.178987 0.102142 -0.007204 -0.137849 -0.060687 0.094875 -0.202701 -0.00702 0.160476 -0.288098 -0.194407 -0.056416 0.049817 0.103539 -0.115101 0.068318 0.147927 -0.030921 -0.069695 -0.212972 -0.09815 -0.034397 -0.023775 0.034632 -0.182961 0.010936 -0.109953 0.021434 -0.107213 -0.159307 -0.013143 0.012062 0.0704 -0.108652 -0.054247 -0.002136 -0.007154 0.205061 0.067712 0.017751 0.060361 -0.101105 -0.128155 0.072514 0.201363 -0.05794 0.041952 -0.01581 0.00698 0.257237 0.127475 0.088389 0.123234 0.151855 0.13266 0.119637 0.029843 0.010426 -0.132872 0.015174 -0.109394 0.055683 -0.10192 0.081303 0.09889 -0.099205 0.009157 0.105088 0.125956 0.09267 -0.003066 -0.059744 0.094977 -0.056641 -0.028096 -0.014086 0.328374 -0.090172 -0.149378 -0.124195 0.160374 -0.080052 0.249112 -0.091241 0.091374 -0.115237 0.096738 -0.069502 0.084446 0.007108 -0.073976 -0.162674 0.003895 0.05559 -0.029822 0.190857 -0.237925 -0.17166 0.028845 -0.077685 -0.132044 -0.117385 -0.11952 -0.034547 -0.261651 -0.168827 0.138573 -0.067011 -0.181316 -0.151887 0.045681 -0.050617 0.034536 0.164401 -0.164302 -0.199278 -0.118074 -0.062161 -0.14739 0.083408 0.222822 0.143732 0.199508 0.099245 0.200634 -0.125839 -0.003404 0.012737 0.111103 0.311724 -0.037306 -0.195382 -0.041208 0.003737 -0.024303 0.278615 0.03603 -0.133819 -0.249867 0.13096 -0.133395 -0.131997 -0.120576 0.059488 0.429266 0.120723 -0.02739 -0.192339 -0.058324 0.052689 0.056473 0.003654 -0.103135 -0.19727 0.109195 0.080212 -0.066663 -0.132788 -0.097434 0.070425 -0.112577 0.016261 -0.100055 -0.151606 0.066296 -0.036547 0.08703 -0.117931 0.01507 0.18807 0.044399 -0.132339 -0.072321 0.145616 0.098995 -0.222592 -0.118516 0.099766 0.061502 -0.060448 -0.175093 -0.059504 -0.060345 0.068886 -0.140303 0.252549 0.049589 -0.115292 -0.033139 0.10321 -0.077009 0.031212 0.0925 0.061693 0.014446 0.136037 0.048253 0.102421 -0.129596 -0.067565 0.156295 0.01411 0.162675 -0.182685 0.016249 -0.001558 0.107653 -0.131022 -0.129476 0.194176 -7.8E-5 -0.057615 0.035883 0.062983 0.1447 0.040056 -0.093369 0.145193 0.077433 -0.089731 0.094993 -0.067218 0.074831 -0.065054 -0.084779 -0.09357 -0.093787 0.130935 -0.053584 0.251489 0.094357 0.00307 -0.002122 0.183328 -0.193831 -0.056713 -0.124479 -0.141867 -0.06735 0.144979 -0.004425 0.198113 0.009575 0.04584 -0.099042 0.119315 -0.075608 -0.058008 -0.128233 0.264753 0.014923 0.057683 0.035087 0.213868 -0.070959 -0.165814 0.011432 0.04344 0.207989 -0.228862 0.107968 -0.00836 -0.100067 0.004702 0.019252 -0.113819 -0.134977 -0.145269 0.162451 -0.064787 -0.129937 -0.063189 0.02375 -0.009974 0.080353 0.0787 0.205004 0.122571 -0.026101 -0.054091 -0.209978 -0.177177 -0.20823 -0.185642 0.075271 0.03848 -0.103449 -0.09938 -0.060735 0.102116 -0.163237 -0.117783 0.114253 -0.174667 -0.029399 0.051639 -0.164346 0.04635 0.091456 -0.099159 -0.00482 0.128974 -0.266611 0.127382 0.020173 -0.2175 0.029197 -0.095657 -0.181266 -0.093706 0.082326 -0.169253 0.094001 -0.017625 0.108164 -0.112857 0.106751 0.04044 -0.114817 0.117551 0.102887 -0.176509 0.124287 -0.069007 0.032858 0.106167 -0.216521 0.215919 -0.221396 0.114974 0.189062 0.063278 0.029868 -0.227993 0.03836
canyon 0.025695 0.20666 -0.113658 -0.165532 0.095316 -0.040397 0.055603 0.368909 0.179926 0.0653 -0.023887 0.110764 0.062614 0.011654 -0.025023 0.197289 0.311179 0.099586 -0.021295 -0.087002 0.229277 -0.059507 -0.053572 0.265076 0.175581 -0.220676 0.327838 0.05911 -0.202111 -0.153751 0.082863 0.018419 0.253003 -0.094105 -0.181261 -0.072608 0.007066 0.088802 0.134871 -0.055003 0.091609 0.221747 0.0387 0.074833 0.029024 0.115123 0.526153 0.028734 0.191997 0.075392 -0.085695 -0.045025 -0.138374 0.206785 -0.036111 -0.160822 -0.070653 -2.4E-4 0.17324 -0.260546 -0.00778 -0.277599 -0.091641 0.182014 -0.121854 -0.135213 0.053793 0.35272 0.335779 0.199993 0.024353 -0.050738 -0.16523 0.020967 0.035761 -0.00717 0.124599 -0.215831 0.415427 0.473247 0.071714 0.17914 0.059834 -0.019293 -0.105081 0.272723 -0.00969 -0.195132 -0.047635 -0.206455 0.180613 -0.174819 0.148051 -0.097156 0.172598 0.173617 0.083817 0.129806 5.48E-4 0.017017 -0.139177 -0.242709 -0.148729 -0.065332 -0.025296 0.111713 0.123956 0.185566 -0.032053 -0.232146 -0.377122 -0.043334 -0.306444 0.030516 -0.09678 -0.204581 0.160822 0.256893 -0.28982 -0.027775 0.11736 0.083149 -0.027872 -0.202708 -0.159891 -0.106027 -0.105822 0.0554 -0.152333 0.229429 0.065272 0.241984 -0.244134 0.104646 -0.072825 -0.141349 0.192319 -0.086365 -0.27125 -0.055626 -0.18101 0.214748 0.054496 0.025201 -0.2164 0.020815 0.096491 -0.049787 -0.113942 0.199712 -0.241871 -0.134925 -0.259169 -0.04943 0.15475 -0.370691 -0.476187 0.019954 -0.194124 0.011683 -0.437025 -0.163657 0.217158 0.155168 0.176047 -0.083955 -0.076675 -0.041743 -0.159667 -0.268374 0.187152 0.047505 0.040049 0.072187 0.222663 0.298411 -0.280683 0.273598 0.125695 -0.049659 0.078632 0.182107 0.061599 0.435514 0.105539 0.134337 -0.18937 0.012347 0.160083 0.060948 0.067939 0.165451 -0.035122 -0.187064 -0.019765 -0.005366 0.096345 -0.377908 0.305858 -0.185686 0.142539 -0.188477 0.324877 -0.142656 0.23838 0.429668 0.007494 -0.036969 -0.003376 -0.107288 0.095868 0.017582 -0.219598 -0.052127 -0.09495 0.008161 -0.191843 0.247626 0.316972 -0.283929 0.10921 0.143102 0.03342 -0.066048 -0.067649 0.261543 -0.418873 0.205107 -0.194298 0.006404 -0.189995 -0.246807 0.047725 -0.059759 0.014916 0.195432 0.151881 0.087892 0.206008 0.340221 -0.003348 0.459755 -0.265476 0.116786 0.062141 -7.92E-4 -0.041659 -0.055407 -0.03123 -0.033222 -0.06081 0.279213 0.139069 -0.239812 0.036221 -0.049299 0.100501 0.10658 -0.159757 -0.0727 0.189271 -0.050873 0.014128 0.176271 0.162815 0.064616 -0.367219 0.185668 -0.162825 -0.340161 -0.058999 0.027737 -0.089378 0.022437 0.25847 0.014627 -0.332225 0.41954 0.195676 -0.332804 -0.072261 -0.153611 0.402557 -0.050622 0.220503 0.096536 0.233027 -0.23301 0.106652 0.022455 -0.075153 -0.141473 -0.178162 -0.081089 0.354685 -0.21425 0.23008 -0.103024 -0.322641 0.317124 0.037046 -0.055384 -0.027414 0.163753 0.021993 -0.136858 -0.065728 -0.048594 -0.018136 0.232825 0.145955 -0.397609 -0.284822 -0.211639 -0.01955 0.084019 0.101185 -0.064787 -0.331728 0.082305 -0.188114 0.387621 -0.007809 0.222336 -0.088173 0.011875 0.032094 -0.05104 0.06348 -0.1162 0.019956 -0.088153 0.043187 0.138312 0.067248 0.157841 0.121801 -0.325188 0.123962 -0.161624 0.461963 -0.272546 -0.086912 -0.41634 -0.076302 0.044963 0.183404 0.108416 -0.232857 0.36685 0.071321 -0.407643 -0.014071 0.325786 0.032145 0.200388 -0.250586 0.040735 0.035893 -0.19322 0.235897 0.010079 0.107835 0.306759 0.266651 -0.129499 -0.124045 -0.080855 -0.043396 0.239529 -0.233733 -0.132872 0.201682 0.007546 0.403715 -0.232521 -0.08794 -0.034511 0.346259 -0.200818 -0.261818 0.161086 0.079534 -0.069342 -0.061074 0.239201 0.160603 0.376083 -0.170611 -0.243029 -0.039637 -0.137453 -0.107556 -0.150645 -0.20289 0.01039 0.136993 -0.265607 0.010524 0.125058 0.29897 0.344508 -0.152702 -0.065463 -0.005078 0.252281 9.58E-4 -0.006532 0.038727 0.007645 -0.141391 -0.453564 -0.123051 0.043005 -0.076582 -0.023396 -0.01826 -0.071387 0.434089 0.418602 -0.038109 0.034193 0.197313 -0.347202 0.186147 0.174859 0.045465 -0.356504 0.28333 0.247109 -0.078633 0.172019 0.300534 -0.075327 -0.297847 0.073023 0.272764 -0.032324 0.110874 -0.460141 -0.196815 0.063349 -0.117176 -0.18304 0.086228 0.06326 -0.332746 -0.089353 -0.170194 -0.445235 -0.154331 0.168695 -0.124798 -0.095623 -0.070742 0.049472 0.109345 0.116948 -0.1393 0.035507 0.07639 0.126856 0.202179 -0.0232 0.020268 0.271317 -0.012832 0.061015 0.032632 0.148465 -0.087629 -0.009977 -0.137122 -0.117583 0.307327 -0.184572 -0.078464 -0.293724 0.148578 -0.146567 -0.118468 -0.231092 0.226356 0.073432 -0.136622 0.021752 -0.07523 0.05582 0.282961 -0.213347 0.015589 -0.092852 -0.003219 -0.159698 -0.073442 0.085286 0.128269 0.199043 0.345509 -0.091266
delay -0.008455 0.072642 0.093184 -0.197515 -0.134875 -0.145288 0.095833 0.092105 -0.105846 -0.044755 0.066814 0.055735 0.289546 0.188695 -0.233479 0.269697 0.041885 0.04002 0.161422 0.079182 -0.188233 0.063512 -0.391904 -0.18295 0.352033 -0.094088 0.045933 0.163032 -0.110458 0.218986 0.120947 0.231066 -0.159964 0.011887 0.135342 0.167952 -0.097287 -0.024373 0.299048 -0.225527 0.052731 0.273428 -0.060491 0.212371 -0.035588 0.212863 0.086851 -0.05985 -0.012379 -0.104695 0.280079 0.146134 0.032488 0.067575 0.254732 0.012214 0.008241 0.010152 -0.098549 -0.015552 -0.175143 -0.024462 0.092524 0.142418 -0.271159 0.22319 -0.005716 0.059421 0.055127 0.036356 -0.097286 0.211762 0.159317 -0.023167 0.189771 -0.099899 -0.15152 0.2286 -0.093717 -0.002411 0.245533 -0.043938 0.233503 -0.178224 -0.102653 0.190266 -0.085213 0.142392 0.153481 -0.088349 0.149032 0.25357 -0.399704 -0.002789 0.105823 0.130336 -0.165391 0.366869 0.074782 0.173733 0.076557 0.018753 -0.002297 0.006487 0.068799 0.048905 -0.262033 -0.113468 -0.040128 -0.10499 -0.215293 -0.170538 -0.266846 0.115798 -0.102667 -0.035975 0.104383 -0.065524 0.041227 0.207252 0.156847 -0.100698 0.100637 0.138274 0.062173 -0.067994 -0.065833 -0.189314 -0.171573 -0.113573 0.110333 0.067713 0.054533 0.033673 -0.151826 -0.087295 0.111456 -0.271947 -0.026542 -0.259556 0.105996 -0.256827 0.020122 0.227037 -0.247909 0.117268 -0.040558 -0.008781 -0.090948 0.282297 -0.379243 -0.06548 0.155652 0.053692 -0.131435 -0.104123 -0.14328 0.012253 0.282074 -0.056208 -0.334753 -0.123348 -0.042772 0.226347 -0.01454 0.145284 0.316281 0.143182 0.007502 0.100706 -0.141063 0.2412 -0.115927 -0.02286 -0.257454 -0.060083 0.160753 0.060594 -0.041335 0.009543 -0.035743 -0.077616 0.102895 -0.049216 -0.241765 0.200783 -0.001995 -0.058664 0.011506 -0.038529 -0.151878 -0.055334 0.043229 -0.133989 -0.10276 0.064851 0.120854 0.016846 0.158261 -0.0265 -0.188146 -0.002572 0.159318 -0.04621 -0.033595 -0.102478 -0.061943 -0.010161 0.061915 -0.034166 -0.102796 0.032975 0.148053 0.111221 0.071101 0.011558 -0.110568 -0.25458 0.046652 0.001734 0.232577 0.061373 0.047537 0.049207 0.067321 0.152889 0.271396 0.051995 0.176257 0.162197 0.075766 0.009602 0.072751 0.24757 -0.033245 0.12565 0.054562 0.008447 0.159352 0.027493 0.096066 0.214651 -0.014226 -0.05637 -0.02416 0.150436 0.080798 0.393706 -0.124628 0.070475 -0.058028 0.307757 -0.001402 0.06456 0.06739 -0.246894 -0.075377 -0.14353 0.026162 -0.221333 0.087736 -0.35286 -0.019741 0.021288 0.011002 -0.096959 0.13101 -0.206596 -0.074242 -0.346183 -0.227988 -0.028757 -0.028573 -0.145243 -0.118146 0.098124 -0.09046 0.164714 -0.120734 -0.044003 0.100863 -0.240075 9.48E-4 -0.170227 -0.069456 -0.074601 0.205239 -0.031804 -0.038822 -0.193599 -0.201489 0.10279 -0.016318 0.03951 0.198575 -0.228584 -0.175647 -0.290714 -0.044208 -0.035657 0.136366 -0.120425 -0.045582 0.018373 0.142151 0.015196 -0.026973 -0.215599 0.131225 -0.067036 -0.115847 -0.148214 -0.390084 -0.059702 0.033457 0.004667 0.074735 -0.093694 0.068822 0.117626 -0.161489 -0.206629 0.058132 -0.380517 -0.04228 -0.129407 -0.197254 -0.013345 -0.068153 0.159069 -0.260198 -0.255375 -0.110209 -0.262101 0.117183 0.101596 0.019859 -0.205442 0.014468 0.02157 -0.203303 -0.077936 -0.282791 0.049032 0.072216 0.060227 0.30067 -0.059982 -0.020675 -0.032655 0.180391 -0.129573 0.066244 0.042068 -0.008073 -0.344249 0.03093 0.017357 -0.048703 0.163624 0.160431 0.295767 -0.028054 0.003639 -0.068341 0.316557 0.273718 0.262432 0.020715 0.314121 -0.026028 -0.195876 0.198329 -0.080819 0.083727 -0.110167 0.166695 0.022778 0.119051 0.113415 -0.003493 0.241513 0.012504 -0.097667 0.12155 -0.007539 -0.060254 0.123964 -0.083098 -0.056811 -0.0941 -0.059453 -0.040081 0.020485 0.044331 0.193786 0.165704 -0.130109 0.142462 -0.266042 0.204565 -0.169332 -0.237236 -0.12711 0.034929 -0.064864 0.179844 0.053758 -0.049291 0.054739 0.315639 -0.125783 -0.079991 -0.121962 0.004784 0.200416 0.038663 0.101125 0.022923 0.041757 -0.184118 0.065356 0.033773 0.065155 -0.207553 -0.059446 0.025619 -0.124462 -0.25989 0.031756 -0.052341 -0.15837 0.099251 -0.023754 0.105785 0.123289 -0.175172 0.157956 0.033073 0.001871 -0.121042 0.061174 0.388175 -0.227803 0.003756 -0.335429 0.310937 0.029805 0.095178 -0.033458 -0.001848 0.08078 0.076314 0.168708 -0.179813 -0.168433 0.002613 0.157777 -0.102752 -0.008225 -0.117684 0.052667 -0.045072 0.090294 -0.118348 -0.027926 0.183599 -0.073428 0.186157 -0.059994 0.065568 0.07901 0.044485 -0.01876 -0.032477 0.162474 0.020485 -0.137413 -0.077953 0.156806 -0.213457 0.173771 0.11544 0.186854 0.129351 0.011601 0.291142 0.21264 0.092045 0.112821 -0.05174 0.121296 0.082548 0.049108 0.070896 -0.142114 -0.062532 -0.026805 0.020909 0.162563
size -0.319562 0.125171 0.02229 -0.048194 -0.004663 0.088682 -0.034357 0.356541 0.024791 0.034384 0.157064 -0.011829 -0.241188 -0.073088 0.222592 0.075663 0.095447 0.136007 0.044762 0.101351 -0.10773 0.205247 -0.08079 -0.014682 0.130562 0.00273 -0.009214 0.019875 0.123707 -0.176033 -0.135746 -0.025782 0.074106 0.004614 -0.179514 -0.026224 -0.178028 0.01481 0.239998 0.094566 -0.054161 -0.059185 -0.155815 0.070324 -0.086766 0.084866 0.119897 0.076257 0.100875 -0.170415 -0.030058 -0.308722 0.017707 -0.057977 0.07194 -0.393922 0.105054 -0.083028 -0.27668 -0.148981 -0.048256 -0.251799 0.056385 0.059618 0.017511 0.143145 -0.017571 0.127674 0.140246 0.153911 0.049677 -0.012645 0.168037 0.053123 0.042314 -0.015082 -0.120285 0.138374 0.041455 -0.174139 9.59E-4 0.067001 -0.088548 -0.209886 -0.114668 -0.045777 -0.07542 0.005751 -0.065555 -0.140056 0.194941 0.275133 0.076451 -0.297708 0.026366 0.052223 -0.163286 0.154409 0.092929 0.067914 0.044591 0.060132 -0.016319 -0.085566 -0.007814 -0.076597 -0.011483 0.13026 0.100338 0.07523 -0.372805 0.162005 -0.120672 0.198967 -0.028044 -0.108476 0.048195 -0.056213 -0.060361 0.171834 0.146536 0.13217 0.027476 -0.279179 0.044169 -0.030032 -0.053085 -0.118789 -0.177865 -0.139574 0.02466 0.352739 -0.006716 0.245165 0.042804 0.020663 0.287924 0.143393 -0.237359 -0.084964 0.024044 0.160613 0.1761 -0.203251 -0.033816 0.197089 0.120943 0.14074 0.090854 0.279514 -0.196714 -0.078853 -0.269562 0.115489 0.136598 0.251475 -0.167145 0.145654 -0.155705 0.135018 -0.153145 -0.004653 0.128648 -7.45E-4 -0.031554 0.280427 0.125512 0.027707 -0.202372 -0.225345 -0.144643 -0.077847 -0.041389 -0.083985 -0.263624 0.033203 0.003568 0.025303 -0.040355 0.062314 0.10758 0.20426 -0.061986 0.171381 -0.087596 0.139108 0.010066 0.017364 0.042476 0.064689 0.122962 0.070015 0.022342 -0.114144 -0.024004 0.130523 -0.001205 -0.092214 -0.027886 -0.226494 0.10195 -0.054601 -0.034472 -0.029203 -0.078452 -0.046213 0.049107 -0.053558 0.064365 0.086453 0.137557 0.174525 -0.046781 -0.052114 0.026018 -0.12315 0.044358 0.164407 0.204563 -0.113339 0.012952 0.245694 0.239839 -0.100334 -0.181745 -0.088061 0.056422 -0.230921 0.172495 0.1294 -0.287119 -0.12135 0.055323 0.046051 0.178362 0.029227 -0.066809 -0.302568 0.073661 0.097545 -0.028514 0.222656 -0.030383 -0.323421 -0.139551 0.042945 0.167439 0.124915 -0.027673 0.041841 0.012022 -0.122856 0.054673 -0.078132 -0.012229 0.008054 0.141705 0.009474 -0.040496 -0.063043 -0.052247 -0.092622 -0.012726 0.054037 0.081011 -0.218363 -0.144077 -0.162585 -0.141673 -0.184687 0.035758 0.045137 -0.007637 -0.093467 0.301155 0.074159 -0.275089 -0.132666 0.202158 -0.073489 0.03881 0.208773 0.242973 0.048974 0.031126 0.055159 0.06746 -0.008916 9.49E-4 0.0265 -0.129923 -0.030677 0.034152 0.189607 0.161592 -0.119554 -0.055652 -0.122359 0.073482 -0.063042 -0.038972 -0.137037 0.059208 -0.099738 -0.048942 0.17632 -0.121412 -0.105367 0.036757 0.009153 0.195396 -0.020033 -0.124453 0.076348 0.183567 -0.231245 0.077724 0.004698 0.147553 0.275369 0.268495 0.015834 -0.155784 0.039325 -0.013799 -0.201839 -0.009228 -0.027454 -0.068981 -0.02267 0.034863 -0.163765 -0.083138 0.143145 0.165603 0.086431 0.216821 -0.035971 -0.104076 -0.006854 0.224294 -0.335251 0.005845 -0.144171 -0.03195 0.067269 0.012416 -0.211328 0.121312 -0.081337 -0.051543 -0.274967 3.9E-5 -0.135878 -0.075221 0.073365 -0.053183 -0.018022 -0.041403 -0.113596 0.066493 0.055228 0.111471 -0.180844 0.192806 -0.035044 -0.11645 0.165289 -0.05838 -0.012431 0.15321 -0.137368 0.086936 -0.275475 -0.006393 -0.090112 -0.034179 0.037884 0.098105 0.107507 0.043297 0.149633 0.13366 -0.040203 0.011572 0.021977 0.055261 0.029417 0.02625 -0.121484 0.095856 -0.114724 0.290466 -0.081778 -0.088055 0.104956 0.039151 0.129535 0.378532 -0.01804 -0.044913 -0.109275 0.035559 -0.131374 -0.021498 0.012984 0.076614 0.098859 -0.07997 -0.12162 -0.138786 -0.167394 0.070676 0.036736 0.101928 0.041384 -0.099081 0.093989 -0.004061 -0.085032 0.027828 0.045952 -0.159918 0.023512 0.057037 0.067419 -0.155661 0.060002 -0.099269 -0.15909 0.055902 -0.064952 -0.089729 0.041158 -0.182002 -0.016421 0.068264 0.08051 0.176449 0.13384 -0.309632 0.046472 0.016648 -0.231944 0.005335 -0.030756 -0.046237 -0.132863 0.033867 -0.208211 0.002881 0.247912 -0.096175 0.044002 -0.001104 -0.031396 -0.183893 0.238231 -0.132664 0.310259 -0.158367 0.148227 0.037879 -0.046551 0.097489 0.144986 -0.082721 0.184296 -0.018335 0.152516 0.037203 0.079973 0.342481 -0.023706 -0.127151 0.155774 0.037633 -0.073672 -0.028611 -0.16613 -0.278406 0.005234 -0.01917 0.020083 -0.175046 -0.071902 -0.068847 0.01941 0.174691 0.116294 0.108493 0.055274 -0.006225 -0.225979 0.222573 0.260124 -0.072553 0.125269 -0.186385 0.008167
peace 0.230316 0.006926 0.008008 -0.202069 -0.007863 0.139015 -0.147751 0.015319 -0.28046 0.012121 -0.130969 -0.011957 -0.044433 0.194411 -0.294758 -0.172336 -0.185918 0.14273 0.018956 0.006696 -0.168555 0.171097 -0.500789 0.043553 -0.155857 0.159458 -0.033567 0.020464 -0.379324 0.222441 0.004551 0.052047 -0.003955 -7.53E-4 -0.089602 -0.016328 0.167606 -0.06355 0.107964 -0.19776 0.065642 0.080569 -0.235096 0.132054 0.119683 0.36754 0.266079 0.052922 0.068921 -0.002763 0.06265 -0.011702 -0.093772 -0.040837 -0.328065 -0.093978 0.065351 0.031323 -0.14142 0.359776 -0.035916 -0.116763 0.007564 0.169437 -0.329383 -0.421092 0.183617 0.064945 0.495168 0.134904 -0.063856 0.001405 -0.040074 0.101776 0.108215 -0.088998 0.14489 0.250753 0.145493 0.11083 0.248374 -0.058294 -0.012165 -0.315496 -0.220017 0.124088 -0.398846 -0.055659 0.084952 0.051752 -0.085522 0.036257 0.160237 -0.030387 -0.238209 0.206576 0.039888 -0.147332 0.010324 0.227995 -0.188757 0.068892 -0.059458 -0.187154 -0.107621 0.130713 -0.081892 -0.027102 0.027956 0.256283 -0.195039 -0.001193 -0.046623 -0.179781 0.17223 -0.116778 -0.007007 -0.023231 -0.066226 0.240358 0.114703 -0.046121 -0.033221 0.17985 -0.019876 -0.105068 0.246383 0.207953 -0.260063 -0.155741 0.14073 0.341527 -0.194279 -0.25012 0.152699 -0.184966 0.21563 0.10653 0.203852 0.269866 0.060842 0.101038 -0.230572 -0.041694 -0.548307 0.123445 0.058887 0.213174 -0.252949 0.160684 0.257631 0.079941 0.124276 -3.05E-4 -0.174547 -0.265071 -0.043146 -0.211428 -0.276109 -0.109785 -0.167352 -0.001635 0.015329 0.140603 0.168183 0.056925 0.143811 0.063988 -0.086583 0.113427 0.136947 0.189954 0.095687 -0.141423 -0.150602 0.128005 0.126303 0.110494 0.205194 0.362076 -0.074091 0.090664 -0.073864 -0.141069 -0.099666 0.048275 0.038599 -0.324898 0.158458 0.169538 0.059153 -0.081382 0.162586 -0.141468 0.207441 0.213061 0.033828 -0.08733 -0.055257 -0.139639 -0.051354 -0.194957 -0.29556 0.065534 -0.071136 0.310797 -0.06603 -0.111045 -0.106637 -0.125773 0.039264 -0.181359 0.183641 -0.139241 0.063516 -0.029128 -0.126776 0.146206 -0.024192 0.202967 -0.045678 -0.018266 0.132045 -0.10682 -0.011511 0.505507 0.095668 -0.088308 0.257667 0.106489 0.044919 -0.140177 -0.419696 0.326776 -0.037378 0.042271 0.105758 -0.106851 0.119757 0.249627 0.018103 0.194106 -0.318564 0.223308 0.256516 0.112383 0.220293 0.437706 0.106167 0.052844 0.031125 0.074021 0.374149 0.12212 0.041784 0.199047 -0.198606 -0.027887 0.067423 -0.307191 0.295644 -0.29177 0.06623 -0.057531 0.053497 -0.185186 -0.070027 -0.039425 -0.03851 -0.297977 -0.12273 0.180852 0.079435 -0.140812 -0.03939 0.086802 0.007137 0.255735 -0.266533 -0.320077 0.009942 -0.242388 0.037636 -0.101538 -0.180137 -0.02639 0.006876 -0.150383 -0.194352 0.030381 -0.160564 -0.26621 -0.019854 0.117212 0.136336 -0.005772 0.147861 -0.214698 0.054406 0.221918 -0.075868 0.187606 0.443584 0.315558 0.161255 -0.044292 0.004115 -0.052098 0.037719 -0.024612 0.117853 0.233505 0.166127 -0.05392 -0.149324 0.057273 0.104643 0.125948 -0.185751 0.387751 0.037563 0.005497 0.023853 -0.137214 0.033339 -0.172236 -0.130632 -0.150231 0.06358 0.184367 0.107988 -0.149542 -0.33905 -0.321613 -0.096534 -0.08429 0.090396 -0.377208 0.049087 -0.118323 -0.015991 -0.137402 -0.036527 0.137524 -0.059073 -0.078565 0.189765 -0.128278 -0.26324 0.002334 0.215927 -0.414849 -0.214728 -0.042907 0.05282 -0.044877 -0.021994 -0.328989 0.040101 -0.121066 0.224956 0.226481 -0.242268 -0.051513 -0.14279 -0.025615 0.132912 0.277902 0.172912 -0.074962 0.073507 -0.089127 0.033702 0.087943 -0.044099 -0.305848 0.291236 -0.104825 0.045022 -0.149233 0.067398 0.055644 0.486961 -0.059011 -0.07915 0.179147 0.183703 0.192416 0.264897 -0.084102 -0.017129 0.105535 -0.050829 0.064685 0.047477 -0.110028 0.031341 0.259697 -0.190197 -0.305827 -0.056908 -0.006659 0.236374 -0.075987 0.179498 -0.09503 0.143882 -0.281547 -0.057971 -0.45338 0.048076 -0.374391 -0.293148 -0.145451 -0.112348 -0.041509 0.202048 0.063931 0.091723 -0.237584 0.054903 0.1187 -0.016938 -0.048586 -0.1869 -0.01383 -0.279003 0.292431 0.145185 0.293374 -0.102432 0.139686 0.353416 0.331419 -0.279859 -0.109549 0.138168 0.4594 0.145674 0.03671 0.049993 0.054104 0.056198 -0.319135 0.029535 -0.247038 -0.462611 0.362181 -0.05267 -0.074074 -0.255045 0.179598 0.041957 0.063476 0.1802 -0.158108 -0.037645 0.160284 -0.262332 0.209982 0.017744 0.00325 0.018758 -0.260848 -0.118398 -0.11871 0.149591 -0.402971 0.148095 -0.102616 -0.036851 0.078177 0.10085 -0.241201 -0.0499 -0.02741 -0.214894 -0.071553 0.115437 0.040672 0.291147 0.154751 0.114282 0.1589 0.138795 -0.048893 -0.340836 0.028157 0.027565 0.198852 -0.064205 -0.020681 0.145281 0.165979 -0.021727 0.023437 0.195057 0.192939 -0.049573 -0.04808
science -0.112793 0.237569 0.093323 -0.308819 0.120104 -0.083652 0.044195 0.082581 -0.02296 0.276526 0.249614 -0.057636 0.07624 -0.05805 -0.316921 -0.017016 -0.11753 0.029263 -0.050955 -0.147467 -0.127802 -0.312414 -0.014134 0.010914 0.187852 0.036504 0.118599 0.313438 0.056419 0.284495 0.074792 -0.007915 0.323549 0.015072 0.066839 0.105214 0.122737 0.125603 0.26319 0.116479 -0.108 -0.178581 -0.244909 0.264363 -0.01978 0.110955 -0.032879 0.004636 -0.205665 -0.25596 0.064404 0.059046 0.011055 -0.104779 -0.076503 0.081217 0.004324 -0.025456 0.00127 0.123711 0.055919 -0.176613 0.065827 0.025539 0.028044 0.330523 0.070012 0.278407 0.049634 -0.090299 -0.06953 -0.160066 -0.146106 0.090977 0.151734 0.230079 -0.102698 0.251267 0.119814 -0.164816 0.125231 -0.154404 -0.061128 -0.117317 0.052975 -0.193472 -0.538797 -0.124697 -0.168899 -0.316852 -0.172395 -0.05289 0.193109 -0.150513 0.066582 0.328782 -0.113478 0.290861 -0.010064 -0.107224 -0.084299 0.049743 -0.185271 0.025192 0.258564 -0.094026 -0.161497 -0.355215 0.053026 0.094371 -0.153939 0.07963 -0.055388 0.07322 -0.040768 0.017834 0.250826 0.103397 -0.083522 0.032322 -0.001527 0.041085 -0.044237 -0.223338 0.083007 -0.068947 0.066861 -0.177781 -0.151922 -0.003708 0.067338 0.168351 -0.331461 0.037395 0.170317 0.072383 0.15517 0.181542 -0.124987 -0.028648 0.155468 0.177983 0.101119 0.191343 -0.144676 -0.021133 -0.032728 0.084244 0.371355 -0.02913 -0.16326 0.377425 -0.031821 -0.10348 0.157697 -0.330186 0.070365 -0.274205 -1.0E-4 0.03743 -0.043882 0.221968 -0.057406 0.132791 -0.008046 0.089077 -0.057893 0.094576 -0.178623 0.002651 0.015861 -0.109586 0.230337 0.164544 -0.033907 0.091406 0.051956 0.013818 0.090283 0.23887 -0.070779 -0.050053 -0.044675 -0.021773 0.008931 -0.087459 0.213198 -0.133078 -0.008858 0.040374 0.11571 -0.153417 -0.109088 -0.084323 -0.361963 0.107278 0.054347 0.102788 5.59E-4 -0.042682 -0.037258 0.024705 0.004568 -0.097699 0.02731 0.138266 0.222103 -0.215305 -0.089982 -0.123894 0.052557 -0.100099 -0.085407 0.046124 0.183519 0.033483 -0.249944 -0.032258 0.048893 -0.138793 -0.033295 0.088099 -0.062127 -0.46205 -0.003609 -0.247194 0.094313 -0.154439 0.051477 0.087925 0.014412 0.342734 -0.16879 0.18714 0.078705 -0.149324 0.102269 -0.019185 0.322554 0.047391 0.091387 0.243504 0.035225 0.049427 -0.098261 0.066416 0.165559 0.102323 -0.180866 0.084437 -0.139001 0.046423 0.040996 -0.058857 -0.20456 -0.070835 0.117772 0.036541 0.14767 0.107494 0.061764 -0.085537 -0.135972 0.193783 0.241926 -0.203214 -0.068019 0.054385 0.165159 -0.233746 -0.007147 0.024517 -0.121156 -0.214478 -0.067159 -0.121485 -0.056844 -0.01473 0.077713 -0.044069 -0.483257 0.069129 0.221594 -0.149939 0.056502 -0.226528 0.253474 0.193104 -0.1358 -0.079792 0.084488 0.040591 -0.012942 0.172889 0.075776 0.123107 -0.001852 0.075885 -0.104355 -0.146487 -0.067663 0.301543 -0.150945 0.061178 -0.103015 -0.068163 -0.012688 0.089823 -0.165649 0.023378 -0.139069 0.127227 -0.092973 0.117774 0.043772 -0.233072 -0.243906 0.035431 -0.055553 0.079181 -0.026435 -0.304253 -0.055747 0.076457 -0.151601 0.026688 -0.017527 0.047793 -0.062007 0.094301 -0.429342 -0.172803 -0.109629 -0.306745 -0.107884 -0.073659 -0.182578 -0.383849 0.18894 -0.139822 0.040555 0.134018 0.084247 -0.206835 -0.213337 -0.201854 0.397499 0.13942 0.130438 0.036795 0.337403 -0.166969 0.040557 0.013937 -0.104721 0.051749 0.010457 0.065103 0.02217 0.168191 0.084019 -0.218833 -0.034212 -0.083262 -0.156338 0.074324 0.105853 0.213517 0.296805 0.059701 0.001605 -0.177424 -0.118264 -0.328188 0.033649 0.114485 -0.13892 -0.087145 0.137553 0.200652 0.144032 -0.105896 0.33928 0.213835 -0.220387 0.009586 -0.102568 0.060955 -0.260589 -0.16476 -0.035827 -0.058054 -0.005833 -0.076488 0.137061 -0.053036 0.006116 -0.017555 0.156743 -0.166311 -6.83E-4 -0.033213 -0.204619 -0.133897 0.148492 0.074873 0.101053 -0.12137 -0.025638 0.074251 0.039633 -0.203483 0.006197 -0.276161 -0.067936 -0.013538 0.093079 -0.148283 0.138268 0.132991 0.026478 0.112653 0.094079 -0.028285 0.130322 0.126382 -0.083198 0.104922 0.037535 -0.039735 0.04121 0.175904 -0.226764 0.03563 0.072021 0.196376 0.040494 0.120549 0.197811 0.338706 -0.198363 0.117844 -0.039575 -0.042705 0.028465 0.110413 -0.108378 -0.072928 0.080495 0.046228 -0.331008 -0.063761 -0.166144 0.238037 0.004435 -0.335936 0.201435 0.027907 0.089593 -0.043399 0.006 0.106842 0.266966 0.132492 -0.015799 -0.060957 -0.024348 0.050811 -0.197878 0.014426 0.184131 -0.318779 0.090796 -0.043118 -0.140962 0.174428 0.135545 -0.19596 0.18452 0.03048 0.229647 -0.075296 0.035494 0.121053 0.110105 -0.210193 -0.158735 -0.203053 -0.092736 0.202039 -0.11173 0.146654 -0.059723 0.035614 0.117494 0.296143 -0.055432 0.114553 0.045658 -0.003199
dawn 0.172722 -0.034599 -0.132668 0.029854 0.061835 -0.08197 0.290028 -0.104293 0.429724 -0.185137 0.081281 0.23443 -0.137281 0.162347 -0.386301 0.136516 -0.154656 0.143405 -0.120862 0.017387 0.127694 0.024482 -0.026409 -0.075602 -0.057308 -0.14852 0.016436 0.219876 -0.072624 0.063364 0.169608 -0.116865 0.195498 0.124594 0.150861 0.128734 0.065954 0.036564 0.464032 -0.121884 0.134244 0.307557 -0.071974 0.236882 0.00225 0.21042 0.298513 0.151669 0.13724 0.030363 -0.033304 -0.192407 0.009139 0.108761 -0.157473 -0.169468 -0.092709 -0.315982 0.119181 -0.080807 -0.200498 -0.419564 0.061013 -0.100683 -0.400504 -0.242998 0.091174 0.092232 -0.019672 0.02116 -0.073643 0.048618 0.119486 -0.041074 -0.094373 -0.15986 -0.266704 -0.059932 -0.10785 -0.014046 -0.145779 -0.070143 0.101342 0.011112 -0.195247 -0.060056 -0.137071 0.085062 0.283082 0.044179 0.06366 0.130138 -0.112319 -0.12733 -0.061505 -0.245142 -0.038916 0.059484 -0.019047 0.141543 -0.259359 -0.039387 0.021586 0.007598 0.011722 0.106223 -0.243857 0.218291 0.049815 -0.249563 -6.53E-4 0.032844 0.064845 -0.041371 0.03058 -0.194875 0.029019 0.199388 -0.470163 0.166167 0.168575 0.070567 0.03036 0.089164 0.133159 -0.163711 0.054502 -0.137519 -0.074937 -0.008724 0.0821 0.151292 0.084287 0.140979 0.107829 0.114139 -0.120854 0.127613 -0.515203 -0.248587 0.145992 0.155382 -0.013304 -0.386355 0.155916 0.158927 0.095094 0.057585 0.269252 0.287065 -0.059564 0.015785 0.024995 -0.102145 -0.02574 -0.21472 -0.248337 0.036667 -0.303414 -0.363858 0.007883 -0.205332 0.063394 -0.021662 -0.052493 -0.033319 -0.088364 -0.250935 0.106294 0.249749 -0.289625 0.050654 -0.04822 0.059545 -0.019932 0.206785 -0.286677 0.013379 0.233327 0.187046 -9.33E-4 -0.010921 -0.20238 0.171039 0.063322 -0.234824 0.095716 0.05762 -0.012147 0.085585 -0.009952 0.012026 0.166668 -0.002312 0.349455 0.054319 -0.162304 -0.21344 0.017243 -0.124726 -0.044631 -0.003856 0.056936 0.111965 0.102752 0.031718 0.035963 0.142819 -0.030303 0.028134 0.0467 0.014774 -0.06609 0.138263 -0.157765 -0.140181 0.156693 0.146082 -0.040094 -0.059573 0.135155 0.136815 0.076418 -0.003626 -0.120087 0.302546 0.246106 -0.082312 0.210422 -0.124801 -0.075013 -0.369943 -0.244517 0.307837 0.089227 0.335178 0.10151 -0.178969 -0.075833 0.154246 0.201761 0.193105 -0.146347 0.066295 -0.151776 -0.069481 -0.026624 -0.016638 -0.239589 -0.017107 -0.252497 -0.031168 0.158339 -0.08649 -0.069635 0.009171 0.118728 -0.132615 -0.001642 -0.14384 0.001398 -0.168739 -0.021853 0.032874 0.199366 0.131974 -0.121386 -0.037334 -0.119397 -0.28065 0.051922 0.18246 -0.07641 -0.082769 0.134722 0.010432 0.069788 -0.007549 0.191369 -0.176466 0.278589 -0.271758 0.162464 -0.17699 0.160536 -0.094858 0.095937 0.069113 -0.171202 0.092439 -0.12602 0.142056 0.148935 0.100049 0.298111 0.031756 -0.025874 0.11168 0.046748 -0.003041 0.053034 -0.2447 -0.197543 0.091038 0.14 -0.067676 -0.023582 -0.085668 -0.057104 -0.171447 -0.027478 0.124491 -0.454801 -0.091957 -0.183638 -0.300915 0.048954 0.028905 -0.09685 0.364398 -0.196567 0.033374 0.089182 -0.302149 -0.204946 -0.243145 0.134056 -0.325755 -0.104073 0.01281 -0.208994 0.055932 -0.02681 -0.23906 -0.207649 0.244839 0.060367 -0.049237 0.259334 -0.208278 -0.061282 -0.022431 -0.176306 0.071617 0.296642 0.03641 0.009753 0.064533 0.025024 -0.097499 0.217297 -0.359791 0.110757 0.160112 -0.003332 0.109815 0.196834 0.060188 -0.208832 -0.022555 0.270057 0.092351 -0.18666 0.172572 0.001674 -0.113062 -0.15589 -0.159107 -0.013269 0.108111 -0.074875 -0.004616 0.118323 0.089043 -0.081665 -0.125411 -0.020252 -0.212872 0.393838 -0.032102 -0.070588 -0.043673 -0.030596 -0.191123 -0.1315 0.155338 0.090033 0.235677 -0.051715 -0.163121 0.011332 -0.219525 0.018869 -0.132241 -0.287067 0.073605 0.028375 0.247549 0.005208 -0.149492 -0.211615 -0.047961 0.042948 -0.00359 -0.063765 -0.055668 0.003079 -0.068983 0.071414 -0.012036 -0.197584 -0.195326 -0.245549 -0.032208 0.058592 -0.075035 -0.023846 -0.102665 0.206093 0.025852 -0.135897 0.181971 -0.187306 0.103359 0.066288 -0.123477 0.192865 -0.172091 0.104577 0.10092 -0.035032 0.117807 0.138998 -0.265194 -0.259655 -0.011237 0.250531 0.209063 -0.068922 -0.030863 0.017816 -0.030904 0.166047 -0.182982 -0.114559 -0.063705 -0.296887 -0.135088 0.117965 -0.042519 -0.245276 -0.069709 -0.159969 0.203629 0.193004 0.090623 0.080721 0.257161 -0.197265 0.15048 0.1883 -0.039489 -0.122785 -0.072517 -0.037719 -0.165656 0.241426 -0.189858 0.063411 -0.014161 -0.216358 -0.016371 -0.036671 0.139131 0.009566 -0.107036 0.206154 -0.014301 -0.20767 -0.08463 0.021299 -0.273887 0.056928 0.101774 0.257817 -0.334988 -0.057575 -0.018148 0.015946 0.261542 0.07269 0.138064 0.045664 -0.310921 -0.14594 0.24773 0.194237 0.065881 -0.010242 -0.291834
