432 100
plane 0.486252 -0.075217 0.091143 -0.489707 -0.164742 0.239386 0.158497 -0.836499 0.223808 0.414583 0.021326 -0.436904 -0.090174 0.207465 0.09248 -0.23848 0.292029 -0.336027 0.070617 0.16732 -0.669324 -0.117366 0.218968 0.015575 0.753725 -0.024206 0.011709 0.042669 -0.181268 -0.31666 0.380512 0.065962 -0.266466 0.150246 -0.438544 0.00451 0.373832 -0.010389 0.104275 -0.443876 -0.133082 0.116436 0.073518 0.173949 0.088935 -0.001168 0.314258 -0.368547 -0.299441 0.430108 0.470373 0.747304 0.11062 0.076298 0.097568 -0.601926 -6.6E-5 -0.277762 -0.265093 0.122564 0.445955 -0.045419 -0.513958 -0.104829 0.380769 0.101319 0.134724 -0.327786 0.100851 0.455944 0.555944 -0.414277 0.005853 0.636923 0.048904 0.105931 -0.290229 0.410956 -0.119883 -0.003077 -0.036881 0.95928 0.390133 -0.488455 0.073199 0.028768 0.180794 0.251908 0.205612 -0.214933 -0.3601 -0.474334 0.181719 0.335621 0.040663 0.008099 -0.621412 -0.090771 -0.373119 0.246877
stupid 0.324018 -0.088693 0.170455 -0.7392 -0.049998 -0.001276 -0.225536 -0.26729 0.506197 0.378441 0.126078 0.054623 -0.346517 0.069331 0.204464 0.657892 0.109032 -0.224345 0.084339 -0.053248 -0.596209 0.276562 0.611854 0.129925 -0.321788 0.229237 0.018399 0.278951 0.466208 -0.133947 -0.233972 -0.257622 -0.709677 -0.250631 -0.411627 0.006788 -0.188574 0.40875 -0.445949 -0.303469 -0.150562 0.484867 -0.445529 -0.11202 0.298294 0.934363 -0.229004 0.206375 -0.075844 -0.012808 -0.231015 -0.077451 -0.021368 -0.252003 0.144839 -0.184481 -0.157265 -0.408505 0.084111 -0.600641 0.051392 -0.363845 0.116271 0.5301 0.447824 -0.405651 -0.405326 -0.083155 0.643755 0.551331 -0.484451 0.157115 -0.385725 0.183367 0.113961 0.531 -0.496753 -0.114768 -0.005859 -0.118033 -0.237895 0.814492 -0.071737 0.384507 0.152788 0.163329 -0.251983 0.775559 0.619753 -0.125988 0.608513 0.267683 -0.147166 -0.098225 0.509921 0.141914 0.281017 0.251835 0.071087 -0.037707
egg -0.533534 -0.001356 0.218535 -0.653886 0.361506 -0.964206 0.07476 0.462224 0.622506 0.325542 -0.008399 -0.012845 0.03406 0.38053 -0.31909 0.171979 -0.356775 -0.456035 0.120989 -0.262425 -0.134735 -0.358175 -0.227149 -0.230222 0.171406 0.048039 -0.695847 -0.175768 -0.168731 0.162247 0.471654 -0.336396 0.268741 -0.003819 -0.046577 -0.337678 0.731345 0.074503 1.076821 -1.042988 -0.153947 0.125786 -0.345658 -1.063687 0.382415 0.545134 -0.169569 0.183357 -0.494007 0.116187 -0.081173 0.034058 0.471202 -0.494558 -0.500061 0.049761 -0.492054 -0.138737 -0.489531 -0.124458 0.284272 -0.385566 0.525032 0.131513 0.062288 0.416904 0.163271 0.33059 0.146988 0.781177 -0.691489 -0.669224 -0.403745 -0.608508 -0.011417 0.527735 -0.551764 -0.315292 0.144288 0.092602 -0.609815 0.700856 0.309223 0.373838 -0.279786 -0.018381 0.391506 0.542347 0.190009 -0.745089 -0.085688 -0.092605 -0.062563 -0.502109 -0.260717 -0.332543 -0.223996 0.165867 -0.343795 0.53125
year 0.075518 -0.329552 -0.065037 -0.214109 0.093933 0.06885 -0.326806 -0.384493 0.001135 0.195717 0.40175 0.060488 -0.112704 0.086404 0.128298 0.330197 0.047504 0.176446 0.196371 -0.237162 0.038213 0.023869 -0.014385 -0.248761 -0.195551 -0.199482 0.249413 -0.143141 0.194739 0.321787 0.113304 0.131164 -0.120593 0.333014 0.043993 -0.330634 -0.261832 -0.054118 0.037959 -0.232027 -0.236635 0.079671 0.1697 -0.245544 -0.03638 -0.024305 -0.044461 -0.142263 -0.410884 -0.418362 0.09993 -0.032474 0.123819 0.381339 0.015497 -0.091344 0.173561 -0.152114 -0.18467 8.18E-4 0.150577 -0.009865 -0.141046 0.129476 0.143031 0.197289 0.190639 0.368053 -0.089878 0.284429 -0.206287 0.018167 0.274464 -0.224685 -0.154739 0.143698 -0.065915 0.343825 -0.390364 -0.023389 -0.128206 0.126184 -0.185928 -0.353365 0.223221 0.240317 0.46814 -0.18367 0.038393 -0.089802 -0.190392 0.056459 0.149643 0.046115 0.11382 0.019527 -0.075989 0.132644 -0.437661 0.323213
psychiatry 0.126178 -0.26904 -0.208783 -0.975607 0.248794 -0.371705 0.323148 0.102193 0.47625 0.700791 2.38E-4 -0.357271 -0.209919 0.265266 0.532134 0.664823 -0.433362 -0.163589 0.107542 0.09478 -0.944603 -0.528419 0.077939 0.532429 0.343183 0.598235 0.20656 -0.428233 0.421826 -0.08782 -0.253461 -0.084415 0.352055 -0.165041 0.008457 -0.027624 0.30379 0.233193 0.203593 -0.17308 0.42678 -0.058301 -0.108582 0.24392 0.187011 0.46415 0.574902 0.074293 -0.180326 -0.01351 -0.184071 -0.003859 0.594498 -0.015663 0.35396 -0.244793 0.253714 0.103278 -0.276356 -0.191427 -0.060033 0.315441 0.69057 -0.185454 -0.111053 0.241961 0.476477 -1.045889 0.463698 0.580818 -0.754751 0.437777 -0.273357 -0.370019 -0.23021 -0.16455 -0.171052 -0.544916 -0.187874 0.419758 -0.210168 0.489648 -0.540688 -0.627253 -0.023681 -0.157547 0.27446 -0.070439 0.80774 0.027236 -0.542007 0.296177 -0.878068 -0.214133 0.233339 -1.031787 0.272039 0.911147 -0.206744 -0.975902
asylum 0.044822 0.018666 -0.497665 -0.520795 0.305318 0.924469 0.032551 -0.947832 0.429481 0.620732 0.452606 -0.190924 0.372143 -0.135125 -0.424063 0.195519 0.271081 -0.208516 0.542632 -0.205512 0.043377 0.726255 -0.256701 0.023245 0.921965 0.346335 -0.233386 0.234586 -0.532979 -0.162294 -0.267539 -0.699009 -0.877 0.214294 -0.460349 -0.084459 -0.080692 0.31674 0.507304 -0.412243 -0.328213 -0.174582 0.326392 0.160184 0.119546 0.116185 -0.243529 -0.019156 -1.233298 -0.204536 -0.402967 -0.237229 -0.180428 -0.004009 0.268087 -0.262614 0.052101 -0.649567 -0.313013 -0.143969 0.541584 0.164801 -0.3594 -0.446897 0.072582 -0.02859 -0.269615 -0.65887 0.098827 0.1653 0.630832 0.221331 0.739265 -0.399866 -0.086105 -0.544464 -0.421422 0.490695 -0.339179 -0.387344 -0.089093 0.774846 -0.252537 -0.317254 -0.536701 0.552025 -0.395783 -0.127953 0.194787 0.125833 -0.415133 0.813095 -0.118377 0.025689 0.025837 -0.410939 -1.081183 1.012736 -0.07353 -0.330768
manslaughter -0.74048 0.219292 0.04119 -1.39935 -0.030475 0.25575 -0.016642 -0.745129 0.529058 0.575497 -0.072004 -0.961963 0.553963 -0.600369 0.00774 1.112145 0.860622 -0.030012 0.259753 -1.380298 -0.391938 -0.4512 0.223658 0.700618 0.561848 0.957822 0.330663 -0.32414 -0.005594 0.105498 0.195237 -0.032616 -0.736385 0.366741 -0.020158 0.235484 0.025962 0.263807 0.161675 0.409418 -0.068233 0.011538 0.440782 0.192833 0.284744 0.003258 0.067956 0.41379 -0.89958 0.543847 -0.034678 0.200727 1.080455 -0.104896 0.054488 -0.588325 -0.136069 -0.242361 -0.99808 -0.185819 -0.154571 0.762785 0.002916 0.021546 0.411836 0.201465 0.115257 -0.143484 -0.80813 0.647894 0.035196 0.449587 0.073222 0.563723 -0.233839 0.009311 0.784614 -0.185772 -0.098265 1.260729 -0.015151 0.276281 0.169007 -0.740497 0.459519 -0.501654 0.149114 -0.324243 0.607502 0.202613 0.561383 0.015228 -0.233669 0.502847 -0.528735 -0.290622 0.065226 0.457216 -0.132825 0.193097
music 0.058867 0.262097 0.100047 -0.12611 0.345972 0.333344 -0.176994 0.304273 0.360946 0.29427 -0.079038 -0.44201 -0.453508 -0.029359 0.369669 0.39676 0.26582 0.318894 0.557783 0.101219 -0.747321 -0.022034 -0.047278 -0.061554 0.119454 -0.330785 -0.320432 -0.453201 -0.151178 0.336983 0.136967 -0.164198 -0.011999 0.07309 0.209165 -0.14666 0.003688 -0.064763 -0.300599 -0.352057 -0.262681 0.191246 0.655174 -0.50105 -0.251481 0.062208 -0.085327 0.143322 0.15296 -0.308414 0.345182 -0.214195 0.322461 0.132122 0.369568 0.032869 0.038036 -0.095362 -0.092891 0.796487 0.153955 -0.13334 0.25258 0.078956 0.261935 0.052855 -0.05653 -0.211781 0.420855 0.604357 -0.253343 -0.051189 0.159303 0.172752 -0.138417 -0.58428 -0.609832 0.043347 -0.205473 -0.025163 -0.203367 -0.202516 0.006887 0.481888 -0.222978 -0.102336 0.227761 0.115286 0.542251 0.263097 -0.013578 -0.04347 -0.183907 -0.086298 0.426356 0.038195 -0.309155 0.287307 0.298557 0.397977
record -0.169763 -0.237895 0.109233 -0.255651 0.113892 0.17497 -0.263479 -0.161612 0.131793 0.226444 0.226123 -0.196214 -0.098658 0.130787 0.033683 0.412512 0.140352 0.481701 0.040312 -0.122582 -0.47923 -0.287247 0.006495 -0.124254 0.07489 -0.771816 -0.063276 -0.143146 0.106963 0.284826 0.042643 0.48041 -0.225678 0.361701 -0.117624 0.094432 -0.11973 -0.051377 -0.230731 -0.059716 -0.104922 0.482383 0.171544 -0.066691 -0.06814 -0.019485 -0.051778 -0.207661 -0.097655 -0.761117 0.082636 -0.505551 0.026095 0.274976 -0.214926 -0.132977 0.256979 -0.146832 -0.087879 0.046421 0.110254 -0.338906 -0.01355 0.155004 0.284281 0.165315 0.298096 0.262847 0.080768 0.169281 0.036694 0.137562 0.243128 -0.160448 -0.528372 0.167948 -0.061181 -0.126324 -0.145968 -0.098252 -0.115206 0.133316 0.001995 -0.413139 0.159507 0.198341 0.242174 0.122226 0.070855 -0.140832 -0.001611 0.285351 0.218986 -0.042341 0.403741 0.010958 -0.178792 0.021552 -0.262093 0.341339
energy -0.121333 0.599862 -0.240399 -0.068671 -6.94E-4 -0.238122 0.169378 -0.402027 0.191772 0.302539 0.548166 0.040631 -0.323657 0.364831 0.196615 -0.229235 0.426204 0.389088 0.584931 0.149083 -0.13228 -0.090173 -0.575549 0.606054 0.018695 -0.120845 -0.162206 0.062375 0.356258 0.231087 0.390607 -0.039769 -0.325918 0.16754 -7.85E-4 0.109169 0.369081 -0.031146 -0.268976 -0.038019 -0.417268 0.443847 -0.434641 -0.346054 0.050374 -0.239652 -0.217348 0.403416 -0.142776 -0.291883 0.208097 -0.153605 0.011414 0.206518 0.286439 0.014976 0.058702 -0.143643 -0.308278 -0.404878 -0.32892 -0.054966 0.047266 -0.103728 0.273153 -0.093409 0.545106 0.078054 0.199131 0.297657 0.013422 0.081478 -0.037266 -0.221527 -0.164117 0.152996 -0.248809 0.10559 -0.084368 0.083504 0.009569 0.324126 -0.337154 -0.034753 0.48077 -0.468789 0.664068 0.156123 0.523747 -0.438394 -0.242884 0.245235 -0.027111 0.037892 0.232397 -0.254718 -0.528485 0.418049 0.112848 0.31854
announcement -0.002069 0.106073 -0.048885 -0.280074 -0.066479 0.567688 -0.328653 -0.313228 -0.167338 0.808093 0.449776 0.20065 -0.37017 0.059708 0.307615 0.146424 0.090872 -0.080632 0.235666 -0.309956 -0.237957 -0.113549 0.181895 0.127127 -0.276524 0.299154 0.075541 -0.197946 0.185823 -0.208536 -0.05524 0.088315 -0.306525 0.35655 0.059136 -0.01161 0.227966 -0.388494 0.286873 -0.361488 0.030986 0.125343 0.136509 -0.071769 -0.121087 -0.392327 -0.21322 -0.2591 -0.421715 0.120365 -0.164161 0.372365 -0.363157 0.117743 -0.008949 0.03687 -0.009639 -0.234529 -0.188321 -0.151496 0.069181 -0.186569 -0.120519 -0.231955 0.191679 -0.052846 0.526706 0.320463 0.107994 0.468289 -0.352038 0.345997 0.233448 -0.045019 -0.012291 -0.119906 -0.538612 0.330728 0.187572 -0.162217 -0.203953 0.175365 0.22297 -0.064854 0.166954 0.375732 0.349644 -0.167489 0.005811 -0.182453 -0.319971 0.005614 -0.115543 -0.234551 0.501175 -0.322527 -0.052526 -0.332957 -0.58846 0.499933
mile 0.078781 -0.280624 -0.010654 -0.002667 0.127405 0.180333 0.085147 -0.70875 -0.400216 0.538395 0.198514 0.023849 0.162211 0.280721 0.3226 -0.187847 0.249688 0.249687 -0.085782 -0.163791 0.245006 0.355406 0.235729 0.085132 -0.464711 0.021251 0.04096 -0.836005 -0.391816 -0.070096 0.437634 0.396484 -0.211082 0.066742 0.255567 -0.254052 0.421884 -0.234493 -0.140959 0.054201 0.176866 0.66434 0.499522 -0.02625 -0.042047 0.309162 0.282538 -0.224825 -0.179406 0.16765 0.276659 -0.140587 0.021626 0.009462 -0.418389 -0.273311 0.179035 -0.184693 -0.442738 0.219906 0.708216 -0.232715 -0.253079 -0.401848 1.021451 0.474839 0.071947 -0.090606 0.223721 0.09301 0.159878 -0.060173 3.18E-4 0.258477 -0.059175 0.662886 -0.027144 -0.16465 -0.18927 -0.142927 -0.052347 0.475817 -1.039952 -0.213667 0.026017 0.117124 0.1547 -4.36E-4 0.42838 -0.614074 -0.399778 -0.350765 0.494605 0.248835 -0.132119 0.521012 -0.436039 0.279663 0.125015 -0.21321
airport 0.202372 -0.215885 0.125324 -0.42807 -0.001021 0.010116 0.36339 -0.525518 -0.26073 0.651771 0.459487 -0.094026 -0.019204 0.062742 -0.138568 0.14628 0.552833 -0.168229 0.159538 -0.054173 -0.255622 -0.14793 0.420824 0.383027 0.577272 -0.443089 -0.048225 -0.039646 0.03435 -0.00994 0.335795 -0.333707 -0.617736 -0.058056 -0.326124 -0.432396 0.340395 0.227677 -0.05628 0.070602 -0.395492 0.299532 0.406315 0.062712 -0.129439 -0.211214 0.346922 -0.112194 -0.256422 0.29673 0.253253 0.854686 0.128061 -0.071647 -0.083531 -0.562019 -0.346905 -0.199606 -0.372418 0.270497 0.284832 0.333051 -0.433709 -0.675478 0.147767 0.458711 -0.033258 -0.287947 0.256115 0.037184 0.533946 -0.217739 0.256214 0.648705 0.532794 0.263851 -0.259252 0.327943 -0.280829 0.080376 0.41473 0.513293 0.335016 -0.19325 0.156658 0.105864 0.125367 0.220269 0.393984 0.021422 -0.609572 -0.079736 0.209988 0.353312 -0.146383 -0.216934 -0.760029 0.156578 -0.448686 -0.123256
population -0.097858 -0.249389 0.331904 -0.75543 0.242635 -0.107603 -0.043819 -0.613746 -0.032522 0.017636 0.201387 0.237629 -0.170384 -0.043075 0.105078 0.21529 0.089519 -0.017312 0.351781 -0.063919 0.249668 -0.196642 -0.604663 0.088513 0.245268 0.430506 -0.333626 -0.238161 0.137839 0.326919 0.173376 -0.097856 -0.457889 -0.300969 0.103354 -0.670367 0.202552 0.324336 0.129936 -0.611901 -0.073517 -0.061535 0.187762 0.054062 -0.29364 0.560191 0.081909 0.634341 -0.240059 -0.114804 0.506984 -0.827588 -0.098957 0.176305 0.193399 -0.282351 0.212891 0.022529 0.021902 -0.144258 0.49878 0.020192 0.183841 -0.108435 -6.47E-4 0.246343 0.234022 0.152702 -0.114345 0.36402 0.263789 0.364547 0.369147 -0.179299 0.263831 0.194236 -8.59E-4 0.146028 -0.457812 -0.328825 0.115541 0.296196 -0.462247 -0.31433 -0.341251 0.372462 0.605539 0.311024 0.212878 -0.172444 -0.568643 -0.041027 0.536229 0.227432 0.157458 -0.476469 -0.325522 0.606326 -0.093906 -0.073135
planning -0.283873 -0.208392 0.1315 -0.007247 -0.064847 0.257905 -0.101301 -0.018753 -7.16E-4 0.364789 0.234735 0.102902 -0.061323 -0.301587 0.207995 0.346613 0.436771 -0.022692 0.463864 -0.208771 -0.085455 -0.069242 -0.118378 0.14591 -0.091895 -0.053394 0.248104 0.179488 -0.151763 -0.212503 0.107371 -0.083656 -0.181488 0.423853 0.166152 -0.331924 0.25661 -0.031762 0.010509 -0.023009 -0.249702 0.170332 0.086615 -0.201183 0.007241 0.068155 -0.111886 0.268257 -0.269987 -0.109663 -0.136319 0.351434 0.026519 0.05815 0.373028 -0.192731 0.168178 -0.044979 -0.199068 -0.11276 -0.103049 0.25794 -0.232825 -0.40774 0.343309 -0.114547 0.268185 0.155257 0.269872 0.100451 0.015016 0.11353 0.12884 -0.284443 0.255641 0.087564 -0.330635 0.380592 -0.217036 0.022495 0.138592 0.382994 -0.022031 -0.239472 -0.16961 -0.07139 0.311873 0.07981 0.451072 0.1223 0.014326 0.147487 -0.166321 0.236841 0.094375 -0.367484 -0.006507 0.105708 -0.460806 0.317261
canyon 0.398005 -0.205382 0.126944 -0.149587 0.303166 -0.194538 -0.011194 -0.718208 0.216587 0.426621 0.144235 -0.118925 0.171108 0.23949 0.024778 -0.110347 0.429781 0.02792 -0.166784 0.080808 0.328006 -0.213431 -0.109009 0.212668 0.384934 -0.069382 0.151663 -0.302805 -0.532682 -0.150238 0.577231 0.224627 -0.154234 0.092667 0.372966 0.193022 0.671376 -0.287479 -0.15249 -0.30217 -0.293443 0.233458 0.291378 0.010218 -0.173868 1.010713 0.1548 -0.122642 0.194372 0.145936 0.15688 -0.449919 0.87118 0.594206 -0.557622 -0.606202 0.271918 -0.317112 -0.343738 0.275741 0.051809 0.028883 -0.465336 -0.308702 0.691523 -0.003276 0.440027 0.054032 0.163177 0.023945 0.191411 -0.090188 0.239111 0.308601 -0.672365 0.430042 0.023169 -0.668343 -0.001879 -0.093814 -0.193358 0.09993 0.118127 -0.113187 -0.608753 -0.275898 -0.610424 0.418021 0.424556 -0.613515 -0.33717 -0.187976 -0.12009 0.005992 -0.241044 0.298387 -0.316115 0.685698 0.103888 0.244727
delay -0.023671 0.097369 -0.088213 -0.13179 -0.489497 0.134592 -0.374234 -0.197574 0.017397 0.544442 0.21172 -0.227503 -0.01744 -0.175015 -0.239819 0.328997 0.496658 -0.045581 0.459007 -0.749893 0.006824 -0.102599 0.382323 -0.296057 -0.102788 -0.378936 0.259391 0.490775 0.150878 -0.198653 0.116181 0.095235 -0.358792 0.219319 -0.200381 -0.180091 0.249003 -0.679029 0.264 -0.477752 0.256312 0.213559 -0.157515 -0.062415 -0.049959 0.068049 -0.335263 0.018699 -0.625515 -0.220848 -0.015326 0.165307 0.224786 -0.131647 0.125655 0.162543 -0.09501 -0.065823 -0.013338 -0.08565 -0.094326 0.169708 -0.40622 -0.029648 0.006495 0.453467 0.669637 0.331281 0.289664 0.198619 0.341741 0.308786 0.220705 -0.200832 0.091739 -0.180739 -0.491625 0.355368 0.131369 -0.1259 -0.044815 0.478301 -0.022562 -0.191927 0.23804 -0.196256 0.161232 0.01933 0.13181 0.042243 -0.354544 0.099529 0.020964 0.094968 -0.240762 -0.537758 0.076833 0.280993 -0.405835 0.409163
size -0.005719 -0.239638 0.24678 -0.221546 0.039132 -0.397971 0.162168 -0.154057 0.379616 0.300863 0.236393 0.200948 -0.060933 0.0573 0.308712 0.356165 -0.061217 -0.059664 0.272503 0.071272 0.22688 0.022936 -0.246134 -0.023588 -0.006451 -0.158095 0.416964 -0.263662 0.338001 0.009629 0.373137 -0.13332 -0.38522 0.08263 0.016619 -0.297322 0.067262 -0.513025 0.424076 -0.181299 0.021582 0.383491 -0.012764 0.233313 -0.058504 0.228347 0.148098 0.500724 0.061746 0.330347 0.321714 -0.217222 0.470479 -0.03835 -0.393386 -0.309155 0.259673 0.108002 -0.188697 -0.076483 -0.015643 -0.201422 -0.003973 -0.067629 0.338961 -0.01607 0.280832 0.282545 0.297101 0.319862 -0.148617 -0.220136 -0.102032 -0.18853 0.303426 0.306198 0.139959 0.254306 -0.108183 -0.342444 -0.246533 -0.101355 -0.020369 -0.26544 0.191699 -0.047174 0.737205 0.181817 0.440596 -0.255976 -0.083941 -0.428711 0.350003 0.38211 0.347371 -0.263568 -0.372369 0.189834 -0.122003 0.109609
peace -0.013072 0.143978 0.231429 -0.415191 0.356453 -0.285511 0.455085 -0.637201 0.22409 0.505831 0.161713 0.775233 0.213261 -0.203934 0.277319 -0.399949 0.513313 0.272167 0.101225 -0.51997 -0.202514 0.396776 0.25173 -0.074106 0.170337 0.091949 -0.547788 -0.17629 -0.144344 -0.004487 -0.258047 0.166384 -0.331024 0.022191 0.322269 0.033194 -0.113337 -0.116622 -0.035244 -0.51494 -0.259795 -0.251924 -0.059113 0.313971 -0.338744 -0.064396 -0.346284 -0.134669 -0.217236 -0.174398 0.143386 0.473756 0.402806 0.315671 -0.068859 -0.003725 0.013829 -0.532606 0.036504 0.284899 -0.035907 -0.171382 0.304109 -0.23207 0.484751 -0.087533 0.811877 0.14858 -0.213248 0.528719 0.288415 0.899919 -0.142333 0.694355 -0.073025 -0.101237 -0.66941 -0.052481 -0.398049 0.069776 0.446413 0.073013 0.278071 -0.48 -0.51834 0.517332 0.255774 -0.28959 0.408103 -0.498498 -0.31444 0.721681 -0.641357 0.223283 -0.268622 -0.408546 -0.285317 0.74243 0.193444 0.575729
science -0.051343 0.126223 -0.41091 -0.163299 0.51366 -0.104905 0.239704 0.184894 0.52492 0.213162 0.348819 0.030569 -0.493491 0.42542 0.517678 0.206902 0.09333 -0.093439 0.205817 0.054324 -0.432642 -0.3293 -0.006054 0.013329 0.684629 0.225983 0.277572 0.338901 0.028183 0.019553 -0.030657 0.302248 0.042208 0.319706 -0.144756 -0.101296 0.236745 -0.367399 -0.089303 -3.56E-4 -0.206954 0.015514 -0.36117 -0.108274 -0.311006 0.28427 -0.167854 0.062581 0.081139 0.025411 0.374341 0.242828 0.44708 0.089108 0.456884 0.071802 0.369959 -0.16075 -0.216828 -0.544686 0.214157 -0.097704 0.16471 0.060388 -0.032868 -0.438874 0.421901 -0.537116 0.244507 0.271791 -0.412666 0.281158 -0.127464 -0.416711 -0.204179 -0.06395 -0.199054 0.119173 -0.184612 -0.363533 -0.017547 0.662502 -0.479041 -0.352699 -0.060263 0.07518 0.059454 -0.369459 0.747238 0.276454 -0.151655 0.083647 -0.176422 0.015126 0.271784 -0.50896 -0.294118 0.945107 0.006475 -0.267287
dawn 0.304631 -0.183979 0.076357 -0.560546 0.429182 0.270354 0.223066 -0.844369 0.281445 0.675183 0.375093 0.069081 -0.237543 0.064859 0.163494 -0.514676 0.285424 -0.279769 0.091486 -0.236617 -0.312058 0.596282 0.061512 -0.11927 -0.265197 0.100392 -0.874362 -0.044119 -0.242813 0.103068 0.295493 0.057351 0.193875 -0.199985 0.181141 0.048138 -0.263877 -0.297994 -0.127053 -0.686268 -0.299676 0.536654 -0.05007 -0.156119 -0.84892 0.512785 0.139611 0.117655 -0.427398 -0.23254 -0.345777 0.257968 0.473531 -0.141332 0.083472 0.019521 0.068996 -0.23275 -0.432687 0.050008 0.674199 0.213435 -0.355677 -0.278443 0.564753 0.532396 0.127861 0.302911 0.303524 0.169603 0.275361 -0.436794 0.080933 -0.113076 0.596442 2.06E-4 -0.094258 0.345053 -0.378866 -0.565609 -0.408163 0.327331 -0.210136 -0.196268 0.044145 -0.087616 -0.523759 -0.371654 -0.095153 -0.531476 -0.194245 -0.267612 -0.14744 0.163357 -0.263776 0.340201 -0.256963 0.107745 -0.122674 0.50121
brother 0.076814 0.511336 0.41732 -0.55749 0.248087 0.205662 0.17432 -0.416765 0.279856 0.372007 0.064532 -0.075838 0.622244 0.570784 0.226114 0.211456 0.29712 0.080277 0.524796 0.134774 -0.265053 0.138362 0.114443 0.14258 -0.270476 0.024531 0.195854 0.127562 -0.032142 -0.329547 0.446634 0.115376 0.318186 0.154833 -0.04324 0.334759 -0.032022 0.723712 -0.098411 0.028438 -0.053266 -0.097138 0.090662 -0.028018 0.500397 0.385163 0.321728 -0.303925 -0.580773 -0.021679 -0.020279 0.119589 0.086515 -0.0466 -0.07199 -0.048507 -0.00378 -0.543225 -0.186652 0.320419 0.599241 0.311144 0.02366 -0.066666 0.42969 0.444244 -0.07626 0.190672 0.006953 0.636986 -0.170612 0.201345 -0.163369 -0.027458 -0.143063 -0.436998 -0.084761 -0.04575 -0.503983 0.01041 0.445332 0.492914 0.197198 -0.190196 -0.427766 0.055861 0.181975 0.227274 0.294049 0.18102 -0.086045 -0.063059 -0.170263 0.191374 0.335936 0.014367 0.096024 0.046172 -0.331213 0.342739
wine -0.268755 0.018926 -0.620258 -0.203992 0.120022 -0.65947 -0.177843 0.369843 0.472043 0.224693 0.241176 -0.256581 -0.031608 -0.010978 0.307521 0.158742 -0.038286 0.590373 0.262639 -0.115193 -0.20964 -0.34759 0.062872 0.401541 -0.15726 -0.608755 -0.352096 -0.524606 0.124609 0.088065 0.224111 -0.16071 -0.579659 -0.235861 0.17006 -0.395782 -0.018823 0.310014 0.475672 -0.527427 -0.353732 0.148103 0.173108 -0.643391 0.236418 0.508954 0.578271 0.288325 -0.319617 0.057136 -0.196176 0.235967 0.440828 -0.586342 0.029997 -0.236462 -0.378778 0.233785 -0.233985 0.249865 0.19734 -0.318931 0.001887 -0.047793 0.161304 0.018719 0.288523 -0.266824 -0.127554 0.494599 0.132249 -0.68251 0.061489 -0.106019 0.247632 -0.135241 -0.475559 0.17453 -0.803528 0.378474 0.218087 -0.09541 -0.180097 -0.0539 -0.072232 0.053132 0.249817 0.409517 0.289559 -0.696219 0.150624 -0.083362 0.167989 -0.052465 0.496954 0.130964 -0.21655 0.403141 0.534486 0.324653
object -0.187919 -0.125371 0.01474 -0.472068 0.263056 0.479361 0.017946 0.051276 0.260413 0.475517 -0.177254 -0.137354 -0.253586 0.351892 0.059428 -0.313828 -0.193181 -0.31809 0.152632 0.064307 -0.10988 0.531573 0.147059 0.073318 0.548416 0.19162 0.198978 0.038037 0.032624 0.092025 0.618206 -0.011256 -0.072272 -0.219031 -0.02046 -0.076995 0.29132 -0.640108 0.207213 -0.375966 -0.586459 0.511175 -0.568863 0.160133 -0.082497 0.096002 0.114213 0.527467 -0.120948 0.246142 0.151207 -0.016514 0.358641 -0.231802 -0.411996 0.001045 0.379744 -0.401313 -0.262559 -0.17829 0.082982 -0.082083 -0.643047 0.251135 0.429792 0.140291 0.784279 0.093228 0.223415 0.353294 0.035055 0.193792 -0.378947 -0.291721 -0.15783 -0.202728 -0.089356 -0.422342 0.033693 -0.186193 -0.343896 0.171682 0.111773 -0.179013 -0.140968 -0.193349 0.332791 -0.257442 0.22655 -0.011757 0.371001 0.044544 -0.157362 -0.049518 0.178918 0.250547 -0.365148 0.587338 -0.041648 0.216777
attitude -0.197109 0.227066 -0.030219 -0.408999 -0.679946 0.004455 0.323742 -0.344227 0.294729 -0.183986 -0.327093 0.228472 -0.340154 0.097112 0.132349 0.139129 0.220529 -0.12966 0.557129 0.235067 -0.144988 0.7113 0.454156 -0.062557 0.362669 0.102862 0.351445 -0.171596 0.713534 0.095797 0.04886 -0.517605 -0.297453 -0.27906 0.129053 -0.030625 -0.090205 -0.318777 -0.275877 -0.262025 -0.186894 -0.029436 0.026658 0.249176 0.112854 0.385508 -0.439877 -0.061298 -0.381763 -0.17315 -0.200676 0.180748 0.214004 -0.187258 -0.171618 -0.285364 -0.08845 -0.025035 0.282308 -0.308583 0.499775 -0.024558 0.66369 -0.065512 0.4475 0.124568 0.369308 -0.074318 0.212285 0.184356 0.177559 0.33946 0.647437 -0.146626 -0.175335 -0.27213 -0.251958 -0.396704 0.057625 0.193445 -0.156386 0.244418 -0.098082 -0.284698 2.68E-4 0.503321 0.272571 -0.276934 0.947751 0.259502 -0.02567 -0.159779 0.11387 0.152862 0.574706 -0.100509 -0.615191 0.178815 -0.022548 -0.068999
treatment -0.161522 -0.087116 -0.27337 -0.896207 0.160206 0.055257 -0.161699 -0.251906 -0.017714 0.36883 0.130736 0.076159 0.064802 -0.03158 -0.293845 0.528807 0.225128 -0.262465 0.500875 0.051264 -0.201386 0.14162 -0.223118 0.127614 -0.141318 0.196306 0.105419 -0.080342 0.251194 -0.176337 -0.189904 0.179776 0.028275 -0.087965 -0.016368 -0.342963 0.620473 0.210349 0.295902 -0.406551 0.301662 0.097218 -0.12483 0.179809 -0.028572 -0.045549 0.055939 -0.480458 -0.532295 -0.410246 -0.098773 0.03865 0.225384 -0.369732 0.190671 -0.532357 0.15883 -0.223129 -0.123783 0.089906 -0.153841 0.326708 0.323648 0.002215 -0.046362 0.143786 0.450052 0.012618 -0.073768 0.207965 -0.111876 0.155998 0.310424 -0.308498 0.004869 -0.206239 -0.241578 0.062061 0.189322 0.469904 -0.042729 0.086973 -0.222067 0.092649 0.276838 -0.07818 -0.079094 -0.094103 0.518671 -0.294021 -0.38026 0.458421 0.220419 0.294554 -0.364171 -0.412067 -0.471538 0.523841 -0.290279 -0.057564
flight 0.158203 -0.021481 0.426259 -0.602156 -0.171686 -0.036069 -0.133881 -0.478201 0.17613 0.293029 0.320801 -0.239153 -0.141678 0.372147 0.058766 -0.040683 0.21055 -0.034923 0.079039 -0.366629 -0.748413 -0.291196 0.226312 0.033562 1.056749 -0.313658 0.442674 0.154274 -0.111334 -0.178531 0.490567 0.102073 -0.318002 0.066121 -0.158972 -0.378345 0.311372 -0.016343 0.220067 -0.289892 -0.118282 0.337628 0.251228 0.064946 0.24853 -0.13847 0.154998 -0.438633 -0.073282 0.153694 0.228703 0.767645 0.441909 -0.026874 0.063077 -0.330103 -0.204944 -0.109508 -0.231224 0.305906 0.232848 -0.074378 -0.340657 -0.19712 0.145991 0.131592 0.080423 -0.155019 0.392944 0.576172 0.714404 -0.214046 0.478858 0.529198 0.072605 -0.024381 -0.183334 0.302843 -0.178146 0.023007 0.130315 0.82233 0.176793 -0.356186 0.214087 0.208536 0.075441 0.1333 0.293901 0.051331 -0.38407 -0.564146 0.471216 0.228296 -0.260791 -0.311061 -0.437207 -0.070861 -0.400962 -0.064905
forest -0.163551 0.128763 0.151621 -0.24922 1.212732 0.181478 0.038658 -0.906857 0.198986 0.219661 0.195798 0.508815 -0.163046 -0.220491 -0.420314 0.142792 0.357276 -0.355606 0.434572 0.339222 0.104036 0.187022 -0.383211 0.433641 0.463387 -0.221655 -0.487569 -0.324323 -0.447267 -0.375017 0.530552 -0.320642 -0.325406 0.17483 0.499149 0.79711 0.313948 -0.178799 0.075213 -0.281343 -0.517758 0.658686 0.063478 0.00398 -0.173953 0.316983 0.177697 0.731613 0.233555 0.013723 0.118171 -0.221399 0.031226 0.557542 0.070151 -0.684201 -0.16448 -0.2091 -0.569348 0.270626 -0.039843 -0.022325 -0.258959 -0.261696 -0.073747 -0.226771 0.302947 -0.027521 0.333016 0.434535 0.249338 -0.102852 0.194325 0.048854 0.034898 0.533177 0.3012 -0.515977 -0.058605 0.117981 0.143789 0.559931 -0.314395 0.044539 -0.033755 -0.242697 -0.074317 -0.050085 0.295556 -0.498872 -0.411774 -0.13533 0.282313 -0.161778 -0.210963 -0.710904 -0.601329 0.761094 -0.010037 0.517513
abuse 0.198459 0.42803 -0.10642 -0.610882 0.419568 0.02555 -0.259683 -0.668609 -0.056082 0.38041 0.482376 -0.400761 0.26446 -0.565528 0.137053 0.614943 0.404155 -0.365576 0.325606 -0.050049 -0.348773 -0.159466 0.164643 0.149514 0.267137 0.424828 -0.060771 0.123571 0.535471 -0.127348 -0.42321 0.019491 -0.603614 -0.714441 -0.292073 -0.380728 0.173896 0.158543 0.084583 -0.319483 -0.245993 0.05187 0.138239 0.180995 0.252526 0.339503 0.253141 -0.1551 -0.096566 -0.43182 -0.157033 -0.284702 0.242407 -0.109216 -0.453343 -0.040424 0.099677 -0.345875 -0.159987 0.17528 0.050124 0.041308 0.303615 -0.102274 0.28299 0.316067 -0.065597 -0.352305 -0.163085 0.149756 -0.095716 0.259684 0.428634 -0.191406 0.101046 -0.451605 -0.086184 0.100769 -0.356298 0.269481 0.312744 -0.073704 -0.275039 -0.25422 -0.027162 -0.086548 0.357115 -0.765485 0.551374 0.138153 0.102812 0.253903 -0.402378 0.255189 0.057357 -0.07127 0.067758 0.772144 -0.422965 0.387934
criterion -0.269106 0.014452 -0.177177 -0.371067 -0.277253 -0.445039 0.004264 -0.083467 0.179294 0.331448 -0.430328 0.26777 -0.350331 0.430244 0.38113 0.285341 -0.159873 -0.144882 0.441304 -0.028893 -0.384196 -0.034123 0.277117 -0.179718 0.282875 -0.056428 0.223085 -0.239932 0.151808 -0.11247 -6.2E-5 -0.020109 -0.313002 0.431597 0.014308 -0.563855 0.140068 -0.099368 0.099523 0.22242 0.199145 -0.015785 -0.243184 0.369425 -0.082152 -0.05782 -0.184463 0.261496 -0.105954 0.0286 -0.084584 -0.109179 0.239196 0.032813 0.033129 -0.122066 0.14972 -0.045139 -0.057374 0.175945 0.185496 -0.265809 0.170224 -0.158059 0.155554 -0.038172 0.49037 -0.308533 0.554023 0.439931 -0.461422 0.350232 -0.187516 -0.43967 0.12312 0.298635 -0.426802 0.066919 0.228912 0.439771 -0.004344 0.170416 -0.455581 -0.086848 0.097448 -0.288982 0.158163 0.274689 0.310553 0.161451 0.050938 0.297267 -0.371491 0.088788 0.369653 -0.303674 0.025405 0.936401 -0.006406 -0.029514
sea 0.129728 -0.320159 -0.344656 -0.286116 0.169201 -0.157444 -0.452276 -0.345638 0.469629 0.378294 0.118768 0.067969 0.300325 -0.073532 0.169351 -0.698594 -0.178687 0.018773 0.023704 -0.093113 0.081194 -0.101373 -0.034541 0.3587 0.294485 0.023212 -0.342416 -0.346965 -0.07148 0.265638 0.572266 0.248683 -0.025384 -0.133571 -0.086075 0.073999 0.402842 -0.431419 -0.265412 -0.496713 0.056044 0.90975 -0.159855 0.234261 -0.173986 0.594122 0.395415 0.098024 0.310026 0.048977 0.454199 -0.172603 0.789403 0.417136 0.143822 -0.410229 -0.233278 -0.342681 -0.178256 -0.217033 0.09315 0.076123 -0.24103 0.010018 0.240041 -0.161603 0.185055 -0.059439 0.170062 0.10538 0.601411 -0.127571 0.311725 -0.007623 0.009912 0.055494 -0.376234 0.247049 -0.186366 -0.099022 0.207847 0.262505 -0.226476 0.223297 -0.343038 0.141066 0.092821 0.00748 0.379375 -0.507681 0.062415 -0.480322 0.299051 0.006422 0.259752 -0.423683 -0.83838 0.317328 0.13291 0.822009
dollar 0.588594 -0.329836 -0.14305 -0.827536 -0.106461 -0.223968 -0.513846 -0.779466 0.162333 0.425508 0.116097 0.208402 0.124587 -0.14516 -0.12798 0.378953 0.50185 0.978114 0.080637 0.402108 0.055798 -0.273052 0.08017 0.399049 0.582072 -0.390711 0.051332 0.090025 0.602263 0.773519 0.341436 -0.001076 -0.469714 0.036316 -0.431724 0.130409 0.083267 0.015279 0.002958 -0.350034 -0.267881 0.350433 -0.084338 -0.085588 -0.222801 -0.135634 -0.124479 0.200382 -0.466668 0.060908 0.234527 -0.15693 0.033174 0.188387 -0.34482 -0.102274 -0.277655 -0.355454 -0.257839 -0.0211 -0.157141 -0.488418 0.083468 0.187534 0.102718 -0.435839 0.20715 0.26216 0.382168 0.70749 -0.075255 -0.129304 0.089597 -0.018691 -0.651923 -0.034263 -0.813285 0.012186 -0.209116 -0.002298 0.145759 0.326393 -0.071866 -0.115078 0.783936 0.217882 0.31857 0.48684 0.142513 -0.487189 -0.643704 0.06882 -0.002947 0.040071 0.347103 -0.259627 0.19437 -0.656317 0.151263 0.269435
example -0.104274 -0.059454 -0.172213 -0.291609 0.161449 -0.121728 -0.234441 0.054314 0.207822 0.420194 0.062021 0.231394 -0.325957 0.127729 0.017647 0.347353 -0.016986 -0.175558 0.141713 -0.052301 -0.205607 0.159009 -0.100189 0.057463 0.071054 -0.079454 0.142873 0.038835 0.108287 -0.138574 0.017794 -0.056558 -0.12527 -0.065988 0.084692 -0.240155 0.174102 0.051463 -0.03848 -0.187176 -0.182787 0.187783 -0.006408 0.128407 -0.083374 0.094766 0.026842 -0.168529 -0.242534 0.115745 0.094604 -0.045483 0.138252 0.077596 -9.89E-4 -0.130035 0.112087 0.042363 -0.020742 -0.124983 0.009097 -0.267482 0.266208 -0.007313 0.131889 0.108043 0.271282 -0.020642 0.259984 0.233188 -0.190981 0.066862 -0.064909 -0.099413 -0.100336 -0.025475 -0.105407 0.210408 -0.270896 -0.012863 -0.020678 0.171124 -0.115989 -0.054402 0.061747 0.115761 0.460727 0.286482 0.44665 -0.119253 0.044612 0.113776 0.068882 0.018862 0.174558 0.117665 -0.192101 0.220298 -0.04162 0.02801
journal -0.088896 0.196565 -0.320565 -0.523902 0.008831 -0.241292 -0.458362 0.120547 0.120649 0.376536 0.130084 0.011205 0.15326 0.248936 -0.274432 0.378171 -0.285681 -0.388456 -0.189353 -0.61591 -0.768134 0.43233 -0.19197 0.517696 0.199411 0.879887 0.370694 -0.869466 -0.108941 0.189965 0.498672 0.28625 0.012948 0.454221 0.156135 -0.157626 -0.185996 -0.326447 -0.084092 -0.754901 0.496399 0.059235 -0.080871 -0.059149 -0.690631 0.508747 0.732008 0.197967 0.032756 0.070313 0.427853 0.271657 0.201687 0.314535 0.428989 -0.514812 0.559175 -0.377359 -0.034462 -0.117447 -0.014804 -1.049916 0.123902 0.224618 -0.083969 0.138998 0.266877 -0.204852 0.717891 0.420907 -0.227733 0.202541 0.327099 -0.971053 -0.147402 -0.063228 -0.22489 -0.218286 -0.271672 0.522144 -0.428317 0.062244 -0.099342 -0.203653 -0.464426 -0.476751 0.298347 -0.628399 0.696577 -0.719458 -0.402001 0.081693 -0.399142 0.276354 0.070132 -1.042236 0.044454 0.539894 -0.137088 -0.588988
laundering -0.471187 0.258557 -0.16999 -0.707107 -0.357065 -0.971264 -0.186362 -0.863295 0.190372 0.441479 0.641681 -0.276546 0.8349 0.133727 -0.880512 1.405414 0.732357 0.545655 -0.197378 -0.809503 0.04752 -0.111654 0.543444 0.405368 0.422587 0.102024 -0.922521 0.132317 0.057201 1.231427 -0.259225 0.858204 -0.604079 -0.273715 -0.216802 0.391818 0.725245 0.864109 0.410903 0.573586 -0.461188 0.08206 0.318956 -0.122617 0.76534 0.067073 0.406189 0.245995 -0.773006 -0.398899 -0.482555 0.772937 0.394115 0.280947 -0.39399 -0.538272 -0.063326 -0.504351 0.524592 0.303878 -0.509977 0.309797 -0.23468 -0.75397 0.521455 0.086578 0.550897 -0.293168 -0.163606 0.768846 0.199616 0.776235 -0.264614 -0.198282 -0.197595 0.234872 0.165688 0.210449 0.144249 -0.493818 0.490944 0.036286 0.073741 -0.453657 0.369475 -0.677996 0.226042 -0.152217 0.151681 -0.194791 -0.404417 -0.190766 -0.992072 0.509323 0.428827 0.231157 -0.443929 0.490616 0.088978 0.209503
hotel 0.177219 -0.425766 0.153774 -0.780963 -0.239435 -0.198515 0.130047 0.261143 -0.231283 0.669068 0.180861 0.024969 0.162852 0.102377 0.304046 0.012402 0.32628 0.226725 -0.022333 0.088204 -0.016576 -0.017362 0.322898 0.954689 0.033596 -0.221898 0.008418 -0.221281 0.041797 -0.116151 0.062863 -0.102714 -0.119149 0.111785 0.178176 -0.114394 0.18833 0.002577 0.110117 -0.172769 -0.362679 0.278445 0.690929 -0.197541 -0.007083 0.027459 0.16698 0.006405 -0.404816 0.012086 -0.058898 0.619158 0.797895 -0.005309 0.169787 0.017853 -0.226367 -0.227922 -0.261299 0.484122 0.041443 0.29713 -0.540952 -0.452538 -0.024415 -0.268059 -0.040694 0.317493 0.119975 -0.04768 0.233872 -0.212282 0.409937 0.15684 0.031425 -0.19099 -0.231193 -0.00184 -0.384602 0.182795 0.233904 0.302798 0.338744 -0.060074 0.064663 0.268894 0.122314 0.240839 0.325663 -0.434464 0.287124 -0.367186 0.323828 0.224134 0.03492 0.237699 -0.367825 0.363692 -0.062745 0.222766
term -0.055511 -0.385986 -0.223552 -0.456924 0.216096 -0.146616 -0.418011 -0.459394 0.275061 0.62516 0.16851 0.18213 -0.238178 0.254892 0.511048 0.461339 0.162738 0.344318 0.581104 -0.34095 0.212069 0.091659 -0.018888 -0.03824 -0.063983 0.210253 -0.106616 0.243186 0.593355 0.059656 -0.253743 0.037577 -0.12103 0.174124 0.30489 -0.064262 0.058673 0.065953 0.078704 0.096381 0.055889 0.209196 0.193167 0.158089 0.328045 0.002505 -0.26691 0.751534 0.016796 -0.278826 0.110079 0.430918 -0.092399 0.306946 -0.069863 0.119989 0.108134 0.082984 0.102232 -0.108348 0.056428 -0.095142 -0.078212 0.11856 -0.149223 0.46678 0.285237 0.050899 0.169009 0.522436 0.101853 0.376911 0.157187 -0.206024 -0.046925 0.103776 0.176363 0.011331 0.109058 0.072536 0.251137 0.215621 -0.035747 -0.293702 0.019179 0.15614 0.443166 0.179959 0.107149 0.087354 -0.184281 0.551533 -0.009473 0.350207 0.104756 -0.128479 -0.193494 0.222535 -0.160855 0.296828
listing 0.077255 -0.825378 -0.288843 -0.08193 0.095703 0.121432 -0.300945 -0.066821 0.114867 0.305673 0.127146 0.08788 -0.22184 0.250054 0.03753 0.282151 -0.282528 -0.194478 0.246692 0.123211 -0.392995 0.420837 0.13163 0.976092 -0.320755 -0.707479 0.076444 0.128942 -0.224247 -0.44968 0.412089 0.431755 -0.489483 0.722003 -0.064189 -0.045657 0.807745 -0.099192 -0.036114 0.142752 -0.005621 -0.010045 0.037031 0.089063 -0.311944 -0.100837 -0.215911 0.580651 -0.610159 -0.391182 -0.145828 0.054489 -0.119813 0.469217 -0.506179 -0.25539 0.144168 -0.259097 -0.378634 0.3598 -0.177686 -0.107686 -0.194517 -1.185699 0.156365 -0.046823 0.186264 -0.31916 0.783001 0.279654 0.306774 -0.093994 -0.118469 -0.249687 -0.108546 -0.268475 0.106089 0.482811 -0.091025 0.224817 -0.398043 -0.342525 0.013562 -0.144571 0.27171 0.300097 0.025096 0.373094 0.336669 -0.170285 -0.01355 0.295025 -0.06833 0.018074 0.356781 -0.934641 -0.178861 0.298819 -0.047368 0.79174
chemistry 0.265075 0.145131 -0.708192 0.28963 0.3968 -0.612594 0.798389 0.179628 0.464453 0.1032 -0.084244 0.208037 -0.203089 0.33898 0.24287 0.528288 -0.348534 0.02976 0.316772 -0.210364 -0.409655 -0.917792 -0.43491 0.291135 0.371026 -0.165147 0.252931 -0.174623 3.42E-4 -0.107694 0.033373 0.014335 0.499064 0.368037 0.090309 -0.044951 0.468437 -0.113652 -0.357253 -0.281193 0.23092 0.543345 -0.453028 -0.533072 0.231273 0.358229 -0.154139 -0.187761 0.196801 0.017513 0.77501 0.287203 0.839922 0.338016 0.036909 -0.132952 0.121511 -0.567923 -0.269245 -0.357823 0.039591 -0.120424 -0.030551 -0.0991 -0.202837 -0.184084 0.761316 -0.85701 0.566157 0.453393 -0.473627 -0.266704 0.162125 0.194689 0.024783 -0.601845 -0.346086 -0.67972 -0.52062 0.190435 0.070825 0.292671 -0.418714 -0.132165 -0.463101 0.156696 0.489517 -0.237688 0.151175 0.213905 -0.282483 -0.052387 8.74E-4 -0.219327 0.142473 -0.471692 -0.060608 0.886142 -0.103334 -0.125194
seafood -0.182761 -0.179649 -0.287575 -0.645767 -0.506764 -0.488795 -0.470087 0.130435 0.628523 0.037208 -0.13425 -0.337945 -0.473339 -0.094461 -0.315589 -0.247694 0.068669 0.60725 0.039086 -0.240987 -0.026749 -0.170573 -0.160137 0.625625 -0.157128 -0.681698 -0.59964 -0.542529 0.451442 0.026706 -0.034072 0.533727 -0.556135 0.146159 0.149388 -0.263635 0.375556 0.327572 -0.008915 -0.506719 -0.372186 0.836452 -0.074613 -0.040164 0.050872 0.778605 0.334782 0.524806 -0.415026 0.352998 0.022502 0.326592 0.322087 -0.506794 -0.02135 -0.055033 -0.726368 0.213845 -0.467801 0.055605 0.355678 0.332821 -0.095319 -0.251704 -0.142301 -0.398747 0.363746 -0.344484 0.364584 -0.173027 0.193958 -1.007185 0.058886 -0.66847 -0.276637 0.309033 -0.990843 0.588681 -0.491495 0.242645 0.200157 0.075881 0.364386 0.070374 -0.144718 0.149435 0.156724 0.074199 0.363108 -0.853605 -0.186271 -0.44583 0.066132 -0.425868 0.349038 -0.519136 0.083178 0.562596 0.393537 0.504529
CD 0.058599 0.384824 0.002257 -0.258233 -0.115843 0.369091 -0.263579 -0.336706 0.457288 0.984261 0.552 -0.328403 -0.430874 -0.096601 -0.045909 0.111766 0.216744 0.474395 0.429538 -0.118236 -0.743227 0.206345 -0.00786 -0.04608 0.21827 -0.677498 -0.241228 -0.198853 -0.201605 0.121171 -0.42286 0.073783 0.342359 0.721071 0.063662 -0.68721 -0.54253 0.024975 -0.0701 -0.377559 -0.018382 0.083756 0.638022 -0.312434 0.316422 0.14385 0.47376 0.039485 0.340439 -0.499027 0.204874 -0.46459 0.611914 0.079801 0.166425 0.079836 -0.23119 -0.81277 -0.310916 1.151716 -0.384592 -0.684322 0.257506 0.241265 0.809013 -0.120716 0.20949 0.31869 0.406287 0.394246 -0.829892 0.050982 0.255487 0.360339 -0.468764 -0.418122 -0.338017 0.149341 -0.113352 0.033351 -0.261196 -0.412829 -0.054821 0.664056 -0.465752 0.058911 0.335409 -0.02345 0.205006 0.013675 -0.032523 -0.121383 -0.336478 0.014676 0.408893 0.451901 -0.250488 0.237387 0.91441 0.480802
mind -0.350063 -0.188319 0.163149 -0.245667 0.009748 -0.02158 -0.087021 -0.107494 0.198417 0.298532 0.071001 -0.002616 -0.159666 0.224555 0.356006 0.221871 0.471574 -0.386108 0.061732 -0.112448 -0.229695 0.417425 0.306575 0.037551 -0.105672 -0.110093 0.331335 -0.004049 0.284731 -0.215811 -0.078633 -0.227784 -0.057785 0.105302 0.194182 -0.051013 -0.124288 -0.369715 -0.112989 -0.137807 0.028252 0.559776 -0.134262 0.037674 0.11159 0.398246 -0.133564 0.176627 0.127833 0.025581 0.045069 0.029045 0.306032 -0.043926 -0.130767 -0.021759 -0.054772 -0.217697 0.182064 -0.145244 -0.139604 -0.355403 0.020677 0.002133 0.256473 0.129975 0.214474 -0.142189 0.236222 0.481699 0.15795 0.088532 -0.185433 0.079665 0.101901 -0.325678 -0.361375 -0.183991 -0.108969 0.249474 0.043021 0.340286 -0.116513 -0.104081 -0.215861 0.227309 0.009466 -0.050292 0.346642 0.022747 0.18345 0.105006 0.061602 0.10103 0.282693 -0.266001 -0.23513 0.394834 -0.064131 0.191448
sex 0.072273 0.144667 -0.022269 -0.771924 0.315103 -0.254975 -0.196966 -0.244006 0.043619 0.155778 0.234971 -0.092861 0.407822 0.306299 -0.04553 0.956118 0.258322 0.049881 0.092463 -0.03391 -0.356197 0.061179 0.132109 0.033697 0.339458 0.230423 -0.139404 0.283126 0.040391 -0.058928 -0.22975 -0.260473 -0.411795 -0.80765 -0.004638 -0.322462 0.300853 0.024779 0.029368 -0.369866 -0.286288 0.088166 0.456068 0.07128 0.356493 0.116507 -0.028857 0.178436 -0.028641 -0.230783 -0.059298 -0.030433 0.668843 -0.412835 -0.204708 -0.011338 0.097447 -0.136552 -0.242363 0.117281 0.449963 -0.201642 0.45587 -0.075522 0.215724 0.218278 0.339464 -0.158668 -0.024376 0.076918 -0.36201 -0.020507 0.366244 -0.092317 -0.33749 -0.635452 -0.16344 0.022253 -0.214011 0.404122 -0.146207 0.332297 -0.146514 -0.147036 -0.168786 0.407526 -0.013312 -0.314801 0.491801 0.071755 0.28184 -0.08245 0.050919 0.231762 -0.047871 -0.557154 -0.043221 0.964175 0.137349 0.469981
food -0.200787 -0.227077 -0.243435 -0.145334 0.00411 -0.143766 0.270876 -0.220912 0.238776 -0.012305 0.513994 0.240636 -0.28558 -0.107152 -0.231007 0.110585 0.194879 0.276731 0.090905 -0.08069 0.013292 -0.078965 -0.202607 0.475067 0.151196 -0.230122 -0.470778 -0.464702 0.363458 0.376261 -0.199999 -0.0654 -0.240566 0.186518 0.010048 -0.306767 0.166996 0.290399 0.123454 -0.014693 -0.320522 0.355114 -0.331805 -0.434605 0.130664 0.634673 0.150462 0.192746 -0.199608 0.080899 0.023078 -0.031262 0.118889 -0.147772 0.116437 0.216573 -0.506037 -0.148355 -0.170954 0.055096 0.060421 0.074997 0.370948 -0.282068 -0.398934 -0.177887 -0.131148 -0.178332 -0.217513 0.277588 0.149562 -0.341295 0.030812 -0.101459 -0.027762 -0.202163 -0.549852 0.385974 -0.551189 0.123508 -0.044899 0.444767 -0.224721 0.158932 -0.007366 -0.038869 0.729198 0.24332 0.646945 -0.364293 -0.422574 0.173127 0.468809 0.095686 -0.052894 -0.373276 -0.510803 0.490243 -0.278307 0.513186
precedent 0.043246 -0.179358 0.25417 -0.513894 -0.249769 0.559052 -0.144222 -0.072063 0.616662 0.383859 -0.306884 -0.156453 -0.292752 0.122855 0.427931 0.377846 0.207046 -0.388869 0.507113 -0.675104 -0.426376 0.165818 0.055118 -0.332742 -0.049917 -0.174231 0.342408 -0.015725 0.347422 -0.426408 -0.062953 -0.13968 -1.04162 -0.121619 -0.317257 0.041828 0.308542 0.208216 0.286303 -0.108928 -0.639531 0.1759 -0.342366 0.29603 -0.153583 0.501805 -0.2449 0.408348 -0.056899 -0.171257 -0.312939 -0.027384 0.150145 -0.105408 0.11987 -0.007944 -0.278541 -0.131426 -0.06195 -0.140057 -0.349712 -0.199975 0.182573 -0.093985 0.297796 0.067638 0.206335 -0.183457 -0.299534 0.588513 0.197387 0.726198 0.021391 -0.589288 -0.183234 0.165417 -0.473635 0.032777 -0.162933 -0.11935 -0.113243 0.324186 -0.279739 -0.083152 0.505762 0.664372 0.11733 0.146224 -0.01502 -0.271436 0.245309 0.220478 -0.715703 -0.064308 0.104705 -0.049043 -0.049289 0.285873 -0.153266 0.297224
series 0.336108 -0.077133 0.278893 -0.23815 0.113428 0.238547 0.067863 0.061831 -0.132802 0.205713 0.188062 -0.072677 -0.247662 -0.091633 0.095402 0.666243 0.341559 -0.417297 -0.057389 -0.121225 -0.293036 -0.240313 -0.038956 -0.237228 -0.087042 0.010571 0.027078 0.205779 0.122139 -0.093636 -0.342337 0.171816 -0.003657 0.407801 0.366041 0.044061 -0.107286 -0.247503 0.102891 -0.12618 -0.095608 0.573634 0.093891 -0.300093 -0.485105 0.037701 -0.103475 -0.07641 -0.186197 -0.75024 0.328889 0.188465 0.396811 0.244786 -0.085145 0.22241 0.235512 0.145595 -0.031141 -0.086611 0.072243 -0.068765 -0.003677 -0.306129 0.118349 0.23741 0.3598 -0.297647 -0.045117 -0.02687 -0.052026 -0.015642 0.40684 -0.156593 -0.316952 0.26494 -0.148682 0.182517 -0.149033 0.106835 0.291909 -0.04029 0.262062 0.102382 -0.388594 0.102339 0.224732 -0.057768 0.340156 -0.122188 0.07746 0.091873 -0.113304 0.312692 0.162764 -0.080321 -0.373263 -0.148711 -0.225492 0.434694
kilometer -0.10148 -0.476817 0.039337 -0.230305 0.143201 0.22233 -0.285499 -0.858077 0.042491 0.3114 0.04837 0.492873 0.379493 0.013305 0.563382 0.085725 0.559998 0.154127 0.05677 0.278124 -0.032183 0.044804 -0.199435 0.031864 0.090981 -0.007998 0.073381 -0.097409 -0.296379 -0.010629 0.691272 0.445074 -0.004503 0.279418 0.032712 -0.219086 0.173015 -0.182873 0.204582 -0.234348 0.287117 0.858433 0.115879 0.064283 -0.301779 0.423924 0.214641 0.12611 -0.346077 0.074709 -0.164795 -0.470634 0.047859 0.516404 -0.570876 -0.551256 0.229078 -0.084285 -0.578359 0.478671 0.754191 -0.086575 -0.545346 -0.385113 0.069352 -0.372046 0.286192 0.019235 -0.255187 0.137841 0.027573 -0.320207 0.022055 -0.089948 0.102724 0.488153 -0.03574 -0.108987 -0.488309 -0.499478 -0.344135 0.330121 -0.449188 -0.322039 -0.218497 -0.070581 0.124521 -0.027858 0.276088 -0.906616 -0.538183 -0.222069 0.034921 -0.163436 -0.497676 0.307802 -1.063559 0.400862 0.203129 -0.074467
grocery 3.67E-4 -0.625099 -0.020992 -0.00891 -0.315522 -0.522757 0.845181 -0.503427 0.41896 0.421842 0.557414 -0.578752 -0.543217 0.111749 -0.047558 0.175443 0.198158 0.315137 0.398103 -0.308099 -0.294882 0.563133 -0.180173 0.621868 -0.249623 -0.086028 -0.193731 -0.750544 0.059747 0.68175 0.401172 -0.336414 -0.169028 0.360435 0.323668 -0.235493 -0.064017 0.20789 0.129078 -0.528782 -0.676679 0.004191 0.411298 -0.304503 0.286734 0.264048 0.315301 0.882356 -0.455028 0.09474 0.23151 0.340292 0.362885 -0.236993 -0.212714 0.910548 -0.859931 0.205672 -0.723237 0.326425 0.075525 0.095559 0.361563 -0.459957 -0.065531 0.313071 -0.388097 -0.211738 -0.008511 -0.118291 -0.084715 -0.27067 -0.036435 -0.157017 0.040812 0.041705 -0.595178 0.237017 -0.362176 0.011375 -0.270802 0.45392 0.293129 0.57768 -0.255853 -0.262151 0.857792 0.193731 0.784112 -0.548824 -0.523481 0.120859 0.728795 -0.163214 0.04854 -0.155449 0.255522 0.234504 0.002763 0.254866
wizard 0.068835 0.319388 -0.056373 0.0998 0.384478 0.171793 -0.100422 0.519906 0.176687 0.230406 -0.108487 0.207362 -0.066299 0.308451 0.603665 1.234591 -0.012224 -0.298546 -0.08632 0.323136 -0.459175 0.158045 0.511734 -0.599451 0.581358 0.575723 -0.275019 0.320329 0.35933 0.555538 0.453843 -0.699637 0.140923 0.122633 -0.33391 -0.062243 -0.231446 0.348807 0.422848 -0.410459 -0.223246 0.429663 0.067278 -0.383318 0.234639 0.22793 0.064554 -0.07346 -0.36538 -0.534172 -0.302829 -0.529599 0.220726 0.245753 0.082171 -0.124874 0.065505 0.190235 -0.359559 0.062326 -0.070687 0.210005 0.09252 0.001947 0.33959 -0.013483 -0.002023 -0.042213 0.223686 0.411435 -0.286342 -0.263046 -0.287936 -0.218986 -0.268806 -0.52498 0.289055 -0.328913 -0.128899 0.36615 -0.106742 -0.209502 -0.042859 -0.203524 -1.258688 0.300707 0.289938 0.195052 0.286203 -0.169652 -0.178983 -0.001521 -0.194424 0.905607 0.875722 0.415339 -0.500793 0.183807 -0.069095 0.340822
information -0.326284 -0.095815 -0.116923 -0.398109 0.066714 -0.023631 -0.503764 -0.476539 -0.205795 0.589234 0.095692 -0.115712 -0.424667 -0.311253 -0.1543 0.356516 0.241038 -0.012994 0.130917 0.032866 -0.809912 -0.061793 0.003963 0.479558 -0.247785 -0.053296 -0.102862 -0.025867 -0.176229 0.164434 0.228581 0.276858 -0.440961 0.099528 -0.231663 0.219671 0.143288 0.055796 0.219278 0.097783 0.097785 0.332161 -0.096613 0.05009 0.276293 -0.078355 -0.029679 -0.213843 -0.216553 0.270004 -0.023893 0.35277 -0.100029 -0.084785 -0.132244 0.054408 0.195994 -0.489917 0.198189 0.073566 -0.173553 -0.262375 0.124048 -0.619277 0.273038 -0.115685 0.299135 -0.054807 0.176204 0.06136 -0.414815 0.190655 0.023598 -0.53527 -0.117119 -0.189106 -0.698685 0.120757 -0.233444 -0.087111 -0.283722 0.057518 0.139331 0.024252 -0.179406 0.110102 0.28502 0.145726 0.503104 0.057635 0.244883 -0.09258 0.246199 0.135978 0.132716 -0.13728 -0.200757 0.925416 -0.129481 -0.263953
Israel 0.291539 0.102636 0.150198 -0.62472 -0.410816 -0.242688 0.173983 -0.112974 0.466242 0.545389 0.615118 0.114702 0.230678 -0.304853 0.080389 -0.15546 0.305002 0.214392 0.038711 -0.15101 -0.40536 0.326539 -0.029286 0.156552 0.410319 0.1128 -0.622168 0.13683 -0.600024 0.041407 -0.183887 -0.048219 -0.424015 -0.056733 0.327221 -0.321776 -0.04664 0.050049 0.370944 -0.592502 -0.236785 -0.060088 -0.51935 0.04167 -0.703787 0.015491 -0.616818 -0.022333 -0.146382 -0.021909 -0.057836 0.41819 0.273801 0.431229 -0.315645 -0.650866 0.069269 -0.757361 0.119234 -0.094394 -0.079648 0.188026 0.434698 0.291783 0.407806 0.111132 0.466616 0.213962 -0.387012 -0.119646 0.114186 0.664594 -0.365889 0.484017 -0.266252 0.228992 -0.921575 0.25832 -0.157602 0.270509 0.870373 -0.40567 -0.124104 -0.403967 -0.546808 0.379325 0.046396 0.014342 0.46833 -0.381867 -0.278444 0.556345 0.189113 -0.319689 0.05017 -0.476482 -0.490343 0.425387 -0.381324 0.096061
brandy -0.217466 0.027321 -0.478808 -0.188027 -0.048614 -0.353025 -0.247828 0.066713 0.504981 0.335108 0.100665 0.105507 -0.628634 0.043065 -0.060319 0.259081 0.21563 -0.203407 -0.085862 -0.070932 -0.263677 0.153624 0.240245 -0.212337 0.018107 -0.180142 -0.398857 -0.274933 0.438068 -0.067918 0.329206 -0.191744 0.06572 0.06973 0.243778 -0.052577 0.055477 0.111088 0.050237 -0.845711 -0.12783 0.274076 -0.102296 -0.198769 0.244839 0.818494 0.23142 0.045702 -0.078783 0.155743 0.254025 -0.135146 0.411735 -0.453478 -0.281302 -0.076296 -0.603463 -0.395554 -0.276923 0.161884 0.424765 -0.156724 0.249462 0.136632 0.263091 0.275387 0.141806 -0.109381 -0.067918 0.455646 -0.03366 -0.370661 -0.364132 0.415121 0.074356 -0.280956 -0.086321 0.311828 -0.211544 0.357277 0.286929 0.162101 -0.449067 0.27848 -0.296144 0.245134 0.056046 0.20849 0.457843 -0.791042 -0.057658 -0.152483 0.294529 -0.142811 0.072517 0.100154 -0.267837 -0.117186 0.154535 0.566179
interview -0.166614 -0.074354 0.151042 -0.458731 -0.431511 0.277487 0.156686 0.120975 -0.174999 0.802458 0.33839 -0.24557 0.250328 0.265361 0.128549 0.253725 -0.081691 -0.120482 0.321553 0.369383 -0.420099 0.014872 0.162334 0.139639 -0.325126 0.36473 -0.065788 0.117943 0.015609 -0.392384 -0.275228 -0.219312 -0.38363 0.299219 0.271674 0.157589 -0.110277 -0.348166 -0.261639 -0.173172 0.070178 0.016703 0.235652 -0.274479 0.128714 -0.150078 0.352473 0.062358 -0.57723 -0.370027 0.119454 0.599359 -0.225638 0.071753 0.159292 -0.013981 -0.074907 -0.489679 0.315312 0.02952 0.325623 -0.033273 0.06408 0.028556 0.011216 -0.017231 0.479866 -0.245606 0.05158 0.463256 -0.184684 0.068773 0.349057 -0.061601 0.143205 -0.241441 0.082132 -0.075014 0.023655 -0.081602 -0.186407 0.31538 0.106028 -0.107988 -0.158718 0.090157 0.378533 -0.094588 0.507224 -0.030215 -0.139464 -0.094691 -0.099112 0.14685 0.396211 -0.412417 -0.088405 0.185075 -0.161315 0.163047
prominence -0.286629 -0.212212 0.03126 -0.708859 0.458096 0.829827 0.294242 0.31822 -0.288293 0.370739 0.131187 0.107987 0.123288 0.066435 0.184268 -0.045315 -0.287261 0.360252 0.17827 0.090041 -0.38991 -0.296925 -0.205154 0.106918 0.104678 -0.239263 0.222238 0.034695 0.520975 -0.165778 0.272755 -0.049698 -0.242247 -0.17002 0.376933 0.195212 -0.202893 0.308727 -0.595487 -0.24846 -0.191358 0.107153 0.278725 -0.035531 -0.196005 0.189129 -0.126939 -0.062589 -0.330247 -0.197609 -0.046097 0.09509 0.068642 0.440632 -0.238712 0.046036 0.865165 -0.247235 -0.126184 -0.391812 -0.033713 -0.0155 -0.009525 -0.267885 0.351136 -0.152847 0.018134 -0.514102 0.074474 0.611507 -0.007819 0.330282 0.043703 -0.568896 -0.495319 -0.020985 -0.159532 0.01809 -0.514225 -0.072554 -0.271698 0.273185 -0.001107 0.042133 -0.45515 0.430907 0.461468 -0.182702 -0.053747 -0.040891 0.039586 -0.079984 -0.280739 0.010675 0.76591 0.073908 -0.268188 0.15727 0.169471 0.461662
bed 0.047804 -0.446719 -0.119263 -0.734895 0.068591 -0.389701 0.079424 -0.38639 0.566151 0.449543 -0.027326 -0.035319 0.330631 0.401677 0.108423 -0.239085 0.113628 -0.07581 0.042309 0.360208 -0.189615 0.069036 0.072389 -0.103992 -0.122596 0.206267 -0.133272 -0.191911 -0.050823 0.093989 0.001611 -0.262138 0.169145 0.313977 -0.094881 -0.318342 0.054868 -0.114838 0.279648 -0.157045 0.018974 0.209371 -0.013183 -0.269329 0.405002 0.492406 0.063161 -0.320754 -0.17665 -0.401961 0.050481 0.012953 0.907663 -0.26086 0.045105 0.287792 -0.230598 -0.456856 -0.363246 0.264821 0.236248 0.375545 0.089211 -0.030068 0.338643 0.207719 -0.029685 0.203988 0.217936 0.216933 -0.07801 -0.200704 -0.090478 0.269486 0.117489 -0.420565 0.475721 -0.09129 -0.280734 0.407711 -0.054335 0.776701 -0.211154 0.381411 0.182627 -0.079855 -0.105659 0.002754 0.686992 -0.592027 0.132767 -0.350236 0.080581 0.224832 0.082658 0.032424 -0.358737 0.359735 -0.004229 0.485041
furnace -0.086447 0.092009 -0.091623 0.01232 0.240478 -0.158891 0.261048 -0.392651 0.267116 0.420269 0.777233 0.541749 -0.635673 -0.016471 0.377474 0.06939 0.272558 0.462814 0.357167 -0.031885 -0.021813 -0.224859 -0.13488 0.321432 0.023729 -0.069621 0.001154 -0.231999 -0.300265 -0.236944 0.376508 -0.114019 -0.122633 -0.007123 -0.260466 -0.130325 0.658473 -0.211197 0.19793 0.03619 -0.030535 0.984188 -0.067506 -0.504173 0.368808 0.603965 -0.586689 0.180055 -0.201136 0.037476 0.489555 -0.088033 0.676978 0.129454 -0.802693 -0.256497 0.299527 -0.447522 0.103331 0.232088 0.379408 0.297024 -0.124904 0.004626 -0.081385 0.301695 0.089228 0.395877 0.013869 -0.037359 0.145024 -0.317909 -0.377995 -0.066554 -0.151485 0.133158 0.033212 0.296654 -0.334961 0.025938 0.269442 0.616619 -0.336921 0.485772 0.225799 -0.568515 0.45042 -0.115903 0.540368 -0.833138 0.095794 -0.242045 -0.093744 -0.455021 -0.527702 0.117361 -0.292909 0.004588 0.145154 0.291222
evidence -0.627123 -0.058628 -0.435796 -0.565652 -0.079124 0.284435 0.233826 -0.14616 0.110166 0.706191 0.054181 -0.253964 0.417595 -0.373643 0.036232 0.592302 0.398982 -0.17332 0.162984 -0.235358 -0.194464 -0.150462 -0.221704 0.203169 0.172778 0.183638 0.248511 -0.104175 0.134046 0.037434 -0.128706 0.267595 -0.337143 -0.110369 -0.372173 0.279306 0.417281 -0.414926 0.263927 -0.282171 -0.151196 0.135934 -0.356507 -0.219376 0.094466 0.428186 0.410579 0.123644 -0.286725 0.038928 -0.089407 -0.01514 0.159096 0.060244 -0.058939 0.151295 0.472486 -0.448805 0.03321 0.186483 0.140801 -0.373455 -0.017007 0.01012 0.079634 -0.104283 0.183566 -0.200376 0.096095 -0.036677 -0.080734 0.452934 0.257536 -0.091203 -0.186607 -0.009285 -0.430119 0.257026 -0.007739 0.087146 -0.052807 0.34345 -0.155736 -0.255594 0.036907 0.122729 0.178145 -0.205673 0.430693 -0.053359 0.095685 -0.170664 0.030352 0.115343 0.387412 -0.270704 0.017602 0.534712 -0.305367 -0.156425
sprint -0.420028 -0.891966 -0.120777 -0.023398 -0.067253 0.545381 0.366318 -0.421434 0.425783 0.059806 -0.191322 -0.305552 -0.104019 0.724371 0.398761 0.370467 0.597401 0.607836 0.153575 -0.033255 -0.053362 -0.335019 0.535878 -0.401247 0.038353 -0.675541 -0.54544 -0.36271 0.198065 -0.272686 0.03363 0.545352 -0.029603 -0.137318 -0.290365 -0.805626 0.660141 -0.454813 -0.512011 0.325664 0.354669 0.910978 0.657228 -0.225933 -0.117175 0.402317 0.424709 0.076276 -0.180131 -0.386299 -0.810053 0.190984 0.320964 0.790081 -0.074719 -0.708833 0.609546 -0.407322 -0.394469 -0.101773 0.274137 -0.475854 -0.296735 -0.597859 0.086286 -0.433645 0.248904 -0.31456 -0.365993 0.56842 -0.190908 -0.099949 0.092866 -0.322584 -0.089949 0.404714 -0.233602 -0.262515 0.721445 -0.366862 0.473711 -0.259564 -0.18065 -0.546823 0.006938 -0.089879 -0.478586 -0.272846 0.493378 -0.535751 -0.442518 1.035014 0.465527 -0.151617 0.413008 0.324525 -0.438065 -0.083773 0.084793 0.068504
emergency 0.461832 -0.557521 0.237582 -0.522058 -0.376601 -0.004955 0.032436 -0.553929 0.016528 0.986174 0.266807 -0.178977 -0.221304 -0.103677 0.00885 0.120536 -0.271114 0.263372 0.668586 -0.057576 -0.146362 -0.128285 -0.052743 0.18614 0.124868 -0.068736 -0.150824 0.041843 0.123451 -0.043804 0.194009 0.163208 -0.290043 0.220463 -0.348376 0.142875 0.344328 -0.18345 0.270431 -0.024566 0.375174 -0.116251 -0.080613 -0.153136 -0.171785 0.032259 0.073662 -0.338591 -0.394852 0.021689 -0.138214 0.006405 -0.050396 -0.098859 0.274473 -0.004254 -0.326774 0.083461 -0.220822 0.236494 -0.204213 0.571703 0.230144 -0.254552 -0.139899 0.228143 0.271121 -0.169589 0.212118 0.0881 0.108085 0.213451 0.348169 0.040237 -0.056782 -0.036325 -0.070041 0.050184 -0.108708 -0.090492 0.171908 0.890417 -0.073476 0.315323 0.201913 -0.254086 0.282264 0.217026 0.441132 -0.240067 -0.086103 0.319043 -0.136572 0.221132 -0.581381 0.025882 -0.754121 0.036021 -0.971941 0.215081
Jackson 0.267082 0.089446 0.049822 -0.611738 -0.222354 0.58718 0.182449 0.018738 -0.013999 0.440669 0.281309 -0.35728 0.208757 -0.107216 0.288614 0.559822 0.065716 -0.170109 -0.00784 0.221071 -0.546591 -0.054315 -0.287591 0.229574 5.96E-4 -0.654669 -0.066181 -0.009603 -0.172818 -0.105714 0.337057 0.33066 -0.063987 0.506153 0.207689 0.339345 0.17837 -0.115488 0.178695 -0.251017 0.171515 -0.154386 0.292252 -0.012962 0.074677 0.463837 0.048565 -0.311963 -0.291313 -0.179092 -0.002754 -0.449813 0.399307 0.22853 0.177147 0.399413 0.03742 -0.201388 -0.409146 0.953902 0.14934 0.57058 -0.24347 0.509456 0.605632 0.205821 0.251533 -0.341049 0.06486 0.465304 -0.024279 0.012406 0.19461 -0.079629 0.010128 -0.120716 -0.259842 -0.593906 0.099972 0.479313 0.136025 -0.221564 -0.214744 2.66E-4 -0.052597 -0.140092 0.196446 0.172475 0.422419 0.380503 0.249679 0.415485 0.403152 0.130146 0.549424 -0.026485 -0.280596 -0.20303 -0.573767 0.194418
institution -0.004961 -0.103714 0.25692 -0.717068 0.171407 -0.308741 0.080284 -0.211434 -0.08864 0.708419 0.06259 -0.108412 -0.259844 0.345208 0.770947 0.225506 0.041616 -0.113791 0.519524 0.306331 -0.253651 -0.084485 0.137413 0.076563 0.616785 -0.146625 0.467343 -0.385682 -0.174752 0.415301 0.124024 0.105308 -0.60077 -0.184973 0.223 -0.139461 0.107002 0.313462 0.496506 0.111081 -0.690606 -0.28026 0.167098 -0.159398 -0.132194 0.099158 -0.647375 -0.112216 0.132999 0.081421 -0.004087 0.07699 0.401159 -0.186745 -0.430948 -0.010469 -0.24143 0.726314 0.199827 0.455959 -0.274776 0.23953 0.665545 0.147377 0.016287 -0.042168 -0.062503 -0.025817 0.455869 0.573554 -0.476305 0.291606 0.060369 -0.163566 -0.144699 -0.111821 0.103269 0.222381 -0.066428 -0.314118 -0.100145 0.602176 -0.424028 -0.553701 -0.430767 0.339959 0.327818 -0.245165 0.448108 0.311712 -0.187444 0.274241 -0.238132 0.126758 -0.127561 -0.426161 -0.18193 0.319205 -0.023261 0.09438
bird 0.355401 -0.290409 0.584699 -0.768919 0.508848 -0.054012 -0.416784 0.087612 0.407942 -0.070578 -0.238959 -0.282109 -0.131571 0.390278 -0.17666 0.271342 0.090207 -0.515853 -0.130045 -0.031508 -0.006435 0.248112 0.206943 -0.215005 0.822742 0.357336 -0.44682 -0.800491 0.338686 0.280186 0.51655 0.238222 -0.108624 0.564571 0.351923 -0.176544 0.577867 0.139944 0.36718 -0.139968 0.344032 0.261381 -0.467117 0.175166 -0.095434 -6.0E-4 0.445362 0.368893 0.026461 0.26368 0.077144 -0.458594 0.115138 0.612054 -0.069076 -0.222743 -0.286082 -0.346253 -0.310708 -0.086534 0.310767 -0.333076 -0.263178 -0.245332 -0.098923 -0.404855 0.10537 -0.101354 0.147744 0.162583 0.034035 -0.208312 -0.12234 0.537308 -0.311918 0.742444 -0.253612 -0.029808 -0.319353 -0.155803 0.493148 1.135916 0.305647 0.235384 -0.486009 0.187205 0.354218 0.167456 0.672138 -0.735489 0.145734 -0.439733 0.565625 -0.048354 -0.172094 -0.764582 -0.310424 0.386428 -0.295897 0.624829
Brazil 0.480488 -0.384423 0.0965 0.050377 -0.224165 0.205526 -0.017684 -0.458999 0.317713 -0.176871 0.107906 0.431401 -0.151921 0.17305 -0.014637 0.341864 0.399996 0.071604 0.574673 -0.108003 0.245873 -0.18047 -0.848112 0.31723 0.343548 -0.002865 -0.417861 -0.039285 0.067689 -0.248878 0.687971 -0.372834 -0.225462 0.180965 0.065037 0.275854 0.135541 0.447903 -0.010267 -0.10782 -0.482652 0.189431 0.118722 -0.290677 0.048727 -0.204293 0.128683 -0.157347 -0.221655 -0.358936 -0.318591 -0.040326 0.175928 0.658756 -0.083847 -0.349082 -0.109555 -0.257316 0.324725 -0.427273 0.064299 -0.314013 -0.080236 0.39617 0.291996 0.324098 0.51638 -0.245907 0.862727 0.481913 0.114059 -0.32587 0.870886 0.047702 0.411418 0.182428 -0.590445 0.660606 -0.028873 0.204971 0.095064 -0.212305 -0.073787 -0.359573 -0.129209 -0.035761 0.163115 -0.312889 0.256801 -0.663357 -0.209386 0.308575 0.44012 -0.068826 0.190264 0.543428 -0.184239 0.107565 -0.134421 0.464568
warning 0.239777 -0.196805 0.088042 -0.415932 -0.380406 0.08368 -0.262039 -0.4572 0.458267 0.791165 0.103901 -0.310802 -0.290852 -0.157904 0.123796 0.046629 0.1622 -0.155682 -0.038988 -0.517393 -0.175105 0.245637 0.567911 0.098523 -0.128413 -0.093093 -0.430233 -0.417322 0.330817 -0.191955 0.308462 0.185476 -0.490085 0.009455 -0.439719 -0.167074 0.127594 -0.396513 -0.109726 -0.405615 -0.126509 0.391603 -0.429603 0.015233 -0.147419 0.169451 0.161212 -0.025349 -0.068153 -0.247361 -0.294515 -0.081822 -0.222874 0.247209 -0.025241 -0.352614 0.2366 0.246825 -0.064607 0.031417 -0.146763 -0.119067 0.350239 0.042262 -0.065196 0.185603 0.308508 0.143979 0.24124 -0.295406 0.076251 0.176612 0.298533 -0.208615 -0.10117 -0.525644 -0.118021 -0.016201 -0.374082 -0.149463 0.187784 0.227604 0.164093 0.20121 -0.092651 -0.168968 0.464184 -0.10657 0.362408 0.106717 0.007084 -0.066957 -0.216055 0.131778 0.044135 -0.446995 -0.251031 -0.082279 -0.597107 0.274242
implement -0.268484 -0.071047 0.435697 -0.064343 -0.116241 -8.6E-5 -0.099539 -0.500346 0.178301 0.34475 0.263631 0.203936 -0.044907 -0.010992 -0.123743 -0.109827 -0.074565 0.137919 0.807199 -0.337312 -0.155118 0.375018 -0.041127 -0.438091 0.15553 -0.024812 0.285216 -0.297509 -0.00606 0.380677 -0.319136 -0.022986 -0.564774 0.498901 -0.162511 -0.511996 0.109242 -0.123603 0.220178 0.636029 0.017605 0.040951 0.101227 0.345093 0.154378 -0.22343 -0.324425 0.410576 -0.586401 0.057118 0.067929 0.201223 0.398055 0.259294 0.258155 0.027035 -0.034246 0.017985 0.008376 -0.357464 -0.07722 0.282354 0.112308 -0.541761 -0.140041 -0.290636 0.7593 -0.241651 0.560541 0.033517 -0.091112 0.460937 0.17354 0.022349 0.304328 0.239472 -0.581826 0.202803 0.10865 -0.041113 -0.232818 0.28055 0.026295 -0.127872 -0.29239 -0.076638 0.428196 0.08486 0.586011 -0.333413 -0.256776 0.088635 -0.588719 0.55761 0.230592 -0.127902 -0.190246 0.49797 -0.593025 0.132055
train 0.276754 -0.247335 0.649489 -0.193704 -0.224427 0.239736 0.124157 -0.461814 -0.053763 0.191643 0.038311 -0.471353 -0.270198 -0.140376 0.346922 -0.089448 0.329975 0.175391 0.185483 -0.187929 -0.418581 0.172027 0.161526 -0.2573 0.015165 -0.271285 -0.158278 0.155007 -0.09591 0.293353 0.222344 -0.256854 0.071053 -0.146048 -0.476995 -0.295524 0.203876 0.108343 -0.10007 0.065545 -0.197802 0.792042 0.692138 -0.136438 -0.239213 0.027141 0.108088 0.136191 -0.081322 0.380631 0.369586 0.406717 0.218377 0.010229 -0.023383 -0.549655 0.020255 -0.006007 -0.35745 -0.106413 0.081628 0.171639 -0.144232 -0.392724 0.268959 0.050861 0.462421 -0.150295 0.244796 0.138328 0.210609 -0.430446 0.184337 0.124718 0.043167 0.014882 -0.331547 0.08613 -0.554136 0.028965 0.256196 0.677357 -0.022326 -0.271488 0.017677 -0.015606 0.009937 0.060373 0.67867 3.59E-4 -0.07947 0.175527 -1.78E-4 0.469458 -0.181848 0.141482 -0.315359 0.276501 -0.158493 -0.183568
area -0.107862 -0.452747 0.019743 -0.507994 -0.04409 0.310402 0.105803 -0.394558 0.007727 0.27225 0.129677 0.18619 -0.059109 -0.211893 0.301524 0.099479 0.165014 -0.235646 0.212256 0.063299 -0.03562 -0.086504 -0.188701 0.228711 -0.144351 -0.131553 0.007418 -0.41213 -0.212064 0.047707 0.204279 -0.02301 -0.337195 -0.001799 0.070915 -0.058973 0.284649 0.006052 0.105321 -0.261421 -0.268982 0.61942 0.251648 0.056176 -0.106846 0.226637 0.233084 -0.092335 -0.186954 0.152286 0.130986 0.060241 0.143008 -0.070325 -0.003483 -0.195643 -0.138819 0.176947 -0.241979 -0.073762 0.105488 0.184407 -0.295312 -0.311339 0.241346 -0.148591 0.369562 0.349701 0.233446 -0.031154 0.260588 -0.005015 0.026781 0.125871 -0.205522 0.129018 -0.0596 -0.232893 -0.526857 -0.272025 0.157002 0.089515 -0.003128 0.152411 -0.322726 -0.005826 0.069012 0.079342 0.309805 -0.070555 -0.102988 -0.301231 0.042027 0.107628 -0.201883 -0.188206 -0.221117 0.594726 -0.349501 0.036085
image 0.185903 0.189568 -0.027654 -0.816479 0.187674 0.051259 -0.266684 -0.296826 0.151934 0.112778 0.005425 0.538654 -0.160898 0.610012 0.251206 0.338005 0.189078 -0.067956 0.228892 0.061814 -0.161509 0.1589 0.056723 -0.312782 -0.006567 -0.022868 -0.058193 0.171697 0.058272 -0.309467 0.002953 -0.288317 -0.369143 0.03783 -0.027821 0.093368 -0.015227 -0.370171 -0.373223 -0.288373 -0.127232 0.017347 0.044252 -0.162178 -0.211298 0.297886 -0.094454 0.283776 -0.092041 0.009138 0.248852 -0.063212 0.244803 -0.237028 -0.521847 -0.651075 0.238444 -0.20087 0.392597 0.220228 -0.070734 0.07484 0.080543 -0.316485 0.280314 0.128712 0.1911 -0.220352 0.035973 -0.027584 0.184256 0.023497 -0.003967 -0.244795 -0.265391 -0.264967 -0.22835 -0.092241 -0.104569 0.099545 0.230423 0.206556 0.286654 0.274167 -0.170303 0.06424 0.590906 -0.431506 0.492082 0.147149 0.065263 -0.270428 0.173042 -0.206994 0.723154 0.091378 -0.282158 0.352125 -0.05812 0.23021
murder -0.39098 -0.133652 -0.243135 -0.849681 0.571787 0.528962 0.213323 -0.540437 0.278234 0.572701 0.210876 -0.622812 0.488045 0.183414 -0.25517 0.729467 0.278888 -0.039358 0.589296 -0.837656 -0.025658 -0.26697 0.247733 0.487207 0.257149 0.719438 -0.144318 0.065826 -0.295863 -0.092108 -0.1179 0.09291 -0.281566 -0.22626 -0.070192 0.123822 0.236577 0.062308 0.262284 -0.082005 -0.268534 0.095424 0.507066 -0.088936 0.291332 0.354375 0.354396 0.46801 -0.360439 -0.259165 0.027617 0.361309 0.615981 0.09127 -0.16847 -0.207339 -0.098061 -0.216015 -0.484942 -0.047067 0.197705 -0.137378 0.0233 -0.308464 0.218424 0.225786 0.094569 -7.23E-4 -0.515945 0.594225 -0.323129 0.503792 -0.148451 0.562782 0.002234 -0.2116 0.450587 0.1262 -0.154608 0.152609 0.407156 0.239362 0.290101 -0.502726 -0.499844 -0.391248 -0.036914 -0.355788 0.462554 0.312627 0.225029 -0.106474 -0.077121 0.512883 -0.028421 -0.196839 0.09974 0.47714 -0.127129 0.032864
journey -0.223966 -0.055683 0.001554 -0.297688 0.581215 0.165582 -0.156212 -0.655097 -0.019235 0.321437 0.08093 0.259894 -0.30265 0.319264 -0.019729 -0.309579 0.510509 0.143215 0.342806 -0.475233 -0.387084 0.170194 0.41428 -0.202968 0.263486 0.268448 0.035157 -0.131503 -0.15057 -0.167632 0.254172 0.210361 0.196394 0.061913 0.179038 -0.101199 0.080412 -0.203417 -0.299991 -0.238143 0.138734 0.349358 1.008731 0.065503 0.005656 0.380215 0.407685 -0.31321 -0.11621 0.153884 0.609561 0.06415 0.108281 -0.260544 -0.040099 0.13448 -0.489836 -0.392295 -0.09447 -0.039984 0.276368 -0.113329 -0.095626 -0.418309 0.590556 0.46083 0.545054 -0.337626 -0.043673 0.627663 0.563047 -0.2407 -0.042559 -0.034227 0.337637 0.329388 -0.260537 0.204426 -0.157503 -0.097183 0.316452 0.328412 -0.24284 -0.149084 0.17205 0.238664 0.058449 -0.530009 0.399459 0.19258 -0.457946 0.435589 0.324144 0.200411 -0.061025 -0.155678 -0.76266 -0.002492 -0.013957 -0.091215
minister 0.122489 0.324221 -0.042911 -0.565678 0.265801 -0.041272 0.142799 -0.209059 0.387246 0.805432 0.575393 -0.046095 0.535597 0.247352 0.294878 -0.128178 -0.110302 0.106207 0.583552 0.416047 -0.152966 0.006648 -0.054608 0.076154 0.195813 0.373995 -0.478401 -0.095169 0.514118 -0.054967 0.154725 -0.256369 -0.824218 0.341473 -0.122858 0.217232 -0.113117 0.528623 0.098068 -0.054968 0.356346 0.236409 -0.028512 -0.015302 -0.157247 -0.032075 -0.356323 0.06034 -0.717166 -0.027364 -0.110275 0.489946 0.098264 0.275011 0.272533 -0.105944 0.13532 -0.063081 0.288578 -0.216262 0.508019 0.378799 -0.127631 -0.465664 -0.003588 -0.047898 0.137257 0.270958 -0.04527 0.158926 -0.013434 0.538308 0.148085 0.394143 -0.140576 -0.103112 -0.36474 0.471345 -0.043691 -0.137202 0.444004 0.704352 -0.196174 -0.290662 -0.11992 0.16141 0.392685 -0.094484 0.448447 0.190168 0.169064 0.182005 -0.48373 0.069732 0.437757 -0.27238 -0.264701 -0.017686 0.0014 0.540922
planet -0.29609 0.089954 0.083403 -0.506963 0.481568 -0.443682 0.083132 -0.721037 0.156893 -0.188677 0.9557 0.447712 0.0014 0.820739 0.243186 0.112696 0.114337 -0.0373 0.12018 -0.455696 -0.160761 -0.063945 -0.122602 0.607039 0.411961 -0.100444 0.125721 0.178922 0.088606 -0.174813 0.818653 -0.113087 -0.117408 0.035802 -0.071698 -0.18483 -0.152842 -0.508622 0.052283 -0.599515 -0.403616 0.577673 -0.627681 -0.051011 -0.157693 0.554566 -0.183772 0.069845 0.573376 0.316988 0.2819 -0.568172 0.401205 0.442209 0.142708 -0.079199 0.10621 -0.53091 0.257229 -0.120031 -0.174972 -0.474792 -0.265262 0.187389 0.228069 0.065438 0.490041 -0.448317 0.154905 0.904867 0.030021 -0.174288 0.009689 0.097441 -0.232966 0.245 -0.119544 -0.278753 -0.269954 -0.074958 0.054286 0.308967 -0.270339 0.120254 0.352857 0.229569 0.119805 -0.419462 0.366695 -0.049711 0.306518 0.262614 0.209046 -0.229662 0.411028 -0.146938 -0.772244 0.52407 0.333496 0.121815
article 0.375122 -0.104505 -0.11825 -0.725788 0.108884 0.079083 -0.150047 -0.314969 0.063062 0.665945 -0.115752 0.090024 -0.068994 0.102793 -0.397657 0.304814 -0.213377 -0.411615 0.320782 -0.66169 -0.730414 -0.043323 0.803998 0.35365 0.297795 0.560346 0.070036 -0.287138 -0.375647 -0.051378 0.224386 -0.134632 -0.477344 0.554485 -0.166178 0.146656 -0.219619 0.003309 -0.139449 0.009583 0.182872 -0.127677 0.08739 -0.586884 -0.357139 0.360573 -0.196018 0.433213 -0.128297 0.053162 0.502133 0.576286 -0.157761 -0.204374 0.557488 -0.490089 -0.397221 -0.734921 -0.25712 -0.324032 0.012585 -1.032261 0.074522 0.818283 0.299361 -0.110682 0.440191 0.173292 0.771345 0.484861 -0.262239 0.089731 -0.069984 -0.586355 -0.072846 0.277544 0.650095 0.267287 -0.154259 0.357653 -0.226755 0.084492 0.492784 -0.032311 0.204992 0.497727 0.217461 0.109262 0.541695 -0.370693 -0.208111 0.181665 -0.18327 0.449914 0.620337 -0.146706 0.520981 0.416987 -0.298148 -0.430395
anxiety 0.639587 0.055812 -0.44946 -0.742051 -0.677995 0.330185 0.127832 -0.007963 0.152758 0.103277 0.00261 0.106069 -0.086676 -0.301322 0.152418 0.556589 0.608111 0.197958 0.228637 0.130549 -0.0557 0.113576 0.195265 0.13068 -0.543885 0.242917 -0.253587 -0.115367 0.474987 0.078298 0.169491 0.385139 0.007429 -0.387904 0.68869 -0.139932 0.774684 -0.384051 0.07964 -0.780596 0.217007 0.409785 -0.507533 0.276542 0.210306 0.092806 -0.127664 -0.176887 -0.138591 -0.058793 0.073139 -0.275256 0.231888 -0.306421 -0.027512 -0.297331 0.137509 -0.525519 -0.09153 -0.59049 -0.139603 -0.260659 -0.011488 -0.149819 0.364568 0.095059 -0.343747 0.076514 0.631756 0.127517 0.61984 0.086581 -0.060806 0.013269 0.283444 -0.655607 -0.254176 -0.096387 -0.316361 0.501019 0.258403 0.29139 -0.75281 -0.235157 -0.204739 0.026363 0.261865 -0.282762 0.642574 -0.001486 -0.504309 0.378064 0.037055 3.07E-4 0.117956 -0.321334 0.229089 0.413079 -0.451434 -0.174051
month -0.072574 -0.413609 0.03977 -0.288345 -0.182126 0.189844 -0.30332 -0.292701 -0.041017 0.631129 0.496774 0.067106 0.062699 0.028126 0.031838 0.360042 0.122686 0.117732 0.340695 -0.306984 0.007874 0.097062 -0.126485 -0.065685 -0.189409 -0.046771 0.096819 -0.050957 0.247566 0.083461 0.031471 0.05746 -0.249228 0.282674 -0.006277 -0.282978 -0.176216 -0.179637 0.061405 -0.143891 -0.121748 0.076937 0.164738 -0.132324 -0.242231 0.007076 -0.013248 -0.196132 -0.330542 -0.306837 0.013044 0.320253 -0.039671 0.355414 -0.024523 0.009987 0.179942 -0.088015 -0.202924 0.153446 0.254505 -0.015544 -0.175217 -0.019261 0.071669 0.1114 0.271769 0.551437 -0.075294 0.209139 -0.021059 0.0054 0.369303 -0.123526 -0.275585 -0.011608 -0.057966 0.301142 -0.396183 0.112812 -0.096128 0.198974 -6.01E-4 -0.378886 0.014324 0.056777 0.446275 -0.21334 -0.005543 -0.206169 -0.200931 0.083528 0.057047 0.057655 0.092452 -0.130992 -0.091307 -0.092964 -0.392496 0.342324
carnivore -0.22924 -0.060688 -0.065008 -0.327517 0.217292 -0.258873 0.095748 0.107909 0.332945 0.174985 -0.0501 0.182826 -0.170585 0.014408 -0.050689 0.153545 0.099311 -0.003953 0.278017 -0.054692 0.014132 0.102764 0.00993 -0.039731 0.161056 -0.065934 -0.063193 -0.231586 0.24425 0.169779 0.109413 -0.248758 -0.246483 -0.055518 0.171081 -0.281631 0.158459 -0.093353 0.020227 -0.404303 -0.017995 0.163847 -0.200922 -0.098197 -0.081534 0.491561 0.043599 0.292037 -0.2354 0.216211 -0.004632 -0.104227 0.268486 -0.010965 -0.108069 -0.161516 0.037489 -0.086664 0.045894 -0.117636 0.038561 -0.137819 0.097798 -0.099284 0.145509 0.015317 0.115472 -0.22797 0.138967 0.316221 -0.081838 -0.060342 0.006811 0.130699 -0.019848 -0.013932 -0.281967 0.007334 -0.11995 -0.049535 0.108561 0.186006 -0.169425 0.046131 -0.285283 0.157903 0.12734 0.145046 0.384883 -0.270329 -0.077108 0.095155 0.07987 0.039055 0.1637 -0.115763 -0.269089 0.342725 -0.024061 0.204485
party 0.266892 -0.386235 0.239013 -0.656741 0.149505 -0.283576 -0.040934 -0.230687 -0.086046 0.186926 0.268414 -0.011346 0.116031 0.527637 0.0654 0.004027 -0.089018 0.017956 0.684079 -0.067311 -0.012455 -0.100424 0.060282 -0.112667 -0.123411 0.047392 -0.268677 -0.176622 0.51437 -0.089239 -0.047428 -0.06686 -0.254056 0.068571 -0.225148 -0.004563 0.028876 -0.11894 -0.269998 -0.268168 -0.181369 -0.054165 0.143826 -0.182959 -0.108244 0.046173 -0.468802 0.305048 -0.489998 0.221075 0.055338 0.570101 0.439534 -0.185915 -0.031147 0.065114 0.440778 -0.094252 -0.035214 0.161809 0.429954 0.108119 -0.226524 -0.388455 0.231317 0.053627 -0.082577 0.491087 -0.062155 0.135579 0.125967 0.552881 0.193431 0.111749 -0.132549 -0.062297 -0.369725 0.227154 0.271129 -0.083131 0.379222 0.174801 -0.071751 -0.175461 -0.181217 0.194128 0.026053 0.175525 0.323918 0.099003 -0.161086 0.005459 -0.368016 -0.029492 0.673137 0.011451 -0.070468 0.358062 0.048496 0.667496
production 0.140693 0.291003 -0.427902 0.327933 -0.175819 0.378189 -0.029253 -0.476485 0.231918 0.029583 0.117389 -0.052337 -0.572128 0.112448 0.101412 -9.95E-4 0.393126 0.286966 0.340235 0.044961 -0.186324 -0.499817 -0.439057 0.044425 -0.1546 0.040236 0.123864 -0.327906 -0.157204 0.36382 -0.205057 -0.36158 -0.022473 0.581204 0.312269 -0.124599 0.456697 0.021469 0.414731 -0.333833 -0.511242 0.38608 -0.007674 -0.462481 -0.006939 0.096064 0.02834 -0.118863 -0.336367 -0.634247 0.269628 -0.203101 0.077761 0.171359 0.16276 -0.391148 0.229173 -0.287868 0.053883 -0.137762 0.241835 0.162986 0.20248 0.164471 0.047998 -0.109768 0.628717 -0.099116 -0.003131 0.521574 0.107896 -0.28392 -0.107364 -0.08272 -0.18621 0.009846 -0.04252 0.499122 -0.011889 0.362722 0.121585 0.123303 -0.458432 0.178339 0.246065 -0.273321 0.717782 0.261459 0.090457 -0.025737 -0.232098 -0.054399 -0.262647 0.072856 0.230816 -0.267931 -0.24822 0.090281 -0.189249 0.338062
importance -0.332025 -0.501248 0.372293 -0.388664 -0.185558 -0.013161 0.127112 -0.169906 0.38384 0.137319 -0.276144 0.25391 0.102452 -0.294341 0.293402 0.166055 0.517461 -0.023789 0.125461 0.10983 -0.412062 -0.368326 0.163955 0.030248 0.146411 0.03779 0.30397 -0.121481 0.430391 -0.225084 0.103997 -0.074485 -0.571085 0.53976 0.422049 0.287197 0.158458 -0.009979 -0.38618 -0.309862 0.168378 0.14638 -0.4042 -0.299893 -0.28173 -0.078524 0.032076 0.266873 -0.006455 0.419179 0.287519 -0.422517 0.008011 -0.270762 -0.070798 0.109675 0.051362 0.058374 0.352354 -0.210359 0.076151 -0.159725 0.312431 -0.318897 0.413108 -0.042932 0.434815 -0.234506 0.165548 0.341178 -0.121099 0.570101 0.21629 -0.387344 0.088648 -0.262702 -0.395169 0.217244 -0.289776 -0.084631 0.28338 0.198707 0.062555 -0.212484 -0.010201 0.167406 0.553958 -0.500348 0.46761 -0.005609 -0.390314 0.336599 -0.099226 0.301682 0.401881 -0.654508 -0.20323 0.52148 -0.07728 0.007874
inmate -0.28079 0.256501 -0.316351 -0.634182 0.16651 0.176634 -0.628698 -0.566335 0.436049 0.983949 0.141476 -0.950345 0.125804 -0.435552 0.604029 0.608366 -0.663924 -0.210124 0.950154 -0.775119 -0.251542 0.241813 -0.28322 0.185812 0.435057 0.606349 -0.401721 0.170175 0.44719 0.284962 -0.113685 0.20392 -0.325766 -0.28123 0.086934 -0.022102 0.341878 0.509187 0.569013 -0.172429 -0.215094 -0.086044 0.327748 -0.208978 -0.115108 0.050092 0.292769 0.433547 -0.098691 -0.760148 -0.408862 -0.023819 0.927889 0.086463 0.281454 -0.197658 -0.063725 0.06494 -0.427247 0.445131 0.383671 0.541489 -0.002933 0.108326 -0.051245 0.04723 -0.1431 -0.118136 -0.655864 0.434109 0.139019 -0.175173 0.077576 0.145441 -0.244414 -0.494156 -0.004967 -0.464334 0.128748 0.610239 0.31849 0.34059 0.221456 -0.130082 0.114144 -0.333486 0.323902 0.5166 0.213965 -0.330327 -0.339726 -0.194125 0.755431 0.006773 -0.236635 0.165581 -0.215022 0.851498 -0.207265 -0.523466
Harvard 0.424188 -0.219574 -0.609896 -0.350666 0.439926 -0.235574 0.574899 0.313773 0.03337 0.601799 0.449826 -0.357621 -0.409162 0.615409 0.618108 0.449969 0.207726 -0.064731 -0.659858 -0.118219 -0.541396 -0.12193 -0.152001 0.362975 0.448949 0.31577 0.582312 0.338247 0.290293 0.2283 -0.046694 -0.156679 0.341659 0.114772 -0.563332 0.335667 -0.357926 0.670768 -0.070865 0.02109 0.385647 -0.502554 -0.154232 0.362176 -0.69936 -0.050127 0.065168 -0.006462 0.095735 0.026627 0.134209 0.29099 0.745822 0.394017 -0.022912 -0.590756 0.135646 0.100651 -0.259567 -0.413045 0.169385 0.067897 0.581615 0.496214 -0.109202 0.153957 0.110453 -0.317567 0.624019 0.603445 -0.471557 -0.147072 -0.232923 -0.407543 0.020501 -0.029794 -0.402419 -0.070457 -0.634272 0.049099 -0.150529 0.400753 -0.659206 -0.640289 -0.507513 0.373623 0.519103 0.365288 0.548704 -0.02568 -0.303179 0.49003 -0.463392 0.218109 0.270207 -0.595537 0.034665 0.587798 -0.244996 -0.445429
psychology -0.228452 0.164709 -0.325008 -0.614131 0.224146 0.194376 0.485722 0.472896 0.566869 0.51722 -0.012123 -0.430903 -0.460638 -0.022397 0.43206 0.610522 0.766987 0.161495 0.039841 -0.350816 -0.645498 -0.479683 0.361456 0.533163 0.357731 -0.007327 0.377648 0.136547 0.217092 -0.118557 0.080235 0.184368 0.387791 -0.518813 0.164306 0.064216 0.422553 -0.180699 -0.21053 -0.024059 0.179799 0.166365 -0.269082 0.204789 -0.404516 0.362069 0.258759 0.429467 -0.014403 0.105574 0.091034 -0.05194 0.621941 0.059397 -0.041167 0.285102 0.301092 0.157266 -0.235674 -0.322606 0.12807 -0.239856 0.623803 -0.283224 -0.013538 0.065692 0.380218 -1.039961 0.552377 0.594991 -0.224869 0.16726 0.135521 0.396038 -0.196739 -0.101053 -0.399871 -0.231178 -0.160198 0.424158 -0.267008 0.396823 -0.440177 -0.786983 -0.546616 0.631493 0.264758 0.176254 0.681105 0.391313 -0.36079 -0.013805 -0.4858 -0.241073 -0.046396 -0.849592 0.247002 0.594608 0.154214 -1.001355
medal -0.139164 -1.006812 -0.144337 0.220351 0.328439 -0.124217 0.422151 -0.115931 1.186995 -0.123167 -0.676116 -0.023887 0.474857 0.800464 0.368928 0.64808 0.265202 0.368661 -0.001704 -0.431761 -0.327893 -0.332571 0.68985 0.1347 0.455089 -0.377661 -0.738564 -0.062247 0.298571 0.112863 0.407721 0.49293 -0.568468 0.104773 -0.226542 -0.097326 0.165767 0.096923 -0.535996 -0.095706 0.346894 0.923251 0.529815 -0.08278 -0.432895 0.198615 0.120269 -0.0526 -0.46528 -0.533271 0.036579 -0.043138 0.292741 0.201333 -0.566277 -0.777847 0.142971 -1.111386 -0.382191 0.052548 -0.130451 -0.190473 -0.275257 0.011705 -0.111419 -0.904144 -0.112084 -0.036117 -0.965539 0.849358 0.050006 0.468437 0.31047 -0.693962 0.406533 0.480725 -0.618351 -0.635118 0.157248 -0.17408 -0.005896 -0.027989 0.285415 -0.895704 -0.263126 0.32826 -0.474772 0.06551 0.980658 -0.266301 -0.391762 1.04047 0.528896 -0.380268 0.209376 -0.450097 -0.215425 -0.133045 -0.315331 0.124233
company 0.037825 -0.056448 0.090894 0.119211 -0.03417 0.42474 -0.30751 -0.198892 0.081338 0.169673 0.325229 -0.081628 -0.24344 -0.085793 0.201007 0.103811 0.260688 0.237602 0.13432 -0.093236 -0.507197 0.038788 -0.21597 0.400699 0.050867 -0.0067 0.092787 -0.330317 -0.04591 0.135438 -0.121907 0.229103 -0.294743 0.394372 -0.090448 -0.398604 0.241908 -0.207346 0.208251 -0.123885 -0.307389 0.076889 0.038947 -0.229142 0.18391 -0.202703 -0.103157 -0.167939 -0.597615 0.04617 0.244447 0.241904 0.280963 0.263184 -0.186563 -0.354084 0.108081 0.02919 0.164196 0.156495 -0.073431 0.292483 -0.00726 -0.236118 0.094561 0.175361 0.263298 0.010562 0.411937 0.374888 -0.348432 -0.130186 -0.078526 -0.488361 -0.026359 -0.023706 0.058573 0.298747 -0.031206 0.085225 0.105745 0.168903 -0.07112 -0.096402 0.201024 0.007546 0.712443 0.296736 0.185366 0.127933 -0.242738 -0.06177 0.155135 -0.172552 0.189551 -0.247943 0.044056 0.274005 0.03224 0.384598
live -0.347427 -0.200012 0.463429 -0.425847 0.26699 -0.231582 -0.300645 -0.178602 -0.150975 0.465082 0.190925 0.093565 -0.22706 0.193329 0.032399 0.054835 0.337182 -0.161585 0.281236 0.312016 -0.3122 -0.00288 -0.109912 0.304637 -0.312169 0.067184 -0.165567 -0.16884 -0.417314 -0.14769 -0.040211 -0.093541 -0.036737 0.041457 0.161009 -0.332775 -0.001436 0.025433 0.073586 -0.383745 -0.193309 0.102835 0.387142 -0.26944 -0.159035 0.172102 -0.269742 0.363718 -0.098162 -0.207584 0.462239 -0.359848 0.147889 -0.168274 0.03081 0.184646 0.033637 -0.499757 0.027937 0.02473 0.220111 0.101974 -0.182164 0.006529 -0.09502 -0.007826 0.117869 -0.142057 0.186031 0.559318 -0.085464 -0.043648 0.365398 0.181264 0.194729 -0.073192 -0.135488 -0.119497 -0.522614 -0.141714 -0.079049 0.004596 -0.227185 0.134221 -0.312422 0.043439 -0.009237 0.14934 0.28628 0.019021 0.101729 0.289471 0.242459 0.023458 -0.101468 -0.161317 -0.311903 0.49446 -0.355191 0.212858
holy 0.154108 -0.139141 0.208378 -0.582587 0.121962 -0.001155 -0.43994 0.367873 0.282812 1.254614 0.224281 0.575287 -0.053665 -0.371767 0.422578 -0.71977 0.464796 0.325042 -0.029398 -0.407861 -0.409193 0.116061 0.228662 -0.044492 0.309249 -0.900313 -0.543649 0.106452 -0.662023 0.260181 -0.062693 -0.525523 -0.133848 -0.096663 0.011411 -0.449985 -0.266414 0.265255 0.019666 -0.767345 -0.052349 0.235425 -0.191505 -0.059887 -0.117341 1.159186 0.139308 -0.045425 0.384911 -0.288991 -0.574798 0.617604 0.01776 0.359588 -0.228614 -0.366982 0.493156 0.087442 -0.526846 0.373034 0.762165 -0.392546 -0.298794 -0.183308 0.460457 0.251931 0.23537 0.002493 -0.646177 0.893732 -0.33909 0.273193 0.191051 0.26746 0.167132 -0.132834 -0.172861 0.449793 -0.040155 0.105051 0.582363 -0.421374 -0.052673 0.322091 -0.377388 -0.064263 0.009446 -0.287661 1.219065 -0.479312 -0.55484 0.918599 0.207765 0.390731 0.067321 -0.274224 -0.196397 0.795546 0.108245 -0.544669
ticket 0.212351 -0.222686 0.225732 -0.512984 -0.4285 -0.400838 0.049643 -0.178479 0.174481 0.285246 0.250241 -0.243199 -0.430752 0.358439 -0.020838 0.589086 0.202114 0.049472 0.070178 -0.139173 -0.335058 0.179796 0.666383 -0.241984 0.121155 -0.727605 -0.282367 -0.05476 0.019327 0.410468 0.073452 -0.139518 -0.154759 0.236188 -0.265306 -0.062221 0.117112 0.099381 0.189969 -0.38179 -0.489582 -0.277107 0.609753 -0.030468 -0.079788 -0.659371 -0.301323 -0.069364 -0.272316 0.047263 0.27278 -0.116526 0.006296 -0.138555 -0.497914 -0.345274 -0.072656 -0.459867 -0.428139 0.160022 0.311789 -0.143927 -0.50129 -0.579 0.474153 0.069097 0.188839 0.095941 0.157939 0.614412 0.360671 -0.097533 0.423165 0.367463 -0.494995 0.400004 -0.597414 0.076875 -0.413539 0.042477 0.091069 0.132459 0.184477 -0.170017 0.421022 0.279441 0.216316 0.729294 -0.123058 0.386913 -0.16004 -0.0201 0.402017 -0.330308 0.46064 -0.11828 -0.139058 0.220668 -0.117864 0.083926
victory -0.060917 -0.339309 0.473801 -0.352629 0.119016 0.259151 0.195117 -0.092517 -0.110841 0.216012 0.041149 -0.345548 0.161599 0.704121 0.135753 0.419102 0.240188 -0.225269 0.135046 -0.277231 -0.146992 -0.354625 -0.042844 0.041719 -0.219552 -0.332406 0.010374 -0.036018 0.399377 0.033965 9.02E-4 0.193604 -0.341992 0.625452 -0.301947 0.188578 -0.212256 -0.186176 -0.495288 -0.401093 0.455483 0.2757 -0.074638 -0.126417 -0.251173 0.174668 -0.420823 0.11685 -0.601011 -0.496288 0.278531 0.27373 0.368494 0.045677 -0.393907 -0.418431 0.13852 0.145403 -0.504465 -0.272363 0.301095 0.046573 0.165608 -0.41499 -0.018092 0.37995 0.283341 0.344524 0.084334 0.400303 0.483045 0.605485 0.470941 -0.036944 0.044108 0.494913 -0.474361 -0.529821 0.190173 -0.143997 0.382609 0.013884 0.28933 -0.564015 -0.015816 0.377586 0.052089 -0.316782 0.237854 -0.320968 -0.391469 0.472545 -0.067305 -0.005382 0.134844 0.35094 -0.251786 -0.061565 -0.114726 0.245773
football 0.017576 0.251208 0.333601 -0.205476 -0.311159 -0.166123 0.240417 -0.011901 0.30567 0.050234 0.587208 0.415381 -0.332834 0.244133 0.471246 0.492053 0.2475 -0.352367 0.390893 0.210353 -0.354941 -0.299447 0.038092 0.323901 -0.015613 0.27398 0.068474 -0.392719 0.26722 0.161753 0.0475 0.16044 -0.081957 -0.112806 -0.24084 -0.085462 -0.068742 0.111335 -0.381927 -0.09254 -0.195681 0.136962 0.238533 -0.631361 0.123028 -0.115944 0.155032 0.010324 0.413887 -0.322854 -0.169379 -0.149692 0.658649 0.020934 -0.273272 -0.361188 -0.271586 0.028167 -0.581599 -0.155343 0.049851 0.110684 -0.148678 0.093182 0.219847 0.103123 -0.019358 -0.089777 -0.026457 0.947567 0.081306 0.068873 0.459116 0.037717 -0.218063 0.020876 -0.1514 -0.008213 0.106619 -0.393406 0.097268 0.1803 0.287776 -0.397366 -0.523322 0.774369 -0.019116 -0.039656 0.878882 -0.141226 0.316951 0.327796 -0.065778 -3.16E-4 0.096748 0.243778 0.185849 0.355984 -0.111613 0.235514
stroke 0.222984 -0.22247 -0.120405 -0.921291 -0.351142 -0.075088 -0.202408 0.009608 0.384007 -0.088672 0.102951 -0.203636 0.075595 0.281822 0.001199 0.246212 -0.055094 0.336201 0.276581 -0.231926 -0.231533 -0.002196 -0.115577 0.034322 -1.096705 0.150684 -0.288176 0.152615 0.239428 -0.267675 0.401283 0.505813 -0.045294 -0.008119 0.048304 0.309862 0.075286 -0.543596 0.296366 -0.709624 0.67176 0.700688 -0.046794 0.001291 0.54074 -0.012799 0.673356 -0.145406 -0.719211 -0.492034 0.302414 -0.068017 0.483306 -0.140001 -0.199407 -0.793162 0.231119 0.488939 -0.64849 0.405829 -0.172639 -0.084252 0.06592 -0.023998 -0.44531 0.563846 -0.17113 -0.382184 -0.100444 0.208181 -0.534447 0.480078 -0.104511 0.423954 0.050319 -0.411119 -0.751216 -0.148906 -0.637864 0.169701 -0.10572 0.171035 -0.584929 -0.212544 -0.052037 -0.130495 -0.02445 -0.22812 0.386854 -0.019523 -0.641076 0.359688 -0.248697 0.016948 -0.07846 -0.422661 -0.498977 0.047973 0.093003 0.06889
environment -0.343877 0.451775 0.034474 -0.39478 0.102171 -0.264128 0.11582 -0.63577 0.353478 0.149233 0.015403 0.427145 -0.192704 -3.3E-5 0.178569 0.100323 0.338299 -0.078904 0.501105 0.045091 -0.377557 -0.102802 -0.049571 0.193955 0.226848 -0.383292 0.088789 -0.360506 0.289002 -0.058037 0.230483 -0.039464 -0.457497 0.14034 0.152067 -0.31155 0.119276 -0.17475 -0.342455 -0.281643 -0.239421 0.375952 -0.334667 -0.258472 0.068211 0.393657 -0.32329 0.168508 0.003717 -0.239835 0.035567 0.010892 0.014964 0.203693 0.580242 0.256234 -0.323636 -0.020709 0.296695 -0.158003 -0.185854 0.333268 -0.045221 -0.542088 -0.04326 -0.466963 0.491927 0.041091 0.549623 0.133626 -0.169791 0.315179 0.171722 -0.195215 -0.158207 0.181294 0.028352 0.117783 -0.20015 0.124224 0.175671 0.11406 -0.310803 0.154424 0.17938 0.151982 0.362759 -0.147369 0.304657 0.046809 -0.111948 -0.137868 0.130438 -0.188888 0.168475 -0.507162 -0.222664 0.720203 -0.194982 0.257768
coffee 0.153631 -0.538247 -0.669442 0.296629 0.167559 -0.669081 0.316429 -0.00621 0.129521 0.272807 0.388829 -0.236031 -0.359107 0.094814 0.120303 0.067683 0.496569 0.242084 -0.016096 -0.203926 -0.367791 -0.319843 0.146464 0.321415 -0.457826 -0.004998 -0.236648 -0.395349 0.500681 0.383191 0.186474 -0.251401 -0.089106 -0.291244 0.346404 -0.046532 -0.125083 0.200278 0.056303 -0.177132 -0.443258 0.494509 0.554272 -0.47328 0.24108 0.202201 0.138448 0.362733 -0.369923 0.432357 -0.224867 0.305368 0.461099 -0.542733 -0.270477 -0.134907 -0.266219 0.031253 -0.227657 0.160256 0.204604 -0.062677 0.214523 -0.089863 0.030228 0.279267 0.131074 -0.091448 0.102565 0.550565 -0.1925 -0.409054 -0.030629 0.20038 0.372251 -0.688105 -0.394765 0.044111 -0.529386 0.248893 0.131164 0.651582 0.075018 0.542848 -0.269965 -0.058841 0.443174 0.383944 0.331912 -0.980555 -0.216555 0.065846 0.343849 -0.14454 0.156616 -0.252483 0.156518 0.596088 0.102935 0.546493
baby 0.146025 -0.089204 0.335641 -0.334751 0.13617 -0.035112 -0.214476 -0.508862 0.397661 -0.210928 0.043261 0.147508 0.225242 0.305737 0.293702 0.207702 0.083941 0.110743 0.352846 -0.074539 -0.478548 0.37887 -0.005751 0.028858 -0.253815 0.465579 -0.276948 -0.074117 0.372795 -0.053037 0.182707 -0.153053 0.0829 0.00741 0.093314 -0.241097 0.366041 0.190254 0.273647 -0.243988 -0.066599 -0.392922 -0.190351 -0.507492 0.076072 0.760252 0.212889 0.233624 -0.49605 0.263513 0.30974 -0.252717 0.718955 -0.219324 -0.151093 0.110507 0.099702 -0.511602 -0.389563 0.296721 0.33221 0.39634 0.211043 0.231466 0.005811 0.191799 0.166208 -0.041349 0.05398 -0.110528 0.032777 -0.667554 -0.066994 -0.029559 0.237536 -0.382901 -0.269682 0.131212 -0.368857 0.386291 -0.111983 0.6073 -0.007382 -0.279572 0.04789 -0.478874 -0.239919 -0.110207 0.48757 -0.143059 -0.285557 0.036032 0.291217 -0.050185 0.043282 -0.452664 -0.084458 0.214221 -0.313346 0.6328
personnel 0.114339 -0.233743 0.63881 -0.290886 -0.466546 0.117484 0.05448 -0.94313 0.095963 0.235823 0.366972 -0.227726 -0.297619 -0.845422 0.184832 -0.143265 -0.267397 -0.118899 0.386999 0.264913 -0.648451 -0.338696 -0.291153 -0.149922 0.015893 0.016192 0.23959 0.271582 -0.078079 0.362313 -0.093814 3.84E-4 -0.31733 -0.179441 -0.225508 -0.073828 0.619841 0.324434 0.225122 -0.392422 0.040783 0.592597 0.067987 0.167369 -0.333391 -0.161312 0.184048 -0.12488 -0.325055 0.060652 0.07764 0.1306 0.464925 -0.142389 0.037228 -0.493148 -0.027011 -0.51285 0.085037 0.060735 -0.224998 0.404473 0.169398 -0.491033 -0.154583 0.077676 -0.105896 0.12758 -0.040429 0.274233 -0.101454 0.055959 0.140907 -0.221917 0.124452 0.304795 -0.495964 0.166915 -0.200948 -0.03417 0.381386 0.093644 0.212094 -0.344204 0.015208 0.039396 0.495127 0.26101 0.475762 0.047637 0.043341 -0.115607 0.144186 0.451705 -0.205019 -0.042447 -0.102659 0.453427 -0.535537 0.214428
family -0.0395 -0.073982 0.403364 -0.356797 0.155446 0.298976 -0.137978 -0.220649 0.149922 0.221501 -0.126465 0.103578 0.281828 0.13764 0.185392 0.17258 0.167165 -0.086818 0.281082 0.176629 -0.225263 0.052358 -0.021124 0.4012 -0.029056 0.192339 0.155885 -0.032914 -0.096777 -0.081139 0.165367 0.176543 -0.036507 0.021889 0.012836 -0.068098 -0.015306 0.221108 -0.025471 -0.427702 -0.227857 -0.140982 0.220503 -0.077079 0.385531 0.468173 0.23759 -0.128912 -0.359326 0.014583 0.163258 0.05438 0.31897 -0.204957 -0.040793 0.285138 -0.094682 -0.175175 -0.115265 0.260658 0.193593 0.336592 -0.095981 -0.272798 0.241198 0.144674 -0.069048 0.10239 0.100271 0.316186 -0.070633 -0.076142 -0.038629 -0.123248 0.012814 -0.385108 -0.086407 0.018521 -0.346497 0.044515 0.45735 0.323937 -0.027354 -0.291297 -0.191294 0.096758 0.21491 0.090968 0.556202 -0.006354 -0.019247 0.125777 0.2211 -0.006813 0.198303 -0.210397 -0.142262 0.261237 -0.26629 0.352129
hypertension 0.525888 -0.018964 -0.525815 -1.388879 -0.466401 -0.302391 -0.008055 -0.271216 -0.16459 -0.13131 0.303597 -0.171146 0.283408 -0.022409 -0.178868 0.151228 0.112699 0.142013 0.360014 0.070922 -0.646905 -0.127149 -0.276616 0.249971 0.141599 -0.216972 -0.259035 -0.636919 0.356389 0.128351 0.55977 0.325536 0.092745 -0.389821 0.299349 -0.442469 0.363127 0.558613 0.669224 -0.850375 0.578721 0.002887 -0.059875 0.91622 0.454271 0.351172 -0.255488 0.272926 -0.284906 -0.285179 0.512196 -0.327455 0.748541 -0.224725 0.438696 -0.631136 0.234697 -0.158785 -0.094209 0.353259 -0.158552 -0.300798 0.104806 -0.17507 -0.161477 0.473762 0.242234 -0.7815 0.205828 0.664491 -0.753258 -0.027802 -0.051494 -0.153372 -0.411412 -0.659487 -0.64069 -0.068914 -0.117745 0.867479 -0.36933 0.272612 -0.476946 0.078488 0.042537 0.008134 -0.097196 0.275733 0.864605 -0.455614 -0.843559 0.525753 0.036251 -0.003453 -0.350706 -0.583556 -0.036616 0.703509 -0.487997 -0.302012
president -0.048185 0.06245 0.18681 -0.377882 -0.162489 0.015396 0.05959 -0.116208 0.143195 0.469307 0.215903 -0.09055 -0.237208 0.509347 0.128634 -0.001578 -0.012466 0.075435 0.267606 0.100466 -0.347579 0.120259 -0.202597 0.04368 -0.219944 0.405001 -0.252703 -0.210278 0.34869 -0.313819 -0.179443 -0.155649 -0.333493 0.323655 -0.137855 0.182646 -0.093392 0.040623 -0.252918 -0.083743 -0.156694 -0.021567 -0.083426 0.235442 -0.174667 -0.304865 -0.088813 -0.028885 -0.347087 0.237864 0.007817 0.267186 -0.184563 0.367756 0.023998 -0.172756 -0.008805 -0.03602 0.305599 0.134993 0.347693 0.111114 -0.032911 -0.247061 -0.172994 0.199479 0.211949 -0.046757 0.324114 0.846791 0.16573 0.647646 0.100067 -0.040055 0.02023 0.14104 -0.197219 0.070124 -0.22463 0.201735 0.18361 0.322353 0.182654 -0.506728 -0.108922 -0.064589 0.609899 0.133137 0.195208 0.134222 -0.356533 0.111899 -0.359 -0.040591 0.318983 0.109712 0.062753 0.22748 -0.380218 0.434525
atmosphere -0.289835 0.423073 -0.031588 -0.600771 -0.041238 -0.213421 0.422705 0.169635 0.397017 0.333617 0.284429 0.596538 -0.303563 0.441331 0.004147 0.172722 -0.24757 0.048657 0.401955 -0.439505 -0.321549 -0.160259 0.461739 0.453533 0.460224 -0.254187 -0.014869 -0.253434 0.068637 -0.305733 0.652595 0.070138 0.180947 -0.632185 0.351879 -0.438132 0.172347 -0.158896 0.182144 -0.358331 -0.195887 0.746502 -0.61876 -0.573942 -0.363573 0.363803 -0.400631 0.099223 0.599235 -0.122101 0.475226 0.184369 0.155502 0.024124 0.432958 0.003044 0.025585 -0.455004 0.08958 -0.19877 0.153836 0.268333 -0.48787 -0.210924 0.162801 0.195158 0.414389 0.419769 0.027832 0.708825 0.342068 0.288876 0.415034 0.136789 -0.130632 0.336183 -0.303311 0.03411 0.008093 0.082383 -0.061795 -0.012124 -0.107706 0.271329 0.138594 0.533521 0.433467 -0.414554 0.289941 -0.788064 -0.097336 -0.507822 0.23982 -0.096733 0.37942 0.151927 -0.411547 0.480284 0.090338 0.311181
practice -0.221338 -0.087278 0.461216 -0.545661 0.003345 -0.375789 -0.15517 -0.027376 0.231257 0.329525 -0.08728 -0.250431 -0.253562 -0.525465 0.117056 0.267069 0.123815 -0.478959 0.245921 0.182246 -0.598031 -0.032783 -0.200384 0.184674 0.045193 -0.222711 0.380248 -0.077456 0.338507 -0.082487 -0.362971 -0.120456 -0.233003 0.232398 0.233633 -0.363453 0.220841 -0.037586 -0.310323 0.169548 0.111681 0.222047 -0.158398 -0.127024 -0.11316 -0.094935 0.297602 0.006964 -0.233056 -0.112649 -0.655626 0.122432 0.62388 0.173445 0.081926 -0.042003 0.055531 0.162691 -0.048332 0.037281 0.340528 -0.004244 0.170556 0.197768 0.173169 0.304548 0.338993 -0.058145 0.029321 0.07901 -0.17988 0.01427 0.02194 -0.409695 -0.368967 -0.177694 -0.155597 -0.092775 0.044191 0.027797 -0.185811 0.148391 -0.292854 -0.179389 0.258382 0.434719 0.111671 -0.26117 0.355829 -0.120269 -0.305342 0.490171 -0.102447 0.093529 -0.250633 0.089774 -0.041489 0.410051 -0.187578 0.315546
movie 0.626672 0.054741 -0.197058 -0.089389 0.540779 0.328203 -0.066634 0.146638 0.152893 0.023302 -0.07592 -0.028216 -0.31207 0.611032 0.439281 0.513636 0.279528 0.131627 -0.129399 -0.053133 -0.478849 0.290479 0.352965 0.079114 0.134828 0.10646 -0.033625 0.007839 -0.33573 0.23376 -0.203231 -0.39233 0.010683 0.227204 -0.0874 -0.249802 -0.004499 -0.030124 0.383136 -0.31629 -0.650628 0.164251 0.154174 -0.392489 -0.381623 0.005888 -0.037195 -0.112541 -0.167551 -0.579923 0.113348 -0.406043 0.359018 -0.048423 0.136491 -9.84E-4 -0.100667 -0.486783 -0.427222 0.097636 0.174668 0.142377 0.071956 -0.180664 0.302418 -0.088141 0.106802 -0.723718 -0.437996 0.835154 -0.012625 -0.274554 -0.086428 0.141073 -0.075055 -0.126636 -0.310441 -0.15375 0.105594 0.109869 0.250874 0.090481 0.281067 0.226881 -0.241273 0.283935 0.269945 0.534357 0.271589 0.195836 -0.171403 -0.221281 0.013707 0.308595 0.495638 -0.07716 -0.529933 0.287749 -0.04533 0.433994
popcorn 0.205192 0.386092 -0.518713 -0.263926 -0.030594 -0.402901 0.310478 0.411058 0.495657 0.230633 0.134446 -0.437337 -0.939092 0.169091 -0.176269 0.37318 0.242136 0.214217 -0.369325 -0.378395 -0.112472 0.303857 0.169315 0.14283 -0.059609 -0.408879 -0.322952 -0.406087 0.331784 -0.100177 -0.047103 0.045011 0.010392 0.639874 0.270695 -0.192132 0.126737 0.217292 1.071275 -0.638319 -0.483664 0.411743 -0.243605 -0.331389 -0.068963 0.262618 -0.007097 -0.175475 -0.008229 0.147793 0.342872 -0.487682 0.935974 -0.5073 -0.017632 -0.209829 -0.115395 -0.30903 -0.434743 -0.333077 0.147403 0.143511 -0.112967 0.290562 -0.081454 0.277807 -0.189441 -0.491413 -0.665388 0.654891 -0.49948 -0.802054 -0.325766 0.18185 -0.346343 -0.422649 -0.323668 -0.112218 0.174085 0.538739 -0.356092 0.384261 0.19598 0.123426 -0.00523 0.019348 0.504233 0.418385 0.402781 -0.507158 -0.131843 0.025954 0.011358 -0.0544 0.576243 0.458014 -0.192491 0.433666 0.03116 0.250735
recommendation -0.477711 -0.031553 -0.263442 -0.105227 -0.330059 0.034164 -0.14626 0.051293 0.044929 0.589713 0.201094 -0.428837 -0.223113 -0.402594 0.578522 -0.0802 -0.074818 -0.292308 0.24193 -0.82085 -0.332328 0.208309 -0.135159 -0.115142 -0.088726 0.211321 0.635204 0.07262 0.471957 -0.012042 0.161596 -0.200854 -0.556337 0.673776 -0.030039 -0.417478 0.33966 -0.125287 0.386353 -0.210204 0.311532 0.606292 0.197571 0.475266 0.243801 0.153299 -0.372467 0.186084 -0.25394 0.233953 -0.586908 0.039396 -0.568665 -0.194226 0.127598 -0.589309 0.283018 -0.192954 -0.053966 0.429505 0.050642 -0.260669 0.464575 -0.472551 0.400975 0.301808 0.396279 -0.22943 0.262199 0.831218 -0.6161 0.432354 0.466581 -0.302299 0.140595 0.084259 -0.305946 0.048396 0.099586 0.399548 0.09754 0.538394 0.194097 -0.215608 0.383859 -0.29372 0.226435 0.144197 -0.36962 -0.085543 0.222172 0.051232 0.221596 0.199737 0.451375 -0.805103 0.143905 0.388716 -0.44673 0.814797
focus -0.243049 -0.167731 -0.05368 -0.423826 -0.13724 0.045617 0.237784 -0.35587 0.018195 0.143438 0.082806 0.188817 0.028061 -0.0517 0.244177 0.095212 0.457833 -0.029848 0.219066 -0.085885 -0.290108 -0.113463 -0.140845 -0.068338 0.02116 -0.085808 0.21657 0.032995 0.198118 0.2778 -0.258768 -0.007672 -0.060771 0.326588 0.389286 -0.04468 0.077614 -0.34019 -0.148639 -0.142982 -0.028325 0.1781 -0.114936 0.029073 -0.024383 0.020701 -0.273607 0.09404 -0.125413 -0.098715 -0.068651 -0.035201 0.248337 0.00918 0.26873 -0.073362 0.077848 -0.006367 0.339867 -0.261566 -0.004134 -0.02065 0.152473 -0.253328 0.426575 -0.092444 0.455079 -0.09973 0.221128 0.264696 -0.133086 0.083397 0.063916 -0.46227 0.135695 -0.06663 -0.326362 0.098946 -0.392657 -0.117899 0.119973 0.067747 -0.026297 0.070125 0.230279 -0.003709 0.306636 -0.27201 0.605956 0.16381 -0.426557 0.160916 -0.078206 0.152565 0.378513 -0.135531 0.04859 0.175641 -0.396395 0.249717
attempt -0.017263 -0.16341 0.163401 -0.785584 0.292536 0.148477 -0.015249 -0.071668 -0.137001 0.338586 0.11991 -0.005936 0.388285 -0.010734 -0.004102 0.225234 0.054202 0.130716 0.235966 -0.540392 -0.270148 -0.188059 0.138252 -0.066471 0.266769 0.063536 -0.087343 0.002473 -0.086948 -0.208968 -0.052513 -0.369616 -0.177222 0.237223 -0.157453 0.206757 0.274712 -0.518969 -0.24183 -0.075295 -0.333445 0.343775 -0.189551 0.033446 0.223577 0.299717 -0.046194 -0.207557 -0.22301 -0.220998 0.072827 0.661665 0.213499 0.058115 -0.418762 -0.089092 0.454126 0.047821 -0.084295 -0.103966 -0.181034 0.149489 -0.089747 -0.169659 0.357665 -0.035036 0.395495 0.110358 -0.038528 0.005575 0.368144 0.158443 0.070977 0.07213 0.099899 0.127603 -0.473386 0.063936 0.108716 -0.392562 -0.158654 0.268135 -0.367099 -0.088859 -0.43072 0.103286 0.459258 0.22507 0.184782 0.202586 0.150465 0.34072 0.029373 0.128387 -0.137793 0.135442 -0.321419 -0.113836 -0.386622 0.53791
approach -0.145096 -0.03771 -0.115994 -0.412733 -0.009653 0.166911 0.142076 -0.143251 0.104712 0.41038 -0.125742 0.23047 -0.120554 -0.20322 0.307168 0.067842 0.119145 -0.092629 0.239429 -0.394504 -0.380673 0.236563 -0.07955 -0.149368 0.053498 -0.123824 0.272643 0.168971 0.397831 -0.109594 -0.048368 -0.145312 -0.247868 0.0255 0.272589 -0.118161 0.299764 -0.641263 0.010915 -0.062146 -0.260986 0.187572 -0.339337 -0.084409 0.161388 -0.029676 -0.125389 -0.004287 -0.31492 -0.240284 0.047782 0.259627 0.127478 -0.193204 0.319084 -0.304259 -0.131124 0.573718 0.263508 -0.23202 0.143006 -0.077868 0.385482 -0.071609 0.230381 -0.043464 0.378719 -0.087838 0.43752 0.086455 -0.267856 0.568968 0.098774 -0.130924 -0.041804 0.127178 -0.521544 0.005442 -0.190018 -0.007172 -0.02001 0.090584 -0.167148 -0.049668 0.15328 0.187972 0.361984 -0.089624 0.359409 -0.219686 -0.06757 0.020168 0.017291 0.209232 0.305166 -0.11434 -0.240556 0.266004 -0.159908 0.271682
